{"learner":{"attributes":{"scikit_learn":"{\"_estimator_type\": \"classifier\"}"},"feature_names":["entry_rsi","entry_macd","entry_macd_signal","entry_macd_hist","entry_atr","entry_supertrend","entry_supertrend_dir","entry_ma20","entry_ma60","entry_bb_upper","entry_bb_lower","entry_bb_middle","entry_hour","entry_dayofweek","entry_month","regime"],"feature_types":["float","float","float","float","float","float","float","float","float","float","float","float","float","float","float","float"],"gradient_booster":{"model":{"cats":{"enc":[],"feature_segments":[],"sorted_idx":[]},"gbtree_model_param":{"num_parallel_tree":"1","num_trees":"50"},"iteration_indptr":[0,1,2,3,4,5,6,7,8,9,10,11,12,13,14,15,16,17,18,19,20,21,22,23,24,25,26,27,28,29,30,31,32,33,34,35,36,37,38,39,40,41,42,43,44,45,46,47,48,49,50],"tree_info":[0,0,0,0,0,0,0,0,0,0,0,0,0,0,0,0,0,0,0,0,0,0,0,0,0,0,0,0,0,0,0,0,0,0,0,0,0,0,0,0,0,0,0,0,0,0,0,0,0,0],"trees":[{"base_weights":[-1.4557528E-1,4.7362383E-2,-3.9158422E-1,-7.319945E-1,2.8108802E-1,9.0205995E-4,-8.889777E-1,4.0326085E-2,-2.0669295E-1,-5.133764E-2,-0E0,-3.3653848E-2,1.3382352E-2],"categories":[],"categories_nodes":[],"categories_segments":[],"categories_sizes":[],"default_left":[0,0,0,0,0,0,0,0,0,0,0,0,0],"id":0,"left_children":[1,-1,3,5,7,-1,9,-1,11,-1,-1,-1,-1],"loss_changes":[6.6639E0,0E0,5.3568487E0,2.2024512E0,2.6523082E0,0E0,1.5647316E0,0E0,1.709765E0,0E0,0E0,0E0,0E0],"parents":[2147483647,0,0,2,2,3,3,4,4,6,6,8,8],"right_children":[2,-1,4,6,8,-1,10,-1,12,-1,-1,-1,-1],"split_conditions":[4.4444443E1,4.7362383E-2,3.8214108E2,3.39695E2,3.1303155E-1,9.0205995E-4,9.866336E-1,4.0326085E-2,4.3180114E-1,-5.133764E-2,-0E0,-3.3653848E-2,1.3382352E-2],"split_indices":[0,0,5,8,1,0,1,0,1,0,0,0,0],"split_type":[0,0,0,0,0,0,0,0,0,0,0,0,0],"sum_hessian":[2.1061224E1,2.4489794E0,1.8612244E1,1.2734694E1,5.8775506E0,1.9591836E0,1.077551E1,2.6938775E0,3.1836734E0,9.061224E0,1.7142856E0,1.7142856E0,1.4693877E0],"tree_param":{"num_deleted":"0","num_feature":"16","num_nodes":"13","size_leaf_vector":"1"}},{"base_weights":[1.3390124E-1,-4.1189006E-1,4.687114E-1,5.5634687E-3,-5.7062685E-1,-0E0,8.522371E-1,-7.584758E-1,-0E0,4.6665266E-1,-5.0963366E-1,1.1136687E0,-9.995691E-3,-0E0,-4.6235938E-2,5.874793E-3,-9.591536E-3,-9.390218E-3,4.322767E-2,-3.0759359E-2,-0E0,6.263692E-2,6.5305866E-3],"categories":[],"categories_nodes":[],"categories_segments":[],"categories_sizes":[],"default_left":[0,0,0,0,0,0,0,0,0,0,0,0,0,0,0,0,0,0,0,0,0,0,0],"id":1,"left_children":[1,3,5,-1,7,9,11,13,15,17,19,21,-1,-1,-1,-1,-1,-1,-1,-1,-1,-1,-1],"loss_changes":[4.8899727E0,1.1712058E0,3.3033347E0,0E0,7.3868155E-1,2.65245E0,3.541201E0,6.7681813E-1,1.629833E-1,2.0751815E0,2.087506E-1,1.2534618E-1,0E0,0E0,0E0,0E0,0E0,0E0,0E0,0E0,0E0,0E0,0E0],"parents":[2147483647,0,0,1,1,2,2,4,4,5,5,6,6,7,7,8,8,9,9,10,10,11,11],"right_children":[2,4,6,-1,8,10,12,14,16,18,20,22,-1,-1,-1,-1,-1,-1,-1,-1,-1,-1,-1],"split_conditions":[3.566975E2,7.303708E-2,4.5714286E-1,5.5634687E-3,5.768333E-1,3.392857E-1,7.892857E-1,3.642857E-1,7.7865404E-1,3.690175E2,3.828375E2,3.7455E2,-9.995691E-3,-0E0,-4.6235938E-2,5.874793E-3,-9.591536E-3,-9.390218E-3,4.322767E-2,-3.0759359E-2,-0E0,6.263692E-2,6.5305866E-3],"split_indices":[7,2,4,0,1,4,4,4,1,7,7,7,0,0,0,0,0,0,0,0,0,0,0],"split_type":[0,0,0,0,0,0,0,0,0,0,0,0,0,0,0,0,0,0,0,0,0,0,0],"sum_hessian":[2.2491262E1,7.808462E0,1.46828E1,1.2236832E0,6.584779E0,7.0885444E0,7.5942554E0,4.143062E0,2.4417167E0,3.4225216E0,3.6660228E0,6.3698072E0,1.2244483E0,1.218715E0,2.9243472E0,1.2211188E0,1.2205979E0,1.2182329E0,2.2042887E0,2.440067E0,1.2259556E0,4.654127E0,1.7156799E0],"tree_param":{"num_deleted":"0","num_feature":"16","num_nodes":"23","size_leaf_vector":"1"}},{"base_weights":[-0E0,-3.999263E-1,7.779456E-1,1.4634472E-1,-7.7207184E-1,-0E0,5.6382436E-2,-3.9254752E-1,7.2229314E-1,-5.8162708E-2,-1.7292297E-2,-1.5778743E-2,1.9029511E-2,-2.4415638E-2,-0E0,4.9710393E-2,-0E0,2.1797156E-2,-1.9454798E-2],"categories":[],"categories_nodes":[],"categories_segments":[],"categories_sizes":[],"default_left":[0,0,0,0,0,0,0,0,0,0,0,0,0,0,0,0,0,0,0],"id":2,"left_children":[1,3,5,7,9,11,-1,13,15,-1,17,-1,-1,-1,-1,-1,-1,-1,-1],"loss_changes":[8.541058E0,4.1728344E0,2.1911492E0,3.3329363E0,2.76362E0,8.853326E-1,0E0,1.463992E-1,1.2124121E0,0E0,1.3927282E0,0E0,0E0,0E0,0E0,0E0,0E0,0E0,0E0],"parents":[2147483647,0,0,1,1,2,2,3,3,4,4,5,5,7,7,8,8,10,10],"right_children":[2,4,6,8,10,12,-1,14,16,-1,18,-1,-1,-1,-1,-1,-1,-1,-1],"split_conditions":[3.8214108E2,1.1232778E-2,-6.9325506E-3,3.5361E2,3.3223554E-1,3.7626E2,5.6382436E-2,4.9019608E1,3.9692E-1,-5.8162708E-2,1.1830723E-1,-1.5778743E-2,1.9029511E-2,-2.4415638E-2,-0E0,4.9710393E-2,-0E0,2.1797156E-2,-1.9454798E-2],"split_indices":[5,3,3,7,2,7,0,0,2,0,3,0,0,0,0,0,0,0,0],"split_type":[0,0,0,0,0,0,0,0,0,0,0,0,0,0,0,0,0,0,0],"sum_hessian":[2.3264343E1,1.5875704E1,7.388639E0,6.3801913E0,9.495513E0,3.1970694E0,4.19157E0,3.176654E0,3.2035375E0,5.104943E0,4.39057E0,1.4721639E0,1.7249055E0,1.9592824E0,1.2173718E0,1.9730276E0,1.2305098E0,1.2170951E0,3.1734748E0],"tree_param":{"num_deleted":"0","num_feature":"16","num_nodes":"19","size_leaf_vector":"1"}},{"base_weights":[-0E0,-2.0627457E-1,5.5152935E-1,2.89264E-2,-4.088379E-1,-7.990503E-3,4.476281E-2,9.012132E-3,-5.5573964E-1,-4.9577862E-2,-9.361494E-3],"categories":[],"categories_nodes":[],"categories_segments":[],"categories_sizes":[],"default_left":[0,0,0,0,0,0,0,0,0,0,0],"id":3,"left_children":[1,3,5,-1,7,-1,-1,-1,9,-1,-1],"loss_changes":[3.1456795E0,3.41354E0,2.5315166E0,0E0,1.8423057E0,0E0,0E0,0E0,1.3872604E0,0E0,0E0],"parents":[2147483647,0,0,1,1,2,2,4,4,8,8],"right_children":[2,4,6,-1,8,-1,-1,-1,10,-1,-1],"split_conditions":[3.8214108E2,4.0677967E1,5.8333332E1,2.89264E-2,3.1428573E-1,-7.990503E-3,4.476281E-2,9.012132E-3,4.5714286E-1,-4.9577862E-2,-9.361494E-3],"split_indices":[5,0,0,0,4,0,0,0,4,0,0],"split_type":[0,0,0,0,0,0,0,0,0,0,0],"sum_hessian":[2.2709955E1,1.7030598E1,5.6793575E0,2.2259688E0,1.4804629E1,1.724992E0,3.9543655E0,2.1850302E0,1.2619599E1,3.6109056E0,9.008694E0],"tree_param":{"num_deleted":"0","num_feature":"16","num_nodes":"11","size_leaf_vector":"1"}},{"base_weights":[-1.5368131E-1,-7.0955956E-1,1.4329295E-1,-0E0,-9.1206867E-1,-2.0528303E-1,5.1266235E-1,-5.2524693E-2,-0E0,3.5950163E-1,-6.359423E-1,9.44768E-1,-1.6272776E-2,3.4806263E-2,-9.118849E-4,-0E0,-3.8087007E-2,-0E0,6.305113E-2],"categories":[],"categories_nodes":[],"categories_segments":[],"categories_sizes":[],"default_left":[0,0,0,0,0,0,0,0,0,0,0,0,0,0,0,0,0,0,0],"id":4,"left_children":[1,3,5,-1,7,9,11,-1,-1,13,15,17,-1,-1,-1,-1,-1,-1,-1],"loss_changes":[4.3186383E0,1.7437701E0,2.4510176E0,0E0,4.490118E-1,2.8016725E0,4.233859E0,0E0,0E0,9.619146E-1,4.1313815E-1,2.1107497E0,0E0,0E0,0E0,0E0,0E0,0E0,0E0],"parents":[2147483647,0,0,1,1,2,2,4,4,5,5,6,6,9,9,10,10,11,11],"right_children":[2,4,6,-1,8,10,12,-1,-1,14,16,18,-1,-1,-1,-1,-1,-1,-1],"split_conditions":[3.5653E2,3.381875E2,4.857143E-1,-0E0,3.5361E2,3.2857144E-1,7.892857E-1,-5.2524693E-2,-0E0,1.451199E-2,3.6282E2,4E0,-1.6272776E-2,3.4806263E-2,-9.118849E-4,-0E0,-3.8087007E-2,-0E0,6.305113E-2],"split_indices":[11,8,4,0,11,4,4,0,0,3,8,14,0,0,0,0,0,0,0],"split_type":[0,0,0,0,0,0,0,0,0,0,0,0,0,0,0,0,0,0,0],"sum_hessian":[2.1213713E1,7.0056148E0,1.4208098E1,1.4589127E0,5.5467024E0,7.070468E0,7.137631E0,4.0957437E0,1.4509584E0,2.699577E0,4.3708906E0,4.9352536E0,2.2023768E0,1.2360168E0,1.4635603E0,1.2184896E0,3.152401E0,1.7150426E0,3.2202113E0],"tree_param":{"num_deleted":"0","num_feature":"16","num_nodes":"19","size_leaf_vector":"1"}},{"base_weights":[1.626455E-1,-1.3016783E-1,6.7178154E-1,4.751442E-1,-6.570284E-1,-0E0,8.330429E-1,-1.4749795E-1,8.32887E-1,-4.6796855E-2,-2.8595157E-2,-0E0,5.6077193E-2,-9.3033435E-3,-0E0,5.349328E-2,-0E0,1.458897E-2,-1.8924939E-2],"categories":[],"categories_nodes":[],"categories_segments":[],"categories_sizes":[],"default_left":[0,0,0,0,0,0,0,0,0,0,0,0,0,0,0,0,0,0,0],"id":5,"left_children":[1,3,5,7,9,-1,11,13,15,-1,17,-1,-1,-1,-1,-1,-1,-1,-1],"loss_changes":[4.312441E0,6.3022656E0,1.3226614E0,2.5644553E0,1.3304105E0,0E0,2.1056652E0,1.5099838E-2,1.5002398E0,0E0,9.241656E-1,0E0,0E0,0E0,0E0,0E0,0E0,0E0,0E0],"parents":[2147483647,0,0,1,1,2,2,3,3,4,4,6,6,7,7,8,8,10,10],"right_children":[2,4,6,8,10,-1,12,14,16,-1,18,-1,-1,-1,-1,-1,-1,-1,-1],"split_conditions":[3.8214108E2,1.1232778E-2,1.464107E-1,3.5269928E2,3.3223554E-1,-0E0,3.6695416E2,4.9019608E1,3.9692E-1,-4.6796855E-2,7.153846E1,-0E0,5.6077193E-2,-9.3033435E-3,-0E0,5.349328E-2,-0E0,1.458897E-2,-1.8924939E-2],"split_indices":[5,3,2,10,2,0,8,0,2,0,0,0,0,0,0,0,0,0,0],"split_type":[0,0,0,0,0,0,0,0,0,0,0,0,0,0,0,0,0,0,0],"sum_hessian":[2.393707E1,1.5518639E1,8.418433E0,6.871382E0,8.647256E0,1.7372472E0,6.681186E0,2.4262683E0,4.445114E0,4.760295E0,3.8869607E0,2.2177784E0,4.463408E0,1.2176008E0,1.2086675E0,3.2168057E0,1.2283083E0,1.4565744E0,2.4303863E0],"tree_param":{"num_deleted":"0","num_feature":"16","num_nodes":"19","size_leaf_vector":"1"}},{"base_weights":[-7.0095375E-2,-5.713095E-1,2.093505E-1,-7.405425E-1,-0E0,6.877808E-1,-1.4456889E-1,-0E0,-4.7620904E-2,7.0879655E-3,-8.88941E-3,4.5052197E-2,6.378819E-3,-3.9920315E-2,5.41671E-1,-1.03878705E-2,1.849727E-2,3.646609E-2,-0E0],"categories":[],"categories_nodes":[],"categories_segments":[],"categories_sizes":[],"default_left":[0,0,0,0,0,0,0,0,0,0,0,0,0,0,0,0,0,0,0],"id":6,"left_children":[1,3,5,7,9,11,13,-1,-1,-1,-1,-1,15,-1,17,-1,-1,-1,-1],"loss_changes":[3.8307528E0,8.7062883E-1,3.2570724E0,9.326916E-1,1.6592057E-1,6.8944716E-1,5.709643E0,0E0,0E0,0E0,0E0,0E0,5.825928E-1,0E0,7.6634836E-1,0E0,0E0,0E0,0E0],"parents":[2147483647,0,0,1,1,2,2,3,3,4,4,5,5,6,6,12,12,14,14],"right_children":[2,4,6,8,10,12,14,-1,-1,-1,-1,-1,16,-1,18,-1,-1,-1,-1],"split_conditions":[3.566975E2,6.686747E1,-9.914907E-3,8.169904E-2,7.6712326E1,3.7690536E2,7E1,-0E0,-4.7620904E-2,7.0879655E-3,-8.88941E-3,4.5052197E-2,3.830475E2,-3.9920315E-2,4.464486E-1,-1.03878705E-2,1.849727E-2,3.646609E-2,-0E0],"split_indices":[7,0,3,1,0,5,0,0,0,0,0,0,7,0,3,0,0,0,0],"split_type":[0,0,0,0,0,0,0,0,0,0,0,0,0,0,0,0,0,0,0],"sum_hessian":[2.235036E1,7.8933063E0,1.4457054E1,5.4757953E0,2.4175112E0,5.9457088E0,8.511345E0,1.9279602E0,3.547835E0,1.2075415E0,1.2099698E0,3.4785457E0,2.467163E0,4.564283E0,3.9470625E0,1.2265759E0,1.2405871E0,2.721212E0,1.2258506E0],"tree_param":{"num_deleted":"0","num_feature":"16","num_nodes":"19","size_leaf_vector":"1"}},{"base_weights":[-1.8182416E-3,-6.345473E-1,3.318124E-1,-3.835624E-2,-0E0,-0E0,5.060984E-2,5.488704E-1,-5.4330176E-1,4.1260798E-2,-0E0,-3.5873532E-2,-0E0],"categories":[],"categories_nodes":[],"categories_segments":[],"categories_sizes":[],"default_left":[0,0,0,0,0,0,0,0,0,0,0,0,0],"id":7,"left_children":[1,3,5,-1,-1,7,-1,9,11,-1,-1,-1,-1],"loss_changes":[5.716659E0,6.636014E-1,3.519667E0,0E0,0E0,4.6283293E0,0E0,1.169014E0,8.942642E-1,0E0,0E0,0E0,0E0],"parents":[2147483647,0,0,1,1,2,2,5,5,7,7,8,8],"right_children":[2,4,6,-1,-1,8,-1,10,12,-1,-1,-1,-1],"split_conditions":[3.566975E2,3.618732E2,7E1,-3.835624E-2,-0E0,-9.914907E-3,5.060984E-2,3.7325537E2,3.882393E2,4.1260798E-2,-0E0,-3.5873532E-2,-0E0],"split_indices":[7,5,0,0,0,3,0,5,5,0,0,0,0],"split_type":[0,0,0,0,0,0,0,0,0,0,0,0,0],"sum_hessian":[2.2368752E1,7.6173167E0,1.4751435E1,5.7080164E0,1.9093002E0,1.1515935E1,3.2355E0,5.955534E0,5.560401E0,3.2361023E0,2.7194316E0,4.0725274E0,1.4878733E0],"tree_param":{"num_deleted":"0","num_feature":"16","num_nodes":"13","size_leaf_vector":"1"}},{"base_weights":[-0E0,-2.6555836E-1,4.5106515E-1,3.52365E-2,-4.8848233E-1,-7.17058E-2,3.974141E-2,-7.208901E-1,1.0212345E-1,-1.5709741E-2,3.910759E-3,-1.3789627E-3,-4.9635973E-2,1.4389587E-2,-1.197561E-3],"categories":[],"categories_nodes":[],"categories_segments":[],"categories_sizes":[],"default_left":[0,0,0,0,0,0,0,0,0,0,0,0,0,0,0],"id":8,"left_children":[1,3,5,-1,7,9,-1,11,13,-1,-1,-1,-1,-1,-1],"loss_changes":[2.9380393E0,4.168519E0,2.0373268E0,0E0,2.5278645E0,3.3819064E-1,0E0,1.6371455E0,2.722373E-1,0E0,0E0,0E0,0E0,0E0,0E0],"parents":[2147483647,0,0,1,1,2,2,4,4,5,5,7,7,8,8],"right_children":[2,4,6,-1,8,10,-1,12,14,-1,-1,-1,-1,-1,-1],"split_conditions":[3.8214108E2,4.0677967E1,5.8333332E1,3.52365E-2,6.032049E-1,-3.5054285E-2,3.974141E-2,1.1232778E-2,5.637688E-1,-1.5709741E-2,3.910759E-3,-1.3789627E-3,-4.9635973E-2,1.4389587E-2,-1.197561E-3],"split_indices":[5,0,0,0,1,3,0,3,2,0,0,0,0,0,0],"split_type":[0,0,0,0,0,0,0,0,0,0,0,0,0,0,0],"sum_hessian":[2.1279287E1,1.4588709E1,6.6905775E0,1.4989462E0,1.3089763E1,2.7051308E0,3.9854465E0,9.684313E0,3.40545E0,1.4704221E0,1.2347088E0,3.8660674E0,5.8182454E0,1.9436105E0,1.4618396E0],"tree_param":{"num_deleted":"0","num_feature":"16","num_nodes":"15","size_leaf_vector":"1"}},{"base_weights":[-0E0,-3.311838E-1,4.1261157E-1,1.2664378E-1,-6.6066563E-1,-1.5634948E-1,7.732165E-1,4.439765E-1,-1.4999402E-2,-3.9844092E-2,-0E0,8.808308E-3,-2.9667377E-2,5.1467396E-2,-0E0,-3.3792036E-4,3.695177E-2],"categories":[],"categories_nodes":[],"categories_segments":[],"categories_sizes":[],"default_left":[0,0,0,0,0,0,0,0,0,0,0,0,0,0,0,0,0],"id":9,"left_children":[1,3,5,7,9,11,13,15,-1,-1,-1,-1,-1,-1,-1,-1,-1],"loss_changes":[3.4168139E0,2.5348353E0,2.827313E0,1.2685378E0,5.675523E-1,1.2068425E0,2.0101624E0,1.0967546E0,0E0,0E0,0E0,0E0,0E0,0E0,0E0,0E0,0E0],"parents":[2147483647,0,0,1,1,2,2,3,3,4,4,5,5,6,6,7,7],"right_children":[2,4,6,8,10,12,14,16,-1,-1,-1,-1,-1,-1,-1,-1,-1],"split_conditions":[3.729875E2,6.0464228E-3,4.4285715E-1,2.789708E-1,3.6659515E-1,3.892857E-1,7.892857E-1,5.4602396E-2,-1.4999402E-2,-3.9844092E-2,-0E0,8.808308E-3,-2.9667377E-2,5.1467396E-2,-0E0,-3.3792036E-4,3.695177E-2],"split_indices":[5,3,4,1,3,4,4,1,0,0,0,0,0,0,0,0,0],"split_type":[0,0,0,0,0,0,0,0,0,0,0,0,0,0,0,0,0],"sum_hessian":[2.102329E1,1.1924719E1,9.098571E0,4.870581E0,7.0541377E0,3.4311714E0,5.6674E0,3.418517E0,1.4520639E0,5.1170816E0,1.9370561E0,1.9766757E0,1.4544957E0,4.2235656E0,1.4438342E0,1.4551809E0,1.9633362E0],"tree_param":{"num_deleted":"0","num_feature":"16","num_nodes":"17","size_leaf_vector":"1"}},{"base_weights":[-8.030316E-2,-6.421745E-1,2.1196754E-1,-4.3015737E-2,-0E0,-1.17712006E-1,3.9292965E-2,8.002704E-3,-1.1518741E-2,4.069826E-1,-6.0479224E-1,-0E0,3.3367727E-2,-0E0,-3.5963412E-2],"categories":[],"categories_nodes":[],"categories_segments":[],"categories_sizes":[],"default_left":[0,0,0,0,0,0,0,0,0,0,0,0,0,0,0],"id":10,"left_children":[1,3,5,-1,7,9,-1,-1,-1,11,13,-1,-1,-1,-1],"loss_changes":[4.291824E0,1.0265298E0,3.5762043E0,0E0,2.6269954E-1,3.5171127E0,0E0,0E0,0E0,7.494632E-1,4.8221946E-1,0E0,0E0,0E0,0E0],"parents":[2147483647,0,0,1,1,2,2,4,4,5,5,9,9,10,10],"right_children":[2,4,6,-1,8,10,-1,-1,-1,12,14,-1,-1,-1,-1],"split_conditions":[3.5653E2,3E0,7E1,-4.3015737E-2,3.43095E2,-9.914907E-3,3.9292965E-2,8.002704E-3,-1.1518741E-2,5E0,3.664975E2,-0E0,3.3367727E-2,-0E0,-3.5963412E-2],"split_indices":[7,13,0,0,7,3,0,0,0,14,7,0,0,0,0],"split_type":[0,0,0,0,0,0,0,0,0,0,0,0,0,0,0],"sum_hessian":[2.116718E1,7.009067E0,1.4158113E1,4.406562E0,2.6025054E0,9.44871E0,4.7094026E0,1.194736E0,1.4077694E0,4.212869E0,5.235841E0,2.2194202E0,1.9934492E0,1.1878678E0,4.0479727E0],"tree_param":{"num_deleted":"0","num_feature":"16","num_nodes":"15","size_leaf_vector":"1"}},{"base_weights":[7.750641E-2,4.4581816E-1,-1.7361645E-1,-0E0,5.6051964E-1,-7.175338E-1,2.1473601E-1,-0E0,6.789485E-1,-4.364781E-2,-0E0,5.5386436E-1,-2.5258496E-1,4.134613E-2,-0E0,-8.4966514E-4,4.8468247E-2,-2.5883598E-2,6.3452707E-4],"categories":[],"categories_nodes":[],"categories_segments":[],"categories_sizes":[],"default_left":[0,0,0,0,0,0,0,0,0,0,0,0,0,0,0,0,0,0,0],"id":11,"left_children":[1,3,5,-1,7,9,11,-1,13,-1,-1,15,17,-1,-1,-1,-1,-1,-1],"loss_changes":[2.2801285E0,7.156241E-1,3.3943374E0,0E0,3.6485052E-1,7.17051E-1,1.8302755E0,0E0,4.776044E-1,0E0,0E0,2.0188208E0,5.798217E-1,0E0,0E0,0E0,0E0,0E0,0E0],"parents":[2147483647,0,0,1,1,2,2,4,4,5,5,6,6,8,8,11,11,12,12],"right_children":[2,4,6,-1,8,10,12,-1,14,-1,-1,16,18,-1,-1,-1,-1,-1,-1],"split_conditions":[1.4948589E-2,3.4073E2,4E0,-0E0,1.3087942E-1,5.0437456E-1,3.7898914E2,-0E0,3.9692E-1,-4.364781E-2,-0E0,3.729875E2,3.840211E2,4.134613E-2,-0E0,-8.4966514E-4,4.8468247E-2,-2.5883598E-2,6.3452707E-4],"split_indices":[3,7,14,0,2,2,9,0,2,0,0,5,9,0,0,0,0,0,0],"split_type":[0,0,0,0,0,0,0,0,0,0,0,0,0,0,0,0,0,0,0],"sum_hessian":[1.9507107E1,8.086874E0,1.1420233E1,1.4281123E0,6.658762E0,4.5874195E0,6.8328133E0,1.9657613E0,4.693001E0,3.3915126E0,1.1959069E0,4.3648496E0,2.4679635E0,3.2104118E0,1.482589E0,2.1398027E0,2.225047E0,1.2253834E0,1.2425799E0],"tree_param":{"num_deleted":"0","num_feature":"16","num_nodes":"19","size_leaf_vector":"1"}},{"base_weights":[-1.5062437E-2,-4.550255E-1,1.671562E-1,1.2851463E-3,-6.3581455E-1,4.8382068E-1,-2.701311E-1,-0E0,-3.7140664E-2,6.316607E-1,-0E0,7.884329E-3,-4.9458703E-1,-0E0,4.129205E-2,-3.0967778E-2,-0E0],"categories":[],"categories_nodes":[],"categories_segments":[],"categories_sizes":[],"default_left":[0,0,0,0,0,0,0,0,0,0,0,0,0,0,0,0,0],"id":12,"left_children":[1,3,5,-1,7,9,11,-1,-1,13,-1,-1,15,-1,-1,-1,-1],"loss_changes":[2.207392E0,1.0611248E0,2.7939937E0,0E0,2.321868E-1,1.0116599E0,1.0905143E0,0E0,0E0,1.3332794E0,0E0,0E0,2.4773347E-1,0E0,0E0,0E0,0E0],"parents":[2147483647,0,0,1,1,2,2,4,4,5,5,6,6,9,9,12,12],"right_children":[2,4,6,-1,8,10,12,-1,-1,14,-1,-1,16,-1,-1,-1,-1],"split_conditions":[3.53094E2,7.303708E-2,3E0,1.2851463E-3,3.3824826E2,3.7685596E2,-9.914907E-3,-0E0,-3.7140664E-2,3.591625E2,-0E0,7.884329E-3,9.959275E-2,-0E0,4.129205E-2,-3.0967778E-2,-0E0],"split_indices":[10,2,13,0,10,10,3,0,0,11,0,0,3,0,0,0,0],"split_type":[0,0,0,0,0,0,0,0,0,0,0,0,0,0,0,0,0],"sum_hessian":[2.1841206E1,6.323331E0,1.5517874E1,1.4411733E0,4.882158E0,9.540004E0,5.97787E0,1.4190823E0,3.4630754E0,7.3058047E0,2.234199E0,1.495242E0,4.4826283E0,1.9067532E0,5.399051E0,2.7796762E0,1.702952E0],"tree_param":{"num_deleted":"0","num_feature":"16","num_nodes":"17","size_leaf_vector":"1"}},{"base_weights":[2.6113996E-2,-2.279257E-1,3.2155347E-1,3.3751085E-1,-5.119675E-1,-1.9054623E-1,7.253286E-1,-0E0,3.048086E-2,-0E0,-6.9705594E-1,-2.6125804E-2,5.3891605E-3,4.3807518E-2,-0E0,-4.7319243E-3,6.5346705E-3,-4.1132204E-2,-0E0],"categories":[],"categories_nodes":[],"categories_segments":[],"categories_sizes":[],"default_left":[0,0,0,0,0,0,0,0,0,0,0,0,0,0,0,0,0,0,0],"id":13,"left_children":[1,3,5,7,9,11,13,-1,-1,15,17,-1,-1,-1,-1,-1,-1,-1,-1],"loss_changes":[1.8544198E0,2.3857737E0,3.019186E0,6.7222774E-1,9.819305E-1,9.4549227E-1,7.082405E-1,0E0,0E0,8.280309E-2,5.406368E-1,0E0,0E0,0E0,0E0,0E0,0E0,0E0,0E0],"parents":[2147483647,0,0,1,1,2,2,3,3,4,4,5,5,6,6,9,9,10,10],"right_children":[2,4,6,8,10,12,14,-1,-1,16,18,-1,-1,-1,-1,-1,-1,-1,-1],"split_conditions":[3.7005356E2,4.9315067E1,5.8139534E1,3.5261835E2,3.4767834E2,5.1785713E-1,3.9825894E2,-0E0,3.048086E-2,3.5950714E2,7.45098E1,-2.6125804E-2,5.3891605E-3,4.3807518E-2,-0E0,-4.7319243E-3,6.5346705E-3,-4.1132204E-2,-0E0],"split_indices":[5,0,0,8,8,4,5,0,0,5,0,0,0,0,0,0,0,0,0],"split_type":[0,0,0,0,0,0,0,0,0,0,0,0,0,0,0,0,0,0,0],"sum_hessian":[2.013126E1,1.0159797E1,9.971464E0,2.6826682E0,7.4771285E0,4.31575E0,5.6557136E0,1.4384816E0,1.2441866E0,2.3438087E0,5.13332E0,2.1246133E0,2.191137E0,4.1694655E0,1.4862481E0,1.145371E0,1.1984377E0,3.9204495E0,1.2128702E0],"tree_param":{"num_deleted":"0","num_feature":"16","num_nodes":"19","size_leaf_vector":"1"}},{"base_weights":[1.2453268E-1,-2.3186505E-1,4.9593982E-1,-4.6998358E-1,2.1345016E-1,4.263093E-2,-0E0,5.601251E-3,-6.37582E-1,2.8198352E-2,-9.504404E-3,-3.3570632E-2,3.207799E-2,-0E0,-3.6228653E-2],"categories":[],"categories_nodes":[],"categories_segments":[],"categories_sizes":[],"default_left":[0,0,0,0,0,0,0,0,0,0,0,0,0,0,0],"id":14,"left_children":[1,3,5,7,9,-1,11,-1,13,-1,-1,-1,-1,-1,-1],"loss_changes":[3.5186186E0,1.690985E0,2.3569846E0,1.3543401E0,1.1254469E0,0E0,4.0340686E0,0E0,3.7764406E-1,0E0,0E0,0E0,0E0,0E0,0E0],"parents":[2147483647,0,0,1,1,2,2,3,3,4,4,6,6,8,8],"right_children":[2,4,6,8,10,-1,12,-1,14,-1,-1,-1,-1,-1,-1],"split_conditions":[3.626325E2,5.768333E-1,3.7455E2,-1.6164228E-1,8.139535E1,4.263093E-2,7E0,5.601251E-3,4.871795E1,2.8198352E-2,-9.504404E-3,-3.3570632E-2,3.207799E-2,-0E0,-3.6228653E-2],"split_indices":[7,1,7,1,0,0,14,0,0,0,0,0,0,0,0],"split_type":[0,0,0,0,0,0,0,0,0,0,0,0,0,0,0],"sum_hessian":[2.1847025E1,1.0845249E1,1.1001776E1,7.7260127E0,3.1192367E0,5.6412253E0,5.3605504E0,1.2086525E0,6.51736E0,1.9068547E0,1.2123818E0,2.6248538E0,2.7356968E0,1.2030786E0,5.3142815E0],"tree_param":{"num_deleted":"0","num_feature":"16","num_nodes":"15","size_leaf_vector":"1"}},{"base_weights":[-8.166522E-2,-2.1753706E-1,3.108703E-2,2.884027E-1,-4.1269526E-1,-1.26448795E-2,6.1370623E-1,-5.552414E-1,1.6665289E-1,4.4512328E-2,-0E0,8.396935E-3,-3.4972485E-2,-9.123339E-3,2.8180594E-2],"categories":[],"categories_nodes":[],"categories_segments":[],"categories_sizes":[],"default_left":[0,0,0,0,0,0,0,0,0,0,0,0,0,0,0],"id":15,"left_children":[1,3,-1,5,7,-1,9,11,13,-1,-1,-1,-1,-1,-1],"loss_changes":[2.4693007E0,2.5841622E0,0E0,1.7063482E0,1.8847411E0,0E0,1.2958684E0,2.146716E0,1.0122821E0,0E0,0E0,0E0,0E0,0E0,0E0],"parents":[2147483647,0,0,1,1,3,3,4,4,6,6,7,7,8,8],"right_children":[2,4,-1,6,8,-1,10,12,14,-1,-1,-1,-1,-1,-1],"split_conditions":[3.8463776E2,4.871795E1,3.108703E-2,3.5361E2,7.45098E1,-1.26448795E-2,3.729875E2,9.0609305E-2,3.7214642E2,4.4512328E-2,-0E0,8.396935E-3,-3.4972485E-2,-9.123339E-3,2.8180594E-2],"split_indices":[9,0,0,7,0,0,5,1,5,0,0,0,0,0,0],"split_type":[0,0,0,0,0,0,0,0,0,0,0,0,0,0,0],"sum_hessian":[2.3121094E1,2.1131563E1,1.9895302E0,4.9030366E0,1.6228527E1,1.4306271E0,3.4724095E0,1.3783432E1,2.4450948E0,2.2357175E0,1.2366921E0,1.6604152E0,1.2123017E1,1.2057533E0,1.2393416E0],"tree_param":{"num_deleted":"0","num_feature":"16","num_nodes":"15","size_leaf_vector":"1"}},{"base_weights":[-0E0,3.938173E-1,-3.2884768E-1,-2.3130372E-1,6.782214E-1,-6.446899E-1,4.8769084E-1,2.0032295E-3,-2.5792385E-2,4.136961E-2,-0E0,-7.8023046E-1,-0E0,3.526267E-2,-0E0,-0E0,-4.420865E-2],"categories":[],"categories_nodes":[],"categories_segments":[],"categories_sizes":[],"default_left":[0,0,0,0,0,0,0,0,0,0,0,0,0,0,0,0,0],"id":16,"left_children":[1,3,5,7,9,11,13,-1,-1,-1,-1,15,-1,-1,-1,-1,-1],"loss_changes":[3.4783015E0,2.7503872E0,4.398177E0,6.525059E-1,1.0101528E0,1.3795433E0,6.1531556E-1,0E0,0E0,0E0,0E0,8.7613726E-1,0E0,0E0,0E0,0E0,0E0],"parents":[2147483647,0,0,1,1,2,2,3,3,4,4,5,5,6,6,11,11],"right_children":[2,4,6,8,10,12,14,-1,-1,-1,-1,16,-1,-1,-1,-1,-1],"split_conditions":[1.4948589E-2,3.5361E2,3.6659515E-1,1.3387297E-1,-9.914907E-3,4.2593318E-1,1.4403225E0,2.0032295E-3,-2.5792385E-2,4.136961E-2,-0E0,6.44248E-2,-0E0,3.526267E-2,-0E0,-0E0,-4.420865E-2],"split_indices":[3,7,3,2,3,2,1,0,0,0,0,2,0,0,0,0,0],"split_type":[0,0,0,0,0,0,0,0,0,0,0,0,0,0,0,0,0],"sum_hessian":[2.275983E1,1.0448482E1,1.2311349E1,2.8342173E0,7.6142645E0,9.622547E0,2.6888013E0,1.430834E0,1.4033831E0,5.935642E0,1.6786228E0,8.201344E0,1.4212036E0,1.4792366E0,1.2095647E0,1.1368136E0,7.0645304E0],"tree_param":{"num_deleted":"0","num_feature":"16","num_nodes":"17","size_leaf_vector":"1"}},{"base_weights":[5.3653076E-2,-5.009233E-1,3.4413177E-1,-4.243819E-2,-0E0,7.392977E-2,3.5835676E-2,2.4480077E-2,-1.616957E-2,4.5086345E-1,-2.0098859E-1,-3.3110536E-3,3.995334E-2,2.4492096E-3,-2.7249128E-2],"categories":[],"categories_nodes":[],"categories_segments":[],"categories_sizes":[],"default_left":[0,0,0,0,0,0,0,0,0,0,0,0,0,0,0],"id":17,"left_children":[1,3,5,-1,7,9,-1,-1,-1,11,13,-1,-1,-1,-1],"loss_changes":[3.8938386E0,1.7124965E0,1.165319E0,0E0,1.142253E0,1.6122453E0,0E0,0E0,0E0,1.6784694E0,9.81081E-1,0E0,0E0,0E0,0E0],"parents":[2147483647,0,0,1,1,2,2,4,4,5,5,9,9,10,10],"right_children":[2,4,6,-1,8,10,-1,-1,-1,12,14,-1,-1,-1,-1],"split_conditions":[3.5520596E2,3E0,6.796117E1,-4.243819E-2,3.4252698E2,-1.5788067E-2,3.5835676E-2,2.4480077E-2,-1.616957E-2,3.6078082E2,3.7577933E2,-3.3110536E-3,3.995334E-2,2.4492096E-3,-2.7249128E-2],"split_indices":[10,13,0,0,10,3,0,0,0,8,9,0,0,0,0],"split_type":[0,0,0,0,0,0,0,0,0,0,0,0,0,0,0],"sum_hessian":[2.05179E1,5.963071E0,1.4554829E1,3.1507819E0,2.812289E0,1.0603701E1,3.9511278E0,1.1807722E0,1.6315168E0,4.699321E0,5.90438E0,1.964992E0,2.734329E0,3.5710595E0,2.3333206E0],"tree_param":{"num_deleted":"0","num_feature":"16","num_nodes":"15","size_leaf_vector":"1"}},{"base_weights":[3.582262E-2,-4.0172184E-1,2.6968384E-1,-0E0,-2.6405474E-2,-0E0,3.500722E-2,5.129227E-1,-4.627655E-1,3.273579E-2,-0E0,-3.267979E-2,-0E0],"categories":[],"categories_nodes":[],"categories_segments":[],"categories_sizes":[],"default_left":[0,0,0,0,0,0,0,0,0,0,0,0,0],"id":18,"left_children":[1,3,5,-1,-1,7,-1,9,11,-1,-1,-1,-1],"loss_changes":[2.5346422E0,4.4467616E-1,1.6627722E0,0E0,0E0,3.629256E0,0E0,7.45008E-1,5.081017E-1,0E0,0E0,0E0,0E0],"parents":[2147483647,0,0,1,1,2,2,5,5,7,7,8,8],"right_children":[2,4,6,-1,-1,8,-1,10,12,-1,-1,-1,-1],"split_conditions":[3.53094E2,3.40155E2,6.796117E1,-0E0,-2.6405474E-2,-1.5788067E-2,3.500722E-2,4.0739053E-1,5.945946E1,3.273579E-2,-0E0,-3.267979E-2,-0E0],"split_indices":[10,7,0,0,0,3,0,1,0,0,0,0,0],"split_type":[0,0,0,0,0,0,0,0,0,0,0,0,0],"sum_hessian":[2.1298246E1,6.1737823E0,1.5124463E1,1.8497701E0,4.3240123E0,1.119176E1,3.932703E0,5.6814137E0,5.5103464E0,4.4525633E0,1.2288502E0,2.9543984E0,2.555948E0],"tree_param":{"num_deleted":"0","num_feature":"16","num_nodes":"13","size_leaf_vector":"1"}},{"base_weights":[1.0872805E-1,-4.872221E-1,4.1449094E-1,-3.513348E-2,-0E0,7.1496534E-1,-0E0,8.513501E-3,-8.700516E-3,9.6179324E-1,-0E0,-3.8817754E-1,4.3678722E-1,-0E0,5.3923767E-2,-3.4050856E-2,-0E0,-0E0,3.2201678E-2],"categories":[],"categories_nodes":[],"categories_segments":[],"categories_sizes":[],"default_left":[0,0,0,0,0,0,0,0,0,0,0,0,0,0,0,0,0,0,0],"id":19,"left_children":[1,3,5,-1,7,9,11,-1,-1,13,-1,15,17,-1,-1,-1,-1,-1,-1],"loss_changes":[4.509632E0,8.1892514E-1,1.966636E0,0E0,1.9371437E-1,2.123087E0,1.908426E0,0E0,0E0,5.201211E-1,0E0,9.266601E-1,7.1055794E-1,0E0,0E0,0E0,0E0,0E0,0E0],"parents":[2147483647,0,0,1,1,2,2,4,4,5,5,6,6,9,9,11,11,12,12],"right_children":[2,4,6,-1,8,10,12,-1,-1,14,-1,16,18,-1,-1,-1,-1,-1,-1],"split_conditions":[3.5361E2,3E0,3.714125E2,-3.513348E-2,3.43095E2,4E0,7E0,8.513501E-3,-8.700516E-3,3.5653E2,-0E0,3.1408798E-2,2E0,-0E0,5.3923767E-2,-3.4050856E-2,-0E0,-0E0,3.2201678E-2],"split_indices":[7,13,7,0,7,13,14,0,0,7,0,3,13,0,0,0,0,0,0],"split_type":[0,0,0,0,0,0,0,0,0,0,0,0,0,0,0,0,0,0,0],"sum_hessian":[2.073138E1,6.07285E0,1.4658529E1,3.539912E0,2.5329382E0,7.446105E0,7.2124248E0,1.1841946E0,1.3487436E0,5.51498E0,1.9311253E0,3.7533026E0,3.4591222E0,1.0909688E0,4.424011E0,1.8672681E0,1.8860345E0,1.2350296E0,2.2240925E0],"tree_param":{"num_deleted":"0","num_feature":"16","num_nodes":"19","size_leaf_vector":"1"}},{"base_weights":[4.7910158E-4,-2.9829362E-1,3.5970706E-1,1.1987292E-1,-5.4338455E-1,-1.0425765E-1,6.7192805E-1,-7.5174808E-3,1.96667E-2,-3.5575315E-2,-0E0,-3.0773489E-2,2.6093993E-2,5.1718246E-2,-1.2796598E-2],"categories":[],"categories_nodes":[],"categories_segments":[],"categories_sizes":[],"default_left":[0,0,0,0,0,0,0,0,0,0,0,0,0,0,0],"id":20,"left_children":[1,3,5,7,9,11,13,-1,-1,-1,-1,-1,-1,-1,-1],"loss_changes":[2.590822E0,1.5989848E0,2.1027966E0,6.400335E-1,1.0655675E0,2.5294142E0,3.555342E0,0E0,0E0,0E0,0E0,0E0,0E0,0E0,0E0],"parents":[2147483647,0,0,1,1,2,2,3,3,4,4,5,5,6,6],"right_children":[2,4,6,8,10,12,14,-1,-1,-1,-1,-1,-1,-1,-1],"split_conditions":[3.7005356E2,3.5270535E2,4.642857E-1,4.1428572E-1,1.2E1,6.304348E1,7.821429E-1,-7.5174808E-3,1.96667E-2,-3.5575315E-2,-0E0,-3.0773489E-2,2.6093993E-2,5.1718246E-2,-1.2796598E-2],"split_indices":[5,5,4,4,12,0,4,0,0,0,0,0,0,0,0],"split_type":[0,0,0,0,0,0,0,0,0,0,0,0,0,0,0],"sum_hessian":[1.9853844E1,1.0264313E1,9.589532E0,3.4166613E0,6.8476515E0,3.7490766E0,5.840455E0,1.251733E0,2.1649282E0,5.2652807E0,1.5823704E0,2.5223317E0,1.226745E0,4.422327E0,1.418128E0],"tree_param":{"num_deleted":"0","num_feature":"16","num_nodes":"15","size_leaf_vector":"1"}},{"base_weights":[-0E0,-2.4142295E-1,6.385968E-1,1.6348068E-1,-7.4343103E-1,7.727564E-1,-0E0,5.1768935E-1,-3.9773938E-1,-8.5715675E-1,-0E0,-0E0,4.56631E-2,-0E0,4.0691223E-2,-2.9373152E-2,-0E0,-4.841529E-2,-0E0],"categories":[],"categories_nodes":[],"categories_segments":[],"categories_sizes":[],"default_left":[0,0,0,0,0,0,0,0,0,0,0,0,0,0,0,0,0,0,0],"id":21,"left_children":[1,3,5,7,9,11,-1,13,15,17,-1,-1,-1,-1,-1,-1,-1,-1,-1],"loss_changes":[3.8949156E0,4.395087E0,4.3683982E-1,2.7788024E0,8.6867666E-1,2.6258445E-1,0E0,1.6413338E0,4.475475E-1,5.256467E-1,0E0,0E0,0E0,0E0,0E0,0E0,0E0,0E0,0E0],"parents":[2147483647,0,0,1,1,2,2,3,3,4,4,5,5,7,7,8,8,9,9],"right_children":[2,4,6,8,10,12,-1,14,16,18,-1,-1,-1,-1,-1,-1,-1,-1,-1],"split_conditions":[6.938776E1,1.4948589E-2,8.303571E1,3.9692E-1,4.086875E-1,9.959275E-2,-0E0,3.588279E2,3.5920166E2,3.8585E2,-0E0,-0E0,4.56631E-2,-0E0,4.0691223E-2,-2.9373152E-2,-0E0,-4.841529E-2,-0E0],"split_indices":[0,3,0,2,2,3,0,9,8,5,0,0,0,0,0,0,0,0,0],"split_type":[0,0,0,0,0,0,0,0,0,0,0,0,0,0,0,0,0,0,0],"sum_hessian":[2.1835382E1,1.7000025E1,4.835356E0,9.6053505E0,7.3946753E0,3.3995228E0,1.4358337E0,6.53003E0,3.075321E0,6.24945E0,1.145225E0,1.2187979E0,2.1807249E0,2.6001775E0,3.929852E0,1.6232964E0,1.4520245E0,5.0249057E0,1.2245445E0],"tree_param":{"num_deleted":"0","num_feature":"16","num_nodes":"19","size_leaf_vector":"1"}},{"base_weights":[1.5804575E-1,-7.9395406E-2,4.2839226E-1,1.836784E-2,-2.5596794E-1,-0E0,6.324552E-1,-2.7042588E-2,7.249245E-2,8.20418E-3,-1.202252E-2,-0E0,8.330924E-1,3.248198E-2,-1.1595546E-2,-0E0,4.6684593E-2],"categories":[],"categories_nodes":[],"categories_segments":[],"categories_sizes":[],"default_left":[0,0,0,0,0,0,0,0,0,0,0,0,0,0,0,0,0],"id":22,"left_children":[1,3,5,-1,7,9,11,-1,13,-1,-1,-1,15,-1,-1,-1,-1],"loss_changes":[1.7130206E0,1.1498854E0,1.1051259E0,0E0,1.3630266E0,3.1191385E-1,1.2653115E0,0E0,1.5928481E0,0E0,0E0,0E0,1.6469955E-1,0E0,0E0,0E0,0E0],"parents":[2147483647,0,0,1,1,2,2,4,4,5,5,6,6,8,8,12,12],"right_children":[2,4,6,-1,8,10,12,-1,14,-1,-1,-1,16,-1,-1,-1,-1],"split_conditions":[3.630475E2,8.1874125E-2,6E0,1.836784E-2,4.4172916E-1,3.7455E2,3.2142857E-1,-2.7042588E-2,6.1785716E-1,8.20418E-3,-1.202252E-2,-0E0,3.1826194E-2,3.248198E-2,-1.1595546E-2,-0E0,4.6684593E-2],"split_indices":[7,1,14,0,1,7,4,0,4,0,0,0,1,0,0,0,0],"split_type":[0,0,0,0,0,0,0,0,0,0,0,0,0,0,0,0,0],"sum_hessian":[2.0908018E1,1.089887E1,1.0009148E1,1.6730809E0,9.22579E0,3.7365303E0,6.272617E0,5.063264E0,4.162526E0,2.3823712E0,1.3541592E0,1.6817353E0,4.5908813E0,1.2212739E0,2.9412522E0,1.1548177E0,3.4360638E0],"tree_param":{"num_deleted":"0","num_feature":"16","num_nodes":"17","size_leaf_vector":"1"}},{"base_weights":[1.3102636E-1,-1.9680938E-1,8.048411E-1,2.6522243E-2,-4.2043695E-1,-0E0,4.8155323E-2,1.4278141E-2,-6.7809135E-1,-0E0,-4.215463E-2],"categories":[],"categories_nodes":[],"categories_segments":[],"categories_sizes":[],"default_left":[0,0,0,0,0,0,0,0,0,0,0],"id":23,"left_children":[1,3,5,-1,7,-1,-1,-1,9,-1,-1],"loss_changes":[5.159756E0,2.8191931E0,7.696605E-1,0E0,2.9592874E0,0E0,0E0,0E0,1.5262871E0,0E0,0E0],"parents":[2147483647,0,0,1,1,2,2,4,4,8,8],"right_children":[2,4,6,-1,8,-1,-1,-1,10,-1,-1],"split_conditions":[3.8214108E2,3.25E-1,5.079365E1,2.6522243E-2,4.0677967E1,-0E0,4.8155323E-2,1.4278141E-2,3.4206174E2,-0E0,-4.215463E-2],"split_indices":[5,4,0,0,0,0,0,0,9,0,0],"split_type":[0,0,0,0,0,0,0,0,0,0,0],"sum_hessian":[1.8547436E1,1.2930204E1,5.6172304E0,1.8697544E0,1.1060451E1,1.4679993E0,4.149231E0,2.3804777E0,8.679973E0,1.6240126E0,7.0559597E0],"tree_param":{"num_deleted":"0","num_feature":"16","num_nodes":"11","size_leaf_vector":"1"}},{"base_weights":[-1.4895499E-1,-4.9270603E-1,1.8347934E-1,-6.1178595E-1,1.420492E-3,-6.3267514E-2,3.9348427E-2,-6.7252296E-1,-0E0,2.2291571E-1,-3.4696537E-1,-3.8935326E-2,-4.3316274E-3,1.8099608E-2,-0E0,7.692096E-3,-3.9550636E-2],"categories":[],"categories_nodes":[],"categories_segments":[],"categories_sizes":[],"default_left":[0,0,0,0,0,0,0,0,0,0,0,0,0,0,0,0,0],"id":24,"left_children":[1,3,5,7,-1,9,-1,11,-1,13,15,-1,-1,-1,-1,-1,-1],"loss_changes":[2.8398776E0,1.0746284E0,2.2273932E0,3.1434298E-1,0E0,1.0026886E0,0E0,2.5680065E-2,0E0,1.969912E-1,2.012162E0,0E0,0E0,0E0,0E0,0E0,0E0],"parents":[2147483647,0,0,1,1,2,2,3,3,5,5,7,7,9,9,10,10],"right_children":[2,4,6,8,-1,10,-1,12,-1,14,16,-1,-1,-1,-1,-1,-1],"split_conditions":[3.729875E2,1.5E1,7.307692E1,3.7005356E2,1.420492E-3,3.7577933E2,3.9348427E-2,1.2E1,-0E0,2E0,1.4948589E-2,-3.8935326E-2,-4.3316274E-3,1.8099608E-2,-0E0,7.692096E-3,-3.9550636E-2],"split_indices":[5,12,0,5,0,9,0,12,0,13,3,0,0,0,0,0,0],"split_type":[0,0,0,0,0,0,0,0,0,0,0,0,0,0,0,0,0],"sum_hessian":[1.9916159E1,1.0056815E1,9.859343E0,8.683947E0,1.372869E0,7.680749E0,2.1785934E0,7.536315E0,1.1476314E0,3.1595652E0,4.521184E0,5.1003547E0,2.4359603E0,1.4598835E0,1.6996816E0,2.209896E0,2.3112879E0],"tree_param":{"num_deleted":"0","num_feature":"16","num_nodes":"17","size_leaf_vector":"1"}},{"base_weights":[-7.8388024E-4,-3.4121814E-1,2.4754481E-1,1.0152036E-2,-6.681417E-1,4.7692847E-1,-7.0860684E-3,4.2610055E-1,-2.5152642E-2,-4.0415432E-2,-0E0,3.657307E-2,-2.8904644E-3,-2.111534E-2,1.854369E-1,2.9749552E-2,-0E0,2.3473648E-2,-5.891345E-3],"categories":[],"categories_nodes":[],"categories_segments":[],"categories_sizes":[],"default_left":[0,0,0,0,0,0,0,0,0,0,0,0,0,0,0,0,0,0,0],"id":25,"left_children":[1,3,5,7,9,11,13,15,-1,-1,-1,-1,-1,-1,17,-1,-1,-1,-1],"loss_changes":[2.1557758E0,1.6485438E0,1.0347922E0,1.8231426E0,6.012101E-1,1.5382813E0,8.6444646E-1,4.9861485E-1,0E0,0E0,0E0,0E0,0E0,0E0,7.69203E-1,0E0,0E0,0E0,0E0],"parents":[2147483647,0,0,1,1,2,2,3,3,4,4,5,5,6,6,7,7,14,14],"right_children":[2,4,6,8,10,12,14,16,-1,-1,-1,-1,-1,-1,18,-1,-1,-1,-1],"split_conditions":[3.7005356E2,6.0464228E-3,1.1E1,6E0,9.866336E-1,3.7455E2,1.8116958E-1,2.1318509E-1,-2.5152642E-2,-4.0415432E-2,-0E0,3.657307E-2,-2.8904644E-3,-2.111534E-2,3.180576E-1,2.9749552E-2,-0E0,2.3473648E-2,-5.891345E-3],"split_indices":[5,3,12,14,1,7,2,1,0,0,0,0,0,0,1,0,0,0,0],"split_type":[0,0,0,0,0,0,0,0,0,0,0,0,0,0,0,0,0,0,0],"sum_hessian":[2.0947891E1,9.369107E0,1.1578784E1,4.712597E0,4.6565104E0,6.205848E0,5.3729353E0,3.328553E0,1.3840438E0,3.468271E0,1.1882396E0,4.339517E0,1.8663309E0,1.7685839E0,3.6043515E0,2.141289E0,1.187264E0,2.14652E0,1.4578315E0],"tree_param":{"num_deleted":"0","num_feature":"16","num_nodes":"19","size_leaf_vector":"1"}},{"base_weights":[-1.4542919E-2,-4.5619923E-1,1.3049379E-1,-3.3847522E-2,4.94297E-4,3.5088065E-1,-1.8865196E-1,-8.4849425E-2,5.787706E-1,-7.180793E-1,2.3107676E-2,1.0989127E-2,-2.1658214E-2,3.8272973E-2,-2.3367943E-3,-0E0,-4.10795E-2],"categories":[],"categories_nodes":[],"categories_segments":[],"categories_sizes":[],"default_left":[0,0,0,0,0,0,0,0,0,0,0,0,0,0,0,0,0],"id":26,"left_children":[1,3,5,-1,-1,7,9,11,13,15,-1,-1,-1,-1,-1,-1,-1],"loss_changes":[1.8370309E0,1.09787E0,1.5483737E0,0E0,0E0,1.6213937E0,3.5916362E0,8.7054205E-1,1.5341947E0,9.437966E-2,0E0,0E0,0E0,0E0,0E0,0E0,0E0],"parents":[2147483647,0,0,1,1,2,2,5,5,6,6,7,7,8,8,9,9],"right_children":[2,4,6,-1,-1,8,10,12,14,16,-1,-1,-1,-1,-1,-1,-1],"split_conditions":[3.5361E2,8.75E-1,3.7455E2,-3.3847522E-2,4.94297E-4,4.5714286E-1,3.8443E2,3.0714285E-1,7.785714E-1,3.2857144E-1,2.3107676E-2,1.0989127E-2,-2.1658214E-2,3.8272973E-2,-2.3367943E-3,-0E0,-4.10795E-2],"split_indices":[7,4,7,0,0,4,7,4,4,4,0,0,0,0,0,0,0],"split_type":[0,0,0,0,0,0,0,0,0,0,0,0,0,0,0,0,0],"sum_hessian":[2.2277296E1,5.2986836E0,1.6978613E1,3.7096283E0,1.5890554E0,1.0852324E1,6.1262894E0,3.4043825E0,7.4479413E0,3.6878104E0,2.438479E0,1.4440098E0,1.9603727E0,6.0069656E0,1.4409758E0,1.2030919E0,2.4847186E0],"tree_param":{"num_deleted":"0","num_feature":"16","num_nodes":"17","size_leaf_vector":"1"}},{"base_weights":[-1.2196197E-1,-3.647777E-1,2.4847361E-1,4.584561E-2,-6.348046E-1,-9.508906E-2,3.0576235E-2,4.4908124E-1,-2.1535402E-2,-4.1329566E-2,6.5642744E-3,1.1875688E-1,-2.4577718E-2,3.1148855E-2,-0E0,1.9596048E-2,-4.524323E-3],"categories":[],"categories_nodes":[],"categories_segments":[],"categories_sizes":[],"default_left":[0,0,0,0,0,0,0,0,0,0,0,0,0,0,0,0,0],"id":27,"left_children":[1,3,5,7,9,11,-1,13,-1,-1,-1,15,-1,-1,-1,-1,-1],"loss_changes":[2.1979225E0,1.9912758E0,1.4965444E0,1.7399209E0,2.0023139E0,7.817559E-1,0E0,5.295441E-1,0E0,0E0,0E0,4.764939E-1,0E0,0E0,0E0,0E0,0E0],"parents":[2147483647,0,0,1,1,2,2,3,3,4,4,5,5,7,7,11,11],"right_children":[2,4,6,8,10,12,-1,14,-1,-1,-1,16,-1,-1,-1,-1,-1],"split_conditions":[6.724138E1,5.079365E1,3.7690536E2,3.749725E2,1.5E1,3.6409723E2,3.0576235E-2,4.871795E1,-2.1535402E-2,-4.1329566E-2,6.5642744E-3,7.6712326E1,-2.4577718E-2,3.1148855E-2,-0E0,1.9596048E-2,-4.524323E-3],"split_indices":[0,0,5,7,12,9,0,0,0,0,0,0,0,0,0,0,0],"split_type":[0,0,0,0,0,0,0,0,0,0,0,0,0,0,0,0,0],"sum_hessian":[1.9773737E1,1.277814E1,6.9955964E0,4.993466E0,7.7846737E0,3.645107E0,3.3504891E0,3.3355706E0,1.6578956E0,6.6216855E0,1.1629885E0,2.458705E0,1.1864021E0,2.1370473E0,1.1985232E0,1.345569E0,1.113136E0],"tree_param":{"num_deleted":"0","num_feature":"16","num_nodes":"17","size_leaf_vector":"1"}},{"base_weights":[-0E0,3.3751208E-1,-3.1342456E-1,6.278702E-1,-1.6186196E-2,-6.3505507E-1,1.3513298E-2,-0E0,4.0458113E-2,-3.8371336E-2,-5.6893263E-2,2.6066795E-1,-1.4975135E-2,-1.850505E-2,6.2455484E-3,-0E0,2.6951803E-2],"categories":[],"categories_nodes":[],"categories_segments":[],"categories_sizes":[],"default_left":[0,0,0,0,0,0,0,0,0,0,0,0,0,0,0,0,0],"id":28,"left_children":[1,3,5,7,-1,9,11,-1,-1,-1,13,15,-1,-1,-1,-1,-1],"loss_changes":[2.5113785E0,2.6377144E0,1.6957159E0,1.0394304E0,0E0,6.452727E-2,7.276205E-1,0E0,0E0,0E0,4.5630732E-1,5.010166E-1,0E0,0E0,0E0,0E0,0E0],"parents":[2147483647,0,0,1,1,2,2,3,3,5,5,6,6,10,10,11,11],"right_children":[2,4,6,8,-1,10,12,-1,-1,-1,14,16,-1,-1,-1,-1,-1],"split_conditions":[1.4948589E-2,1.3E1,6.538461E1,-8.720691E-2,-1.6186196E-2,6E0,1.4403225E0,-0E0,4.0458113E-2,-3.8371336E-2,4.4285715E-1,3.6659515E-1,-1.4975135E-2,-1.850505E-2,6.2455484E-3,-0E0,2.6951803E-2],"split_indices":[3,12,0,3,0,14,1,0,0,0,4,3,0,0,0,0,0],"split_type":[0,0,0,0,0,0,0,0,0,0,0,0,0,0,0,0,0],"sum_hessian":[1.9836575E1,8.8290615E0,1.1007514E1,6.7306266E0,2.0984347E0,5.369578E0,5.6379356E0,1.8863811E0,4.8442454E0,3.1327949E0,2.2367833E0,4.22989E0,1.4080456E0,1.0708088E0,1.1659745E0,3.048708E0,1.1811819E0],"tree_param":{"num_deleted":"0","num_feature":"16","num_nodes":"17","size_leaf_vector":"1"}},{"base_weights":[1.3795552E-1,-2.0615904E-1,4.98018E-1,1.7563578E-1,-6.122176E-1,-0E0,9.294146E-1,6.530816E-1,-2.2314936E-2,-3.9454784E-2,-0E0,-4.052697E-1,3.0384365E-2,5.269317E-2,3.9922787E-4,4.388804E-2,-0E0,-3.189906E-2,-0E0],"categories":[],"categories_nodes":[],"categories_segments":[],"categories_sizes":[],"default_left":[0,0,0,0,0,0,0,0,0,0,0,0,0,0,0,0,0,0,0],"id":29,"left_children":[1,3,5,7,9,11,13,15,-1,-1,-1,17,-1,-1,-1,-1,-1,-1,-1],"loss_changes":[3.3314707E0,2.4492383E0,3.1668577E0,2.9494033E0,5.531883E-1,2.2941575E0,3.023033E-1,1.021894E0,0E0,0E0,0E0,5.100974E-1,0E0,0E0,0E0,0E0,0E0,0E0,0E0],"parents":[2147483647,0,0,1,1,2,2,3,3,4,4,5,5,6,6,7,7,11,11],"right_children":[2,4,6,8,10,12,14,16,-1,-1,-1,18,-1,-1,-1,-1,-1,-1,-1],"split_conditions":[3.7005356E2,1.1232778E-2,5.1785713E-1,6E0,5.0437456E-1,3.8443E2,7.892857E-1,3.1290233E-1,-2.2314936E-2,-3.9454784E-2,-0E0,1.8116958E-1,3.0384365E-2,5.269317E-2,3.9922787E-4,4.388804E-2,-0E0,-3.189906E-2,-0E0],"split_indices":[5,3,4,14,2,7,4,2,0,0,0,2,0,0,0,0,0,0,0],"split_type":[0,0,0,0,0,0,0,0,0,0,0,0,0,0,0,0,0,0,0],"sum_hessian":[2.2052732E1,1.1003154E1,1.1049579E1,5.6213126E0,5.3818407E0,5.6365724E0,5.4130063E0,3.5781925E0,2.0431204E0,3.331827E0,2.050014E0,4.1669483E0,1.4696238E0,4.0375986E0,1.3754073E0,2.4143267E0,1.1638656E0,1.7417789E0,2.4251695E0],"tree_param":{"num_deleted":"0","num_feature":"16","num_nodes":"19","size_leaf_vector":"1"}},{"base_weights":[7.518818E-2,2.348086E-1,-3.7449902E-1,5.077218E-1,-0E0,-0E0,-5.126093E-1,3.939364E-2,-5.5261534E-3,-1.4620447E-1,1.8815396E-2,-0E0,-3.0615449E-2,-2.3313109E-2,1.6160619E-2],"categories":[],"categories_nodes":[],"categories_segments":[],"categories_sizes":[],"default_left":[0,0,0,0,0,0,0,0,0,0,0,0,0,0,0],"id":30,"left_children":[1,3,5,7,9,-1,11,-1,-1,13,-1,-1,-1,-1,-1],"loss_changes":[1.7735131E0,1.1974056E0,4.4142866E-1,2.0284338E0,8.0949444E-1,0E0,1.267494E-1,0E0,0E0,1.9173433E0,0E0,0E0,0E0,0E0,0E0],"parents":[2147483647,0,0,1,1,2,2,3,3,4,4,6,6,9,9],"right_children":[2,4,6,8,10,-1,12,-1,-1,14,-1,-1,-1,-1,-1],"split_conditions":[8E0,1.1232778E-2,3.4516235E2,3.6445934E-1,7E0,-0E0,1.0593615E-1,3.939364E-2,-5.5261534E-3,2.2467715E-1,1.8815396E-2,-0E0,-3.0615449E-2,-2.3313109E-2,1.6160619E-2],"split_indices":[14,3,10,2,14,0,2,0,0,3,0,0,0,0,0],"split_type":[0,0,0,0,0,0,0,0,0,0,0,0,0,0,0],"sum_hessian":[2.1230766E1,1.7194862E1,4.035903E0,6.750498E0,1.04443655E1,1.1343949E0,2.9015083E0,4.824382E0,1.9261156E0,8.27962E0,2.1647453E0,1.128165E0,1.7733433E0,5.564337E0,2.7152832E0],"tree_param":{"num_deleted":"0","num_feature":"16","num_nodes":"15","size_leaf_vector":"1"}},{"base_weights":[-2.126343E-2,3.7228847E-1,-1.4835088E-1,-0E0,2.7404953E-2,-4.4455034E-1,8.542363E-2,-0E0,-3.6668498E-2,4.5404676E-1,-1.7419605E-1,-2.2661895E-2,2.2639928E-2,2.831244E-2,-0E0,1.1700197E-2,-3.205599E-2],"categories":[],"categories_nodes":[],"categories_segments":[],"categories_sizes":[],"default_left":[0,0,0,0,0,0,0,0,0,0,0,0,0,0,0,0,0],"id":31,"left_children":[1,3,5,-1,-1,7,9,11,-1,13,15,-1,-1,-1,-1,-1,-1],"loss_changes":[1.127265E0,4.020273E-1,1.6023095E0,0E0,0E0,1.2256498E0,1.4087029E0,1.631322E0,0E0,3.4040093E-1,1.9252166E0,0E0,0E0,0E0,0E0,0E0,0E0],"parents":[2147483647,0,0,1,1,2,2,5,5,6,6,7,7,9,9,10,10],"right_children":[2,4,6,-1,-1,8,10,12,-1,14,16,-1,-1,-1,-1,-1,-1],"split_conditions":[3.5270535E2,3.49055E2,3.729875E2,-0E0,2.7404953E-2,6.0464228E-3,1E1,-4.8433486E-2,-3.6668498E-2,7.892857E-1,3.892857E-1,-2.2661895E-2,2.2639928E-2,2.831244E-2,-0E0,1.1700197E-2,-3.205599E-2],"split_indices":[5,7,5,0,0,3,12,3,0,4,4,0,0,0,0,0,0],"split_type":[0,0,0,0,0,0,0,0,0,0,0,0,0,0,0,0,0],"sum_hessian":[2.0568502E1,3.1184664E0,1.7450035E1,1.4187534E0,1.699713E0,7.845332E0,9.604703E0,3.9488134E0,3.896519E0,4.146034E0,5.4586697E0,2.0303316E0,1.9184818E0,3.0133152E0,1.1327186E0,2.8734472E0,2.5852222E0],"tree_param":{"num_deleted":"0","num_feature":"16","num_nodes":"17","size_leaf_vector":"1"}},{"base_weights":[6.7807116E-2,-4.0133408E-1,2.9279977E-1,-3.3967476E-2,-0E0,5.9017104E-1,-0E0,-6.4085075E-3,1.0827216E-2,3.4671646E-2,-0E0,2.3386462E-2,-3.001986E-1,-3.501445E-2,1.8276578E-2],"categories":[],"categories_nodes":[],"categories_segments":[],"categories_sizes":[],"default_left":[0,0,0,0,0,0,0,0,0,0,0,0,0,0,0],"id":32,"left_children":[1,3,5,-1,7,9,11,-1,-1,-1,-1,-1,13,-1,-1],"loss_changes":[2.3747404E0,9.424039E-1,1.6181241E0,0E0,2.0131744E-1,5.8165646E-1,1.5292649E0,0E0,0E0,0E0,0E0,0E0,2.6582394E0,0E0,0E0],"parents":[2147483647,0,0,1,1,2,2,4,4,5,5,6,6,12,12],"right_children":[2,4,6,-1,8,10,12,-1,-1,-1,-1,-1,14,-1,-1],"split_conditions":[3.5361E2,3E0,3.6750577E2,-3.3967476E-2,6.642857E-1,7.821429E-1,-9.914907E-3,-6.4085075E-3,1.0827216E-2,3.4671646E-2,-0E0,2.3386462E-2,7.307692E1,-3.501445E-2,1.8276578E-2],"split_indices":[7,13,10,0,4,4,3,0,0,0,0,0,0,0,0],"split_type":[0,0,0,0,0,0,0,0,0,0,0,0,0,0,0],"sum_hessian":[1.8785574E1,4.8606377E0,1.3924935E1,2.4363391E0,2.4242985E0,6.5655475E0,7.359388E0,1.2801882E0,1.1441103E0,5.4140763E0,1.1514714E0,1.9297335E0,5.4296546E0,3.7957304E0,1.6339244E0],"tree_param":{"num_deleted":"0","num_feature":"16","num_nodes":"15","size_leaf_vector":"1"}},{"base_weights":[-0E0,1.6925222E-1,-4.5996636E-1,-0E0,3.302457E-2,-0E0,-3.4914233E-2,3.2786983E-1,-4.1410246E-1,2.8745417E-2,-7.075283E-3,-2.7536526E-2,-0E0],"categories":[],"categories_nodes":[],"categories_segments":[],"categories_sizes":[],"default_left":[0,0,0,0,0,0,0,0,0,0,0,0,0],"id":33,"left_children":[1,3,5,7,-1,-1,-1,9,11,-1,-1,-1,-1],"loss_changes":[1.8816175E0,1.6566899E0,7.6254225E-1,2.3623295E0,0E0,0E0,0E0,1.4640937E0,6.8735194E-1,0E0,0E0,0E0,0E0],"parents":[2147483647,0,0,1,1,2,2,3,3,7,7,8,8],"right_children":[2,4,6,8,-1,-1,-1,10,12,-1,-1,-1,-1],"split_conditions":[8E0,7.45098E1,1.1E1,1.451199E-2,3.302457E-2,-0E0,-3.4914233E-2,3.6445934E-1,1.8987882E-1,2.8745417E-2,-7.075283E-3,-2.7536526E-2,-0E0],"split_indices":[14,0,12,3,0,0,0,2,3,0,0,0,0],"split_type":[0,0,0,0,0,0,0,0,0,0,0,0,0],"sum_hessian":[2.0683998E1,1.626319E1,4.4208093E0,1.3266356E1,2.9968333E0,2.0709722E0,2.349837E0,7.354474E0,5.9118824E0,5.2217636E0,2.1327105E0,4.739401E0,1.1724815E0],"tree_param":{"num_deleted":"0","num_feature":"16","num_nodes":"13","size_leaf_vector":"1"}},{"base_weights":[-0E0,2.6701694E-2,-1.1598627E-1,-5.5145556E-1,7.3219575E-2,-7.074359E-1,-0E0,-1.8765545E-1,4.0681636E-1,-0E0,-4.1827414E-2,2.4538292E-2,-2.501835E-2,-4.820335E-3,3.280537E-2],"categories":[],"categories_nodes":[],"categories_segments":[],"categories_sizes":[],"default_left":[0,0,0,0,0,0,0,0,0,0,0,0,0,0,0],"id":34,"left_children":[1,-1,3,5,7,9,-1,11,13,-1,-1,-1,-1,-1,-1],"loss_changes":[1.3182986E0,0E0,2.0453389E0,8.472991E-1,1.6167505E0,4.0354443E-1,0E0,2.4607642E0,1.4478886E0,0E0,0E0,0E0,0E0,0E0,0E0],"parents":[2147483647,0,0,2,2,3,3,4,4,5,5,7,7,8,8],"right_children":[2,-1,4,6,8,10,-1,12,14,-1,-1,-1,-1,-1,-1],"split_conditions":[3.1071427E-1,2.6701694E-2,4.5714286E-1,3.828375E2,3.698482E2,3.5270535E2,-0E0,8.7133534E-2,5.1785713E-1,-0E0,-4.1827414E-2,2.4538292E-2,-2.501835E-2,-4.820335E-3,3.280537E-2],"split_indices":[4,0,4,7,5,5,0,2,4,0,0,0,0,0,0],"split_type":[0,0,0,0,0,0,0,0,0,0,0,0,0,0,0],"sum_hessian":[2.0576462E1,1.634644E0,1.8941816E1,5.37784E0,1.3563977E1,4.176098E0,1.2017424E0,7.261542E0,6.302435E0,1.1826656E0,2.9934323E0,1.4273156E0,5.834226E0,1.8297452E0,4.47269E0],"tree_param":{"num_deleted":"0","num_feature":"16","num_nodes":"15","size_leaf_vector":"1"}},{"base_weights":[-5.5290475E-2,2.5277352E-2,-2.1346217E-1,-5.136556E-1,5.289697E-2,-3.557244E-2,-0E0,2.8318694E-2,-7.865653E-2,2.4044806E-2,-1.8158441E-2,-2.5417123E-2,9.936131E-3],"categories":[],"categories_nodes":[],"categories_segments":[],"categories_sizes":[],"default_left":[0,0,0,0,0,0,0,0,0,0,0,0,0],"id":35,"left_children":[1,-1,3,5,7,-1,9,-1,11,-1,-1,-1,-1],"loss_changes":[1.9428656E0,0E0,1.7696921E0,1.2632883E0,1.0605396E0,0E0,1.1263944E0,0E0,1.4957032E0,0E0,0E0,0E0,0E0],"parents":[2147483647,0,0,2,2,3,3,4,4,6,6,8,8],"right_children":[2,-1,4,6,8,-1,10,-1,12,-1,-1,-1,-1],"split_conditions":[4.3396225E1,2.5277352E-2,3.6382104E2,6.6666664E1,3.6873422E2,-3.557244E-2,7.6712326E1,2.8318694E-2,3.8214108E2,2.4044806E-2,-1.8158441E-2,-2.5417123E-2,9.936131E-3],"split_indices":[0,0,9,0,9,0,0,0,5,0,0,0,0],"split_type":[0,0,0,0,0,0,0,0,0,0,0,0,0],"sum_hessian":[1.9114946E1,2.5433512E0,1.6571596E1,7.8005176E0,8.771078E0,5.6044774E0,2.1960402E0,1.2157959E0,7.5552826E0,1.1115068E0,1.0845333E0,3.0177581E0,4.5375247E0],"tree_param":{"num_deleted":"0","num_feature":"16","num_nodes":"13","size_leaf_vector":"1"}},{"base_weights":[-3.4078456E-2,-1.5708484E-1,2.3569837E-2,-0E0,-5.505366E-1,-2.5296667E-1,2.590792E-1,-3.4408238E-2,-0E0,1.4399536E-3,-2.2282224E-2,2.0438338E-2,-0E0],"categories":[],"categories_nodes":[],"categories_segments":[],"categories_sizes":[],"default_left":[0,0,0,0,0,0,0,0,0,0,0,0,0],"id":36,"left_children":[1,3,-1,5,7,9,11,-1,-1,-1,-1,-1,-1],"loss_changes":[1.3231821E0,1.3567588E0,0E0,1.1461215E0,3.7431693E-1,6.849213E-1,5.3410286E-1,0E0,0E0,0E0,0E0,0E0,0E0],"parents":[2147483647,0,0,1,1,3,3,4,4,5,5,6,6],"right_children":[2,4,-1,6,8,10,12,-1,-1,-1,-1,-1,-1],"split_conditions":[3.8443E2,3.7577933E2,2.3569837E-2,3.566975E2,2.542851E-1,3.40155E2,3E0,-3.4408238E-2,-0E0,1.4399536E-3,-2.2282224E-2,2.0438338E-2,-0E0],"split_indices":[7,9,0,7,2,7,13,0,0,0,0,0,0],"split_type":[0,0,0,0,0,0,0,0,0,0,0,0,0],"sum_hessian":[1.9426676E1,1.7528728E1,1.8979462E0,1.3462412E1,4.0663166E0,6.304111E0,7.1583014E0,2.6729245E0,1.393392E0,2.197142E0,4.1069694E0,4.875485E0,2.2828162E0],"tree_param":{"num_deleted":"0","num_feature":"16","num_nodes":"13","size_leaf_vector":"1"}},{"base_weights":[3.315366E-2,-3.5746652E-1,2.2626379E-1,-2.356051E-2,-0E0,-0E0,3.7712798E-2,2.9656863E-2,-2.0252287E-1,-1.8858613E-2,1.4026429E-2],"categories":[],"categories_nodes":[],"categories_segments":[],"categories_sizes":[],"default_left":[0,0,0,0,0,0,0,0,0,0,0],"id":37,"left_children":[1,3,5,-1,-1,7,-1,-1,9,-1,-1],"loss_changes":[1.6630417E0,3.903936E-1,2.0218818E0,0E0,0E0,1.742229E0,0E0,0E0,1.2184622E0,0E0,0E0],"parents":[2147483647,0,0,1,1,2,2,5,5,8,8],"right_children":[2,4,6,-1,-1,8,-1,-1,10,-1,-1],"split_conditions":[3.5146313E2,4E0,5.8448225E-1,-2.356051E-2,-0E0,9.0609305E-2,3.7712798E-2,2.9656863E-2,3.8443E2,-1.8858613E-2,1.4026429E-2],"split_indices":[10,13,1,0,0,1,0,0,7,0,0],"split_type":[0,0,0,0,0,0,0,0,0,0,0],"sum_hessian":[1.8771885E1,4.790446E0,1.398144E1,3.666087E0,1.1243588E0,1.0989268E1,2.9921713E0,1.6275736E0,9.361694E0,7.957932E0,1.4037626E0],"tree_param":{"num_deleted":"0","num_feature":"16","num_nodes":"11","size_leaf_vector":"1"}},{"base_weights":[1.546543E-1,-0E0,6.759295E-1,2.7826598E-1,-3.7995154E-1,-0E0,4.019587E-2,5.7795274E-1,-2.4067564E-1,-4.1202992E-2,4.125412E-2,3.511903E-2,-0E0,-2.7458865E-2,2.7105017E-3,1.7834358E-2,-1.7524455E-2],"categories":[],"categories_nodes":[],"categories_segments":[],"categories_sizes":[],"default_left":[0,0,0,0,0,0,0,0,0,0,0,0,0,0,0,0,0],"id":38,"left_children":[1,3,5,7,9,-1,-1,11,13,-1,15,-1,-1,-1,-1,-1,-1],"loss_changes":[2.1264732E0,2.2316136E0,3.9638186E-1,2.1922512E0,2.2249904E0,0E0,0E0,7.7075124E-1,7.53685E-1,0E0,1.0156766E0,0E0,0E0,0E0,0E0,0E0,0E0],"parents":[2147483647,0,0,1,1,2,2,3,3,4,4,7,7,8,8,10,10],"right_children":[2,4,6,8,10,-1,-1,12,14,-1,16,-1,-1,-1,-1,-1,-1],"split_conditions":[7.307692E1,1.4948589E-2,3.5430832E2,3.6445934E-1,4.857143E-1,-0E0,4.019587E-2,8E0,5.535714E-1,-4.1202992E-2,3.7577933E2,3.511903E-2,-0E0,-2.7458865E-2,2.7105017E-3,1.7834358E-2,-1.7524455E-2],"split_indices":[0,3,8,2,4,0,0,14,4,0,9,0,0,0,0,0,0],"split_type":[0,0,0,0,0,0,0,0,0,0,0,0,0,0,0,0,0],"sum_hessian":[2.0493584E1,1.6661703E1,3.8318815E0,9.22309E0,7.4386125E0,1.0957913E0,2.73609E0,6.313271E0,2.909819E0,3.2675736E0,4.1710386E0,5.191062E0,1.1222091E0,1.407853E0,1.5019658E0,3.1167452E0,1.0542936E0],"tree_param":{"num_deleted":"0","num_feature":"16","num_nodes":"17","size_leaf_vector":"1"}},{"base_weights":[5.5691157E-2,2.6299652E-1,-4.2352444E-1,-0E0,3.7551638E-2,-0E0,-5.741416E-1,2.4073524E-2,-1.7288294E-1,-3.3577014E-2,-0E0,2.6358084E-3,-3.0900702E-2],"categories":[],"categories_nodes":[],"categories_segments":[],"categories_sizes":[],"default_left":[0,0,0,0,0,0,0,0,0,0,0,0,0],"id":39,"left_children":[1,3,5,7,-1,-1,9,-1,11,-1,-1,-1,-1],"loss_changes":[2.2745826E0,2.110051E0,6.320076E-1,1.2854854E0,0E0,0E0,6.627917E-2,0E0,1.4521444E0,0E0,0E0,0E0,0E0],"parents":[2147483647,0,0,1,1,2,2,3,3,6,6,8,8],"right_children":[2,4,6,8,-1,-1,10,-1,12,-1,-1,-1,-1],"split_conditions":[7.892857E-1,4.3257838E-1,3.510611E2,3.1428573E-1,3.7551638E-2,-0E0,9.2142856E-1,2.4073524E-2,1.3E1,-3.3577014E-2,-0E0,2.6358084E-3,-3.0900702E-2],"split_indices":[4,1,9,4,0,0,4,0,12,0,0,0,0],"split_type":[0,0,0,0,0,0,0,0,0,0,0,0,0],"sum_hessian":[1.946155E1,1.4943049E1,4.5185013E0,1.1124501E1,3.8185484E0,1.054183E0,3.4643185E0,2.1274495E0,8.997051E0,2.1411734E0,1.323145E0,6.395563E0,2.6014884E0],"tree_param":{"num_deleted":"0","num_feature":"16","num_nodes":"13","size_leaf_vector":"1"}},{"base_weights":[5.695078E-2,-1.7863503E-2,2.5536457E-2,-3.3189318E-1,2.0895141E-1,3.6312118E-3,-4.5613062E-1,4.7052416E-1,-9.058364E-2,-0E0,-2.9732583E-2,3.444651E-2,-0E0,-2.6009519E-2,8.124832E-3],"categories":[],"categories_nodes":[],"categories_segments":[],"categories_sizes":[],"default_left":[0,0,0,0,0,0,0,0,0,0,0,0,0,0,0],"id":40,"left_children":[1,3,-1,5,7,-1,9,11,13,-1,-1,-1,-1,-1,-1],"loss_changes":[1.0051682E0,1.6041254E0,0E0,7.5873053E-1,1.1956456E0,0E0,6.1030376E-1,8.014878E-1,1.0287913E0,0E0,0E0,0E0,0E0,0E0,0E0],"parents":[2147483647,0,0,1,1,3,3,4,4,6,6,7,7,8,8],"right_children":[2,4,-1,6,8,-1,10,12,14,-1,-1,-1,-1,-1,-1],"split_conditions":[3.8443E2,5.535714E-1,2.5536457E-2,3.1071427E-1,7.785714E-1,3.6312118E-3,1E0,1.1830723E-1,9.035714E-1,-0E0,-2.9732583E-2,3.444651E-2,-0E0,-2.6009519E-2,8.124832E-3],"split_indices":[7,4,0,4,4,0,13,3,4,0,0,0,0,0,0],"split_type":[0,0,0,0,0,0,0,0,0,0,0,0,0,0,0],"sum_hessian":[1.9811724E1,1.7711107E1,2.1006162E0,7.9634466E0,9.747661E0,1.1207175E0,6.842729E0,5.485199E0,4.262462E0,1.9139805E0,4.9287486E0,3.1802144E0,2.3049843E0,1.5300202E0,2.732442E0],"tree_param":{"num_deleted":"0","num_feature":"16","num_nodes":"15","size_leaf_vector":"1"}},{"base_weights":[3.571176E-2,-5.8875855E-2,2.703367E-2,7.279588E-2,-3.520629E-2,-1.7437164E-1,5.237854E-1,1.1021406E-2,-2.053288E-2,3.625187E-2,-0E0],"categories":[],"categories_nodes":[],"categories_segments":[],"categories_sizes":[],"default_left":[0,0,0,0,0,0,0,0,0,0,0],"id":41,"left_children":[1,3,-1,5,-1,7,9,-1,-1,-1,-1],"loss_changes":[1.2942088E0,1.9832188E0,0E0,2.1930351E0,0E0,1.3416659E0,7.683358E-1,0E0,0E0,0E0,0E0],"parents":[2147483647,0,0,1,1,3,3,5,5,6,6],"right_children":[2,4,-1,6,-1,8,10,-1,-1,-1,-1],"split_conditions":[3.8490106E2,3.761E2,2.703367E-2,3.630475E2,-3.520629E-2,3.4767834E2,3.714125E2,1.1021406E-2,-2.053288E-2,3.625187E-2,-0E0],"split_indices":[9,8,0,7,0,8,7,0,0,0,0],"split_type":[0,0,0,0,0,0,0,0,0,0,0],"sum_hessian":[1.8719854E1,1.6420635E1,2.299219E0,1.4467768E1,1.952868E0,9.422017E0,5.0457506E0,2.7856846E0,6.6363325E0,3.138774E0,1.9069768E0],"tree_param":{"num_deleted":"0","num_feature":"16","num_nodes":"11","size_leaf_vector":"1"}},{"base_weights":[8.133163E-3,2.7479095E-2,-9.450142E-2,-5.391116E-1,1.3175142E-1,-0E0,-3.478005E-2,4.419017E-1,-3.0359694E-1,-1.1956472E-2,3.5542082E-2,2.7750088E-3,-2.8400198E-2],"categories":[],"categories_nodes":[],"categories_segments":[],"categories_sizes":[],"default_left":[0,0,0,0,0,0,0,0,0,0,0,0,0],"id":42,"left_children":[1,-1,3,5,7,-1,-1,9,11,-1,-1,-1,-1],"loss_changes":[1.4637475E0,0E0,2.1624243E0,8.1751585E-1,2.0699246E0,0E0,0E0,2.2201896E0,8.750123E-1,0E0,0E0,0E0,0E0],"parents":[2147483647,0,0,2,2,3,3,4,4,7,7,8,8],"right_children":[2,-1,4,6,8,-1,-1,10,12,-1,-1,-1,-1],"split_conditions":[3.1428573E-1,2.7479095E-2,4.642857E-1,-3.5054285E-2,7.821429E-1,-0E0,-3.478005E-2,3.5361E2,3.492025E2,-1.1956472E-2,3.5542082E-2,2.7750088E-3,-2.8400198E-2],"split_indices":[4,0,4,3,4,0,0,7,7,0,0,0,0],"split_type":[0,0,0,0,0,0,0,0,0,0,0,0,0],"sum_hessian":[1.8376226E1,2.3166907E0,1.6059536E1,5.2287846E0,1.0830751E1,1.1970909E0,4.0316935E0,6.977938E0,3.8528137E0,1.5119061E0,5.466032E0,1.5020343E0,2.3507793E0],"tree_param":{"num_deleted":"0","num_feature":"16","num_nodes":"13","size_leaf_vector":"1"}},{"base_weights":[2.315423E-2,-3.754093E-1,2.4329984E-1,-0E0,-2.9070942E-2,3.981933E-1,-1.5388319E-2,5.000023E-1,-1.9830232E-3,1.3739022E-3,3.4087695E-2],"categories":[],"categories_nodes":[],"categories_segments":[],"categories_sizes":[],"default_left":[0,0,0,0,0,0,0,0,0,0,0],"id":43,"left_children":[1,3,5,-1,-1,7,-1,9,-1,-1,-1],"loss_changes":[1.7417856E0,7.0169365E-1,1.4813223E0,0E0,0E0,8.2580256E-1,0E0,5.6916237E-1,0E0,0E0,0E0],"parents":[2147483647,0,0,1,1,2,2,5,5,7,7],"right_children":[2,4,6,-1,-1,8,-1,10,-1,-1,-1],"split_conditions":[3.53094E2,3.39695E2,7.892857E-1,-0E0,-2.9070942E-2,8E0,-1.5388319E-2,2E0,-1.9830232E-3,1.3739022E-3,3.4087695E-2],"split_indices":[10,8,4,0,0,14,0,13,0,0,0],"split_type":[0,0,0,0,0,0,0,0,0,0,0],"sum_hessian":[1.6522099E1,4.5687704E0,1.1953328E1,1.7545271E0,2.8142433E0,1.0472016E1,1.4813118E0,9.192619E0,1.2793976E0,3.9574008E0,5.235218E0],"tree_param":{"num_deleted":"0","num_feature":"16","num_nodes":"11","size_leaf_vector":"1"}},{"base_weights":[-4.2818934E-2,-4.9170235E-1,1.1893898E-1,-0E0,-3.565043E-2,3.001045E-2,-1.0976237E-2,-2.1887669E-1,2.3582382E-2,7.0191645E-3,-2.810753E-2],"categories":[],"categories_nodes":[],"categories_segments":[],"categories_sizes":[],"default_left":[0,0,0,0,0,0,0,0,0,0,0],"id":44,"left_children":[1,3,5,-1,-1,-1,7,9,-1,-1,-1],"loss_changes":[1.8077404E0,8.079958E-1,1.3095556E0,0E0,0E0,0E0,1.460958E0,1.8127174E0,0E0,0E0,0E0],"parents":[2147483647,0,0,1,1,2,2,6,6,7,7],"right_children":[2,4,6,-1,-1,-1,8,10,-1,-1,-1],"split_conditions":[3.53094E2,3.40155E2,3.5677335E2,-0E0,-3.565043E-2,3.001045E-2,3.8443E2,3.7690536E2,2.3582382E-2,7.0191645E-3,-2.810753E-2],"split_indices":[10,7,8,0,0,0,7,5,0,0,0],"split_type":[0,0,0,0,0,0,0,0,0,0,0],"sum_hessian":[1.8718697E1,4.6967154E0,1.4021981E1,1.9226038E0,2.7741115E0,2.2596767E0,1.1762304E1,9.708945E0,2.0533583E0,4.609897E0,5.0990486E0],"tree_param":{"num_deleted":"0","num_feature":"16","num_nodes":"11","size_leaf_vector":"1"}},{"base_weights":[-3.673182E-2,-4.4825765E-1,1.5786314E-1,2.6926298E-3,-3.5271477E-2,-2.944172E-1,4.4533303E-1,7.2371545E-3,-2.8279075E-2,5.5174774E-1,-0E0,3.2441303E-2,4.627862E-4],"categories":[],"categories_nodes":[],"categories_segments":[],"categories_sizes":[],"default_left":[0,0,0,0,0,0,0,0,0,0,0,0,0],"id":45,"left_children":[1,3,5,-1,-1,7,9,-1,-1,11,-1,-1,-1],"loss_changes":[1.9585165E0,1.4410135E0,2.2655978E0,0E0,0E0,1.1232352E0,5.775702E-1,0E0,0E0,1.2040281E-1,0E0,0E0,0E0],"parents":[2147483647,0,0,1,1,2,2,5,5,6,6,9,9],"right_children":[2,4,6,-1,-1,8,10,-1,-1,12,-1,-1,-1],"split_conditions":[4.5714286E-1,1E0,3.53094E2,2.6926298E-3,-3.5271477E-2,3.43095E2,7.892857E-1,7.2371545E-3,-2.8279075E-2,1.2663351E-1,-0E0,3.2441303E-2,4.627862E-4],"split_indices":[4,6,10,0,0,11,4,0,0,3,0,0,0],"split_type":[0,0,0,0,0,0,0,0,0,0,0,0,0],"sum_hessian":[1.8876308E1,6.0481496E0,1.2828159E1,1.9255723E0,4.122577E0,4.2903876E0,8.537772E0,1.2898922E0,3.0004952E0,6.762198E0,1.7755742E0,4.6214933E0,2.1407046E0],"tree_param":{"num_deleted":"0","num_feature":"16","num_nodes":"13","size_leaf_vector":"1"}},{"base_weights":[2.1028573E-2,-4.494072E-1,2.7038115E-1,-0E0,-3.1758215E-2,5.3605473E-1,-0E0,3.352509E-2,-0E0,-2.9089573E-1,2.1314076E-1,-2.4307527E-2,-0E0,-7.923021E-3,1.9571327E-2],"categories":[],"categories_nodes":[],"categories_segments":[],"categories_sizes":[],"default_left":[0,0,0,0,0,0,0,0,0,0,0,0,0,0,0],"id":46,"left_children":[1,3,5,-1,-1,7,9,-1,-1,11,13,-1,-1,-1,-1],"loss_changes":[2.6620073E0,7.5948834E-1,9.301293E-1,0E0,0E0,5.3701305E-1,7.522929E-1,0E0,0E0,4.2751393E-1,7.7589107E-1,0E0,0E0,0E0,0E0],"parents":[2147483647,0,0,1,1,2,2,5,5,6,6,9,9,10,10],"right_children":[2,4,6,-1,-1,8,10,-1,-1,12,14,-1,-1,-1,-1],"split_conditions":[3.566975E2,3.43095E2,-1.7161967E-2,-0E0,-3.1758215E-2,4.0739053E-1,3.1408798E-2,3.352509E-2,-0E0,3.7765E2,3.7214642E2,-2.4307527E-2,-0E0,-7.923021E-3,1.9571327E-2],"split_indices":[7,7,3,0,0,1,3,0,0,7,5,0,0,0,0],"split_type":[0,0,0,0,0,0,0,0,0,0,0,0,0,0,0],"sum_hessian":[1.9384521E1,5.4647613E0,1.3919761E1,1.8451945E0,3.6195664E0,5.2870173E0,8.632743E0,3.8521612E0,1.4348564E0,2.5520306E0,6.080713E0,1.4386908E0,1.1133399E0,1.1343337E0,4.946379E0],"tree_param":{"num_deleted":"0","num_feature":"16","num_nodes":"15","size_leaf_vector":"1"}},{"base_weights":[2.3255043E-1,-0E0,5.77057E-1,1.9502172E-1,-2.5729546E-2,7.070582E-1,-0E0,4.820937E-1,-1.806963E-1,2.348912E-3,4.163393E-2,-0E0,3.2037362E-2,-2.0402635E-2,-0E0],"categories":[],"categories_nodes":[],"categories_segments":[],"categories_sizes":[],"default_left":[0,0,0,0,0,0,0,0,0,0,0,0,0,0,0],"id":47,"left_children":[1,3,5,7,-1,9,-1,11,13,-1,-1,-1,-1,-1,-1],"loss_changes":[1.8174319E0,1.6437248E0,7.008407E-1,1.4420825E0,0E0,7.669568E-2,0E0,4.936812E-1,3.835616E-1,0E0,0E0,0E0,0E0,0E0,0E0],"parents":[2147483647,0,0,1,1,2,2,3,3,5,5,7,7,8,8],"right_children":[2,4,6,8,-1,10,-1,12,14,-1,-1,-1,-1,-1,-1],"split_conditions":[6.470588E1,3.7577933E2,8.303571E1,5.5405407E1,-2.5729546E-2,2.3368514E-1,-0E0,3.529325E2,5.862069E1,2.348912E-3,4.163393E-2,-0E0,3.2037362E-2,-2.0402635E-2,-0E0],"split_indices":[0,9,0,0,0,2,0,7,0,0,0,0,0,0,0],"split_type":[0,0,0,0,0,0,0,0,0,0,0,0,0,0,0],"sum_hessian":[1.7741234E1,1.107734E1,6.663894E0,8.35767E0,2.7196696E0,5.1727314E0,1.4911628E0,5.171134E0,3.1865363E0,1.9027588E0,3.2699726E0,1.9091233E0,3.2620106E0,1.320629E0,1.8659073E0],"tree_param":{"num_deleted":"0","num_feature":"16","num_nodes":"15","size_leaf_vector":"1"}},{"base_weights":[-0E0,-3.35585E-1,3.2931918E-1,1.2695993E-2,-4.9421087E-1,-7.92825E-2,6.69126E-1,-0E0,-6.605676E-1,-2.1443063E-2,1.0745801E-2,3.835962E-2,-0E0,-1.1159244E-2,9.66117E-3,-3.7028037E-2,-0E0],"categories":[],"categories_nodes":[],"categories_segments":[],"categories_sizes":[],"default_left":[0,0,0,0,0,0,0,0,0,0,0,0,0,0,0,0,0],"id":48,"left_children":[1,3,5,-1,7,9,11,13,15,-1,-1,-1,-1,-1,-1,-1,-1],"loss_changes":[2.5392454E0,1.4954544E0,1.9183708E0,0E0,8.146186E-1,9.1681045E-1,1.4622426E-1,3.0084524E-1,3.0520153E-1,0E0,0E0,0E0,0E0,0E0,0E0,0E0,0E0],"parents":[2147483647,0,0,1,1,2,2,4,4,5,5,6,6,7,7,8,8],"right_children":[2,4,6,-1,8,10,12,14,16,-1,-1,-1,-1,-1,-1,-1,-1],"split_conditions":[3.729875E2,7.9964384E-2,5.1428574E-1,1.2695993E-2,3.5270535E2,3.8490106E2,7.892857E-1,3.398188E-1,3.7214642E2,-2.1443063E-2,1.0745801E-2,3.835962E-2,-0E0,-1.1159244E-2,9.66117E-3,-3.7028037E-2,-0E0],"split_indices":[5,2,4,0,5,9,4,2,5,0,0,0,0,0,0,0,0],"split_type":[0,0,0,0,0,0,0,0,0,0,0,0,0,0,0,0,0],"sum_hessian":[1.8951847E1,1.0023528E1,8.928318E0,1.2022E0,8.821328E0,4.081931E0,4.8463864E0,2.8972502E0,5.924078E0,2.223708E0,1.8582232E0,3.4564064E0,1.3899801E0,1.4733679E0,1.4238824E0,4.8611636E0,1.0629144E0],"tree_param":{"num_deleted":"0","num_feature":"16","num_nodes":"17","size_leaf_vector":"1"}},{"base_weights":[7.1009554E-2,-8.3258666E-2,3.8208377E-1,7.189932E-2,-3.2382626E-2,-0E0,3.0919692E-2,-1.81094E-1,4.244143E-1,1.6182765E-2,-1.5731867E-1,-2.3598421E-2,8.503716E-3,-0E0,2.7246673E-2,-2.2645187E-2,3.1332055E-3],"categories":[],"categories_nodes":[],"categories_segments":[],"categories_sizes":[],"default_left":[0,0,0,0,0,0,0,0,0,0,0,0,0,0,0,0,0],"id":49,"left_children":[1,3,5,7,-1,9,-1,11,13,-1,15,-1,-1,-1,-1,-1,-1],"loss_changes":[1.2531946E0,1.6995599E0,5.887773E-1,1.4272404E0,0E0,4.4748592E-1,0E0,1.1383868E0,4.2659009E-1,0E0,5.512708E-1,0E0,0E0,0E0,0E0,0E0,0E0],"parents":[2147483647,0,0,1,1,2,2,3,3,5,5,7,7,8,8,10,10],"right_children":[2,4,6,8,-1,10,-1,12,14,-1,16,-1,-1,-1,-1,-1,-1],"split_conditions":[3.8214108E2,3.714125E2,7E1,3.5533923E2,-3.2382626E-2,1E0,3.0919692E-2,3E0,1.5272105E-1,1.6182765E-2,3.882393E2,-2.3598421E-2,8.503716E-3,-0E0,2.7246673E-2,-2.2645187E-2,3.1332055E-3],"split_indices":[5,7,0,10,0,13,0,13,2,0,5,0,0,0,0,0,0],"split_type":[0,0,0,0,0,0,0,0,0,0,0,0,0,0,0,0,0],"sum_hessian":[1.9674994E1,1.3057081E1,6.6179113E0,1.091558E1,2.1415017E0,3.788319E0,2.8295922E0,6.095288E0,4.820292E0,1.1840018E0,2.6043172E0,3.736312E0,2.358976E0,1.2466309E0,3.5736613E0,1.1774648E0,1.4268523E0],"tree_param":{"num_deleted":"0","num_feature":"16","num_nodes":"17","size_leaf_vector":"1"}}]},"name":"gbtree"},"learner_model_param":{"base_score":"[4.2857143E-1]","boost_from_average":"1","num_class":"0","num_feature":"16","num_target":"1"},"objective":{"name":"binary:logistic","reg_loss_param":{"scale_pos_weight":"1"}}},"version":[3,3,0]}