{"learner":{"attributes":{"scikit_learn":"{\"_estimator_type\": \"classifier\"}"},"feature_names":["entry_rsi","entry_macd","entry_macd_signal","entry_macd_hist","entry_atr","entry_supertrend","entry_supertrend_dir","entry_ma20","entry_ma60","entry_bb_upper","entry_bb_lower","entry_bb_middle","entry_hour","entry_dayofweek","entry_month","regime"],"feature_types":["float","float","float","float","float","float","float","float","float","float","float","float","float","float","float","float"],"gradient_booster":{"model":{"cats":{"enc":[],"feature_segments":[],"sorted_idx":[]},"gbtree_model_param":{"num_parallel_tree":"1","num_trees":"50"},"iteration_indptr":[0,1,2,3,4,5,6,7,8,9,10,11,12,13,14,15,16,17,18,19,20,21,22,23,24,25,26,27,28,29,30,31,32,33,34,35,36,37,38,39,40,41,42,43,44,45,46,47,48,49,50],"tree_info":[0,0,0,0,0,0,0,0,0,0,0,0,0,0,0,0,0,0,0,0,0,0,0,0,0,0,0,0,0,0,0,0,0,0,0,0,0,0,0,0,0,0,0,0,0,0,0,0,0,0],"trees":[{"base_weights":[-2.547132E-2,-2.5905824E-1,2.7068266E-1,-4.68463E-1,1.9108309E-1,-2.853042E-1,6.678223E-1,1.0230942E-1,-4.1204244E-2,2.7755126E-2,-1.2408937E-2,3.6562476E-3,-3.2450955E-2,4.2882826E-2,-0E0,-7.6534073E-3,2.4841767E-2],"categories":[],"categories_nodes":[],"categories_segments":[],"categories_sizes":[],"default_left":[0,0,0,0,0,0,0,0,0,0,0,0,0,0,0,0,0],"id":0,"left_children":[1,3,5,7,9,11,13,15,-1,-1,-1,-1,-1,-1,-1,-1,-1],"loss_changes":[1.7682197E0,1.7475892E0,2.8793154E0,2.9024367E0,1.3050245E0,1.0647018E0,1.1763773E0,9.01007E-1,0E0,0E0,0E0,0E0,0E0,0E0,0E0,0E0,0E0],"parents":[2147483647,0,0,1,1,2,2,3,3,4,4,5,5,6,6,7,7],"right_children":[2,4,6,8,10,12,14,16,-1,-1,-1,-1,-1,-1,-1,-1,-1],"split_conditions":[6.6666664E1,3.6217676E2,3.4074286E2,3.2471893E2,1.2238968E-1,3.1767856E2,8.093385E1,5.072513E-1,-4.1204244E-2,2.7755126E-2,-1.2408937E-2,3.6562476E-3,-3.2450955E-2,4.2882826E-2,-0E0,-7.6534073E-3,2.4841767E-2],"split_indices":[0,10,5,9,1,5,0,1,0,0,0,0,0,0,0,0,0],"split_type":[0,0,0,0,0,0,0,0,0,0,0,0,0,0,0,0,0],"sum_hessian":[2.1617249E1,1.3169128E1,8.44812E0,9.690491E0,3.4786377E0,3.2301636E0,5.2179565E0,3.7271118E0,5.963379E0,2.236267E0,1.2423706E0,1.7393188E0,1.4908447E0,3.975586E0,1.2423706E0,2.236267E0,1.4908447E0],"tree_param":{"num_deleted":"0","num_feature":"16","num_nodes":"17","size_leaf_vector":"1"}},{"base_weights":[1.0539248E-1,8.4759915E-1,-1.6221587E-1,5.3295072E-2,-0E0,1.3193548E-1,-8.798544E-1,-2.934676E-1,4.636968E-1,-0E0,-5.1844295E-2,-3.660472E-2,9.375309E-3,3.7655156E-2,-8.204429E-3],"categories":[],"categories_nodes":[],"categories_segments":[],"categories_sizes":[],"default_left":[0,0,0,0,0,0,0,0,0,0,0,0,0,0,0],"id":1,"left_children":[1,3,5,-1,-1,7,9,11,13,-1,-1,-1,-1,-1,-1],"loss_changes":[5.603314E0,1.708149E0,4.7505093E0,0E0,0E0,2.4982708E0,6.1272573E-1,2.0682254E0,2.3510022E0,0E0,0E0,0E0,0E0,0E0,0E0],"parents":[2147483647,0,0,1,1,2,2,5,5,6,6,7,7,8,8],"right_children":[2,4,6,-1,-1,8,10,12,14,-1,-1,-1,-1,-1,-1],"split_conditions":[3.1851334E2,4E0,6E0,5.3295072E-2,-0E0,2.0356569E-1,4.9792822E-2,3.6242E2,3.64695E2,-0E0,-5.1844295E-2,-3.660472E-2,9.375309E-3,3.7655156E-2,-8.204429E-3],"split_indices":[8,13,14,0,0,1,2,8,7,0,0,0,0,0,0],"split_type":[0,0,0,0,0,0,0,0,0,0,0,0,0,0,0],"sum_hessian":[2.3101282E1,5.4684415E0,1.7632841E1,4.2260127E0,1.2424288E0,1.3170137E1,4.462703E0,5.2114573E0,7.9586806E0,1.2393576E0,3.2233458E0,2.7232833E0,2.488174E0,5.719315E0,2.2393658E0],"tree_param":{"num_deleted":"0","num_feature":"16","num_nodes":"15","size_leaf_vector":"1"}},{"base_weights":[-9.541829E-2,-4.2242028E-2,6.2060688E-2,6.7103773E-1,-8.081664E-2,4.797304E-2,-0E0,1.457282E-1,-5.341151E-1,-3.157497E-3,3.857344E-2,-3.3585068E-2,-1.190536E-3],"categories":[],"categories_nodes":[],"categories_segments":[],"categories_sizes":[],"default_left":[0,0,0,0,0,0,0,0,0,0,0,0,0],"id":2,"left_children":[1,-1,3,5,7,-1,-1,9,11,-1,-1,-1,-1],"loss_changes":[3.5771055E0,0E0,2.394662E0,1.3146272E0,2.3682883E0,0E0,0E0,2.2737598E0,1.6185236E-1,0E0,0E0,0E0,0E0],"parents":[2147483647,0,0,2,2,3,3,4,4,7,7,8,8],"right_children":[2,-1,4,6,8,-1,-1,10,12,-1,-1,-1,-1],"split_conditions":[-3.478878E-2,-4.2242028E-2,-5.322124E-3,2.0344087E-1,3.598469E2,4.797304E-2,-0E0,3.553525E2,3E0,-3.157497E-3,3.857344E-2,-3.3585068E-2,-1.190536E-3],"split_indices":[3,0,3,2,10,0,0,7,13,0,0,0,0],"split_type":[0,0,0,0,0,0,0,0,0,0,0,0,0],"sum_hessian":[2.4104887E1,3.2211776E0,2.088371E1,3.2286677E0,1.7655043E1,1.9856529E0,1.2430148E0,1.1941198E1,5.7138443E0,9.701764E0,2.2394345E0,3.2304919E0,2.4833522E0],"tree_param":{"num_deleted":"0","num_feature":"16","num_nodes":"13","size_leaf_vector":"1"}},{"base_weights":[6.4990036E-2,-1.3198158E-1,6.201066E-1,1.0572373E-1,-4.0263798E-2,-0E0,7.794471E-1,-3.228654E-1,5.414666E-1,4.8583772E-2,-0E0,-3.3737946E-2,9.84525E-3,4.532267E-2,-0E0],"categories":[],"categories_nodes":[],"categories_segments":[],"categories_sizes":[],"default_left":[0,0,0,0,0,0,0,0,0,0,0,0,0,0,0],"id":3,"left_children":[1,3,5,7,-1,-1,9,11,13,-1,-1,-1,-1,-1,-1],"loss_changes":[3.2049778E0,3.6996043E0,9.685743E-1,3.4286883E0,0E0,0E0,7.7416635E-1,2.0943017E0,1.8036938E0,0E0,0E0,0E0,0E0,0E0,0E0],"parents":[2147483647,0,0,1,1,2,2,3,3,6,6,7,7,8,8],"right_children":[2,4,6,8,-1,-1,10,12,14,-1,-1,-1,-1,-1,-1],"split_conditions":[6.964286E-1,5.714286E-1,-1.8642796E-2,2.734631E-1,-4.0263798E-2,-0E0,8.625401E-1,3.642857E-1,4.545816E-1,4.8583772E-2,-0E0,-3.3737946E-2,9.84525E-3,4.532267E-2,-0E0],"split_indices":[4,4,1,1,0,0,2,4,1,0,0,0,0,0,0],"split_type":[0,0,0,0,0,0,0,0,0,0,0,0,0,0,0],"sum_hessian":[2.3582346E1,1.786655E1,5.715797E0,1.3901858E1,3.9646916E0,1.2379341E0,4.477863E0,6.6911674E0,7.2106905E0,2.988293E0,1.4895699E0,4.207922E0,2.4832454E0,3.481771E0,3.7289195E0],"tree_param":{"num_deleted":"0","num_feature":"16","num_nodes":"15","size_leaf_vector":"1"}},{"base_weights":[1.1537139E-1,-2.0771897E-1,3.7921277E-1,-4.0159878E-1,1.793999E-2,5.681509E-1,-2.365089E-3,1.1554424E-2,-6.53462E-1,-0E0,3.2717403E-2,-2.3434678E-2,1.4594634E-2,-1.1347155E-2,1.7290283E-2,-3.8881768E-2,-2.2583443E-3],"categories":[],"categories_nodes":[],"categories_segments":[],"categories_sizes":[],"default_left":[0,0,0,0,0,0,0,0,0,0,0,0,0,0,0,0,0],"id":4,"left_children":[1,3,5,7,-1,9,11,13,15,-1,-1,-1,-1,-1,-1,-1,-1],"loss_changes":[2.276053E0,1.5353444E0,1.3443935E0,1.3678595E0,0E0,2.8045797E-1,1.1824638E0,6.124886E-1,4.3078423E-2,0E0,0E0,0E0,0E0,0E0,0E0,0E0,0E0],"parents":[2147483647,0,0,1,1,2,2,3,3,5,5,6,6,7,7,8,8],"right_children":[2,4,6,8,-1,10,12,14,16,-1,-1,-1,-1,-1,-1,-1,-1],"split_conditions":[6.0526318E1,7.25E-1,2.1297902E-1,8.787538E-2,1.793999E-2,2.5162023E-1,5.8679557E-1,2.951283E-2,5.4545456E1,-0E0,3.2717403E-2,-2.3434678E-2,1.4594634E-2,-1.1347155E-2,1.7290283E-2,-3.8881768E-2,-2.2583443E-3],"split_indices":[0,4,3,1,0,1,2,2,0,0,0,0,0,0,0,0,0],"split_type":[0,0,0,0,0,0,0,0,0,0,0,0,0,0,0,0,0],"sum_hessian":[2.1846277E1,9.159833E0,1.2686444E1,7.915661E0,1.2441721E0,8.707417E0,3.9790285E0,2.9687707E0,4.94689E0,1.9801573E0,6.727259E0,1.7381178E0,2.2409105E0,1.2342787E0,1.7344922E0,2.9632518E0,1.9836382E0],"tree_param":{"num_deleted":"0","num_feature":"16","num_nodes":"17","size_leaf_vector":"1"}},{"base_weights":[3.4282107E-2,-5.005503E-1,1.9970815E-1,-3.604228E-2,-0E0,4.943789E-1,-0E0,6.122501E-1,-0E0,2.4979092E-2,-1.5105218E-1,4.3258667E-2,3.3189026E-3,-2.522338E-2,7.761601E-3],"categories":[],"categories_nodes":[],"categories_segments":[],"categories_sizes":[],"default_left":[0,0,0,0,0,0,0,0,0,0,0,0,0,0,0],"id":5,"left_children":[1,3,5,-1,-1,7,9,11,-1,-1,13,-1,-1,-1,-1],"loss_changes":[2.4239945E0,8.968282E-1,1.2867639E0,0E0,0E0,7.0424485E-1,1.3665152E0,4.8528647E-1,0E0,0E0,1.7855195E0,0E0,0E0,0E0,0E0],"parents":[2147483647,0,0,1,1,2,2,5,5,6,6,7,7,10,10],"right_children":[2,4,6,-1,-1,8,10,12,-1,-1,14,-1,-1,-1,-1],"split_conditions":[5.1612904E1,1.7232162E-1,1.965056E-1,-3.604228E-2,-0E0,1.4E1,3.1425E2,9.537926E-2,-0E0,2.4979092E-2,3.4843045E2,4.3258667E-2,3.3189026E-3,-2.522338E-2,7.761601E-3],"split_indices":[0,2,2,0,0,12,5,3,0,0,10,0,0,0,0],"split_type":[0,0,0,0,0,0,0,0,0,0,0,0,0,0,0],"sum_hessian":[2.4837887E1,4.1964283E0,2.0641459E1,2.7137434E0,1.482685E0,6.9594393E0,1.3682019E1,5.7204866E0,1.2389526E0,2.2469857E0,1.1435033E1,2.4838045E0,3.2366824E0,5.466129E0,5.9689045E0],"tree_param":{"num_deleted":"0","num_feature":"16","num_nodes":"15","size_leaf_vector":"1"}},{"base_weights":[-2.3603756E-2,3.403079E-2,-1.9347006E-1,3.1012323E-1,-3.6405548E-1,-5.2214976E-2,3.705151E-2,-4.864021E-1,1.7569622E-2,1.6908322E-2,-2.8255627E-2,2.04699E-3,-3.3129003E-2],"categories":[],"categories_nodes":[],"categories_segments":[],"categories_sizes":[],"default_left":[0,0,0,0,0,0,0,0,0,0,0,0,0],"id":6,"left_children":[1,-1,3,5,7,9,-1,11,-1,-1,-1,-1,-1],"loss_changes":[3.0190794E0,0E0,2.1710134E0,1.35678E0,2.0148025E0,1.3948961E0,0E0,1.9536247E0,0E0,0E0,0E0,0E0,0E0],"parents":[2147483647,0,0,2,2,3,3,4,4,5,5,7,7],"right_children":[2,-1,4,6,8,10,-1,12,-1,-1,-1,-1,-1],"split_conditions":[1E0,3.403079E-2,3.198575E2,3.13215E2,1.0331295E0,3.0667853E2,3.705151E-2,1.2238968E-1,1.7569622E-2,1.6908322E-2,-2.8255627E-2,2.04699E-3,-3.3129003E-2],"split_indices":[13,0,7,7,1,10,0,1,0,0,0,0,0],"split_type":[0,0,0,0,0,0,0,0,0,0,0,0,0],"sum_hessian":[2.3072857E1,2.7432113E0,2.0329645E1,3.9883568E0,1.634129E1,2.4910266E0,1.4973302E0,1.5098491E1,1.2427988E0,1.2477915E0,1.2432351E0,3.4547675E0,1.1643723E1],"tree_param":{"num_deleted":"0","num_feature":"16","num_nodes":"13","size_leaf_vector":"1"}},{"base_weights":[-1.4079722E-2,3.6987938E-2,-1.4611746E-1,-6.6404635E-1,-0E0,-0E0,-3.9996784E-2,-3.258316E-2,1.3133363E-1,2.3578813E-2,-1.7792724E-2],"categories":[],"categories_nodes":[],"categories_segments":[],"categories_sizes":[],"default_left":[0,0,0,0,0,0,0,0,0,0,0],"id":7,"left_children":[1,-1,3,5,7,-1,-1,-1,9,-1,-1],"loss_changes":[2.4120317E0,0E0,1.8954527E0,2.9194427E-1,1.8029778E0,0E0,0E0,0E0,3.479487E0,0E0,0E0],"parents":[2147483647,0,0,2,2,3,3,4,4,8,8],"right_children":[2,-1,4,6,8,-1,-1,-1,10,-1,-1],"split_conditions":[3.071275E2,3.6987938E-2,-3.478878E-2,3E0,3.084545E2,-0E0,-3.9996784E-2,-3.258316E-2,3.599487E2,2.3578813E-2,-1.7792724E-2],"split_indices":[7,0,3,14,10,0,0,0,10,0,0],"split_type":[0,0,0,0,0,0,0,0,0,0,0],"sum_hessian":[2.3043108E1,1.498085E0,2.1545023E1,3.4384975E0,1.8106525E1,1.2345552E0,2.203942E0,1.4894844E0,1.661704E1,1.0426066E1,6.1909738E0],"tree_param":{"num_deleted":"0","num_feature":"16","num_nodes":"11","size_leaf_vector":"1"}},{"base_weights":[-0E0,1.8768881E-1,-5.3204775E-1,-1.6316006E-1,6.752446E-1,-3.791868E-2,2.0453E-3,-2.9298386E-2,-0E0,9.230728E-1,5.0276276E-2,2.7591368E-2,-1.966404E-2,1.171519E-3,5.25423E-2,-1.028384E-2,2.1908328E-2],"categories":[],"categories_nodes":[],"categories_segments":[],"categories_sizes":[],"default_left":[0,0,0,0,0,0,0,0,0,0,0,0,0,0,0,0,0],"id":8,"left_children":[1,3,5,7,9,-1,-1,-1,11,13,15,-1,-1,-1,-1,-1,-1],"loss_changes":[2.6393518E0,3.7433581E0,1.3216447E0,1.1236333E0,8.110328E-1,0E0,0E0,0E0,2.6622114E0,7.349014E-2,8.1645435E-1,0E0,0E0,0E0,0E0,0E0,0E0],"parents":[2147483647,0,0,1,1,2,2,3,3,4,4,8,8,9,9,10,10],"right_children":[2,4,6,8,10,-1,-1,-1,12,14,16,-1,-1,-1,-1,-1,-1],"split_conditions":[4.3583643E-1,2.924943E-1,9.192804E-1,3.8156483E-2,7.179487E1,-3.791868E-2,2.0453E-3,-2.9298386E-2,1.2877737E-1,3.1742856E2,7.931035E1,2.7591368E-2,-1.966404E-2,1.171519E-3,5.25423E-2,-1.028384E-2,2.1908328E-2],"split_indices":[2,1,2,2,0,0,0,0,2,5,0,0,0,0,0,0,0],"split_type":[0,0,0,0,0,0,0,0,0,0,0,0,0,0,0,0,0],"sum_hessian":[2.204572E1,1.7098564E1,4.947156E0,1.0120763E1,6.9778E0,3.707904E0,1.239252E0,2.2122266E0,7.908537E0,3.7404997E0,3.2373004E0,3.474509E0,4.4340277E0,1.2461783E0,2.4943216E0,1.7397777E0,1.4975227E0],"tree_param":{"num_deleted":"0","num_feature":"16","num_nodes":"17","size_leaf_vector":"1"}},{"base_weights":[-0E0,3.6802184E-2,-1.2283781E-1,-5.1212704E-1,1.9503474E-1,-7.438132E-1,-0E0,5.324574E-1,-5.273217E-1,-2.6479678E-3,-4.6552792E-2,1.7523577E-2,-9.491353E-3,-1.1812629E-3,4.5884248E-2,-0E0,-3.151137E-2],"categories":[],"categories_nodes":[],"categories_segments":[],"categories_sizes":[],"default_left":[0,0,0,0,0,0,0,0,0,0,0,0,0,0,0,0,0],"id":9,"left_children":[1,-1,3,5,7,9,11,13,15,-1,-1,-1,-1,-1,-1,-1,-1],"loss_changes":[2.2355218E0,0E0,3.1479166E0,1.6691663E0,3.769617E0,4.9822617E-1,5.325792E-1,2.7249086E0,7.070124E-2,0E0,0E0,0E0,0E0,0E0,0E0,0E0,0E0],"parents":[2147483647,0,0,2,2,3,3,4,4,5,5,6,6,7,7,8,8],"right_children":[2,-1,4,6,8,10,12,14,16,-1,-1,-1,-1,-1,-1,-1,-1],"split_conditions":[3.071275E2,3.6802184E-2,3.52035E2,5.4249835E-1,3.64075E2,3.1851334E2,8.379842E-1,1.917124E-2,1.5674219E-1,-2.6479678E-3,-4.6552792E-2,1.7523577E-2,-9.491353E-3,-1.1812629E-3,4.5884248E-2,-0E0,-3.151137E-2],"split_indices":[7,0,7,1,5,8,1,3,1,0,0,0,0,0,0,0,0],"split_type":[0,0,0,0,0,0,0,0,0,0,0,0,0,0,0,0,0],"sum_hessian":[2.2041822E1,1.498528E0,2.0543293E1,9.391967E0,1.1151327E1,6.417382E0,2.974585E0,8.431031E0,2.720296E0,2.4849339E0,3.932448E0,1.2404121E0,1.7341728E0,3.6874876E0,4.7435436E0,1.2376374E0,1.4826584E0],"tree_param":{"num_deleted":"0","num_feature":"16","num_nodes":"17","size_leaf_vector":"1"}},{"base_weights":[5.7671014E-2,-5.39266E-1,3.1480163E-1,-6.959389E-1,-0E0,4.8477876E-1,-1.878171E-2,-4.1786324E-2,-0E0,7.476714E-1,-0E0,4.8073854E-2,3.9601056E-3,3.6323763E-2,-1.657598E-2],"categories":[],"categories_nodes":[],"categories_segments":[],"categories_sizes":[],"default_left":[0,0,0,0,0,0,0,0,0,0,0,0,0,0,0],"id":10,"left_children":[1,3,5,7,-1,9,-1,-1,-1,11,13,-1,-1,-1,-1],"loss_changes":[3.9122972E0,5.9856486E-1,2.6049514E0,3.508892E-1,0E0,1.8500688E0,0E0,0E0,0E0,7.8590727E-1,2.58288E0,0E0,0E0,0E0,0E0],"parents":[2147483647,0,0,1,1,2,2,3,3,5,5,9,9,10,10],"right_children":[2,4,6,8,-1,10,-1,-1,-1,12,14,-1,-1,-1,-1],"split_conditions":[5.1785713E1,1.7976539E-1,3.7169104E2,3.628675E2,-0E0,5.0149727E-1,-1.878171E-2,-4.1786324E-2,-0E0,3E0,3.0667853E2,4.8073854E-2,3.9601056E-3,3.6323763E-2,-1.657598E-2],"split_indices":[0,1,9,7,0,1,0,0,0,13,10,0,0,0,0],"split_type":[0,0,0,0,0,0,0,0,0,0,0,0,0,0,0],"sum_hessian":[2.2007992E1,5.3797355E0,1.6628256E1,3.666889E0,1.7128465E0,1.4402454E1,2.225802E0,2.4320836E0,1.2348055E0,8.205169E0,6.1972857E0,4.9858465E0,3.2193224E0,1.4991179E0,4.698168E0],"tree_param":{"num_deleted":"0","num_feature":"16","num_nodes":"15","size_leaf_vector":"1"}},{"base_weights":[-9.053921E-2,3.190374E-2,-3.2387465E-1,-4.910054E-2,-0E0,3.2494578E-1,-5.4554576E-1,-0E0,2.6356077E-2,-0E0,-3.721895E-2],"categories":[],"categories_nodes":[],"categories_segments":[],"categories_sizes":[],"default_left":[0,0,0,0,0,0,0,0,0,0,0],"id":11,"left_children":[1,-1,3,-1,5,7,9,-1,-1,-1,-1],"loss_changes":[3.998166E0,0E0,4.228882E0,0E0,2.7939982E0,8.3881915E-1,5.015652E-1,0E0,0E0,0E0,0E0],"parents":[2147483647,0,0,2,2,4,4,5,5,6,6],"right_children":[2,-1,4,-1,6,8,10,-1,-1,-1,-1],"split_conditions":[3.1425E2,3.190374E-2,3.509985E2,-4.910054E-2,3.64075E2,3.1618815E-2,1.096395E-1,-0E0,2.6356077E-2,-0E0,-3.721895E-2],"split_indices":[5,0,9,0,5,3,2,0,0,0,0],"split_type":[0,0,0,0,0,0,0,0,0,0,0],"sum_hessian":[2.001001E1,3.4924557E0,1.6517553E1,4.3994474E0,1.2118107E1,8.431032E0,3.6870744E0,3.4482017E0,4.98283E0,1.7272242E0,1.9598503E0],"tree_param":{"num_deleted":"0","num_feature":"16","num_nodes":"11","size_leaf_vector":"1"}},{"base_weights":[-1.9806858E-2,-4.00283E-2,1.1214529E-1,-1.0768296E-1,6.036991E-1,-3.329238E-1,3.227939E-2,9.061328E-1,-1.2185435E-2,1.6229628E-2,-2.7192568E-2,-0E0,5.7023395E-2],"categories":[],"categories_nodes":[],"categories_segments":[],"categories_sizes":[],"default_left":[0,0,0,0,0,0,0,0,0,0,0,0,0],"id":12,"left_children":[1,-1,3,5,7,9,-1,11,-1,-1,-1,-1,-1],"loss_changes":[3.0928395E0,0E0,2.8134403E0,3.084566E0,2.8155296E0,2.485418E0,0E0,1.2910457E0,0E0,0E0,0E0,0E0,0E0],"parents":[2147483647,0,0,2,2,3,3,4,4,5,5,7,7],"right_children":[2,-1,4,6,8,10,-1,12,-1,-1,-1,-1,-1],"split_conditions":[-4.4185456E-2,-4.00283E-2,6.6071427E-1,7.931035E1,8.024691E1,-6.3876854E-3,3.227939E-2,9.589803E-2,-1.2185435E-2,1.6229628E-2,-2.7192568E-2,-0E0,5.7023395E-2],"split_indices":[3,0,4,0,0,3,0,2,0,0,0,0,0],"split_type":[0,0,0,0,0,0,0,0,0,0,0,0,0],"sum_hessian":[2.2936895E1,2.398727E0,2.053817E1,1.456792E1,5.970249E0,1.2584707E1,1.9832128E0,4.73264E0,1.2376095E0,2.2190628E0,1.0365644E1,1.4898994E0,3.2427404E0],"tree_param":{"num_deleted":"0","num_feature":"16","num_nodes":"13","size_leaf_vector":"1"}},{"base_weights":[-1.631118E-1,7.0105237E-1,-4.721828E-1,4.347181E-2,-0E0,-7.0697707E-1,2.1895841E-1,-3.197596E-1,-4.9972083E-2,-9.194225E-3,3.6239043E-2,-0E0,-3.6829956E-2],"categories":[],"categories_nodes":[],"categories_segments":[],"categories_sizes":[],"default_left":[0,0,0,0,0,0,0,0,0,0,0,0,0],"id":13,"left_children":[1,3,5,-1,-1,7,9,11,-1,-1,-1,-1,-1],"loss_changes":[6.7302237E0,5.907924E-1,3.5835276E0,0E0,0E0,3.9425611E-1,1.7028866E0,1.6403912E0,0E0,0E0,0E0,0E0,0E0],"parents":[2147483647,0,0,1,1,2,2,5,5,6,6,7,7],"right_children":[2,4,6,-1,-1,8,10,12,-1,-1,-1,-1,-1],"split_conditions":[3.1742856E2,3E0,7.419355E1,4.347181E-2,-0E0,5E0,4E0,3.64075E2,-4.9972083E-2,-9.194225E-3,3.6239043E-2,-0E0,-3.6829956E-2],"split_indices":[5,13,0,0,0,14,13,5,0,0,0,0,0],"split_type":[0,0,0,0,0,0,0,0,0,0,0,0,0],"sum_hessian":[2.11482E1,4.4767942E0,1.6671406E1,2.9925578E0,1.4842365E0,1.2949739E1,3.7216659E0,8.109364E0,4.840377E0,2.2300596E0,1.4916061E0,5.1809764E0,2.9283867E0],"tree_param":{"num_deleted":"0","num_feature":"16","num_nodes":"13","size_leaf_vector":"1"}},{"base_weights":[9.514978E-2,3.0613872E-1,-2.3103568E-1,3.658353E-2,3.9479937E-2,8.158545E-2,-6.410742E-1,4.0753946E-1,-1.473612E-1,2.1959834E-2,-1.3053129E-2,-3.713442E-2,-0E0,-9.544235E-3,4.578003E-2,1.6619787E-3,-1.8576607E-2],"categories":[],"categories_nodes":[],"categories_segments":[],"categories_sizes":[],"default_left":[0,0,0,0,0,0,0,0,0,0,0,0,0,0,0,0,0],"id":14,"left_children":[1,3,5,7,-1,9,11,13,15,-1,-1,-1,-1,-1,-1,-1,-1],"loss_changes":[1.8731817E0,1.7105443E0,1.6505681E0,1.1719319E0,0E0,1.1377821E0,4.854822E-2,2.5087628E0,5.8242905E-1,0E0,0E0,0E0,0E0,0E0,0E0,0E0,0E0],"parents":[2147483647,0,0,1,1,2,2,3,3,5,5,6,6,7,7,8,8],"right_children":[2,4,6,8,-1,10,12,14,16,-1,-1,-1,-1,-1,-1,-1,-1],"split_conditions":[5.0149727E-1,3.6391392E-1,3.497875E2,-6.3876854E-3,3.9479937E-2,1E1,7.786532E-1,4.7826088E1,3.559E2,2.1959834E-2,-1.3053129E-2,-3.713442E-2,-0E0,-9.544235E-3,4.578003E-2,1.6619787E-3,-1.8576607E-2],"split_indices":[1,1,7,3,0,12,1,0,7,0,0,0,0,0,0,0,0],"split_type":[0,0,0,0,0,0,0,0,0,0,0,0,0,0,0,0,0],"sum_hessian":[2.2616896E1,1.4738967E1,7.8779287E0,1.1508119E1,3.2308488E0,4.6870756E0,3.190853E0,3.9100122E0,7.5981064E0,2.731731E0,1.9553446E0,1.9556205E0,1.2352325E0,1.9167702E0,1.993242E0,3.9161267E0,3.6819794E0],"tree_param":{"num_deleted":"0","num_feature":"16","num_nodes":"17","size_leaf_vector":"1"}},{"base_weights":[3.5350606E-2,1.8871261E-1,-5.046228E-1,-1.22196816E-1,6.080719E-1,-3.036034E-2,-0E0,-4.4087797E-1,5.324155E-1,-0E0,8.140113E-1,-2.9669702E-2,1.990428E-3,3.623592E-2,-0E0,-1.6151367E-2,1.7307265E-2,5.4779407E-2,-0E0],"categories":[],"categories_nodes":[],"categories_segments":[],"categories_sizes":[],"default_left":[0,0,0,0,0,0,0,0,0,0,0,0,0,0,0,0,0,0,0],"id":15,"left_children":[1,3,5,7,9,-1,-1,11,13,15,17,-1,-1,-1,-1,-1,-1,-1,-1],"loss_changes":[2.2138972E0,3.3501744E0,1.9463265E-1,3.3466756E0,1.3342922E0,0E0,0E0,1.1327884E0,4.2206705E-1,7.5000924E-1,2.2052307E0,0E0,0E0,0E0,0E0,0E0,0E0,0E0,0E0],"parents":[2147483647,0,0,1,1,2,2,3,3,4,4,7,7,8,8,9,9,10,10],"right_children":[2,4,6,8,10,-1,-1,12,14,16,18,-1,-1,-1,-1,-1,-1,-1,-1],"split_conditions":[3.64075E2,3.52035E2,3.883125E2,5.8679557E-1,1.9792779E-1,-3.036034E-2,-0E0,1.8555199E-1,1.501128E-1,3.61325E2,4.2562118E-1,-2.9669702E-2,1.990428E-3,3.623592E-2,-0E0,-1.6151367E-2,1.7307265E-2,5.4779407E-2,-0E0],"split_indices":[5,7,7,2,1,0,0,3,3,7,2,0,0,0,0,0,0,0,0],"split_type":[0,0,0,0,0,0,0,0,0,0,0,0,0,0,0,0,0,0,0],"sum_hessian":[2.4341722E1,2.0691868E1,3.649855E0,1.2011539E1,8.680327E0,2.4299836E0,1.2198713E0,9.031572E0,2.9799674E0,2.7068233E0,5.973504E0,7.289831E0,1.741741E0,1.4913579E0,1.4886096E0,1.4634571E0,1.2433662E0,4.2388616E0,1.7346424E0],"tree_param":{"num_deleted":"0","num_feature":"16","num_nodes":"19","size_leaf_vector":"1"}},{"base_weights":[1.9126688E-3,7.328394E-1,-1.756389E-1,9.948917E-4,4.482822E-2,-5.7777226E-1,8.025242E-2,-7.497347E-1,3.1169706E-3,6.1184275E-1,-2.5517476E-1,-0E0,-4.2160723E-2,-1.6505854E-3,4.500478E-2,2.386038E-3,-3.510436E-2],"categories":[],"categories_nodes":[],"categories_segments":[],"categories_sizes":[],"default_left":[0,0,0,0,0,0,0,0,0,0,0,0,0,0,0,0,0],"id":16,"left_children":[1,3,5,-1,-1,7,9,11,-1,13,15,-1,-1,-1,-1,-1,-1],"loss_changes":[3.876394E0,2.0265055E-1,2.581861E0,0E0,0E0,1.4796214E0,3.040673E0,3.5962915E-1,0E0,1.7380338E0,1.6941619E0,0E0,0E0,0E0,0E0,0E0,0E0],"parents":[2147483647,0,0,1,1,2,2,5,5,6,6,7,7,9,9,10,10],"right_children":[2,4,6,-1,-1,8,10,12,-1,14,16,-1,-1,-1,-1,-1,-1],"split_conditions":[3.1904172E2,3.068275E2,3.52035E2,9.948917E-4,4.482822E-2,5.8679557E-1,3.599487E2,3.2050522E2,3.1169706E-3,1.917124E-2,9.060213E-2,-0E0,-4.2160723E-2,-1.6505854E-3,4.500478E-2,2.386038E-3,-3.510436E-2],"split_indices":[9,8,7,0,0,2,10,9,0,3,3,0,0,0,0,0,0],"split_type":[0,0,0,0,0,0,0,0,0,0,0,0,0,0,0,0,0],"sum_hessian":[2.3739222E1,3.9674697E0,1.9771751E1,1.7302129E0,2.237257E0,7.470324E0,1.2301427E1,6.2341547E0,1.2361696E0,4.698177E0,7.60325E0,1.2186971E0,5.0154576E0,1.4625814E0,3.2355955E0,4.9297566E0,2.6734936E0],"tree_param":{"num_deleted":"0","num_feature":"16","num_nodes":"17","size_leaf_vector":"1"}},{"base_weights":[2.2550017E-2,-3.6800873E-2,2.446638E-1,4.2775148E-1,-2.2047918E-2,-0E0,6.8244344E-1,2.3715196E-2,-2.9860953E-2,-0E0,4.0326577E-2],"categories":[],"categories_nodes":[],"categories_segments":[],"categories_sizes":[],"default_left":[0,0,0,0,0,0,0,0,0,0,0],"id":17,"left_children":[1,-1,3,5,-1,7,9,-1,-1,-1,-1],"loss_changes":[4.065176E0,0E0,2.899807E0,1.7676015E0,0E0,3.04141E0,1.1700716E0,0E0,0E0,0E0,0E0],"parents":[2147483647,0,0,2,2,3,3,5,5,6,6],"right_children":[2,-1,4,6,-1,8,10,-1,-1,-1,-1],"split_conditions":[4.7826088E1,-3.6800873E-2,3.6205356E2,3.43475E2,-2.2047918E-2,3.198575E2,5.4545456E1,2.3715196E-2,-2.9860953E-2,-0E0,4.0326577E-2],"split_indices":[0,0,5,7,0,7,0,0,0,0,0],"split_type":[0,0,0,0,0,0,0,0,0,0,0],"sum_hessian":[2.1447916E1,3.2998192E0,1.8148096E1,1.5492491E1,2.6556065E0,6.82486E0,8.66763E0,4.2221694E0,2.6026907E0,1.2312542E0,7.436376E0],"tree_param":{"num_deleted":"0","num_feature":"16","num_nodes":"11","size_leaf_vector":"1"}},{"base_weights":[-0E0,-2.7451506E-2,1.302214E-1,4.2117983E-1,-2.0707935E-1,-0E0,5.462058E-1,1.756738E-2,-3.1464282E-2,2.9375747E-2,-2.5041793E-2,-0E0,3.5313737E-2,2.849544E-2,-1.2091066E-2],"categories":[],"categories_nodes":[],"categories_segments":[],"categories_sizes":[],"default_left":[0,0,0,0,0,0,0,0,0,0,0,0,0,0,0],"id":18,"left_children":[1,-1,3,5,7,9,11,13,-1,-1,-1,-1,-1,-1,-1],"loss_changes":[1.9543805E0,0E0,2.3556652E0,6.564059E-1,1.3080113E0,2.0595407E0,6.4325E-1,1.57396E0,0E0,0E0,0E0,0E0,0E0,0E0,0E0],"parents":[2147483647,0,0,2,2,3,3,4,4,5,5,6,6,7,7],"right_children":[2,-1,4,6,8,10,12,14,-1,-1,-1,-1,-1,-1,-1],"split_conditions":[4.7916668E1,-2.7451506E-2,3.5637817E2,3.1153537E2,5.0149727E-1,3.0667853E2,2.5377633E-2,1.8060729E-2,-3.1464282E-2,2.9375747E-2,-2.5041793E-2,-0E0,3.5313737E-2,2.849544E-2,-1.2091066E-2],"split_indices":[0,0,9,10,1,10,3,3,0,0,0,0,0,0,0],"split_type":[0,0,0,0,0,0,0,0,0,0,0,0,0,0,0],"sum_hessian":[2.242944E1,3.2946398E0,1.9134798E1,1.08019495E1,8.3328495E0,2.9897652E0,7.8121843E0,5.917046E0,2.4158034E0,1.2463572E0,1.743408E0,2.654099E0,5.1580853E0,1.7416806E0,4.1753654E0],"tree_param":{"num_deleted":"0","num_feature":"16","num_nodes":"15","size_leaf_vector":"1"}},{"base_weights":[9.081076E-2,2.5984973E-1,-2.6474742E-2,-1.2788965E-1,4.9196914E-1,1.7597372E-2,-3.7350902E-1,8.8712543E-1,-0E0,-0E0,-3.3497598E-2,-0E0,4.8860077E-2,-3.0903762E-2,1.5135272E-2],"categories":[],"categories_nodes":[],"categories_segments":[],"categories_sizes":[],"default_left":[0,0,0,0,0,0,0,0,0,0,0,0,0,0,0],"id":19,"left_children":[1,3,-1,5,7,-1,9,11,13,-1,-1,-1,-1,-1,-1],"loss_changes":[2.6274219E0,2.1632206E0,0E0,1.2755114E0,2.8447814E0,0E0,1.0733515E0,1.4935875E-1,1.9365216E0,0E0,0E0,0E0,0E0,0E0,0E0],"parents":[2147483647,0,0,1,1,3,3,4,4,6,6,7,7,8,8],"right_children":[2,4,-1,6,8,-1,10,12,14,-1,-1,-1,-1,-1,-1],"split_conditions":[3.64075E2,2.0356569E-1,-2.6474742E-2,3.1767856E2,4.3583643E-1,1.7597372E-2,1.1312931E-1,3.109075E2,5.2293956E-1,-0E0,-3.3497598E-2,-0E0,4.8860077E-2,-3.0903762E-2,1.5135272E-2],"split_indices":[5,1,0,5,2,0,1,7,2,0,0,0,0,0,0],"split_type":[0,0,0,0,0,0,0,0,0,0,0,0,0,0,0],"sum_hessian":[2.1718918E1,1.861453E1,3.1043878E0,6.5002766E0,1.2114254E1,1.2184572E0,5.2818193E0,5.9554925E0,6.158761E0,2.6270404E0,2.654779E0,1.2426317E0,4.712861E0,1.4632077E0,4.6955533E0],"tree_param":{"num_deleted":"0","num_feature":"16","num_nodes":"15","size_leaf_vector":"1"}},{"base_weights":[-1.14815846E-1,1.8430464E-1,-8.908548E-1,-0E0,3.2869194E-2,-0E0,-5.1975068E-2,3.2397136E-1,-5.996218E-1,2.6322177E-2,-7.056668E-3,-3.586058E-2,-0E0],"categories":[],"categories_nodes":[],"categories_segments":[],"categories_sizes":[],"default_left":[0,0,0,0,0,0,0,0,0,0,0,0,0],"id":20,"left_children":[1,3,5,7,-1,-1,-1,9,11,-1,-1,-1,-1],"loss_changes":[6.0615826E0,1.5267627E0,7.772789E-1,3.2833772E0,0E0,0E0,0E0,1.3848702E0,2.8551555E-1,0E0,0E0,0E0,0E0],"parents":[2147483647,0,0,1,1,2,2,3,3,7,7,8,8],"right_children":[2,4,6,8,-1,-1,-1,10,12,-1,-1,-1,-1],"split_conditions":[3.5528394E2,7.4285716E-1,-1.6520876E-2,5.714286E-1,3.2869194E-2,-0E0,-5.1975068E-2,8E0,3.590075E2,2.6322177E-2,-7.056668E-3,-3.586058E-2,-0E0],"split_indices":[5,4,3,4,0,0,0,14,7,0,0,0,0],"split_type":[0,0,0,0,0,0,0,0,0,0,0,0,0],"sum_hessian":[2.117645E1,1.5920633E1,5.2558174E0,1.29791155E1,2.9415185E0,1.2074356E0,4.048382E0,9.082184E0,3.8969316E0,6.892822E0,2.1893616E0,2.6768484E0,1.2200832E0],"tree_param":{"num_deleted":"0","num_feature":"16","num_nodes":"13","size_leaf_vector":"1"}},{"base_weights":[-4.4597127E-2,3.849779E-1,-2.4173015E-1,-0E0,2.7366797E-2,-6.000537E-1,-0E0,2.821101E-2,-1.695155E-2,-6.992811E-1,-0E0,5.5901825E-1,-4.125683E-1,-3.9256033E-2,-0E0,-0E0,4.2644385E-2,4.2276434E-3,-3.410446E-2],"categories":[],"categories_nodes":[],"categories_segments":[],"categories_sizes":[],"default_left":[0,0,0,0,0,0,0,0,0,0,0,0,0,0,0,0,0,0,0],"id":21,"left_children":[1,3,5,7,-1,9,11,-1,-1,13,-1,15,17,-1,-1,-1,-1,-1,-1],"loss_changes":[2.256935E0,2.3407757E-1,1.7363827E0,1.4899651E0,0E0,4.4240785E-1,3.5666132E0,0E0,0E0,1.0727692E-1,0E0,1.1594865E0,1.5879617E0,0E0,0E0,0E0,0E0,0E0,0E0],"parents":[2147483647,0,0,1,1,2,2,3,3,5,5,6,6,9,9,11,11,12,12],"right_children":[2,4,6,8,-1,10,12,-1,-1,14,-1,16,18,-1,-1,-1,-1,-1,-1],"split_conditions":[3.1851334E2,3.148305E2,3.4843045E2,3.071275E2,2.7366797E-2,3.4814285E2,3.599487E2,2.821101E-2,-1.695155E-2,7.6642334E1,-0E0,6.730769E1,2.3425857E-3,-3.9256033E-2,-0E0,-0E0,4.2644385E-2,4.2276434E-3,-3.410446E-2],"split_indices":[8,9,10,11,0,5,10,0,0,0,0,0,3,0,0,0,0,0,0],"split_type":[0,0,0,0,0,0,0,0,0,0,0,0,0,0,0,0,0,0,0],"sum_hessian":[2.3299368E1,5.931606E0,1.7367762E1,3.226282E0,2.705324E0,5.965541E0,1.1402222E1,1.2416605E0,1.9846215E0,4.7700543E0,1.1954863E0,4.6411467E0,6.761075E0,3.5446348E0,1.2254196E0,2.1941066E0,2.44704E0,2.207271E0,4.553804E0],"tree_param":{"num_deleted":"0","num_feature":"16","num_nodes":"19","size_leaf_vector":"1"}},{"base_weights":[5.3502012E-2,-1.4189976E-1,5.55194E-1,1.2930472E-1,-4.2669963E-2,-1.3940763E-3,3.869096E-2,4.049894E-1,-3.854601E-1,2.9455123E-2,-7.3451675E-3,-3.420837E-2,-0E0],"categories":[],"categories_nodes":[],"categories_segments":[],"categories_sizes":[],"default_left":[0,0,0,0,0,0,0,0,0,0,0,0,0],"id":22,"left_children":[1,3,5,7,-1,-1,-1,9,11,-1,-1,-1,-1],"loss_changes":[2.718064E0,4.086209E0,1.4174275E0,2.361772E0,0E0,0E0,0E0,1.508683E0,9.2730165E-1,0E0,0E0,0E0,0E0],"parents":[2147483647,0,0,1,1,2,2,3,3,7,7,8,8],"right_children":[2,4,6,8,-1,-1,-1,10,12,-1,-1,-1,-1],"split_conditions":[6.964286E-1,5.714286E-1,6.231094E-2,4.545816E-1,-4.2669963E-2,-1.3940763E-3,3.869096E-2,1.5E1,3.553525E2,2.9455123E-2,-7.3451675E-3,-3.420837E-2,-0E0],"split_indices":[4,4,1,1,0,0,0,12,7,0,0,0,0],"split_type":[0,0,0,0,0,0,0,0,0,0,0,0,0],"sum_hessian":[2.2011192E1,1.6156252E1,5.854939E0,1.2373569E1,3.7826843E0,1.4488251E0,4.4061136E0,8.968351E0,3.405217E0,7.3031335E0,1.6652178E0,1.6967775E0,1.7084395E0],"tree_param":{"num_deleted":"0","num_feature":"16","num_nodes":"13","size_leaf_vector":"1"}},{"base_weights":[1.6696213E-1,4.6900004E-1,-3.4937268E-1,-9.964591E-3,6.0134935E-1,-3.58213E-2,4.1061845E-3,5.116833E-2,1.7127024E-1,1.6925927E-2,-1.3116837E-2,-3.376139E-3,2.8196678E-2],"categories":[],"categories_nodes":[],"categories_segments":[],"categories_sizes":[],"default_left":[0,0,0,0,0,0,0,0,0,0,0,0,0],"id":23,"left_children":[1,3,5,-1,7,-1,9,-1,11,-1,-1,-1,-1],"loss_changes":[3.7520695E0,1.774205E0,1.46457E0,0E0,1.5399041E0,0E0,7.1676797E-1,0E0,1.2411301E0,0E0,0E0,0E0,0E0],"parents":[2147483647,0,0,1,1,2,2,4,4,6,6,8,8],"right_children":[2,4,6,-1,8,-1,10,-1,12,-1,-1,-1,-1],"split_conditions":[3.598469E2,4.7826088E1,3.642175E2,-9.964591E-3,2.0498088E-1,-3.58213E-2,3.817673E2,5.116833E-2,5.8679557E-1,1.6925927E-2,-1.3116837E-2,-3.376139E-3,2.8196678E-2],"split_indices":[10,0,11,0,2,0,9,0,2,0,0,0,0],"split_type":[0,0,0,0,0,0,0,0,0,0,0,0,0],"sum_hessian":[1.9574131E1,1.3076529E1,6.4976015E0,1.3698822E0,1.1706647E1,2.8740847E0,3.6235168E0,3.929378E0,7.7772684E0,2.1990473E0,1.4244695E0,5.074189E0,2.7030792E0],"tree_param":{"num_deleted":"0","num_feature":"16","num_nodes":"13","size_leaf_vector":"1"}},{"base_weights":[9.917891E-2,3.4988E-2,-2.4416475E-2,-4.8275822E-1,3.0575517E-1,-4.28724E-2,-0E0,-4.378954E-2,3.128074E-2,1.9198386E-2,-1.9337479E-2,1.426955E-2,-2.6886946E-2],"categories":[],"categories_nodes":[],"categories_segments":[],"categories_sizes":[],"default_left":[0,0,0,0,0,0,0,0,0,0,0,0,0],"id":24,"left_children":[1,-1,3,5,7,-1,9,11,-1,-1,-1,-1,-1],"loss_changes":[2.079628E0,0E0,3.459144E0,2.0982673E0,1.732456E0,0E0,1.1752739E0,1.5792406E0,0E0,0E0,0E0,0E0,0E0],"parents":[2147483647,0,0,2,2,3,3,4,4,6,6,7,7],"right_children":[2,-1,4,6,8,-1,10,12,-1,-1,-1,-1,-1],"split_conditions":[3.1265714E2,3.4988E-2,3.52035E2,6.025641E1,2E0,-4.28724E-2,2.0596795E-1,7.4507505E-2,3.128074E-2,1.9198386E-2,-1.9337479E-2,1.426955E-2,-2.6886946E-2],"split_indices":[5,0,7,0,13,0,3,3,0,0,0,0,0],"split_type":[0,0,0,0,0,0,0,0,0,0,0,0,0],"sum_hessian":[2.1006958E1,2.684475E0,1.8322483E1,7.919195E0,1.0403288E1,3.9982157E0,3.9209795E0,5.048865E0,5.3544235E0,2.4348562E0,1.4861233E0,2.9290643E0,2.1198008E0],"tree_param":{"num_deleted":"0","num_feature":"16","num_nodes":"13","size_leaf_vector":"1"}},{"base_weights":[-0E0,6.918237E-1,-2.3044287E-1,-0E0,4.4839572E-2,-5.1665E-1,8.993129E-2,-3.7888773E-2,9.132955E-3,4.852395E-1,-3.409908E-1,4.0224914E-2,-0E0,-0E0,-2.6160512E-2],"categories":[],"categories_nodes":[],"categories_segments":[],"categories_sizes":[],"default_left":[0,0,0,0,0,0,0,0,0,0,0,0,0,0,0],"id":25,"left_children":[1,3,5,-1,-1,7,9,-1,-1,11,13,-1,-1,-1,-1],"loss_changes":[4.312014E0,1.2621689E0,2.066473E0,0E0,0E0,2.4630072E0,2.0957491E0,0E0,0E0,1.0046468E0,3.0940306E-1,0E0,0E0,0E0,0E0],"parents":[2147483647,0,0,1,1,2,2,5,5,6,6,9,9,10,10],"right_children":[2,4,6,-1,-1,8,10,-1,-1,12,14,-1,-1,-1,-1],"split_conditions":[3.203799E2,9.589803E-2,5.309156E-2,-0E0,4.4839572E-2,3.6162238E2,5.0149727E-1,-3.7888773E-2,9.132955E-3,3.627013E2,3.4784106E2,4.0224914E-2,-0E0,-0E0,-2.6160512E-2],"split_indices":[9,2,3,0,0,10,1,0,0,9,5,0,0,0,0],"split_type":[0,0,0,0,0,0,0,0,0,0,0,0,0,0,0],"sum_hessian":[2.2075829E1,4.879376E0,1.7196453E1,1.2158852E0,3.6634905E0,9.259678E0,7.9367757E0,7.292846E0,1.9668317E0,4.613117E0,3.3236585E0,1.9581039E0,2.6550133E0,1.9321936E0,1.3914648E0],"tree_param":{"num_deleted":"0","num_feature":"16","num_nodes":"15","size_leaf_vector":"1"}},{"base_weights":[-0E0,1.6882855E-1,-3.549387E-2,-3.5930768E-1,3.0005744E-1,-2.2193866E-2,-0E0,3.8887745E-1,-4.882487E-3,2.6265854E-2,-0E0],"categories":[],"categories_nodes":[],"categories_segments":[],"categories_sizes":[],"default_left":[0,0,0,0,0,0,0,0,0,0,0],"id":26,"left_children":[1,3,-1,5,7,-1,-1,9,-1,-1,-1],"loss_changes":[3.2681365E0,1.7097863E0,0E0,6.928676E-2,9.089215E-1,0E0,0E0,7.536855E-1,0E0,0E0,0E0],"parents":[2147483647,0,0,1,1,3,3,4,4,7,7],"right_children":[2,4,-1,6,8,-1,-1,10,-1,-1,-1],"split_conditions":[3.64075E2,-4.4185456E-2,-3.549387E-2,3.590075E2,1.5E1,-2.2193866E-2,-0E0,5.0149727E-1,-4.882487E-3,2.6265854E-2,-0E0],"split_indices":[5,3,0,7,12,0,0,1,0,0,0],"split_type":[0,0,0,0,0,0,0,0,0,0,0],"sum_hessian":[2.3227884E1,1.9986113E1,3.2417727E0,2.527579E0,1.7458532E1,1.3183576E0,1.2092216E0,1.5335306E1,2.1232271E0,1.023095E1,5.104356E0],"tree_param":{"num_deleted":"0","num_feature":"16","num_nodes":"11","size_leaf_vector":"1"}},{"base_weights":[-7.934189E-2,9.216833E-2,-3.7474424E-1,2.941873E-1,-2.3186111E-1,-5.803916E-1,1.3079518E-2,-2.008218E-3,3.9400488E-1,-3.8928473E-1,-0E0,-3.8939703E-2,-0E0,-3.3374333E-3,3.2437205E-2,-2.357254E-2,-0E0],"categories":[],"categories_nodes":[],"categories_segments":[],"categories_sizes":[],"default_left":[0,0,0,0,0,0,0,0,0,0,0,0,0,0,0,0,0],"id":27,"left_children":[1,3,5,7,9,11,-1,-1,13,15,-1,-1,-1,-1,-1,-1,-1],"loss_changes":[1.3831592E0,1.1612386E0,1.7675536E0,5.817644E-1,3.6777502E-1,1.1844935E0,0E0,0E0,1.5452137E0,5.485171E-2,0E0,0E0,0E0,0E0,0E0,0E0,0E0],"parents":[2147483647,0,0,1,1,2,2,3,3,4,4,5,5,8,8,9,9],"right_children":[2,4,6,8,10,12,-1,-1,14,16,-1,-1,-1,-1,-1,-1,-1],"split_conditions":[3.0352503E-1,3.5656964E2,8.425926E1,3.084545E2,6.321839E1,1.2E1,1.3079518E-2,-2.008218E-3,8.6965375E-2,3.6154123E2,-0E0,-3.8939703E-2,-0E0,-3.3374333E-3,3.2437205E-2,-2.357254E-2,-0E0],"split_indices":[2,5,0,10,0,12,0,0,2,10,0,0,0,0,0,0,0],"split_type":[0,0,0,0,0,0,0,0,0,0,0,0,0,0,0,0,0],"sum_hessian":[2.1148195E1,1.3179543E1,7.968652E0,9.182129E0,3.9974144E0,6.749093E0,1.2195585E0,1.2341825E0,7.947946E0,2.5544517E0,1.4429626E0,4.8120804E0,1.9370124E0,2.6564E0,5.2915463E0,1.3520454E0,1.2024063E0],"tree_param":{"num_deleted":"0","num_feature":"16","num_nodes":"17","size_leaf_vector":"1"}},{"base_weights":[-0E0,-3.9341384E-1,2.3066328E-1,2.417445E-3,-2.7033735E-2,3.820719E-1,-2.155528E-2,5.043352E-1,-9.8904045E-3,3.4531496E-2,3.29331E-3],"categories":[],"categories_nodes":[],"categories_segments":[],"categories_sizes":[],"default_left":[0,0,0,0,0,0,0,0,0,0,0],"id":28,"left_children":[1,3,5,-1,-1,7,-1,9,-1,-1,-1],"loss_changes":[2.3286266E0,9.3663955E-1,1.8308086E0,0E0,0E0,1.3502202E0,0E0,5.8404183E-1,0E0,0E0,0E0],"parents":[2147483647,0,0,1,1,2,2,5,5,7,7],"right_children":[2,4,6,-1,-1,8,-1,10,-1,-1,-1],"split_conditions":[6.0526318E1,3.1649E2,3.7169104E2,2.417445E-3,-2.7033735E-2,1.5E1,-2.155528E-2,6E0,-9.8904045E-3,3.4531496E-2,3.29331E-3],"split_indices":[0,7,9,0,0,12,0,14,0,0,0],"split_type":[0,0,0,0,0,0,0,0,0,0,0],"sum_hessian":[2.1039083E1,7.810174E0,1.32289095E1,1.4395968E0,6.370577E0,1.2068551E1,1.1603578E0,1.0894358E1,1.1741934E0,6.0383105E0,4.8560476E0],"tree_param":{"num_deleted":"0","num_feature":"16","num_nodes":"11","size_leaf_vector":"1"}},{"base_weights":[-4.6208363E-2,4.5776248E-1,-1.8820317E-1,2.6950007E-2,-0E0,-4.206905E-1,5.545781E-5,-5.810019E-1,5.813312E-3,3.2779208E-1,-3.1137538E-1,-0E0,-3.806695E-2,2.4907798E-2,-0E0,-2.8093064E-2,-0E0],"categories":[],"categories_nodes":[],"categories_segments":[],"categories_sizes":[],"default_left":[0,0,0,0,0,0,0,0,0,0,0,0,0,0,0,0,0],"id":29,"left_children":[1,3,5,-1,-1,7,9,11,-1,13,15,-1,-1,-1,-1,-1,-1],"loss_changes":[1.8552543E0,8.19E-2,1.173638E0,0E0,0E0,1.3174714E0,1.5364121E0,1.0614176E0,0E0,2.890188E-1,6.8690807E-1,0E0,0E0,0E0,0E0,0E0,0E0],"parents":[2147483647,0,0,1,1,2,2,5,5,6,6,7,7,9,9,10,10],"right_children":[2,4,6,-1,-1,8,10,12,-1,14,16,-1,-1,-1,-1,-1,-1],"split_conditions":[3.1425E2,1.9500433E-1,3.52035E2,2.6950007E-2,-0E0,5.8679557E-1,5.714286E-1,1E1,5.813312E-3,3.60725E2,6.5E-1,-0E0,-3.806695E-2,2.4907798E-2,-0E0,-2.8093064E-2,-0E0],"split_indices":[5,3,7,0,0,2,4,12,0,7,4,0,0,0,0,0,0],"split_type":[0,0,0,0,0,0,0,0,0,0,0,0,0,0,0,0,0],"sum_hessian":[2.340103E1,3.3922691E0,2.000876E1,2.1712315E0,1.2210377E0,9.036232E0,1.0972529E1,7.549428E0,1.4868039E0,6.0773764E0,4.8951526E0,2.1569514E0,5.3924766E0,2.6619804E0,3.4153962E0,2.2935574E0,2.601595E0],"tree_param":{"num_deleted":"0","num_feature":"16","num_nodes":"17","size_leaf_vector":"1"}},{"base_weights":[-7.790168E-2,2.4709428E-2,-1.9290106E-1,-0E0,-5.7798034E-1,-1.4712319E-1,2.9989764E-2,-0E0,-3.6409672E-2,-0E0,-2.5147317E-2],"categories":[],"categories_nodes":[],"categories_segments":[],"categories_sizes":[],"default_left":[0,0,0,0,0,0,0,0,0,0,0],"id":30,"left_children":[1,-1,3,5,7,9,-1,-1,-1,-1,-1],"loss_changes":[1.6589577E0,0E0,1.5104282E0,1.595422E0,6.0634255E-1,8.18444E-1,0E0,0E0,0E0,0E0,0E0],"parents":[2147483647,0,0,2,2,3,3,4,4,5,5],"right_children":[2,-1,4,6,8,10,-1,-1,-1,-1,-1],"split_conditions":[3.0667853E2,2.4709428E-2,4.3583643E-1,3.6953282E-1,3E0,2.7445102E-1,2.9989764E-2,-0E0,-3.6409672E-2,-0E0,-2.5147317E-2],"split_indices":[10,0,2,2,14,2,0,0,0,0,0],"split_type":[0,0,0,0,0,0,0,0,0,0,0],"sum_hessian":[2.260772E1,1.9524319E0,2.0655289E1,1.5610323E1,5.044965E0,1.4147086E1,1.4632366E0,1.4632486E0,3.5817163E0,1.1529856E1,2.6172304E0],"tree_param":{"num_deleted":"0","num_feature":"16","num_nodes":"11","size_leaf_vector":"1"}},{"base_weights":[8.234003E-3,3.9800815E-2,-1.3078895E-1,-4.6322373E-1,1.3069648E-1,-7.180482E-1,6.1089486E-2,5.5398715E-1,-1.4000206E-1,-4.413913E-2,-0E0,1.6855827E-2,-4.33856E-3,-0E0,3.258664E-2,1.1881318E-2,-2.2298662E-2],"categories":[],"categories_nodes":[],"categories_segments":[],"categories_sizes":[],"default_left":[0,0,0,0,0,0,0,0,0,0,0,0,0,0,0,0,0],"id":31,"left_children":[1,-1,3,5,7,9,11,13,15,-1,-1,-1,-1,-1,-1,-1,-1],"loss_changes":[3.1445677E0,0E0,2.1463819E0,1.8455045E0,1.8160136E0,9.791641E-1,3.7550983E-1,2.1423936E-2,1.3115608E0,0E0,0E0,0E0,0E0,0E0,0E0,0E0,0E0],"parents":[2147483647,0,0,2,2,3,3,4,4,5,5,6,6,7,7,8,8],"right_children":[2,-1,4,6,8,10,12,14,16,-1,-1,-1,-1,-1,-1,-1,-1],"split_conditions":[3.1265714E2,3.9800815E-2,3.52035E2,5.4249835E-1,3.6056735E2,9.868526E-2,8.379842E-1,1E1,1.1312931E-1,-4.413913E-2,-0E0,1.6855827E-2,-4.33856E-3,-0E0,3.258664E-2,1.1881318E-2,-2.2298662E-2],"split_indices":[5,0,7,1,10,3,1,12,1,0,0,0,0,0,0,0,0],"split_type":[0,0,0,0,0,0,0,0,0,0,0,0,0,0,0,0,0],"sum_hessian":[2.1774092E1,2.387893E0,1.9386198E1,8.697686E0,1.0688512E1,5.997453E0,2.700233E0,4.0732436E0,6.615268E0,4.5476236E0,1.4498297E0,1.2285013E0,1.4717318E0,1.6346607E0,2.438583E0,2.4294498E0,4.1858187E0],"tree_param":{"num_deleted":"0","num_feature":"16","num_nodes":"17","size_leaf_vector":"1"}},{"base_weights":[-0E0,2.5530154E-2,-1.1481295E-1,-5.538186E-1,7.345914E-2,-3.9566763E-2,2.5749195E-3,3.9498442E-1,-2.0056294E-1,-0E0,2.79925E-2,-3.6917206E-2,6.756888E-3],"categories":[],"categories_nodes":[],"categories_segments":[],"categories_sizes":[],"default_left":[0,0,0,0,0,0,0,0,0,0,0,0,0],"id":32,"left_children":[1,-1,3,5,7,-1,-1,9,11,-1,-1,-1,-1],"loss_changes":[1.3376069E0,0E0,1.92906E0,1.4389682E0,1.5402453E0,0E0,0E0,4.640149E-1,2.010154E0,0E0,0E0,0E0,0E0],"parents":[2147483647,0,0,2,2,3,3,4,4,7,7,8,8],"right_children":[2,-1,4,6,8,-1,-1,10,12,-1,-1,-1,-1],"split_conditions":[3.1265714E2,2.5530154E-2,3.43475E2,5.9909153E-1,3.599487E2,-3.9566763E-2,2.5749195E-3,3.52035E2,3.641975E2,-0E0,2.79925E-2,-3.6917206E-2,6.756888E-3],"split_indices":[5,0,7,1,10,0,0,7,7,0,0,0,0],"split_type":[0,0,0,0,0,0,0,0,0,0,0,0,0],"sum_hessian":[1.9596228E1,2.1471605E0,1.7449066E1,4.868783E0,1.2580283E1,3.64855E0,1.2202331E0,6.2217565E0,6.358527E0,2.6488953E0,3.5728614E0,2.0942333E0,4.2642937E0],"tree_param":{"num_deleted":"0","num_feature":"16","num_nodes":"13","size_leaf_vector":"1"}},{"base_weights":[3.0002907E-2,-4.0299974E-2,3.1184101E-2,7.953423E-2,-3.0948639E-2,-3.377766E-1,3.4767878E-1,1.8677445E-3,-2.7117973E-2,-1.960193E-2,2.8864404E-2],"categories":[],"categories_nodes":[],"categories_segments":[],"categories_sizes":[],"default_left":[0,0,0,0,0,0,0,0,0,0,0],"id":33,"left_children":[1,3,-1,5,-1,7,9,-1,-1,-1,-1],"loss_changes":[1.3604552E0,1.959247E0,0E0,2.485037E0,0E0,9.17275E-1,2.9112914E0,0E0,0E0,0E0,0E0],"parents":[2147483647,0,0,1,1,3,3,5,5,6,6],"right_children":[2,4,-1,6,-1,8,10,-1,-1,-1,-1],"split_conditions":[8.695652E1,7.55102E1,3.1184101E-2,3.857143E-1,-3.0948639E-2,-5.322124E-3,-4.4185456E-2,1.8677445E-3,-2.7117973E-2,-1.960193E-2,2.8864404E-2],"split_indices":[0,0,0,4,0,3,3,0,0,0,0],"split_type":[0,0,0,0,0,0,0,0,0,0,0],"sum_hessian":[2.2402489E1,2.0944315E1,1.458174E0,1.8064503E1,2.879811E0,6.1340733E0,1.1930429E1,1.8791704E0,4.254903E0,1.9750614E0,9.955368E0],"tree_param":{"num_deleted":"0","num_feature":"16","num_nodes":"11","size_leaf_vector":"1"}},{"base_weights":[-2.083095E-3,-2.5498897E-2,1.0614218E-1,4.3807662E-1,-5.676242E-3,-0E0,3.3292394E-2,-2.5199493E-2,1.5687361E-1,-1.191863E-2,1.4733014E-2,2.3049599E-2,-7.1483934E-3],"categories":[],"categories_nodes":[],"categories_segments":[],"categories_sizes":[],"default_left":[0,0,0,0,0,0,0,0,0,0,0,0,0],"id":34,"left_children":[1,-1,3,5,7,9,-1,-1,11,-1,-1,-1,-1],"loss_changes":[1.621429E0,0E0,9.8238647E-1,5.079477E-1,1.642973E0,4.6262193E-1,0E0,0E0,1.474019E0,0E0,0E0,0E0,0E0],"parents":[2147483647,0,0,2,2,3,3,4,4,5,5,8,8],"right_children":[2,-1,4,6,8,10,-1,-1,12,-1,-1,-1,-1],"split_conditions":[4.7916668E1,-2.5498897E-2,3.198575E2,4.3214285E-1,3.43365E2,3.182625E2,3.3292394E-2,-2.5199493E-2,3.598469E2,-1.191863E-2,1.4733014E-2,2.3049599E-2,-7.1483934E-3],"split_indices":[0,0,7,4,7,7,0,0,10,0,0,0,0],"split_type":[0,0,0,0,0,0,0,0,0,0,0,0,0],"sum_hessian":[2.1855211E1,3.3463945E0,1.8508818E1,4.320221E0,1.4188597E1,2.4387383E0,1.8814825E0,3.2131815E0,1.0975415E1,1.2136409E0,1.2250974E0,5.74307E0,5.232345E0],"tree_param":{"num_deleted":"0","num_feature":"16","num_nodes":"13","size_leaf_vector":"1"}},{"base_weights":[1.3013403E-1,3.2145703E-1,-1.0021499E-1,4.7068432E-1,-3.4277633E-2,-3.5545704E-1,9.905163E-2,3.5620242E-2,3.6048714E-2,-1.7933637E-2,9.10304E-3,-5.6584436E-1,1.980495E-3,3.47011E-1,-1.0775617E-2,-1.7763816E-2,1.8342951E-2,-0E0,-3.401625E-2,-3.1733157E-3,3.4989316E-2],"categories":[],"categories_nodes":[],"categories_segments":[],"categories_sizes":[],"default_left":[0,0,0,0,0,0,0,0,0,0,0,0,0,0,0,0,0,0,0,0,0],"id":35,"left_children":[1,3,5,7,9,11,13,-1,15,-1,-1,17,-1,19,-1,-1,-1,-1,-1,-1,-1],"loss_changes":[1.1813967E0,1.000836E0,7.4281234E-1,7.3887706E-1,5.734013E-1,8.255026E-1,7.2018296E-1,0E0,1.1476659E0,0E0,0E0,1.7045927E-1,0E0,1.1707839E0,0E0,0E0,0E0,0E0,0E0,0E0,0E0],"parents":[2147483647,0,0,1,1,2,2,3,3,4,4,5,5,6,6,8,8,11,11,13,13],"right_children":[2,4,6,8,10,12,14,-1,16,-1,-1,18,-1,20,-1,-1,-1,-1,-1,-1,-1],"split_conditions":[3E0,3.5656964E2,3.4561786E2,2.7445102E-1,3.6050894E2,4.879996E-1,7.55102E1,3.5620242E-2,3.6953282E-1,-1.7933637E-2,9.10304E-3,1E1,1.980495E-3,6.408451E1,-1.0775617E-2,-1.7763816E-2,1.8342951E-2,-0E0,-3.401625E-2,-3.1733157E-3,3.4989316E-2],"split_indices":[13,5,5,2,5,2,0,0,2,0,0,12,0,0,0,0,0,0,0,0,0],"split_type":[0,0,0,0,0,0,0,0,0,0,0,0,0,0,0,0,0,0,0,0,0],"sum_hessian":[2.0834625E1,1.2135071E1,8.699555E0,9.083785E0,3.0512855E0,4.2268724E0,4.472683E0,4.2767377E0,4.807047E0,1.6189891E0,1.4322963E0,3.0197866E0,1.2070858E0,3.2746212E0,1.1980616E0,1.441958E0,3.3650892E0,1.1789659E0,1.8408208E0,1.6165336E0,1.6580877E0],"tree_param":{"num_deleted":"0","num_feature":"16","num_nodes":"21","size_leaf_vector":"1"}},{"base_weights":[-1.50527E-1,1.6076767E-1,-2.3991117E-1,-0E0,1.4065656E-2,-0E0,-5.374512E-1,-1.7281992E-2,7.343872E-2,-0E0,-2.949521E-2,2.358271E-2,-8.295826E-3],"categories":[],"categories_nodes":[],"categories_segments":[],"categories_sizes":[],"default_left":[0,0,0,0,0,0,0,0,0,0,0,0,0],"id":36,"left_children":[1,3,5,-1,-1,7,9,-1,11,-1,-1,-1,-1],"loss_changes":[7.5278735E-1,1.1966984E-1,1.1832575E0,0E0,0E0,5.171552E-1,6.2654495E-2,0E0,1.451132E0,0E0,0E0,0E0,0E0],"parents":[2147483647,0,0,1,1,2,2,5,5,6,6,8,8],"right_children":[2,4,6,-1,-1,8,10,-1,12,-1,-1,-1,-1],"split_conditions":[1E0,1E0,1E0,-0E0,1.4065656E-2,-4.1456567E-3,3.094557E2,-1.7281992E-2,2.144427E-1,-0E0,-2.949521E-2,2.358271E-2,-8.295826E-3],"split_indices":[13,6,6,0,0,2,9,0,2,0,0,0,0],"split_type":[0,0,0,0,0,0,0,0,0,0,0,0,0],"sum_hessian":[2.0860014E1,3.0492947E0,1.781072E1,1.8880054E0,1.1612893E0,1.1766823E1,6.043897E0,1.7880862E0,9.978737E0,1.1868445E0,4.857053E0,3.8017197E0,6.1770167E0],"tree_param":{"num_deleted":"0","num_feature":"16","num_nodes":"13","size_leaf_vector":"1"}},{"base_weights":[1.7453872E-2,3.8609514E-1,-1.419577E-1,-6.158883E-3,5.637862E-1,-4.6331573E-1,-0E0,4.3113973E-2,-8.714573E-4,-3.8356796E-2,-0E0,1.7045149E-1,-2.3177912E-2,2.5208551E-2,-1.4404388E-3],"categories":[],"categories_nodes":[],"categories_segments":[],"categories_sizes":[],"default_left":[0,0,0,0,0,0,0,0,0,0,0,0,0,0,0],"id":37,"left_children":[1,3,5,-1,7,9,11,-1,-1,-1,-1,13,-1,-1,-1],"loss_changes":[1.5716902E0,1.1164687E0,9.250832E-1,0E0,1.7172482E0,1.1785135E0,1.0412335E0,0E0,0E0,0E0,0E0,1.0153936E0,0E0,0E0,0E0],"parents":[2147483647,0,0,1,1,2,2,4,4,5,5,6,6,11,11],"right_children":[2,4,6,-1,8,10,12,-1,-1,-1,-1,14,-1,-1,-1],"split_conditions":[3.4898065E-3,-1.4488296E-2,1.2874812E-1,-6.158883E-3,1.3E1,3E0,3.5817322E2,4.3113973E-2,-8.714573E-4,-3.8356796E-2,-0E0,2.7445102E-1,-2.3177912E-2,2.5208551E-2,-1.4404388E-3],"split_indices":[3,2,2,0,12,13,5,0,0,0,0,2,0,0,0],"split_type":[0,0,0,0,0,0,0,0,0,0,0,0,0,0,0],"sum_hessian":[2.0802475E1,6.3682795E0,1.44341955E1,1.0780966E0,5.290183E0,3.8523078E0,1.0581887E1,3.4245517E0,1.8656313E0,2.137279E0,1.7150288E0,9.258596E0,1.323291E0,3.2553744E0,6.003222E0],"tree_param":{"num_deleted":"0","num_feature":"16","num_nodes":"15","size_leaf_vector":"1"}},{"base_weights":[-6.7450623E-3,-1.6678792E-1,3.0287054E-1,4.111443E-2,-3.7687853E-2,5.5798304E-1,-1.3248659E-2,-2.9715618E-1,2.4404703E-1,-0E0,7.302233E-1,7.7404627E-3,-3.0177271E-2,-4.9529686E-3,1.993369E-2,1.9643936E-4,4.245565E-2],"categories":[],"categories_nodes":[],"categories_segments":[],"categories_sizes":[],"default_left":[0,0,0,0,0,0,0,0,0,0,0,0,0,0,0,0,0],"id":38,"left_children":[1,3,5,7,-1,9,-1,11,13,-1,15,-1,-1,-1,-1,-1,-1],"loss_changes":[1.2345217E0,2.6563148E0,1.5878649E0,1.1351521E0,0E0,8.7701917E-1,0E0,1.1772015E0,8.271769E-1,0E0,4.7056437E-2,0E0,0E0,0E0,0E0,0E0,0E0],"parents":[2147483647,0,0,1,1,2,2,3,3,5,5,7,7,8,8,10,10],"right_children":[2,4,6,8,-1,10,-1,12,14,-1,16,-1,-1,-1,-1,-1,-1],"split_conditions":[6.964286E-1,5.642857E-1,8.024691E1,1.5940061E-1,-3.7687853E-2,-2.0943252E-2,-1.3248659E-2,-6.3876854E-3,5.882353E1,-0E0,3.2145917E2,7.7404627E-3,-3.0177271E-2,-4.9529686E-3,1.993369E-2,1.9643936E-4,4.245565E-2],"split_indices":[4,4,0,2,0,2,0,3,0,0,8,0,0,0,0,0,0],"split_type":[0,0,0,0,0,0,0,0,0,0,0,0,0,0,0,0,0],"sum_hessian":[2.224803E1,1.6339518E1,5.908513E0,1.2810249E1,3.5292683E0,4.708432E0,1.2000811E0,3.531335E0,9.2789135E0,1.146708E0,3.561724E0,1.1671624E0,2.3641727E0,2.1013331E0,7.177581E0,1.383236E0,2.178488E0],"tree_param":{"num_deleted":"0","num_feature":"16","num_nodes":"17","size_leaf_vector":"1"}},{"base_weights":[-0E0,2.8173843E-2,-8.712539E-2,4.2481676E-2,-4.3776354E-1,-2.1334905E-2,2.091225E-1,-3.210306E-2,-0E0,3.0289618E-2,9.344091E-4],"categories":[],"categories_nodes":[],"categories_segments":[],"categories_sizes":[],"default_left":[0,0,0,0,0,0,0,0,0,0,0],"id":39,"left_children":[1,-1,3,5,7,-1,9,-1,-1,-1,-1],"loss_changes":[1.2533135E0,0E0,1.2051233E0,1.3496052E0,8.4269774E-1,0E0,7.384334E-1,0E0,0E0,0E0,0E0],"parents":[2147483647,0,0,2,2,3,3,4,4,6,6],"right_children":[2,-1,4,6,8,-1,10,-1,-1,-1,-1],"split_conditions":[3.0667853E2,2.8173843E-2,3.9328375E-1,3.8156483E-2,1.0331295E0,-2.1334905E-2,9.888588E-2,-3.210306E-2,-0E0,3.0289618E-2,9.344091E-4],"split_indices":[10,0,2,2,1,0,1,0,0,0,0],"split_type":[0,0,0,0,0,0,0,0,0,0,0],"sum_hessian":[2.0787664E1,1.4369211E0,1.9350744E1,1.4370621E1,4.980123E0,2.161958E0,1.2208663E1,3.28899E0,1.691133E0,1.693451E0,1.0515212E1],"tree_param":{"num_deleted":"0","num_feature":"16","num_nodes":"11","size_leaf_vector":"1"}},{"base_weights":[2.170615E-2,2.1264054E-1,-3.200712E-1,-2.3552513E-2,4.2232838E-1,-6.302015E-1,7.837465E-3,4.7896564E-2,4.2621356E-2,-3.5295818E-2,-0E0,-1.8588925E-2,1.9591536E-2],"categories":[],"categories_nodes":[],"categories_segments":[],"categories_sizes":[],"default_left":[0,0,0,0,0,0,0,0,0,0,0,0,0],"id":40,"left_children":[1,3,5,-1,7,9,-1,-1,11,-1,-1,-1,-1],"loss_changes":[1.5833994E0,2.795957E0,1.6326613E0,0E0,2.3762329E0,1.4922619E-2,0E0,0E0,1.9150448E0,0E0,0E0,0E0,0E0],"parents":[2147483647,0,0,1,1,2,2,4,4,5,5,8,8],"right_children":[2,4,6,-1,8,10,-1,-1,12,-1,-1,-1,-1],"split_conditions":[5.0149727E-1,4.477612E1,7.25E-1,-2.3552513E-2,3.5357056E-4,1.1E1,7.837465E-3,4.7896564E-2,5.309156E-2,-3.5295818E-2,-0E0,-1.8588925E-2,1.9591536E-2],"split_indices":[1,0,4,0,3,12,0,0,3,0,0,0,0],"split_type":[0,0,0,0,0,0,0,0,0,0,0,0,0],"sum_hessian":[2.1001265E1,1.4897419E1,6.103845E0,2.3518393E0,1.2545579E1,3.9439266E0,2.1599185E0,3.3946934E0,9.150886E0,2.7671902E0,1.1767362E0,3.4709334E0,5.6799526E0],"tree_param":{"num_deleted":"0","num_feature":"16","num_nodes":"13","size_leaf_vector":"1"}},{"base_weights":[-5.924871E-2,-2.5083845E-2,1.989788E-2,5.381626E-1,-1.6079098E-1,4.0982723E-2,-1.6105537E-3,-2.9031668E-2,-0E0,-2.1441972E-2,5.329332E-3],"categories":[],"categories_nodes":[],"categories_segments":[],"categories_sizes":[],"default_left":[0,0,0,0,0,0,0,0,0,0,0],"id":41,"left_children":[1,-1,3,5,7,-1,-1,-1,9,-1,-1],"loss_changes":[1.0411402E0,0E0,2.2221825E0,1.4598429E0,8.089805E-1,0E0,0E0,0E0,8.634806E-1,0E0,0E0],"parents":[2147483647,0,0,2,2,3,3,4,4,8,8],"right_children":[2,-1,4,6,8,-1,-1,-1,10,-1,-1],"split_conditions":[4.7916668E1,-2.5083845E-2,2.3425857E-3,4.5613953E-1,2.5615226E-2,4.0982723E-2,-1.6105537E-3,-2.9031668E-2,3.1153537E2,-2.1441972E-2,5.329332E-3],"split_indices":[0,0,3,1,3,0,0,0,10,0,0],"split_type":[0,0,0,0,0,0,0,0,0,0,0],"sum_hessian":[2.0283266E1,2.416318E0,1.7866947E1,4.311318E0,1.355563E1,2.8883672E0,1.4229507E0,1.5924822E0,1.1963148E1,1.9533905E0,1.0009757E1],"tree_param":{"num_deleted":"0","num_feature":"16","num_nodes":"11","size_leaf_vector":"1"}},{"base_weights":[-2.2699744E-2,3.8765258E-1,-1.4388224E-1,-0E0,2.4771588E-2,-4.067836E-1,3.200365E-2,6.488671E-3,-5.824466E-1,3.089041E-2,-2.6150477E-1,-3.7835985E-2,-0E0,-3.45132E-2,3.2113194E-3],"categories":[],"categories_nodes":[],"categories_segments":[],"categories_sizes":[],"default_left":[0,0,0,0,0,0,0,0,0,0,0,0,0,0,0],"id":42,"left_children":[1,3,5,-1,-1,7,9,-1,11,-1,13,-1,-1,-1,-1],"loss_changes":[1.0728014E0,1.440084E-1,1.1019323E0,0E0,0E0,1.224614E0,2.60361E0,0E0,5.754323E-1,0E0,1.6561793E0,0E0,0E0,0E0,0E0],"parents":[2147483647,0,0,1,1,2,2,5,5,6,6,8,8,10,10],"right_children":[2,4,6,-1,-1,8,10,-1,12,-1,14,-1,-1,-1,-1],"split_conditions":[3.1425E2,3.3376777E-1,3.52035E2,-0E0,2.4771588E-2,1.17946416E-1,3.5749924E2,6.488671E-3,5.9909153E-1,3.089041E-2,3.642175E2,-3.7835985E-2,-0E0,-3.45132E-2,3.2113194E-3],"split_indices":[5,1,7,0,0,1,10,0,1,0,7,0,0,0,0],"split_type":[0,0,0,0,0,0,0,0,0,0,0,0,0,0,0],"sum_hessian":[1.9781376E1,2.566561E0,1.7214815E1,1.1840506E0,1.3825105E0,6.98755E0,1.0227265E1,1.1502526E0,5.8372974E0,3.2447937E0,6.982472E0,3.6480064E0,2.1892908E0,2.7108936E0,4.271579E0],"tree_param":{"num_deleted":"0","num_feature":"16","num_nodes":"15","size_leaf_vector":"1"}},{"base_weights":[1.3659719E-1,3.135479E-1,-1.4875054E-1,-1.5541504E-2,4.4974077E-1,-0E0,-2.376899E-2,6.4619535E-1,-9.076496E-3,-1.5854172E-1,1.6815593E-2,-0E0,3.5906263E-2,8.319075E-3,-1.3880618E-2,-2.40319E-2,3.4858806E-3],"categories":[],"categories_nodes":[],"categories_segments":[],"categories_sizes":[],"default_left":[0,0,0,0,0,0,0,0,0,0,0,0,0,0,0,0,0],"id":43,"left_children":[1,3,5,-1,7,9,-1,11,13,15,-1,-1,-1,-1,-1,-1,-1],"loss_changes":[1.1697984E0,1.5291275E0,5.372871E-1,0E0,1.4901044E0,5.212099E-1,0E0,3.4252596E-1,3.8673264E-1,6.563071E-1,0E0,0E0,0E0,0E0,0E0,0E0,0E0],"parents":[2147483647,0,0,1,1,2,2,4,4,5,5,7,7,8,8,9,9],"right_children":[2,4,6,-1,8,10,-1,12,14,16,-1,-1,-1,-1,-1,-1,-1],"split_conditions":[1.3E1,-1.7355172E-1,3.679843E-1,-1.5541504E-2,7E0,3.642857E-1,-2.376899E-2,1E0,3.0863083E2,1.5174508E-1,1.6815593E-2,-0E0,3.5906263E-2,8.319075E-3,-1.3880618E-2,-2.40319E-2,3.4858806E-3],"split_indices":[12,1,1,0,14,4,0,13,8,1,0,0,0,0,0,0,0],"split_type":[0,0,0,0,0,0,0,0,0,0,0,0,0,0,0,0,0],"sum_hessian":[1.7688448E1,1.1877518E1,5.8109307E0,1.0102394E0,1.0867278E1,4.668623E0,1.1423081E0,7.800333E0,3.0669456E0,3.2206376E0,1.4479853E0,1.2007548E0,6.5995784E0,1.1889662E0,1.8779794E0,1.3271115E0,1.8935261E0],"tree_param":{"num_deleted":"0","num_feature":"16","num_nodes":"17","size_leaf_vector":"1"}},{"base_weights":[-0E0,-8.855406E-2,2.4665399E-2,-4.6409097E-1,9.066766E-2,-0E0,-6.5723014E-1,3.7799853E-1,-1.2115765E-1,-0E0,-4.0062826E-2,-0E0,3.5045296E-2,-2.9257065E-2,7.3696794E-3],"categories":[],"categories_nodes":[],"categories_segments":[],"categories_sizes":[],"default_left":[0,0,0,0,0,0,0,0,0,0,0,0,0,0,0],"id":44,"left_children":[1,3,-1,5,7,-1,9,11,13,-1,-1,-1,-1,-1,-1],"loss_changes":[1.1432225E0,1.6246787E0,0E0,8.589108E-1,1.095742E0,0E0,4.8412347E-1,1.0447745E0,1.4872805E0,0E0,0E0,0E0,0E0,0E0,0E0],"parents":[2147483647,0,0,1,1,3,3,4,4,6,6,7,7,8,8],"right_children":[2,4,-1,6,8,-1,10,12,14,-1,-1,-1,-1,-1,-1],"split_conditions":[9.035714E-1,3.43475E2,2.4665399E-2,3.1425E2,3.599487E2,-0E0,2E0,2E0,3.642175E2,-0E0,-4.0062826E-2,-0E0,3.5045296E-2,-2.9257065E-2,7.3696794E-3],"split_indices":[4,7,0,5,10,0,13,13,7,0,0,0,0,0,0],"split_type":[0,0,0,0,0,0,0,0,0,0,0,0,0,0,0],"sum_hessian":[2.0164375E1,1.8114756E1,2.0496202E0,5.726489E0,1.2388267E1,1.8854499E0,3.841039E0,5.593043E0,6.7952237E0,1.157063E0,2.683976E0,3.2579641E0,2.3350787E0,2.3093584E0,4.485865E0],"tree_param":{"num_deleted":"0","num_feature":"16","num_nodes":"15","size_leaf_vector":"1"}},{"base_weights":[-0E0,-8.188497E-2,2.6794372E-2,-2.512788E-1,3.531338E-1,-0E0,-7.2965306E-1,2.8736118E-2,-2.033269E-3,-1.9629765E-2,1.9364776E-2,-4.1904457E-2,-0E0],"categories":[],"categories_nodes":[],"categories_segments":[],"categories_sizes":[],"default_left":[0,0,0,0,0,0,0,0,0,0,0,0,0],"id":45,"left_children":[1,3,-1,5,7,9,11,-1,-1,-1,-1,-1,-1],"loss_changes":[1.0631825E0,1.6904263E0,0E0,2.0511055E0,8.3316153E-1,2.3371394E0,1.6289163E-1,0E0,0E0,0E0,0E0,0E0,0E0],"parents":[2147483647,0,0,1,1,3,3,4,4,5,5,6,6],"right_children":[2,4,-1,6,8,10,12,-1,-1,-1,-1,-1,-1],"split_conditions":[8.695652E1,7.25E-1,2.6794372E-2,5.714286E-1,3.9005417E-1,3.4844666E2,5E0,2.8736118E-2,-2.033269E-3,-1.9629765E-2,1.9364776E-2,-4.1904457E-2,-0E0],"split_indices":[0,4,0,4,3,8,14,0,0,0,0,0,0],"split_type":[0,0,0,0,0,0,0,0,0,0,0,0,0],"sum_hessian":[2.0429306E1,1.9222618E1,1.2066883E0,1.5270495E1,3.9521222E0,1.1369632E1,3.9008641E0,2.7535424E0,1.1985798E0,5.6763496E0,5.6932817E0,2.7045915E0,1.1962726E0],"tree_param":{"num_deleted":"0","num_feature":"16","num_nodes":"13","size_leaf_vector":"1"}},{"base_weights":[6.916684E-2,2.3255578E-1,-4.3794107E-1,-3.3700296E-1,3.8719636E-1,-0E0,-2.5191471E-2,-2.1251082E-2,-0E0,5.3008795E-1,8.8944405E-2,2.9949311E-2,-0E0,-2.4801234E-2,2.1462014E-2],"categories":[],"categories_nodes":[],"categories_segments":[],"categories_sizes":[],"default_left":[0,0,0,0,0,0,0,0,0,0,0,0,0,0,0],"id":46,"left_children":[1,3,5,7,9,-1,-1,-1,-1,11,13,-1,-1,-1,-1],"loss_changes":[2.01631E0,2.0066686E0,5.0705075E-2,9.548342E-2,3.2004333E-1,0E0,0E0,0E0,0E0,2.9224777E-1,2.191616E0,0E0,0E0,0E0,0E0],"parents":[2147483647,0,0,1,1,2,2,3,3,4,4,9,9,10,10],"right_children":[2,4,6,8,10,-1,-1,-1,-1,12,14,-1,-1,-1,-1],"split_conditions":[3.5817322E2,-4.4185456E-2,2.4946323E-2,3.536525E2,9.060213E-2,-0E0,-2.5191471E-2,-2.1251082E-2,-0E0,3.4784106E2,1.1200974E-1,2.9949311E-2,-0E0,-2.4801234E-2,2.1462014E-2],"split_indices":[5,3,3,7,3,0,0,0,0,5,3,0,0,0,0],"split_type":[0,0,0,0,0,0,0,0,0,0,0,0,0,0,0],"sum_hessian":[2.1116192E1,1.7535194E1,3.580998E0,2.5503032E0,1.4984891E1,1.1645147E0,2.4164832E0,1.3893617E0,1.1609416E0,7.9466224E0,7.038268E0,6.6045556E0,1.3420669E0,1.7115486E0,5.3267193E0],"tree_param":{"num_deleted":"0","num_feature":"16","num_nodes":"15","size_leaf_vector":"1"}},{"base_weights":[-0E0,1.320075E-1,-4.15836E-1,2.8136215E-1,-2.0601955E-1,-2.7904106E-2,-0E0,-2.7899297E-2,4.3763274E-1,-4.6392262E-1,6.8867006E-3,5.526666E-3,-1.2924017E-2,2.9459646E-2,-7.6658265E-3,-2.8224591E-2,-0E0],"categories":[],"categories_nodes":[],"categories_segments":[],"categories_sizes":[],"default_left":[0,0,0,0,0,0,0,0,0,0,0,0,0,0,0,0,0],"id":47,"left_children":[1,3,5,7,9,-1,-1,11,13,15,-1,-1,-1,-1,-1,-1,-1],"loss_changes":[1.1622803E0,1.0761614E0,3.1820405E-1,9.322269E-1,7.9875124E-1,0E0,0E0,3.126951E-1,1.3709555E0,1.0258281E-1,0E0,0E0,0E0,0E0,0E0,0E0,0E0],"parents":[2147483647,0,0,1,1,2,2,3,3,4,4,7,7,8,8,9,9],"right_children":[2,4,6,8,10,-1,-1,12,14,16,-1,-1,-1,-1,-1,-1,-1],"split_conditions":[3.64075E2,4.2562118E-1,3.88215E2,1.4034961E-1,9.035714E-1,-2.7904106E-2,-0E0,7.9888016E-2,8E0,7.524753E1,6.8867006E-3,5.526666E-3,-1.2924017E-2,2.9459646E-2,-7.6658265E-3,-2.8224591E-2,-0E0],"split_indices":[5,2,7,2,4,0,0,2,14,0,0,0,0,0,0,0,0],"split_type":[0,0,0,0,0,0,0,0,0,0,0,0,0,0,0,0,0],"sum_hessian":[1.9153559E1,1.6273571E1,2.8799877E0,1.2545069E1,3.7285023E0,1.7310275E0,1.1489601E0,3.688614E0,8.856455E0,2.5618396E0,1.1666627E0,1.6005367E0,2.088077E0,7.726808E0,1.1296463E0,1.4030997E0,1.1587398E0],"tree_param":{"num_deleted":"0","num_feature":"16","num_nodes":"17","size_leaf_vector":"1"}},{"base_weights":[-6.413543E-2,-3.40639E-2,4.9176104E-2,3.936078E-1,-9.25959E-2,5.675368E-1,-0E0,-4.9159566E-1,4.3067172E-2,3.433658E-2,-0E0,-0E0,-3.184416E-2,1.7388357E-2,-1.6050046E-2],"categories":[],"categories_nodes":[],"categories_segments":[],"categories_sizes":[],"default_left":[0,0,0,0,0,0,0,0,0,0,0,0,0,0,0],"id":48,"left_children":[1,-1,3,5,7,9,-1,11,13,-1,-1,-1,-1,-1,-1],"loss_changes":[1.9722649E0,0E0,1.2186388E0,7.690624E-1,1.0801274E0,2.1969116E-1,0E0,3.6143506E-1,1.5810777E0,0E0,0E0,0E0,0E0,0E0,0E0],"parents":[2147483647,0,0,2,2,3,3,4,4,5,5,7,7,8,8],"right_children":[2,-1,4,6,8,10,-1,12,14,-1,-1,-1,-1,-1,-1],"split_conditions":[-4.4185456E-2,-3.40639E-2,3.2281607E2,1.9500433E-1,3.52035E2,1.2E1,-0E0,2.0692211E-1,5.714286E-1,3.433658E-2,-0E0,-0E0,-3.184416E-2,1.7388357E-2,-1.6050046E-2],"split_indices":[3,0,5,3,11,12,0,2,4,0,0,0,0,0,0],"split_type":[0,0,0,0,0,0,0,0,0,0,0,0,0,0,0],"sum_hessian":[2.072591E1,2.3445027E0,1.8381409E1,5.352278E0,1.302913E1,3.924066E0,1.4282119E0,2.9096966E0,1.0119433E1,2.511915E0,1.4121512E0,1.0934584E0,1.816238E0,6.305272E0,3.814161E0],"tree_param":{"num_deleted":"0","num_feature":"16","num_nodes":"15","size_leaf_vector":"1"}},{"base_weights":[6.6778385E-3,1.3353088E-1,-3.6841086E-1,-6.342328E-2,6.679032E-1,-2.3698159E-2,-0E0,1.6681132E-1,-2.4037835E-1,3.8661513E-2,-0E0,2.2713961E-2,-9.782769E-3,-2.639958E-2,2.830248E-3],"categories":[],"categories_nodes":[],"categories_segments":[],"categories_sizes":[],"default_left":[0,0,0,0,0,0,0,0,0,0,0,0,0,0,0],"id":49,"left_children":[1,3,5,7,9,-1,-1,11,13,-1,-1,-1,-1,-1,-1],"loss_changes":[1.1087843E0,2.5105329E0,2.3292404E-1,7.641943E-1,2.3487926E-1,0E0,0E0,1.0214994E0,1.2375741E0,0E0,0E0,0E0,0E0,0E0,0E0],"parents":[2147483647,0,0,1,1,2,2,3,3,4,4,7,7,8,8],"right_children":[2,4,6,8,10,-1,-1,12,14,-1,-1,-1,-1,-1,-1],"split_conditions":[3.64075E2,3.5827E2,3.883125E2,3.1767856E2,3.648575E2,-2.3698159E-2,-0E0,3E0,6.730769E1,3.8661513E-2,-0E0,2.2713961E-2,-9.782769E-3,-2.639958E-2,2.830248E-3],"split_indices":[5,7,7,5,7,0,0,13,0,0,0,0,0,0,0],"split_type":[0,0,0,0,0,0,0,0,0,0,0,0,0,0,0],"sum_hessian":[2.1703419E1,1.8177055E1,3.5263636E0,1.3886018E1,4.2910366E0,2.3758621E0,1.1505016E0,4.8564315E0,9.029587E0,3.086726E0,1.2043108E0,3.1951978E0,1.6612334E0,4.652131E0,4.3774557E0],"tree_param":{"num_deleted":"0","num_feature":"16","num_nodes":"15","size_leaf_vector":"1"}}]},"name":"gbtree"},"learner_model_param":{"base_score":"[4.609375E-1]","boost_from_average":"1","num_class":"0","num_feature":"16","num_target":"1"},"objective":{"name":"binary:logistic","reg_loss_param":{"scale_pos_weight":"1"}}},"version":[3,3,0]}