{"learner":{"attributes":{"scikit_learn":"{\"_estimator_type\": \"classifier\"}"},"feature_names":["entry_rsi","entry_macd","entry_macd_signal","entry_macd_hist","entry_atr","entry_supertrend","entry_supertrend_dir","entry_ma20","entry_ma60","entry_bb_upper","entry_bb_lower","entry_bb_middle","entry_hour","entry_dayofweek","entry_month","regime"],"feature_types":["float","float","float","float","float","float","float","float","float","float","float","float","float","float","float","float"],"gradient_booster":{"model":{"cats":{"enc":[],"feature_segments":[],"sorted_idx":[]},"gbtree_model_param":{"num_parallel_tree":"1","num_trees":"50"},"iteration_indptr":[0,1,2,3,4,5,6,7,8,9,10,11,12,13,14,15,16,17,18,19,20,21,22,23,24,25,26,27,28,29,30,31,32,33,34,35,36,37,38,39,40,41,42,43,44,45,46,47,48,49,50],"tree_info":[0,0,0,0,0,0,0,0,0,0,0,0,0,0,0,0,0,0,0,0,0,0,0,0,0,0,0,0,0,0,0,0,0,0,0,0,0,0,0,0,0,0,0,0,0,0,0,0,0,0],"trees":[{"base_weights":[7.11244E-2,-3.7029441E-3,3.216669E-2,2.1791957E-1,-3.3791086E-1,7.014741E-1,-5.8913134E-2,-4.6847053E-2,-5.058404E-3,-0E0,4.3988667E-2,-2.11406E-2,1.5098171E-2,3.725184E-2,-1.8626874E-2],"categories":[],"categories_nodes":[],"categories_segments":[],"categories_sizes":[],"default_left":[0,0,0,0,0,0,0,0,0,0,0,0,0,0,0],"id":0,"left_children":[1,3,-1,5,7,9,11,-1,13,-1,-1,-1,-1,-1,-1],"loss_changes":[1.6047363E0,2.255736E0,0E0,2.6723285E0,2.0539484E0,6.188443E-1,1.886877E0,0E0,3.3232822E0,0E0,0E0,0E0,0E0,0E0,0E0],"parents":[2147483647,0,0,1,1,3,3,4,4,5,5,6,6,8,8],"right_children":[2,4,-1,6,8,10,12,-1,14,-1,-1,-1,-1,-1,-1],"split_conditions":[1.0340188E3,8.3279095E2,3.216669E-2,1.2009258E0,8.25229E2,2.1630974E-1,2.3311093E0,-4.6847053E-2,8.480452E2,-0E0,4.3988667E-2,-2.11406E-2,1.5098171E-2,3.725184E-2,-1.8626874E-2],"split_indices":[9,9,0,1,10,1,1,0,10,0,0,0,0,0,0],"split_type":[0,0,0,0,0,0,0,0,0,0,0,0,0,0,0],"sum_hessian":[2.7898388E1,2.5656553E1,2.2418349E0,1.4945565E1,1.0710989E1,4.9818554E0,9.963711E0,1.9927421E0,8.718246E0,1.7436492E0,3.238206E0,5.4800406E0,4.4836698E0,1.7436492E0,6.974597E0],"tree_param":{"num_deleted":"0","num_feature":"16","num_nodes":"15","size_leaf_vector":"1"}},{"base_weights":[1.0827345E-2,6.066988E-1,-1.1153172E-1,4.8813462E-2,-2.5638936E-3,-3.434309E-1,4.354446E-1,-5.9351766E-1,7.333832E-2,6.66462E-1,-0E0,-4.3925185E-2,3.8664156E-4,3.0462757E-2,-3.1075636E-2,4.3268036E-2,-0E0,-2.6277492E-3,-0E0],"categories":[],"categories_nodes":[],"categories_segments":[],"categories_sizes":[],"default_left":[0,0,0,0,0,0,0,0,0,0,0,0,0,0,0,0,0,0,0],"id":1,"left_children":[1,3,5,-1,-1,7,9,11,13,15,17,-1,-1,-1,-1,-1,-1,-1,-1],"loss_changes":[2.725809E0,2.1386242E0,3.7606573E0,0E0,0E0,2.5546682E0,1.0508276E0,2.8832307E0,4.092627E0,5.159161E-1,8.959621E-3,0E0,0E0,0E0,0E0,0E0,0E0,0E0,0E0],"parents":[2147483647,0,0,1,1,2,2,5,5,6,6,7,7,8,8,9,9,10,10],"right_children":[2,4,6,-1,-1,8,10,12,14,16,18,-1,-1,-1,-1,-1,-1,-1,-1],"split_conditions":[7.18135E2,1.9321429E0,3.2667422E0,4.8813462E-2,-2.5638936E-3,3.0535715E0,5.6960034E0,3.7500226E-1,1.5206193E0,1E0,-2.982173E-2,-4.3925185E-2,3.8664156E-4,3.0462757E-2,-3.1075636E-2,4.3268036E-2,-0E0,-2.6277492E-3,-0E0],"split_indices":[7,4,2,0,0,4,2,3,2,6,3,0,0,0,0,0,0,0,0],"split_type":[0,0,0,0,0,0,0,0,0,0,0,0,0,0,0,0,0,0,0],"sum_hessian":[3.0133923E1,4.4811225E0,2.56528E1,2.7365062E0,1.7446164E0,1.9179657E1,6.473143E0,1.2206524E1,6.9731326E0,3.9829063E0,2.490237E0,8.219784E0,3.9867399E0,4.4821453E0,2.4909875E0,2.2376397E0,1.7452666E0,1.243858E0,1.246379E0],"tree_param":{"num_deleted":"0","num_feature":"16","num_nodes":"19","size_leaf_vector":"1"}},{"base_weights":[4.3817624E-2,-2.4051566E-1,3.9529803E-1,2.3405686E-1,-9.172252E-1,7.5388515E-1,-0E0,4.9668288E-1,-7.543688E-2,-6.0664147E-2,-0E0,4.8088286E-2,4.110876E-2,2.8743288E-1,-3.7266925E-1,3.6729272E-2,-0E0,1.5580085E-2,-2.6080802E-2,1.2689884E-2,-2.135039E-3,-0E0,2.7650097E-2,-2.9078534E-2,-0E0],"categories":[],"categories_nodes":[],"categories_segments":[],"categories_sizes":[],"default_left":[0,0,0,0,0,0,0,0,0,0,0,0,0,0,0,0,0,0,0,0,0,0,0,0,0],"id":2,"left_children":[1,3,5,7,9,11,13,15,17,-1,-1,-1,19,21,23,-1,-1,-1,-1,-1,-1,-1,-1,-1,-1],"loss_changes":[3.4279985E0,6.532048E0,2.2217116E0,1.2368312E0,2.625967E0,6.377034E-1,1.2277651E0,1.1155735E0,1.5067439E0,0E0,0E0,0E0,2.0723763E-1,4.5609605E-1,5.739302E-1,0E0,0E0,0E0,0E0,0E0,0E0,0E0,0E0,0E0,0E0],"parents":[2147483647,0,0,1,1,2,2,3,3,4,4,5,5,6,6,7,7,8,8,12,12,13,13,14,14],"right_children":[2,4,6,8,10,12,14,16,18,-1,-1,-1,20,22,24,-1,-1,-1,-1,-1,-1,-1,-1,-1,-1],"split_conditions":[6.502954E-2,-2.0974948E-1,6.881721E1,3E0,1.8695484E0,4E0,3E0,3.8032207E0,3E0,-6.0664147E-2,-0E0,4.8088286E-2,1.2E1,8.815166E1,1.1E1,3.6729272E-2,-0E0,1.5580085E-2,-2.6080802E-2,1.2689884E-2,-2.135039E-3,-0E0,2.7650097E-2,-2.9078534E-2,-0E0],"split_indices":[3,3,0,13,2,13,13,2,14,0,0,0,12,0,12,0,0,0,0,0,0,0,0,0,0],"split_type":[0,0,0,0,0,0,0,0,0,0,0,0,0,0,0,0,0,0,0,0,0,0,0,0,0],"sum_hessian":[2.9624304E1,1.5939091E1,1.3685213E1,9.703478E0,6.235613E0,6.2216077E0,7.4636054E0,5.468763E0,4.234715E0,4.4906545E0,1.7449585E0,3.732809E0,2.4887986E0,4.4752393E0,2.988366E0,3.481812E0,1.9869511E0,1.9905916E0,2.2441232E0,1.2432064E0,1.2455924E0,3.2344642E0,1.2407753E0,1.745224E0,1.2431419E0],"tree_param":{"num_deleted":"0","num_feature":"16","num_nodes":"25","size_leaf_vector":"1"}},{"base_weights":[-8.311675E-3,5.2509236E-1,-2.59071E-1,4.593449E-2,-0E0,-6.4374703E-1,2.3440579E-1,-1.7152725E-2,2.5827911E-1,-8.193949E-1,9.434886E-3,7.8459E-1,-1.5717942E-1,2.7750412E-2,-3.1268303E-3,-1.0758465E-2,-5.0042123E-2,4.6296045E-2,-0E0,1.4469917E-2,-3.4437355E-2],"categories":[],"categories_nodes":[],"categories_segments":[],"categories_sizes":[],"default_left":[0,0,0,0,0,0,0,0,0,0,0,0,0,0,0,0,0,0,0,0,0],"id":3,"left_children":[1,3,5,-1,7,9,11,-1,13,15,-1,17,19,-1,-1,-1,-1,-1,-1,-1,-1],"loss_changes":[4.60019E0,1.8725057E0,5.188416E0,0E0,7.644409E-1,2.8124585E0,3.081236E0,0E0,8.612355E-1,4.1137028E-1,0E0,3.1865692E-1,2.4905207E0,0E0,0E0,0E0,0E0,0E0,0E0,0E0,0E0],"parents":[2147483647,0,0,1,1,2,2,4,4,5,5,6,6,8,8,9,9,11,11,12,12],"right_children":[2,4,6,-1,8,10,12,-1,14,16,-1,18,20,-1,-1,-1,-1,-1,-1,-1,-1],"split_conditions":[7.350482E2,1.2289808E0,2.9928572E0,4.593449E-2,1.4547385E0,3.0781598E0,3.6321428E0,-1.7152725E-2,7.099429E2,7.4666256E-1,9.434886E-3,9.328769E2,5.6164383E1,2.7750412E-2,-3.1268303E-3,-1.0758465E-2,-5.0042123E-2,4.6296045E-2,-0E0,1.4469917E-2,-3.4437355E-2],"split_indices":[5,1,4,0,2,2,4,0,5,2,0,10,0,0,0,0,0,0,0,0,0],"split_type":[0,0,0,0,0,0,0,0,0,0,0,0,0,0,0,0,0,0,0,0,0],"sum_hessian":[3.135273E1,8.688652E0,2.2664076E1,3.7104907E0,4.9781613E0,1.2963182E1,9.700894E0,1.2469687E0,3.7311928E0,1.1226381E1,1.7368004E0,3.7299118E0,5.9709826E0,1.9895563E0,1.7416365E0,4.2387004E0,6.9876814E0,2.485889E0,1.2440228E0,3.2288857E0,2.742097E0],"tree_param":{"num_deleted":"0","num_feature":"16","num_nodes":"21","size_leaf_vector":"1"}},{"base_weights":[-1.0360961E-1,4.2990968E-1,-2.4416336E-1,-2.8573328E-3,6.6327995E-1,-5.8727217E-1,4.905967E-2,3.9801344E-2,-0E0,-7.6877254E-1,4.5892852E-3,3.665809E-2,-1.7348552E-1,-0E0,-4.476553E-2,-2.3305478E-2,1.292522E-2],"categories":[],"categories_nodes":[],"categories_segments":[],"categories_sizes":[],"default_left":[0,0,0,0,0,0,0,0,0,0,0,0,0,0,0,0,0],"id":4,"left_children":[1,3,5,-1,7,9,11,-1,-1,13,-1,-1,15,-1,-1,-1,-1],"loss_changes":[2.449557E0,1.1141113E0,3.0065434E0,0E0,2.258122E-1,2.1082387E0,2.882174E0,0E0,0E0,1.3681536E0,0E0,0E0,1.950527E0,0E0,0E0,0E0,0E0],"parents":[2147483647,0,0,1,1,2,2,4,4,5,5,6,6,9,9,12,12],"right_children":[2,4,6,-1,8,10,12,-1,-1,14,-1,-1,16,-1,-1,-1,-1],"split_conditions":[-5.31778E-1,-4.580926E-1,6.502954E-2,-2.8573328E-3,4.4142014E1,9.395417E2,3.044332E-1,3.9801344E-2,-0E0,-3.0109674E-1,4.5892852E-3,3.665809E-2,7.931287E1,-0E0,-4.476553E-2,-2.3305478E-2,1.292522E-2],"split_indices":[3,1,3,0,0,8,3,0,0,1,0,0,0,0,0,0,0],"split_type":[0,0,0,0,0,0,0,0,0,0,0,0,0,0,0,0,0],"sum_hessian":[2.9104834E1,4.46848E0,2.4636354E1,1.2426771E0,3.2258031E0,1.1214036E1,1.34223175E1,1.9845625E0,1.2412407E0,9.221397E0,1.9926381E0,2.7197335E0,1.0702584E1,1.2409633E0,7.9804344E0,6.976362E0,3.7262223E0],"tree_param":{"num_deleted":"0","num_feature":"16","num_nodes":"17","size_leaf_vector":"1"}},{"base_weights":[3.151626E-2,6.066906E-1,-1.0178155E-1,-2.8151353E-3,8.380329E-1,-4.542901E-1,2.0060296E-1,4.9356855E-2,-0E0,-0E0,-7.986059E-1,6.5779674E-1,-4.7641075E-1,2.1079093E-2,-1.8061591E-2,-4.826035E-2,-0E0,4.157227E-2,7.8001287E-4,-0E0,-3.4565568E-2],"categories":[],"categories_nodes":[],"categories_segments":[],"categories_sizes":[],"default_left":[0,0,0,0,0,0,0,0,0,0,0,0,0,0,0,0,0,0,0,0,0],"id":5,"left_children":[1,3,5,-1,7,9,11,-1,-1,13,15,17,19,-1,-1,-1,-1,-1,-1,-1,-1],"loss_changes":[3.0076199E0,1.6280899E0,3.3868341E0,0E0,4.7986126E-1,2.5393672E0,5.7211504E0,0E0,0E0,1.5358913E0,1.1720824E0,7.694402E-1,9.8138E-1,0E0,0E0,0E0,0E0,0E0,0E0,0E0,0E0],"parents":[2147483647,0,0,1,1,2,2,4,4,5,5,6,6,9,9,10,10,11,11,12,12],"right_children":[2,4,6,-1,8,10,12,-1,-1,14,16,18,20,-1,-1,-1,-1,-1,-1,-1,-1],"split_conditions":[-5.31778E-1,3.785425E1,6.502954E-2,-2.8151353E-3,3.9813309E0,-2.0974948E-1,7.55212E-1,4.9356855E-2,-0E0,1E0,9.020589E2,7.1031746E1,1.6765429E0,2.1079093E-2,-1.8061591E-2,-4.826035E-2,-0E0,4.157227E-2,7.8001287E-4,-0E0,-3.4565568E-2],"split_indices":[3,0,3,0,2,3,3,0,0,6,5,0,2,0,0,0,0,0,0,0,0],"split_type":[0,0,0,0,0,0,0,0,0,0,0,0,0,0,0,0,0,0,0,0,0],"sum_hessian":[3.232482E1,5.4512267E0,2.6873594E1,1.2424629E0,4.208764E0,1.2707949E1,1.4165646E1,2.9672348E0,1.2415291E0,5.966907E0,6.741041E0,8.930263E0,5.235383E0,2.98118E0,2.9857273E0,5.2420473E0,1.4989939E0,5.952705E0,2.9775574E0,1.7457162E0,3.4896667E0],"tree_param":{"num_deleted":"0","num_feature":"16","num_nodes":"21","size_leaf_vector":"1"}},{"base_weights":[1.1270151E-1,6.573181E-1,-1.123553E-1,3.4260213E-2,3.9200034E-2,-5.091587E-1,2.4783427E-1,1.1834218E-2,-1.746743E-3,-4.164906E-2,-3.9497684E-3,5.461962E-1,-2.5150958E-2,-2.5052238E-2,1.5271162E-2,1.0731216E-3,3.6220092E-2],"categories":[],"categories_nodes":[],"categories_segments":[],"categories_sizes":[],"default_left":[0,0,0,0,0,0,0,0,0,0,0,0,0,0,0,0,0],"id":6,"left_children":[1,3,5,7,-1,9,11,-1,-1,-1,13,15,-1,-1,-1,-1,-1],"loss_changes":[4.2876496E0,3.3970785E-1,3.7253618E0,1.8011089E-1,0E0,1.6105039E0,3.4706259E0,0E0,0E0,0E0,1.5530789E0,5.9632516E-1,0E0,0E0,0E0,0E0,0E0],"parents":[2147483647,0,0,1,1,2,2,3,3,5,5,6,6,10,10,11,11],"right_children":[2,4,6,8,-1,10,12,-1,-1,-1,14,16,-1,-1,-1,-1,-1],"split_conditions":[7.350482E2,4.8314606E1,2.3311093E0,4.2146595E1,3.9200034E-2,8.1862335E2,1.5256349E0,1.1834218E-2,-1.746743E-3,-4.164906E-2,4.3458645E1,2E0,-2.5150958E-2,-2.5052238E-2,1.5271162E-2,1.0731216E-3,3.6220092E-2],"split_indices":[5,0,1,0,0,8,3,0,0,0,0,13,0,0,0,0,0],"split_type":[0,0,0,0,0,0,0,0,0,0,0,0,0,0,0,0,0],"sum_hessian":[2.9553171E1,8.167905E0,2.1385265E1,2.4763453E0,5.69156E0,1.0442385E1,1.0942881E1,1.2383968E0,1.2379485E0,4.969704E0,5.4726806E0,8.697751E0,2.24513E0,2.244052E0,3.2286284E0,3.4844031E0,5.2133474E0],"tree_param":{"num_deleted":"0","num_feature":"16","num_nodes":"17","size_leaf_vector":"1"}},{"base_weights":[-1.8888269E-2,-2.5644052E-1,2.528207E-1,-3.9243937E-2,-4.3729186E-2,6.9033504E-1,-2.6961318E-1,6.007968E-2,-2.7322385E-2,4.9498234E-2,-9.976994E-3,-5.28183E-1,1.2058719E-2,-1.834707E-2,1.2835229E-2,-3.7300836E-2,-0E0],"categories":[],"categories_nodes":[],"categories_segments":[],"categories_sizes":[],"default_left":[0,0,0,0,0,0,0,0,0,0,0,0,0,0,0,0,0],"id":7,"left_children":[1,3,5,-1,7,9,11,13,-1,-1,-1,15,-1,-1,-1,-1,-1],"loss_changes":[2.119096E0,1.5858114E0,3.871702E0,0E0,1.1393973E0,3.1670332E0,1.3856337E0,1.3229157E0,0E0,0E0,0E0,1.0374919E0,0E0,0E0,0E0,0E0,0E0],"parents":[2147483647,0,0,1,1,2,2,4,4,5,5,6,6,7,7,11,11],"right_children":[2,4,6,-1,8,10,12,14,-1,-1,-1,16,-1,-1,-1,-1,-1],"split_conditions":[6.502954E-2,1E0,7.7339905E1,-3.9243937E-2,1.4E1,9.474107E2,8.815166E1,1.8392857E0,-2.7322385E-2,4.9498234E-2,-9.976994E-3,3.8321428E0,1.2058719E-2,-1.834707E-2,1.2835229E-2,-3.7300836E-2,-0E0],"split_indices":[3,13,0,0,12,5,0,4,0,0,0,4,0,0,0,0,0],"split_type":[0,0,0,0,0,0,0,0,0,0,0,0,0,0,0,0,0],"sum_hessian":[2.8794281E1,1.640455E1,1.2389731E1,2.48951E0,1.391504E1,6.913928E0,5.4758034E0,1.2168661E1,1.7463794E0,5.424403E0,1.4895251E0,4.240138E0,1.2356653E0,2.4886374E0,9.680023E0,2.9921727E0,1.2479652E0],"tree_param":{"num_deleted":"0","num_feature":"16","num_nodes":"17","size_leaf_vector":"1"}},{"base_weights":[7.699501E-2,4.0615946E-2,-4.8184544E-2,1.3226268E-1,-6.954975E-1,-2.3806787E-1,5.07015E-1,-4.986995E-2,-0E0,8.049613E-3,-1.9108055E-2,4.3489407E-3,3.8932767E-2],"categories":[],"categories_nodes":[],"categories_segments":[],"categories_sizes":[],"default_left":[0,0,0,0,0,0,0,0,0,0,0,0,0],"id":8,"left_children":[1,-1,3,5,7,9,11,-1,-1,-1,-1,-1,-1],"loss_changes":[3.3136168E0,0E0,3.7122583E0,3.5418572E0,1.8354557E0,9.330791E-1,8.749294E-1,0E0,0E0,0E0,0E0,0E0,0E0],"parents":[2147483647,0,0,2,2,3,3,4,4,5,5,6,6],"right_children":[2,-1,4,6,8,10,12,-1,-1,-1,-1,-1,-1],"split_conditions":[-8.482428E-1,4.0615946E-2,3.2642264E0,5.5867767E1,8.920661E2,7.2422E2,8.102613E2,-4.986995E-2,-0E0,8.049613E-3,-1.9108055E-2,4.3489407E-3,3.8932767E-2],"split_indices":[3,0,1,0,5,8,10,0,0,0,0,0,0],"split_type":[0,0,0,0,0,0,0,0,0,0,0,0,0],"sum_hessian":[2.8997765E1,3.2023673E0,2.5795397E1,2.0812544E1,4.9828525E0,1.016386E1,1.0648684E1,3.240404E0,1.7424486E0,1.7135966E0,8.450264E0,5.941868E0,4.7068157E0],"tree_param":{"num_deleted":"0","num_feature":"16","num_nodes":"13","size_leaf_vector":"1"}},{"base_weights":[-4.7251616E-2,4.802077E-1,-2.1003893E-1,3.502719E-2,-2.3081282E-3,-4.3351308E-1,1.2006041E-1,-5.669579E-1,1.4630973E-2,-9.8180994E-2,4.8222622E-1,-0E0,-3.4047972E-2,6.8043466E-3,-2.6860315E-2,3.205576E-2,-0E0],"categories":[],"categories_nodes":[],"categories_segments":[],"categories_sizes":[],"default_left":[0,0,0,0,0,0,0,0,0,0,0,0,0,0,0,0,0],"id":9,"left_children":[1,3,5,-1,-1,7,9,11,-1,13,15,-1,-1,-1,-1,-1,-1],"loss_changes":[2.622535E0,1.1926312E0,2.0948935E0,0E0,0E0,2.0351124E0,1.1324242E0,1.0870557E0,0E0,1.115755E0,2.1801257E-1,0E0,0E0,0E0,0E0,0E0,0E0],"parents":[2147483647,0,0,1,1,2,2,5,5,6,6,7,7,9,9,10,10],"right_children":[2,4,6,-1,-1,8,10,12,-1,14,16,-1,-1,-1,-1,-1,-1],"split_conditions":[7.18135E2,1.8738523E0,8.466964E2,3.502719E-2,-2.3081282E-3,7.2601643E0,2.9928572E0,-1.296583E-1,1.4630973E-2,9.6418E2,3.5392857E0,-0E0,-3.4047972E-2,6.8043466E-3,-2.6860315E-2,3.205576E-2,-0E0],"split_indices":[7,1,5,0,0,1,4,1,0,7,4,0,0,0,0,0,0],"split_type":[0,0,0,0,0,0,0,0,0,0,0,0,0,0,0,0,0],"sum_hessian":[2.776689E1,4.9044156E0,2.2862474E1,3.6603298E0,1.2440857E0,1.4162636E1,8.699838E0,1.2915998E1,1.246637E0,5.476764E0,3.2230737E0,2.2319334E0,1.0684066E1,3.7284124E0,1.7483518E0,1.4853947E0,1.7376789E0],"tree_param":{"num_deleted":"0","num_feature":"16","num_nodes":"17","size_leaf_vector":"1"}},{"base_weights":[-3.496074E-2,-3.7497412E-2,5.709452E-2,2.2917606E-1,-3.3945644E-1,4.5683566E-2,1.0171497E-2,-5.648037E-1,3.6003944E-3,-2.5511121E-2,2.281163E-2,-3.9183572E-2,-0E0],"categories":[],"categories_nodes":[],"categories_segments":[],"categories_sizes":[],"default_left":[0,0,0,0,0,0,0,0,0,0,0,0,0],"id":10,"left_children":[1,-1,3,5,7,-1,9,11,-1,-1,-1,-1,-1],"loss_changes":[2.4389067E0,0E0,2.0283206E0,2.783776E0,1.113689E0,0E0,4.8659296E0,6.8982387E-1,0E0,0E0,0E0,0E0,0E0],"parents":[2147483647,0,0,2,2,3,3,4,4,6,6,7,7],"right_children":[2,-1,4,6,8,-1,10,12,-1,-1,-1,-1,-1],"split_conditions":[3.59375E1,-3.7497412E-2,3.2642264E0,-5.31778E-1,7.2601643E0,4.5683566E-2,6.502954E-2,8.364675E2,3.6003944E-3,-2.5511121E-2,2.281163E-2,-3.9183572E-2,-0E0],"split_indices":[0,0,1,3,1,0,3,7,0,0,0,0,0],"split_type":[0,0,0,0,0,0,0,0,0,0,0,0,0],"sum_hessian":[2.849064E1,2.2389488E0,2.6251692E1,1.9775309E1,6.476383E0,2.7023242E0,1.7072985E1,4.4881744E0,1.9882088E0,7.229795E0,9.843189E0,2.493387E0,1.9947876E0],"tree_param":{"num_deleted":"0","num_feature":"16","num_nodes":"13","size_leaf_vector":"1"}},{"base_weights":[7.2971E-3,2.5331646E-1,-3.5450235E-1,-2.182563E-1,4.109401E-1,1.6516749E-2,-5.725026E-1,-2.590141E-2,4.235739E-3,3.4104045E-2,1.4843017E-1,-3.9438706E-2,6.777449E-3,-4.9831076E-3,3.447328E-2],"categories":[],"categories_nodes":[],"categories_segments":[],"categories_sizes":[],"default_left":[0,0,0,0,0,0,0,0,0,0,0,0,0,0,0],"id":11,"left_children":[1,3,5,7,9,-1,11,-1,-1,-1,13,-1,-1,-1,-1],"loss_changes":[2.6427631E0,1.6731111E0,2.207522E0,7.786228E-1,4.9108648E-1,0E0,2.0663466E0,0E0,0E0,0E0,1.9636397E0,0E0,0E0,0E0,0E0],"parents":[2147483647,0,0,1,1,2,2,3,3,4,4,6,6,10,10],"right_children":[2,4,6,8,10,-1,12,-1,-1,-1,14,-1,-1,-1,-1],"split_conditions":[8.51841E2,1E0,-5.31778E-1,2.75E0,8.539105E-1,1.6516749E-2,9.661107E2,-2.590141E-2,4.235739E-3,3.4104045E-2,2.7479084E0,-3.9438706E-2,6.777449E-3,-4.9831076E-3,3.447328E-2],"split_indices":[9,13,3,4,2,0,5,0,0,0,2,0,0,0,0],"split_type":[0,0,0,0,0,0,0,0,0,0,0,0,0,0,0],"sum_hessian":[2.624135E1,1.6799532E1,9.441818E0,3.2211537E0,1.3578379E1,1.4771754E0,7.964643E0,1.7350714E0,1.4860822E0,4.1699886E0,9.40839E0,6.4673634E0,1.4972796E0,6.9355297E0,2.4728608E0],"tree_param":{"num_deleted":"0","num_feature":"16","num_nodes":"15","size_leaf_vector":"1"}},{"base_weights":[9.762707E-2,6.679272E-1,-1.1303649E-1,-0E0,4.242496E-2,-5.1285475E-1,4.1545197E-1,-6.868118E-1,7.678176E-3,-2.3971373E-1,4.3733593E-2,-8.686221E-3,-4.8257895E-2,1.3504954E-2,-3.9272208E-2],"categories":[],"categories_nodes":[],"categories_segments":[],"categories_sizes":[],"default_left":[0,0,0,0,0,0,0,0,0,0,0,0,0,0,0],"id":12,"left_children":[1,3,5,-1,-1,7,9,11,-1,13,-1,-1,-1,-1,-1],"loss_changes":[4.291297E0,1.029614E0,5.662175E0,0E0,0E0,2.264009E0,4.088393E0,9.776044E-1,0E0,2.2710588E0,0E0,0E0,0E0,0E0,0E0],"parents":[2147483647,0,0,1,1,2,2,5,5,6,6,7,7,9,9],"right_children":[2,4,6,-1,-1,8,10,12,-1,14,-1,-1,-1,-1,-1],"split_conditions":[7.52941E2,6.7077313E2,2.9928572E0,-0E0,4.242496E-2,3.0781598E0,8.2533997E2,8.4755505E2,7.678176E-3,1.2961937E0,4.3733593E-2,-8.686221E-3,-4.8257895E-2,1.3504954E-2,-3.9272208E-2],"split_indices":[10,10,4,0,0,2,10,10,0,1,0,0,0,0,0],"split_type":[0,0,0,0,0,0,0,0,0,0,0,0,0,0,0],"sum_hessian":[3.0152527E1,7.602801E0,2.2549726E1,2.2221847E0,5.380616E0,1.3409941E1,9.139786E0,1.1180531E1,2.22941E0,3.7116265E0,5.428159E0,5.706352E0,5.474179E0,1.9675274E0,1.7440991E0],"tree_param":{"num_deleted":"0","num_feature":"16","num_nodes":"15","size_leaf_vector":"1"}},{"base_weights":[7.5296246E-2,-1.0936594E-1,4.2390808E-1,3.1355135E-2,-2.676894E-1,7.906654E-1,-1.7545389E-2,-3.611311E-2,-3.491591E-2,5.2428015E-2,-0E0,-3.0607507E-2,2.856136E-2,-2.3742301E-2,1.6002579E-2],"categories":[],"categories_nodes":[],"categories_segments":[],"categories_sizes":[],"default_left":[0,0,0,0,0,0,0,0,0,0,0,0,0,0,0],"id":13,"left_children":[1,3,5,-1,7,9,11,13,-1,-1,-1,-1,-1,-1,-1],"loss_changes":[2.2061872E0,2.5483184E0,2.336178E0,0E0,1.4618553E0,1.7599216E0,3.073988E0,2.7440739E0,0E0,0E0,0E0,0E0,0E0,0E0,0E0],"parents":[2147483647,0,0,1,1,2,2,4,4,5,5,6,6,7,7],"right_children":[2,4,6,-1,8,10,12,14,-1,-1,-1,-1,-1,-1,-1],"split_conditions":[3.0535715E0,1.2678572E0,5.952381E1,3.1355135E-2,4E0,4.428571E0,7.8807945E1,2E0,-3.491591E-2,5.2428015E-2,-0E0,-3.0607507E-2,2.856136E-2,-2.3742301E-2,1.6002579E-2],"split_indices":[4,4,0,0,13,4,0,13,0,0,0,0,0,0,0],"split_type":[0,0,0,0,0,0,0,0,0,0,0,0,0,0,0],"sum_hessian":[2.838728E1,1.8516998E1,9.870282E0,1.6697927E0,1.6847204E1,5.1457453E0,4.724537E0,1.3120369E1,3.7268362E0,3.6636813E0,1.4820639E0,2.733636E0,1.9909011E0,6.2091637E0,6.911205E0],"tree_param":{"num_deleted":"0","num_feature":"16","num_nodes":"15","size_leaf_vector":"1"}},{"base_weights":[-0E0,-2.4779332E-1,3.2317922E-1,-6.725353E-1,4.6610024E-2,5.290507E-1,-2.5225833E-1,-4.676978E-2,-0E0,2.9604995E-1,-2.2094777E-2,7.101783E-1,-0E0,-0E0,-2.1771146E-2,-3.74878E-3,2.8532181E-2,4.5999534E-2,-0E0,-1.5542134E-2,1.1430854E-2],"categories":[],"categories_nodes":[],"categories_segments":[],"categories_sizes":[],"default_left":[0,0,0,0,0,0,0,0,0,0,0,0,0,0,0,0,0,0,0,0,0],"id":14,"left_children":[1,3,5,7,9,11,13,-1,-1,15,-1,17,19,-1,-1,-1,-1,-1,-1,-1,-1],"loss_changes":[2.7316728E0,2.6973033E0,2.210653E0,1.6243944E0,1.6681156E0,1.3061504E0,3.6173385E-1,0E0,0E0,1.3432679E0,0E0,1.3922534E0,5.0828606E-1,0E0,0E0,0E0,0E0,0E0,0E0,0E0,0E0],"parents":[2147483647,0,0,1,1,2,2,3,3,4,4,5,5,6,6,9,9,11,11,12,12],"right_children":[2,4,6,8,10,12,14,-1,-1,16,-1,18,20,-1,-1,-1,-1,-1,-1,-1,-1],"split_conditions":[6.502954E-2,1.1E1,9.373175E2,1.8143914E0,1.4E1,7.55212E-1,5.134913E-1,-4.676978E-2,-0E0,-4.8907351E-1,-2.2094777E-2,7.1031746E1,2E0,-0E0,-2.1771146E-2,-3.74878E-3,2.8532181E-2,4.5999534E-2,-0E0,-1.5542134E-2,1.1430854E-2],"split_indices":[3,12,7,1,12,3,3,0,0,3,0,0,13,0,0,0,0,0,0,0,0],"split_type":[0,0,0,0,0,0,0,0,0,0,0,0,0,0,0,0,0,0,0,0,0],"sum_hessian":[2.9805723E1,1.6566422E1,1.3239302E1,6.425608E0,1.0140814E1,1.0509498E1,2.7298048E0,4.2120523E0,2.2135556E0,7.9121766E0,2.2286372E0,7.531993E0,2.9775043E0,1.2343637E0,1.495441E0,3.2091203E0,4.7030563E0,5.3249893E0,2.2070038E0,1.2373744E0,1.7401298E0],"tree_param":{"num_deleted":"0","num_feature":"16","num_nodes":"21","size_leaf_vector":"1"}},{"base_weights":[-0E0,-3.267979E-2,9.130953E-2,5.0181216E-1,-9.162769E-2,7.1409464E-1,-0E0,-3.375972E-2,6.5085985E-2,-5.9480814E-4,4.734812E-2,1.30341E-2,-1.5245035E-2,1.9755809E-2,-1.5667697E-2],"categories":[],"categories_nodes":[],"categories_segments":[],"categories_sizes":[],"default_left":[0,0,0,0,0,0,0,0,0,0,0,0,0,0,0],"id":15,"left_children":[1,-1,3,5,7,9,11,-1,13,-1,-1,-1,-1,-1,-1],"loss_changes":[2.2703342E0,0E0,2.5713139E0,1.0894549E0,2.386397E0,1.726774E0,5.6831867E-1,0E0,2.5780926E0,0E0,0E0,0E0,0E0,0E0,0E0],"parents":[2147483647,0,0,2,2,3,3,4,4,5,5,6,6,8,8],"right_children":[2,-1,4,6,8,10,12,-1,14,-1,-1,-1,-1,-1,-1],"split_conditions":[3.6567165E1,-3.267979E-2,8.539105E-1,4E0,1.259044E0,3.72376E-2,5.1928783E1,-3.375972E-2,3.290495E0,-5.9480814E-4,4.734812E-2,1.30341E-2,-1.5245035E-2,1.9755809E-2,-1.5667697E-2],"split_indices":[0,0,2,13,2,2,0,0,1,0,0,0,0,0,0],"split_type":[0,0,0,0,0,0,0,0,0,0,0,0,0,0,0],"sum_hessian":[3.1008186E1,2.723543E0,2.8284643E1,8.487067E0,1.9797577E1,5.315224E0,3.171843E0,3.4657E0,1.6331877E1,1.2303036E0,4.0849204E0,1.934837E0,1.237006E0,9.3825865E0,6.9492903E0],"tree_param":{"num_deleted":"0","num_feature":"16","num_nodes":"15","size_leaf_vector":"1"}},{"base_weights":[-4.540283E-2,4.951546E-1,-3.1196856E-1,6.8641835E-1,-8.146732E-3,-4.273235E-1,2.0362696E-2,-0E0,7.518135E-1,-4.5198895E-2,-2.2294874E-1,4.5323502E-2,2.148173E-3,2.4539826E-2,-2.1011202E-2],"categories":[],"categories_nodes":[],"categories_segments":[],"categories_sizes":[],"default_left":[0,0,0,0,0,0,0,0,0,0,0,0,0,0,0],"id":16,"left_children":[1,3,5,7,-1,9,-1,-1,11,-1,13,-1,-1,-1,-1],"loss_changes":[4.929232E0,1.8640985E0,2.3282623E0,2.0547009E-1,0E0,1.1804614E0,0E0,0E0,3.5167456E-1,0E0,3.02636E0,0E0,0E0,0E0,0E0],"parents":[2147483647,0,0,1,1,2,2,3,3,5,5,8,8,10,10],"right_children":[2,4,6,8,-1,10,-1,-1,12,-1,14,-1,-1,-1,-1],"split_conditions":[7.52941E2,1.1297656E0,1.0435775E3,1E0,-8.146732E-3,4.0449318E-1,2.0362696E-2,-0E0,2.8110263E-1,-4.5198895E-2,8.539105E-1,4.5323502E-2,2.148173E-3,2.4539826E-2,-2.1011202E-2],"split_indices":[10,3,7,13,0,2,0,0,3,0,2,0,0,0,0],"split_type":[0,0,0,0,0,0,0,0,0,0,0,0,0,0,0],"sum_hessian":[3.0700024E1,8.953277E0,2.1746746E1,7.459085E0,1.4941912E0,2.003954E1,1.7072073E0,1.2104738E0,6.2486115E0,3.2250748E0,1.6814465E1,4.0927167E0,2.1558945E0,2.447843E0,1.4366622E1],"tree_param":{"num_deleted":"0","num_feature":"16","num_nodes":"15","size_leaf_vector":"1"}},{"base_weights":[-5.601503E-2,-2.9109693E-1,3.0682418E-1,4.1220936E-1,-4.6610305E-1,6.8822986E-1,-3.4607746E-2,2.6362399E-2,-0E0,-0E0,-7.332255E-1,-0E0,3.9538167E-2,-2.1049125E-2,2.4585463E-1,-1.3696887E-2,2.2568319E-2,-3.9037462E-2,-0E0,2.3750251E-2,-7.7500456E-4],"categories":[],"categories_nodes":[],"categories_segments":[],"categories_sizes":[],"default_left":[0,0,0,0,0,0,0,0,0,0,0,0,0,0,0,0,0,0,0,0,0],"id":17,"left_children":[1,3,5,7,9,11,13,-1,-1,15,17,-1,-1,-1,19,-1,-1,-1,-1,-1,-1],"loss_changes":[2.812734E0,2.953917E0,1.9781932E0,1.641131E-1,2.4522672E0,2.2836828E-1,1.130123E0,0E0,0E0,1.3101252E0,9.4479084E-2,0E0,0E0,0E0,5.427574E-1,0E0,0E0,0E0,0E0,0E0,0E0],"parents":[2147483647,0,0,1,1,2,2,3,3,4,4,5,5,6,6,9,9,10,10,14,14],"right_children":[2,4,6,8,10,12,14,-1,-1,16,18,-1,-1,-1,20,-1,-1,-1,-1,-1,-1],"split_conditions":[3.0535715E0,1.4071429E0,5.6734695E1,6.931732E2,-1.6272235E-1,1E1,7.8807945E1,2.6362399E-2,-0E0,-4.4438735E-1,7.931287E1,-0E0,3.9538167E-2,-2.1049125E-2,2.1188278E0,-1.3696887E-2,2.2568319E-2,-3.9037462E-2,-0E0,2.3750251E-2,-7.7500456E-4],"split_indices":[4,4,0,5,3,12,0,0,0,3,0,0,0,0,3,0,0,0,0,0,0],"split_type":[0,0,0,0,0,0,0,0,0,0,0,0,0,0,0,0,0,0,0,0,0],"sum_hessian":[2.8973757E1,1.8658482E1,1.0315277E1,2.608345E0,1.6050137E1,4.604587E0,5.7106895E0,1.4071218E0,1.2012234E0,6.194736E0,9.8554E0,1.2365016E0,3.3680856E0,2.7301917E0,2.9804978E0,3.9590206E0,2.2357152E0,8.611058E0,1.2443419E0,1.7363052E0,1.2441926E0],"tree_param":{"num_deleted":"0","num_feature":"16","num_nodes":"21","size_leaf_vector":"1"}},{"base_weights":[-0E0,2.542128E-1,-2.8157476E-1,-1.21894635E-1,5.073466E-1,-6.106087E-1,8.22791E-2,1.5794842E-2,-4.2017075E-1,6.30595E-1,2.7651021E-2,-3.9781883E-2,1.1453907E-3,-1.2681963E-2,3.5320693E-1,-0E0,-3.407973E-2,4.1585874E-2,-0E0,-1.9477542E-2,2.4099499E-2,3.5275213E-2,-4.7049047E-3],"categories":[],"categories_nodes":[],"categories_segments":[],"categories_sizes":[],"default_left":[0,0,0,0,0,0,0,0,0,0,0,0,0,0,0,0,0,0,0,0,0,0,0],"id":18,"left_children":[1,3,5,7,9,11,13,-1,15,17,19,-1,-1,-1,21,-1,-1,-1,-1,-1,-1,-1,-1],"loss_changes":[2.3285294E0,1.8724917E0,2.285809E0,1.2830049E0,2.8346753E-1,1.5230191E0,1.0172131E0,0E0,9.121773E-1,7.4861383E-1,1.3997399E0,0E0,0E0,0E0,1.4555666E0,0E0,0E0,0E0,0E0,0E0,0E0,0E0,0E0],"parents":[2147483647,0,0,1,1,2,2,3,3,4,4,5,5,6,6,8,8,9,9,10,10,14,14],"right_children":[2,4,6,8,10,12,14,-1,16,18,20,-1,-1,-1,22,-1,-1,-1,-1,-1,-1,-1,-1],"split_conditions":[8.3279095E2,1.1E1,1E0,-1.6272235E-1,2.931102E-1,1.0435775E3,1.2292175E0,1.5794842E-2,1E0,9.29939E-1,3.7500226E-1,-3.9781883E-2,1.1453907E-3,-1.2681963E-2,7.1031746E1,-0E0,-3.407973E-2,4.1585874E-2,-0E0,-1.9477542E-2,2.4099499E-2,3.5275213E-2,-4.7049047E-3],"split_indices":[9,12,6,3,3,7,1,0,6,1,3,0,0,0,0,0,0,0,0,0,0,0,0],"split_type":[0,0,0,0,0,0,0,0,0,0,0,0,0,0,0,0,0,0,0,0,0,0,0],"sum_hessian":[2.8391539E1,1.4344435E1,1.4047103E1,5.3930655E0,8.951369E0,7.3858757E0,6.661227E0,1.4582645E0,3.934801E0,5.7918034E0,3.1595657E0,5.9310474E0,1.4548285E0,2.2069662E0,4.4542613E0,1.7160121E0,2.2187889E0,3.5612614E0,2.2305422E0,1.222077E0,1.9374886E0,2.4712472E0,1.983014E0],"tree_param":{"num_deleted":"0","num_feature":"16","num_nodes":"23","size_leaf_vector":"1"}},{"base_weights":[6.722277E-2,5.4506445E-1,-7.548823E-2,3.662696E-2,3.7415367E-2,-5.29412E-1,2.3161815E-1,-1.3147453E-2,2.5880832E-2,-4.0264778E-2,2.1511214E-2,4.92715E-1,-2.395518E-1,1.6892685E-2,-8.12294E-3,-5.186474E-3,3.192664E-2,5.743464E-3,-2.9915009E-2],"categories":[],"categories_nodes":[],"categories_segments":[],"categories_sizes":[],"default_left":[0,0,0,0,0,0,0,0,0,0,0,0,0,0,0,0,0,0,0],"id":19,"left_children":[1,3,5,-1,7,9,11,-1,-1,-1,13,15,17,-1,-1,-1,-1,-1,-1],"loss_changes":[2.3380606E0,3.0868673E-1,3.7079585E0,0E0,1.1132263E0,2.0769238E0,2.1972616E0,0E0,0E0,0E0,4.8650497E-1,1.3507164E0,1.1395521E0,0E0,0E0,0E0,0E0,0E0,0E0],"parents":[2147483647,0,0,1,1,2,2,4,4,5,5,6,6,10,10,11,11,12,12],"right_children":[2,4,6,-1,8,10,12,-1,-1,-1,14,16,18,-1,-1,-1,-1,-1,-1],"split_conditions":[-4.629424E-1,8.414875E2,6.502954E-2,3.662696E-2,9.356911E2,1.8695484E0,2.5364096E0,-1.3147453E-2,2.5880832E-2,-4.0264778E-2,-1.6272235E-1,3.1398874E-2,1E0,1.6892685E-2,-8.12294E-3,-5.186474E-3,3.192664E-2,5.743464E-3,-2.9915009E-2],"split_indices":[3,7,3,0,5,2,2,0,0,0,3,2,6,0,0,0,0,0,0],"split_type":[0,0,0,0,0,0,0,0,0,0,0,0,0,0,0,0,0,0,0],"sum_hessian":[2.7636076E1,5.8645544E0,2.177152E1,2.9165387E0,2.9480155E0,8.858469E0,1.2913053E1,1.729701E0,1.2183144E0,5.892056E0,2.9664133E0,8.932744E0,3.9803078E0,1.4750057E0,1.4914076E0,1.194631E0,7.7381134E0,1.9850643E0,1.9952437E0],"tree_param":{"num_deleted":"0","num_feature":"16","num_nodes":"19","size_leaf_vector":"1"}},{"base_weights":[-1.6401123E-2,1.6653135E-1,-7.2371167E-1,-8.381155E-2,4.4669837E-1,-4.8616078E-2,-0E0,-4.1880447E-1,3.4499744E-1,5.4910517E-1,-1.0943905E-3,3.1749704E-3,-2.9924063E-2,2.7044624E-2,-0E0,3.3627715E-2,-2.9981515E-4],"categories":[],"categories_nodes":[],"categories_segments":[],"categories_sizes":[],"default_left":[0,0,0,0,0,0,0,0,0,0,0,0,0,0,0,0,0],"id":20,"left_children":[1,3,5,7,9,-1,-1,11,13,15,-1,-1,-1,-1,-1,-1,-1],"loss_changes":[4.1284385E0,1.8851975E0,1.6403522E0,2.1942077E0,8.7392664E-1,0E0,0E0,1.1112871E0,4.8561996E-1,1.0936835E0,0E0,0E0,0E0,0E0,0E0,0E0,0E0],"parents":[2147483647,0,0,1,1,2,2,3,3,4,4,7,7,8,8,9,9],"right_children":[2,4,6,8,10,-1,-1,12,14,16,-1,-1,-1,-1,-1,-1,-1],"split_conditions":[4E0,2E0,6.062323E1,2.75E0,9.6418E2,-4.8616078E-2,-0E0,7.105571E2,1.5206193E0,4.571429E0,-1.0943905E-3,3.1749704E-3,-2.9924063E-2,2.7044624E-2,-0E0,3.3627715E-2,-2.9981515E-4],"split_indices":[13,13,0,4,7,0,0,5,2,4,0,0,0,0,0,0,0],"split_type":[0,0,0,0,0,0,0,0,0,0,0,0,0,0,0,0,0],"sum_hessian":[2.5890911E1,2.122395E1,4.666962E0,1.1006319E1,1.0217631E1,3.4285815E0,1.2383804E0,6.8599167E0,4.146402E0,8.978748E0,1.2388823E0,1.4576293E0,5.4022875E0,2.1603944E0,1.9860076E0,7.7359166E0,1.2428321E0],"tree_param":{"num_deleted":"0","num_feature":"16","num_nodes":"17","size_leaf_vector":"1"}},{"base_weights":[-6.7983784E-2,-2.9742697E-1,1.4269027E-1,1.1735234E-1,-8.8510364E-1,-4.224412E-2,5.429556E-1,-1.6981987E-2,2.9566863E-1,-7.583873E-4,-4.8545238E-2,3.0415383E-1,-2.7760056E-1,3.1172765E-2,-0E0,2.92132E-2,-9.976376E-3,2.7447918E-2,-0E0,-2.1892395E-2,4.6257945E-3],"categories":[],"categories_nodes":[],"categories_segments":[],"categories_sizes":[],"default_left":[0,0,0,0,0,0,0,0,0,0,0,0,0,0,0,0,0,0,0,0,0],"id":21,"left_children":[1,3,5,7,9,11,13,-1,15,-1,-1,17,19,-1,-1,-1,-1,-1,-1,-1,-1],"loss_changes":[1.6620796E0,4.6469746E0,1.5095534E0,1.0768905E0,4.602909E-2,1.1512378E0,1.0718143E-1,0E0,1.8236783E0,0E0,0E0,6.16633E-1,7.97964E-1,0E0,0E0,0E0,0E0,0E0,0E0,0E0,0E0],"parents":[2147483647,0,0,1,1,2,2,3,3,4,4,5,5,6,6,8,8,11,11,12,12],"right_children":[2,4,6,8,10,12,14,-1,16,-1,-1,18,20,-1,-1,-1,-1,-1,-1,-1,-1],"split_conditions":[6.502954E-2,-2.445437E-1,4E0,3.3668343E1,7.105571E2,8.539105E-1,9.941737E2,-1.6981987E-2,5.011933E1,-7.583873E-4,-4.8545238E-2,7.189607E2,8.3736084E2,3.1172765E-2,-0E0,2.92132E-2,-9.976376E-3,2.7447918E-2,-0E0,-2.1892395E-2,4.6257945E-3],"split_indices":[3,3,14,0,5,2,10,0,0,0,0,5,8,0,0,0,0,0,0,0,0],"split_type":[0,0,0,0,0,0,0,0,0,0,0,0,0,0,0,0,0,0,0,0,0],"sum_hessian":[2.9028177E1,1.4636959E1,1.4391218E1,9.020295E0,5.6166644E0,1.0212493E1,4.1787252E0,1.2369094E0,7.7833853E0,1.2386812E0,4.3779836E0,3.035613E0,7.17688E0,2.9619036E0,1.2168219E0,5.3281603E0,2.455225E0,1.5920236E0,1.4435896E0,5.6957483E0,1.4811317E0],"tree_param":{"num_deleted":"0","num_feature":"16","num_nodes":"21","size_leaf_vector":"1"}},{"base_weights":[3.5321258E-2,3.321947E-1,-1.0157614E-1,6.4345545E-1,-7.538429E-2,-3.523895E-2,1.1391492E-1,3.809302E-2,1.5065296E-3,-2.4137324E-2,1.0010616E-2,3.461678E-1,-3.0309013E-1,-0E0,2.812988E-2,-2.3315331E-2,-0E0],"categories":[],"categories_nodes":[],"categories_segments":[],"categories_sizes":[],"default_left":[0,0,0,0,0,0,0,0,0,0,0,0,0,0,0,0,0],"id":22,"left_children":[1,3,5,7,9,-1,11,-1,-1,-1,-1,13,15,-1,-1,-1,-1],"loss_changes":[1.4049106E0,1.7906692E0,3.18042E0,8.135414E-2,9.9761796E-1,0E0,1.8346128E0,0E0,0E0,0E0,0E0,7.803581E-1,5.111983E-1,0E0,0E0,0E0,0E0],"parents":[2147483647,0,0,1,1,2,2,3,3,4,4,6,6,11,11,12,12],"right_children":[2,4,6,8,10,-1,12,-1,-1,-1,-1,14,16,-1,-1,-1,-1],"split_conditions":[1.2009258E0,8.2538E2,1.7147386E0,4E0,9.356911E2,-3.523895E-2,4.364959E0,3.809302E-2,1.5065296E-3,-2.4137324E-2,1.0010616E-2,2.5915117E0,8.318425E2,-0E0,2.812988E-2,-2.3315331E-2,-0E0],"split_indices":[1,7,1,13,5,0,1,0,0,0,0,1,7,0,0,0,0],"split_type":[0,0,0,0,0,0,0,0,0,0,0,0,0,0,0,0,0],"sum_hessian":[2.8070843E1,9.111334E0,1.8959509E1,5.205382E0,3.9059522E0,4.405833E0,1.4553676E1,3.273775E0,1.9316068E0,1.7016655E0,2.2042868E0,1.0335847E1,4.2178288E0,5.2000656E0,5.1357813E0,2.9778395E0,1.2399894E0],"tree_param":{"num_deleted":"0","num_feature":"16","num_nodes":"17","size_leaf_vector":"1"}},{"base_weights":[6.9419406E-3,-2.6269522E-1,2.9987597E-1,-5.463335E-1,5.9135344E-2,5.174699E-1,-9.795433E-2,-0E0,-7.3885614E-1,4.5239612E-1,-2.0344916E-1,-0E0,3.1311233E-2,5.0659156E-3,-3.2745343E-1,-4.219733E-2,-0E0,2.722766E-2,-0E0,-3.6880814E-2,1.7260144E-2,-2.8323976E-2,-0E0],"categories":[],"categories_nodes":[],"categories_segments":[],"categories_sizes":[],"default_left":[0,0,0,0,0,0,0,0,0,0,0,0,0,0,0,0,0,0,0,0,0,0,0],"id":23,"left_children":[1,3,5,7,9,11,13,-1,15,17,19,-1,-1,-1,21,-1,-1,-1,-1,-1,-1,-1,-1],"loss_changes":[2.309459E0,1.6081787E0,1.5895216E0,9.369631E-1,1.098543E0,6.724322E-1,4.579649E-1,0E0,1.9274807E-1,4.8238575E-2,2.2307374E0,0E0,0E0,0E0,5.596754E-1,0E0,0E0,0E0,0E0,0E0,0E0,0E0,0E0],"parents":[2147483647,0,0,1,1,2,2,3,3,4,4,5,5,6,6,8,8,9,9,10,10,14,14],"right_children":[2,4,6,8,10,12,14,-1,16,18,20,-1,-1,-1,22,-1,-1,-1,-1,-1,-1,-1,-1],"split_conditions":[1.1E1,8.169518E2,1.4E1,7.105571E2,1.0413193E0,7.071511E2,7.5099516E-1,-0E0,8.110726E2,9.3290924E2,4.1029406E0,-0E0,3.1311233E-2,5.0659156E-3,2.202065E0,-4.219733E-2,-0E0,2.722766E-2,-0E0,-3.6880814E-2,1.7260144E-2,-2.8323976E-2,-0E0],"split_indices":[12,5,12,5,2,10,2,0,10,10,2,0,0,0,1,0,0,0,0,0,0,0,0],"split_type":[0,0,0,0,0,0,0,0,0,0,0,0,0,0,0,0,0,0,0,0,0,0,0],"sum_hessian":[2.500883E1,1.2240965E1,1.2767863E1,6.590779E0,5.6501865E0,8.677207E0,4.090656E0,2.1773565E0,4.413422E0,2.4457417E0,3.2044446E0,1.6718345E0,7.005373E0,1.6212901E0,2.4693656E0,3.1862547E0,1.2271675E0,1.2309971E0,1.2147446E0,1.7363902E0,1.4680544E0,1.2374868E0,1.2318786E0],"tree_param":{"num_deleted":"0","num_feature":"16","num_nodes":"23","size_leaf_vector":"1"}},{"base_weights":[-0E0,2.9035756E-1,-2.8348228E-1,6.108905E-1,-5.6349435E-3,-5.2680427E-1,4.867736E-1,3.565989E-2,-0E0,-2.2546029E-2,1.8757461E-1,-6.5726507E-1,5.9600743E-3,2.996175E-2,-0E0,-9.3478635E-3,3.273764E-2,-0E0,-4.0907767E-2],"categories":[],"categories_nodes":[],"categories_segments":[],"categories_sizes":[],"default_left":[0,0,0,0,0,0,0,0,0,0,0,0,0,0,0,0,0,0,0],"id":24,"left_children":[1,3,5,7,9,11,13,-1,-1,-1,15,17,-1,-1,-1,-1,-1,-1,-1],"loss_changes":[2.7114453E0,1.8087177E0,3.749518E0,3.906412E-1,1.1083572E0,1.6474576E0,1.3395953E-1,0E0,0E0,0E0,1.7341928E0,1.2916737E0,0E0,0E0,0E0,0E0,0E0,0E0,0E0],"parents":[2147483647,0,0,1,1,2,2,3,3,4,4,5,5,6,6,10,10,11,11],"right_children":[2,4,6,8,10,12,14,-1,-1,-1,16,18,-1,-1,-1,-1,-1,-1,-1],"split_conditions":[8.20295E2,5.952381E1,1.007765E3,4E0,6.708861E1,9.661107E2,1.133995E3,3.565989E-2,-0E0,-2.2546029E-2,7.8321436E2,-5.31778E-1,5.9600743E-3,2.996175E-2,-0E0,-9.3478635E-3,3.273764E-2,-0E0,-4.0907767E-2],"split_indices":[7,0,7,13,0,5,7,0,0,0,9,3,0,0,0,0,0,0,0],"split_type":[0,0,0,0,0,0,0,0,0,0,0,0,0,0,0,0,0,0,0],"sum_hessian":[2.896453E1,1.3801846E1,1.5162684E1,6.4157076E0,7.3861384E0,1.2496376E1,2.6663084E0,4.942431E0,1.4732767E0,2.2109022E0,5.175236E0,1.1011694E1,1.4846826E0,1.4522264E0,1.2140819E0,2.9442434E0,2.2309928E0,2.6846595E0,8.327034E0],"tree_param":{"num_deleted":"0","num_feature":"16","num_nodes":"19","size_leaf_vector":"1"}},{"base_weights":[5.4043654E-2,-9.8706365E-2,5.3636825E-1,3.5091928E-1,-3.0703932E-1,3.6799956E-2,-0E0,-0E0,3.0884964E-2,-0E0,-6.2603384E-1,-5.484075E-3,3.370237E-3,1.1604136E-2,-2.0598983E-2,-3.8745414E-2,-5.0936462E-3],"categories":[],"categories_nodes":[],"categories_segments":[],"categories_sizes":[],"default_left":[0,0,0,0,0,0,0,0,0,0,0,0,0,0,0,0,0],"id":25,"left_children":[1,3,5,7,9,-1,-1,11,-1,13,15,-1,-1,-1,-1,-1,-1],"loss_changes":[2.6120782E0,2.4867346E0,1.2347624E0,8.4518427E-1,1.6421655E0,0E0,0E0,5.9943423E-2,0E0,1.3796337E0,7.9001665E-2,0E0,0E0,0E0,0E0,0E0,0E0],"parents":[2147483647,0,0,1,1,2,2,3,3,4,4,7,7,9,9,10,10],"right_children":[2,4,6,8,10,-1,-1,12,-1,14,16,-1,-1,-1,-1,-1,-1],"split_conditions":[3.2667422E0,7.189607E2,1.3066089E0,4.907647E-2,1.5206193E0,3.6799956E-2,-0E0,1.2735246E0,3.0884964E-2,4E0,3E0,-5.484075E-3,3.370237E-3,1.1604136E-2,-2.0598983E-2,-3.8745414E-2,-5.0936462E-3],"split_indices":[2,5,3,3,2,0,0,1,0,13,13,0,0,0,0,0,0],"split_type":[0,0,0,0,0,0,0,0,0,0,0,0,0,0,0,0,0],"sum_hessian":[2.90466E1,2.2481022E1,6.5655785E0,5.92494E0,1.6556082E1,4.828573E0,1.7370052E0,3.1520808E0,2.772859E0,9.902479E0,6.653603E0,1.666357E0,1.4857237E0,6.4580936E0,3.444385E0,3.6938093E0,2.9597938E0],"tree_param":{"num_deleted":"0","num_feature":"16","num_nodes":"17","size_leaf_vector":"1"}},{"base_weights":[1.022292E-2,-1.0645888E-1,3.9066198E-1,2.777652E-1,-4.003413E-1,-3.4003728E-3,6.3216054E-1,-1.4551644E-1,5.967505E-1,2.3004168E-3,-5.051964E-1,3.945112E-2,-0E0,-1.8359711E-2,1.0615073E-3,3.427957E-2,-0E0,-3.2275584E-2,-0E0],"categories":[],"categories_nodes":[],"categories_segments":[],"categories_sizes":[],"default_left":[0,0,0,0,0,0,0,0,0,0,0,0,0,0,0,0,0,0,0],"id":26,"left_children":[1,3,5,7,9,-1,11,13,15,-1,17,-1,-1,-1,-1,-1,-1,-1,-1],"loss_changes":[1.6685282E0,3.1571221E0,1.3722063E0,1.9482431E0,1.0237613E0,0E0,4.5630383E-1,4.0534192E-1,3.0316687E-1,0E0,7.2686386E-1,0E0,0E0,0E0,0E0,0E0,0E0,0E0,0E0],"parents":[2147483647,0,0,1,1,2,2,3,3,4,4,6,6,7,7,8,8,10,10],"right_children":[2,4,6,8,10,-1,12,14,16,-1,18,-1,-1,-1,-1,-1,-1,-1,-1],"split_conditions":[3.2667422E0,8.856112E-1,2.6535714E0,2.1630974E-1,7.099429E2,-3.4003728E-3,5.1035714E0,2.4285715E0,4.25023E-1,2.3004168E-3,5.209546E-1,3.945112E-2,-0E0,-1.8359711E-2,1.0615073E-3,3.427957E-2,-0E0,-3.2275584E-2,-0E0],"split_indices":[2,2,4,1,5,0,4,4,3,0,3,0,0,0,0,0,0,0,0],"split_type":[0,0,0,0,0,0,0,0,0,0,0,0,0,0,0,0,0,0,0],"sum_hessian":[3.0512674E1,2.3447363E1,7.0653105E0,9.471967E0,1.3975396E1,2.2183883E0,4.846922E0,3.8643184E0,5.6076484E0,1.9649415E0,1.2010455E1,3.1280808E0,1.7188411E0,1.9140577E0,1.9502606E0,4.408739E0,1.1989093E0,8.32592E0,3.6845348E0],"tree_param":{"num_deleted":"0","num_feature":"16","num_nodes":"19","size_leaf_vector":"1"}},{"base_weights":[2.154196E-2,-8.27739E-2,4.111366E-1,3.5539422E-2,-2.836644E-2,3.1615276E-2,-0E0,-1.4743467E-1,4.3227557E-2,-1.3313751E-2,1.112496E-2,-0E0,-3.7212107E-2],"categories":[],"categories_nodes":[],"categories_segments":[],"categories_sizes":[],"default_left":[0,0,0,0,0,0,0,0,0,0,0,0,0],"id":27,"left_children":[1,3,5,7,-1,-1,9,11,-1,-1,-1,-1,-1],"loss_changes":[1.4267833E0,1.6727902E0,7.78275E-1,3.679379E0,0E0,0E0,3.863486E-1,1.680289E0,0E0,0E0,0E0,0E0,0E0],"parents":[2147483647,0,0,1,1,2,2,3,3,6,6,7,7],"right_children":[2,4,6,8,-1,-1,10,12,-1,-1,-1,-1,-1],"split_conditions":[9.22315E2,8.480452E2,3E0,8.2024475E2,-2.836644E-2,3.1615276E-2,1E1,8.1952E2,4.3227557E-2,-1.3313751E-2,1.112496E-2,-0E0,-3.7212107E-2],"split_indices":[7,10,13,10,0,0,12,7,0,0,0,0,0],"split_type":[0,0,0,0,0,0,0,0,0,0,0,0,0],"sum_hessian":[2.7392536E1,2.183721E1,5.5553274E0,1.821187E1,3.6253395E0,3.140881E0,2.4144466E0,1.5771968E1,2.4399018E0,1.2152778E0,1.1991687E0,1.4040949E1,1.7310193E0],"tree_param":{"num_deleted":"0","num_feature":"16","num_nodes":"13","size_leaf_vector":"1"}},{"base_weights":[-4.3743877E-3,3.0411774E-1,-2.6480573E-1,4.4743687E-1,-1.3535804E-2,-6.144149E-1,-3.10604E-2,3.0794302E-2,-0E0,-1.2953271E-4,-4.1273545E-2,3.1509183E-2,-3.3115655E-1,-1.2216461E-2,2.612254E-2,-3.0807042E-2,3.892236E-3],"categories":[],"categories_nodes":[],"categories_segments":[],"categories_sizes":[],"default_left":[0,0,0,0,0,0,0,0,0,0,0,0,0,0,0,0,0],"id":28,"left_children":[1,3,5,7,-1,9,11,-1,13,-1,-1,-1,15,-1,-1,-1,-1],"loss_changes":[2.496834E0,1.4405556E0,1.0973963E0,6.272037E-1,0E0,3.8059235E-1,2.978191E0,0E0,1.1701322E0,0E0,0E0,0E0,1.6735514E0,0E0,0E0,0E0,0E0],"parents":[2147483647,0,0,1,1,2,2,3,3,5,5,6,6,8,8,12,12],"right_children":[2,4,6,8,-1,10,12,-1,14,-1,-1,-1,16,-1,-1,-1,-1],"split_conditions":[8.24409E2,3.2468615E0,8.2533997E2,7.726425E2,-1.3535804E-2,8.20295E2,8.480452E2,3.0794302E-2,8.127628E2,-1.2953271E-4,-4.1273545E-2,3.1509183E-2,3.0535715E0,-1.2216461E-2,2.612254E-2,-3.0807042E-2,3.892236E-3],"split_indices":[9,1,10,7,0,7,10,0,9,0,0,0,4,0,0,0,0],"split_type":[0,0,0,0,0,0,0,0,0,0,0,0,0,0,0,0,0],"sum_hessian":[2.7317846E1,1.1472633E1,1.5845212E1,1.0234104E1,1.2385302E0,4.1868286E0,1.1658383E1,6.110577E0,4.1235266E0,2.2007442E0,1.9860845E0,2.432501E0,9.225882E0,2.9105935E0,1.2129331E0,5.560805E0,3.6650774E0],"tree_param":{"num_deleted":"0","num_feature":"16","num_nodes":"17","size_leaf_vector":"1"}},{"base_weights":[7.5499244E-2,-2.8078234E-1,1.822788E-1,-2.726678E-2,-0E0,4.322564E-1,-0E0,-0E0,5.3851483E-3,3.89295E-2,2.7736763E-2,-4.1587752E-1,3.0834645E-1,-1.24313915E-2,3.1457365E-2,-3.5117317E-2,6.7579346E-3,3.0525098E-2,-0E0],"categories":[],"categories_nodes":[],"categories_segments":[],"categories_sizes":[],"default_left":[0,0,0,0,0,0,0,0,0,0,0,0,0,0,0,0,0,0,0],"id":29,"left_children":[1,3,5,-1,7,9,11,-1,-1,-1,13,15,17,-1,-1,-1,-1,-1,-1],"loss_changes":[1.2634169E0,7.516311E-1,1.2502213E0,0E0,3.999437E-2,1.1579947E0,2.4848711E0,0E0,0E0,0E0,1.8364087E0,1.7871608E0,1.3214215E0,0E0,0E0,0E0,0E0,0E0,0E0],"parents":[2147483647,0,0,1,1,2,2,4,4,5,5,6,6,10,10,11,11,12,12],"right_children":[2,4,6,-1,8,10,12,-1,-1,-1,14,16,18,-1,-1,-1,-1,-1,-1],"split_conditions":[1E0,3E0,7.813536E2,-2.726678E-2,8.16275E2,8.539105E-1,8.3996967E2,-0E0,5.3851483E-3,3.89295E-2,2.6773813E0,8.4053E2,9.474107E2,-1.24313915E-2,3.1457365E-2,-3.5117317E-2,6.7579346E-3,3.0525098E-2,-0E0],"split_indices":[13,14,5,0,7,2,5,0,0,0,2,7,5,0,0,0,0,0,0],"split_type":[0,0,0,0,0,0,0,0,0,0,0,0,0,0,0,0,0,0,0],"sum_hessian":[2.98137E1,5.0435843E0,2.4770115E1,2.3946815E0,2.648903E0,9.45156E0,1.5318556E1,1.2010912E0,1.4478118E0,3.4296992E0,6.0218606E0,6.3222785E0,8.996278E0,4.3600864E0,1.6617738E0,4.3954177E0,1.9268608E0,4.350523E0,4.6457543E0],"tree_param":{"num_deleted":"0","num_feature":"16","num_nodes":"19","size_leaf_vector":"1"}},{"base_weights":[-6.374863E-2,3.1373674E-1,-1.8733957E-1,4.6944547E-1,-1.4788508E-3,-4.7686872E-1,5.5123726E-3,3.3065747E-2,-0E0,-5.707233E-1,-0E0,3.9014372E-1,-1.4632586E-1,-0E0,-3.4168478E-2,-3.8466093E-3,3.1847686E-2,-3.4984037E-2,6.238471E-4],"categories":[],"categories_nodes":[],"categories_segments":[],"categories_sizes":[],"default_left":[0,0,0,0,0,0,0,0,0,0,0,0,0,0,0,0,0,0,0],"id":30,"left_children":[1,3,5,7,-1,9,11,-1,-1,13,-1,15,17,-1,-1,-1,-1,-1,-1],"loss_changes":[1.518226E0,6.480516E-1,1.6864375E0,6.338066E-1,0E0,7.2226E-1,1.1984848E0,0E0,0E0,8.704028E-1,0E0,1.0860142E0,1.4451972E0,0E0,0E0,0E0,0E0,0E0,0E0],"parents":[2147483647,0,0,1,1,2,2,3,3,5,5,6,6,9,9,11,11,12,12],"right_children":[2,4,6,8,-1,10,12,-1,-1,14,-1,16,18,-1,-1,-1,-1,-1,-1],"split_conditions":[-5.088759E-1,1.2E1,6.502954E-2,3.9813309E0,-1.4788508E-3,3.0781598E0,8.856112E-1,3.3065747E-2,-0E0,6.902E2,-0E0,8.7763995E-2,7.221057E2,-0E0,-3.4168478E-2,-3.8466093E-3,3.1847686E-2,-3.4984037E-2,6.238471E-4],"split_indices":[3,12,3,2,0,2,2,0,0,7,0,2,10,0,0,0,0,0,0],"split_type":[0,0,0,0,0,0,0,0,0,0,0,0,0,0,0,0,0,0,0],"sum_hessian":[2.9377396E1,5.4891615E0,2.3888233E1,4.2728357E0,1.2163255E0,9.409281E0,1.4478953E1,2.6101878E0,1.6626482E0,8.182739E0,1.2265415E0,4.1416097E0,1.0337343E1,1.2165053E0,6.9662337E0,1.2074009E0,2.9342089E0,1.4882141E0,8.84913E0],"tree_param":{"num_deleted":"0","num_feature":"16","num_nodes":"19","size_leaf_vector":"1"}},{"base_weights":[-6.415744E-2,-3.0305666E-1,2.5957227E-1,3.8695017E-1,-4.8204014E-1,-1.8006746E-1,3.798373E-2,2.4156736E-2,-0E0,-6.1891943E-1,5.3832675E-3,1.6223429E-2,-5.5393636E-1,-1.0082896E-4,-3.4332715E-2,-3.831662E-2,-0E0],"categories":[],"categories_nodes":[],"categories_segments":[],"categories_sizes":[],"default_left":[0,0,0,0,0,0,0,0,0,0,0,0,0,0,0,0,0],"id":31,"left_children":[1,3,5,7,9,11,-1,-1,-1,13,-1,-1,15,-1,-1,-1,-1],"loss_changes":[2.525716E0,2.8004422E0,3.4375415E0,1.084224E-1,1.7423058E0,1.9910607E0,0E0,0E0,0E0,2.626686E-1,0E0,0E0,9.4643307E-1,0E0,0E0,0E0,0E0],"parents":[2147483647,0,0,1,1,2,2,3,3,4,4,5,5,9,9,12,12],"right_children":[2,4,6,8,10,12,-1,-1,-1,14,-1,-1,16,-1,-1,-1,-1],"split_conditions":[3.0535715E0,1.5571429E0,8.2533997E2,7.055375E2,2.9704564E0,7.7754083E2,3.798373E-2,2.4156736E-2,-0E0,-2.542448E-1,5.3832675E-3,1.6223429E-2,1.1E1,-1.0082896E-4,-3.4332715E-2,-3.831662E-2,-0E0],"split_indices":[4,4,10,5,2,8,0,0,0,3,0,0,12,0,0,0,0],"split_type":[0,0,0,0,0,0,0,0,0,0,0,0,0,0,0,0,0],"sum_hessian":[2.83424E1,1.7270039E1,1.1072362E1,2.5030408E0,1.4766997E1,6.0414276E0,5.030934E0,1.3530436E0,1.1499972E0,1.259282E1,2.1741772E0,2.1146314E0,3.9267964E0,2.1799495E0,1.041287E1,2.708339E0,1.2184573E0],"tree_param":{"num_deleted":"0","num_feature":"16","num_nodes":"17","size_leaf_vector":"1"}},{"base_weights":[1.7844029E-1,-1.3127887E-1,5.309938E-1,-3.1406927E-1,3.3704275E-1,6.4341855E-1,-0E0,6.295473E-2,-5.717913E-1,2.7058199E-2,-0E0,-0E0,3.914034E-2,-8.310509E-3,1.0774404E-2,-1.6538976E-2,3.318004E-2,3.9138338E-3,-3.9558962E-2,1.761019E-2,-1.0454967E-2],"categories":[],"categories_nodes":[],"categories_segments":[],"categories_sizes":[],"default_left":[0,0,0,0,0,0,0,0,0,0,0,0,0,0,0,0,0,0,0,0,0],"id":32,"left_children":[1,3,5,7,9,11,13,15,17,-1,-1,19,-1,-1,-1,-1,-1,-1,-1,-1,-1],"loss_changes":[3.379496E0,1.5416789E0,7.7078533E-1,1.5968101E0,4.7971714E-1,7.491336E-1,2.4423434E-1,2.100639E0,1.7284865E0,0E0,0E0,5.314789E-1,0E0,0E0,0E0,0E0,0E0,0E0,0E0,0E0,0E0],"parents":[2147483647,0,0,1,1,2,2,3,3,4,4,5,5,6,6,7,7,8,8,11,11],"right_children":[2,4,6,8,10,12,14,16,18,-1,-1,20,-1,-1,-1,-1,-1,-1,-1,-1,-1],"split_conditions":[6.502954E-2,9.281089E2,4E0,4.4827587E1,-3.2718405E-1,7.221057E2,2.775E0,1.2292175E0,7.099429E2,2.7058199E-2,-0E0,7.371601E1,3.914034E-2,-8.310509E-3,1.0774404E-2,-1.6538976E-2,3.318004E-2,3.9138338E-3,-3.9558962E-2,1.761019E-2,-1.0454967E-2],"split_indices":[3,10,13,0,3,10,4,1,5,0,0,0,0,0,0,0,0,0,0,0,0],"split_type":[0,0,0,0,0,0,0,0,0,0,0,0,0,0,0,0,0,0,0,0,0],"sum_hessian":[2.5842752E1,1.3670355E1,1.2172397E1,1.10743265E1,2.596028E0,9.514252E0,2.6581454E0,4.3224096E0,6.7519174E0,1.4208194E0,1.1752087E0,2.512929E0,7.0013227E0,1.4524105E0,1.2057351E0,2.6508682E0,1.6715412E0,1.4532218E0,5.2986956E0,1.0714874E0,1.4414415E0],"tree_param":{"num_deleted":"0","num_feature":"16","num_nodes":"21","size_leaf_vector":"1"}},{"base_weights":[5.227714E-2,2.7502587E-2,-1.3962486E-2,2.2199337E-1,-2.989464E-1,5.2791643E-1,-7.547298E-2,-4.4744767E-2,-0E0,-0E0,3.091824E-2,-2.8919889E-2,2.017633E-2,2.4747273E-2,-1.3885296E-2],"categories":[],"categories_nodes":[],"categories_segments":[],"categories_sizes":[],"default_left":[0,0,0,0,0,0,0,0,0,0,0,0,0,0,0],"id":33,"left_children":[1,-1,3,5,7,9,11,-1,13,-1,-1,-1,-1,-1,-1],"loss_changes":[1.2719439E0,0E0,2.0220015E0,1.6932299E0,2.1157994E0,4.55796E-1,2.6381476E0,0E0,1.8263354E0,0E0,0E0,0E0,0E0,0E0,0E0],"parents":[2147483647,0,0,2,2,3,3,4,4,5,5,6,6,8,8],"right_children":[2,-1,4,6,8,10,12,-1,14,-1,-1,-1,-1,-1,-1],"split_conditions":[1.4071429E0,2.7502587E-2,5.9210526E1,8.3279095E2,7.68857E2,6.951643E2,1.6161258E0,-4.4744767E-2,8.148165E2,-0E0,3.091824E-2,-2.8919889E-2,2.017633E-2,2.4747273E-2,-1.3885296E-2],"split_indices":[4,0,0,9,9,5,2,0,9,0,0,0,0,0,0],"split_type":[0,0,0,0,0,0,0,0,0,0,0,0,0,0,0],"sum_hessian":[2.7980806E1,2.4570549E0,2.552375E1,1.3244986E1,1.2278766E1,6.5944767E0,6.650509E0,2.2354126E0,1.0043353E1,1.1383417E0,5.456135E0,3.550981E0,3.0995278E0,2.4283717E0,7.6149817E0],"tree_param":{"num_deleted":"0","num_feature":"16","num_nodes":"15","size_leaf_vector":"1"}},{"base_weights":[5.8174804E-2,-1.8540753E-2,1.3947031E-1,4.4041416E-1,-0E0,-0E0,3.1921495E-2,-3.9313158E-1,2.0310405E-1,7.4664825E-3,-1.0742871E-2,-0E0,-2.8612932E-2,3.192487E-2,-0E0],"categories":[],"categories_nodes":[],"categories_segments":[],"categories_sizes":[],"default_left":[0,0,0,0,0,0,0,0,0,0,0,0,0,0,0],"id":34,"left_children":[1,-1,3,5,7,9,-1,11,13,-1,-1,-1,-1,-1,-1],"loss_changes":[1.048011E0,0E0,1.1223283E0,8.838495E-1,1.8455706E0,2.170701E-1,0E0,8.1017566E-1,1.6819744E0,0E0,0E0,0E0,0E0,0E0,0E0],"parents":[2147483647,0,0,2,2,3,3,4,4,5,5,7,7,8,8],"right_children":[2,-1,4,6,8,10,-1,12,14,-1,-1,-1,-1,-1,-1],"split_conditions":[3.6567165E1,-1.8540753E-2,8.539105E-1,3.72376E-2,1.8365625E0,7.547643E2,3.1921495E-2,4.6902657E1,2.3293335E0,7.4664825E-3,-1.0742871E-2,-0E0,-2.8612932E-2,3.192487E-2,-0E0],"split_indices":[0,0,2,2,2,5,0,0,2,0,0,0,0,0,0],"split_type":[0,0,0,0,0,0,0,0,0,0,0,0,0,0,0],"sum_hessian":[2.840142E1,2.4101593E0,2.5991262E1,6.593388E0,1.9397875E1,2.3355167E0,4.257871E0,5.7702546E0,1.362762E1,1.1595585E0,1.1759582E0,1.6291538E0,4.141101E0,3.707024E0,9.920595E0],"tree_param":{"num_deleted":"0","num_feature":"16","num_nodes":"15","size_leaf_vector":"1"}},{"base_weights":[4.1924424E-2,4.009347E-1,-6.998803E-2,5.4576844E-1,-7.328949E-4,-2.4098384E-1,2.8810504E-1,-0E0,3.145495E-2,-0E0,-3.241272E-2,-1.1212694E-3,5.3085846E-1,-2.2355637E-2,1.6204782E-2,3.2221522E-2,-0E0],"categories":[],"categories_nodes":[],"categories_segments":[],"categories_sizes":[],"default_left":[0,0,0,0,0,0,0,0,0,0,0,0,0,0,0,0,0],"id":35,"left_children":[1,3,5,7,-1,9,11,-1,-1,13,-1,-1,15,-1,-1,-1,-1],"loss_changes":[1.3848596E0,7.775065E-1,1.5060974E0,2.1431589E-1,0E0,1.4700766E0,8.288195E-1,0E0,0E0,2.291735E0,0E0,0E0,1.6911876E-1,0E0,0E0,0E0,0E0],"parents":[2147483647,0,0,1,1,2,2,3,3,5,5,6,6,9,9,12,12],"right_children":[2,4,6,8,-1,10,12,-1,-1,14,-1,-1,16,-1,-1,-1,-1],"split_conditions":[7.350482E2,7.5228723E2,3.1942668E0,6.8335535E2,-7.328949E-4,2.030765E0,8.254633E2,-0E0,3.145495E-2,8.157946E2,-3.241272E-2,-1.1212694E-3,7.142857E1,-2.2355637E-2,1.6204782E-2,3.2221522E-2,-0E0],"split_indices":[5,10,2,5,0,2,10,0,0,5,0,0,0,0,0,0,0],"split_type":[0,0,0,0,0,0,0,0,0,0,0,0,0,0,0,0,0],"sum_hessian":[2.695299E1,6.239518E0,2.0713472E1,5.0546265E0,1.1848917E0,1.5406805E1,5.306667E0,1.2036133E0,3.851013E0,1.15030775E1,3.9037278E0,2.2210438E0,3.085623E0,4.991782E0,6.5112953E0,1.8582673E0,1.2273557E0],"tree_param":{"num_deleted":"0","num_feature":"16","num_nodes":"17","size_leaf_vector":"1"}},{"base_weights":[3.380314E-2,-2.6635183E-2,1.4556803E-1,7.161235E-1,-5.448497E-2,4.814286E-2,-0E0,-4.4322997E-1,1.6211803E-1,1.167064E-3,-3.0346556E-2,2.4376137E-2,-1.2008121E-2],"categories":[],"categories_nodes":[],"categories_segments":[],"categories_sizes":[],"default_left":[0,0,0,0,0,0,0,0,0,0,0,0,0],"id":36,"left_children":[1,-1,3,5,7,-1,-1,9,11,-1,-1,-1,-1],"loss_changes":[1.7633034E0,0E0,3.385201E0,1.6724222E0,2.0118077E0,0E0,0E0,9.848201E-1,2.166111E0,0E0,0E0,0E0,0E0],"parents":[2147483647,0,0,2,2,3,3,4,4,7,7,8,8],"right_children":[2,-1,4,6,8,-1,-1,10,12,-1,-1,-1,-1],"split_conditions":[-8.108367E-2,-2.6635183E-2,8.856112E-1,8.38535E2,1.8143914E0,4.814286E-2,-0E0,6.124922E-1,3.290495E0,1.167064E-3,-3.0346556E-2,2.4376137E-2,-1.2008121E-2],"split_indices":[2,0,2,7,1,0,0,1,1,0,0,0,0],"split_type":[0,0,0,0,0,0,0,0,0,0,0,0,0],"sum_hessian":[2.645717E1,2.381207E0,2.4075964E1,5.559668E0,1.8516296E1,3.98566E0,1.5740082E0,6.7026424E0,1.1813653E1,1.3929682E0,5.3096743E0,6.9836755E0,4.829978E0],"tree_param":{"num_deleted":"0","num_feature":"16","num_nodes":"13","size_leaf_vector":"1"}},{"base_weights":[-2.9932534E-2,-4.103549E-1,3.5933882E-2,-0E0,-2.475757E-2,5.6061524E-1,-7.551271E-2,-0E0,3.3001292E-2,-4.6398625E-1,8.040608E-2,7.864617E-3,-3.4923274E-2,1.0792999E-2,-1.4302268E-2],"categories":[],"categories_nodes":[],"categories_segments":[],"categories_sizes":[],"default_left":[0,0,0,0,0,0,0,0,0,0,0,0,0,0,0],"id":37,"left_children":[1,3,5,-1,-1,7,9,-1,-1,11,13,-1,-1,-1,-1],"loss_changes":[9.70824E-1,8.0248415E-2,1.8693522E0,0E0,0E0,1.2520993E-1,1.6431175E0,0E0,0E0,1.6154759E0,9.325041E-1,0E0,0E0,0E0,0E0],"parents":[2147483647,0,0,1,1,2,2,5,5,6,6,9,9,10,10],"right_children":[2,4,6,-1,-1,8,10,-1,-1,12,14,-1,-1,-1,-1],"split_conditions":[3.5041937E-1,-3.0109674E-1,7.990571E-1,-0E0,-2.475757E-2,7.547643E2,1.6848521E0,-0E0,3.3001292E-2,-6.4052635E-1,1.5256349E0,7.864617E-3,-3.4923274E-2,1.0792999E-2,-1.4302268E-2],"split_indices":[2,1,2,0,0,5,1,0,0,3,3,0,0,0,0],"split_type":[0,0,0,0,0,0,0,0,0,0,0,0,0,0,0],"sum_hessian":[2.8096199E1,3.7231922E0,2.4373007E1,1.4650759E0,2.2581162E0,3.6438441E0,2.0729162E1,1.2846566E0,2.3591876E0,5.723686E0,1.5005476E1,1.1644173E0,4.559269E0,1.2552091E1,2.453385E0],"tree_param":{"num_deleted":"0","num_feature":"16","num_nodes":"15","size_leaf_vector":"1"}},{"base_weights":[-0E0,-3.0249653E-2,9.8766156E-2,2.6703766E-1,-2.2633429E-1,4.189932E-1,-6.70013E-2,-5.672554E-1,9.7194254E-2,-8.918133E-3,3.013063E-2,1.2063119E-2,-2.078732E-2,-3.8643584E-2,-0E0,2.9795194E-2,-1.2000893E-2],"categories":[],"categories_nodes":[],"categories_segments":[],"categories_sizes":[],"default_left":[0,0,0,0,0,0,0,0,0,0,0,0,0,0,0,0,0],"id":38,"left_children":[1,-1,3,5,7,9,11,13,15,-1,-1,-1,-1,-1,-1,-1,-1],"loss_changes":[1.985404E0,0E0,1.724309E0,1.2980553E0,1.4415374E0,2.1533458E0,1.0684835E0,7.379719E-1,1.4821851E0,0E0,0E0,0E0,0E0,0E0,0E0,0E0,0E0],"parents":[2147483647,0,0,2,2,3,3,4,4,5,5,6,6,7,7,8,8],"right_children":[2,-1,4,6,8,10,12,14,16,-1,-1,-1,-1,-1,-1,-1,-1],"split_conditions":[3.59375E1,-3.0249653E-2,6.9961975E1,4E0,7.931287E1,1E0,5.851261E-1,4E0,1.524272E0,-8.918133E-3,3.013063E-2,1.2063119E-2,-2.078732E-2,-3.8643584E-2,-0E0,2.9795194E-2,-1.2000893E-2],"split_indices":[0,0,0,13,0,13,2,14,3,0,0,0,0,0,0,0,0],"split_type":[0,0,0,0,0,0,0,0,0,0,0,0,0,0,0,0,0],"sum_hessian":[2.9591488E1,2.6531155E0,2.6938372E1,1.8999464E1,7.9389086E0,1.3738124E1,5.2613397E0,3.8844323E0,4.0544763E0,2.603283E0,1.1134841E1,2.3589213E0,2.9024186E0,2.4053605E0,1.4790719E0,1.6147861E0,2.4396899E0],"tree_param":{"num_deleted":"0","num_feature":"16","num_nodes":"17","size_leaf_vector":"1"}},{"base_weights":[1.4832662E-2,-5.9397525E-1,1.7570606E-1,-4.017475E-2,-0E0,5.705419E-1,-0E0,3.5413276E-2,2.4274234E-2,-5.735953E-1,2.6503286E-1,-1.5349182E-3,1.0954941E-2,-3.669148E-2,-0E0,2.5723612E-2,-7.09993E-4],"categories":[],"categories_nodes":[],"categories_segments":[],"categories_sizes":[],"default_left":[0,0,0,0,0,0,0,0,0,0,0,0,0,0,0,0,0],"id":39,"left_children":[1,3,5,-1,-1,7,9,-1,11,13,15,-1,-1,-1,-1,-1,-1],"loss_changes":[2.926329E0,5.1752734E-1,1.6768628E0,0E0,0E0,1.7120624E-1,3.3170047E0,0E0,1.5405315E-1,7.828119E-1,1.340465E0,0E0,0E0,0E0,0E0,0E0,0E0],"parents":[2147483647,0,0,1,1,2,2,5,5,6,6,8,8,9,9,10,10],"right_children":[2,4,6,-1,-1,8,10,-1,12,14,16,-1,-1,-1,-1,-1,-1],"split_conditions":[2.1630974E-1,2.9928572E0,8.856112E-1,-4.017475E-2,-0E0,8.139036E2,1.7673893E0,3.5413276E-2,9.020589E2,2.7607143E0,3.290495E0,-1.5349182E-3,1.0954941E-2,-3.669148E-2,-0E0,2.5723612E-2,-7.09993E-4],"split_indices":[1,4,2,0,0,10,2,0,5,4,1,0,0,0,0,0,0],"split_type":[0,0,0,0,0,0,0,0,0,0,0,0,0,0,0,0,0],"sum_hessian":[2.7882618E1,4.052804E0,2.3829813E1,2.1093233E0,1.943481E0,5.601104E0,1.822871E1,3.2686176E0,2.332486E0,4.7844515E0,1.3444258E1,1.1316301E0,1.2008559E0,3.5987787E0,1.185673E0,7.1567945E0,6.287463E0],"tree_param":{"num_deleted":"0","num_feature":"16","num_nodes":"17","size_leaf_vector":"1"}},{"base_weights":[3.833301E-2,-4.1238293E-1,1.4887252E-1,-3.176493E-2,-0E0,3.5555836E-2,-3.3530094E-2,3.726188E-1,-1.6977164E-1,-0E0,2.9536692E-2,-2.2547187E-2,-0E0],"categories":[],"categories_nodes":[],"categories_segments":[],"categories_sizes":[],"default_left":[0,0,0,0,0,0,0,0,0,0,0,0,0],"id":40,"left_children":[1,3,5,-1,-1,-1,7,9,11,-1,-1,-1,-1],"loss_changes":[1.4166918E0,5.575813E-1,2.9851947E0,0E0,0E0,0E0,1.1523246E0,5.9118897E-1,1.0556829E0,0E0,0E0,0E0,0E0],"parents":[2147483647,0,0,1,1,2,2,6,6,7,7,8,8],"right_children":[2,4,6,-1,-1,-1,8,10,12,-1,-1,-1,-1],"split_conditions":[6.6146806E-2,2.9928572E0,1.0405924E0,-3.176493E-2,-0E0,3.5555836E-2,4.4827587E1,1.6848521E0,6.390244E1,-0E0,2.9536692E-2,-2.2547187E-2,-0E0],"split_indices":[1,4,1,0,0,0,0,1,0,0,0,0,0],"split_type":[0,0,0,0,0,0,0,0,0,0,0,0,0],"sum_hessian":[2.6615154E1,3.275406E0,2.3339748E1,1.6043106E0,1.6710954E0,4.9685335E0,1.8371214E1,2.8211565E0,1.5550057E1,1.2088284E0,1.612328E0,5.6789565E0,9.871101E0],"tree_param":{"num_deleted":"0","num_feature":"16","num_nodes":"13","size_leaf_vector":"1"}},{"base_weights":[8.681211E-3,-3.2431494E-2,2.1362424E-2,7.314254E-2,-5.085282E-1,-1.11468315E-1,2.9382554E-1,-2.9440384E-2,-3.3369843E-2,3.7495592E-3,-2.1937262E-2,2.4368685E-2,-1.2120741E-2,-2.4062028E-2,1.4015204E-2],"categories":[],"categories_nodes":[],"categories_segments":[],"categories_sizes":[],"default_left":[0,0,0,0,0,0,0,0,0,0,0,0,0,0,0],"id":41,"left_children":[1,3,-1,5,7,9,11,13,-1,-1,-1,-1,-1,-1,-1],"loss_changes":[7.281509E-1,1.6687167E0,0E0,1.1061912E0,7.52064E-2,1.0352889E0,1.6457174E0,9.8469627E-1,0E0,0E0,0E0,0E0,0E0,0E0,0E0],"parents":[2147483647,0,0,1,1,3,3,4,4,5,5,6,6,7,7],"right_children":[2,4,-1,6,8,10,12,14,-1,-1,-1,-1,-1,-1,-1],"split_conditions":[1.0340188E3,9.44281E2,2.1362424E-2,6.502954E-2,9.842517E2,-2.542448E-1,1.4443862E0,9.505675E2,-3.3369843E-2,3.7495592E-3,-2.1937262E-2,2.4368685E-2,-1.2120741E-2,-2.4062028E-2,1.4015204E-2],"split_indices":[9,9,0,3,9,3,3,7,0,0,0,0,0,0,0],"split_type":[0,0,0,0,0,0,0,0,0,0,0,0,0,0,0],"sum_hessian":[2.723159E1,2.5388367E1,1.843223E0,2.1306257E1,4.0821104E0,1.090655E1,1.0399706E1,2.3906608E0,1.6914495E0,6.95694E0,3.94961E0,8.460637E0,1.939069E0,1.1785281E0,1.2121328E0],"tree_param":{"num_deleted":"0","num_feature":"16","num_nodes":"15","size_leaf_vector":"1"}},{"base_weights":[4.875492E-2,2.9323285E-2,-5.4305784E-2,3.9867863E-1,-2.1696301E-1,3.466146E-2,-4.069755E-3,-4.6528527E-1,3.0277895E-2,8.359826E-3,-3.5696812E-2,-1.41352685E-2,1.7431756E-2],"categories":[],"categories_nodes":[],"categories_segments":[],"categories_sizes":[],"default_left":[0,0,0,0,0,0,0,0,0,0,0,0,0],"id":42,"left_children":[1,-1,3,5,7,-1,-1,9,11,-1,-1,-1,-1],"loss_changes":[1.9391651E0,0E0,1.9551666E0,1.3533224E0,1.523421E0,0E0,0E0,2.322924E0,1.3557651E0,0E0,0E0,0E0,0E0],"parents":[2147483647,0,0,2,2,3,3,4,4,7,7,8,8],"right_children":[2,-1,4,6,8,-1,-1,10,12,-1,-1,-1,-1],"split_conditions":[-5.6954813E-1,2.9323285E-2,7.105571E2,2.8110263E-1,8.2533997E2,3.466146E-2,-4.069755E-3,5.8930576E-1,1.2819445E-2,8.359826E-3,-3.5696812E-2,-1.41352685E-2,1.7431756E-2],"split_indices":[3,0,5,3,10,0,0,1,3,0,0,0,0],"split_type":[0,0,0,0,0,0,0,0,0,0,0,0,0],"sum_hessian":[2.7041494E1,3.6208E0,2.3420694E1,4.609017E0,1.8811678E1,2.9515688E0,1.6574478E0,9.514282E0,9.297397E0,2.3023138E0,7.2119684E0,4.0092425E0,5.2881536E0],"tree_param":{"num_deleted":"0","num_feature":"16","num_nodes":"13","size_leaf_vector":"1"}},{"base_weights":[-0E0,3.5173437E-1,-1.24233745E-1,5.542232E-1,-0E0,-4.133019E-1,8.741681E-2,-0E0,3.338042E-2,-9.163483E-3,7.132643E-3,-0E0,-2.8198764E-2,-3.078202E-1,4.0554652E-1,-1.5909882E-2,1.4957549E-2,-2.3829548E-2,-0E0,2.909683E-2,-4.234666E-3],"categories":[],"categories_nodes":[],"categories_segments":[],"categories_sizes":[],"default_left":[0,0,0,0,0,0,0,0,0,0,0,0,0,0,0,0,0,0,0,0,0],"id":43,"left_children":[1,3,5,7,9,11,13,-1,-1,-1,-1,15,-1,17,19,-1,-1,-1,-1,-1,-1],"loss_changes":[1.2805421E0,6.5215933E-1,1.4795678E0,2.2392523E-1,1.7807484E-1,6.197971E-1,1.8569233E0,0E0,0E0,0E0,0E0,6.335002E-1,0E0,5.193266E-1,1.0762327E0,0E0,0E0,0E0,0E0,0E0,0E0],"parents":[2147483647,0,0,1,1,2,2,3,3,4,4,5,5,6,6,11,11,13,13,14,14],"right_children":[2,4,6,8,10,12,14,-1,-1,-1,-1,16,-1,18,20,-1,-1,-1,-1,-1,-1],"split_conditions":[7.52941E2,3E0,8.254633E2,1E0,1.9928571E0,5.8930576E-1,1.2292175E0,-0E0,3.338042E-2,-9.163483E-3,7.132643E-3,-3.8704583E-1,-2.8198764E-2,2.5821428E0,4.739286E0,-1.5909882E-2,1.4957549E-2,-2.3829548E-2,-0E0,2.909683E-2,-4.234666E-3],"split_indices":[10,13,10,13,4,1,1,0,0,0,0,1,0,4,4,0,0,0,0,0,0],"split_type":[0,0,0,0,0,0,0,0,0,0,0,0,0,0,0,0,0,0,0,0,0],"sum_hessian":[2.4152184E1,5.813234E0,1.833895E1,3.2701259E0,2.5431077E0,7.9448724E0,1.0394076E1,1.1357058E0,2.13442E0,1.3935558E0,1.149552E0,2.6553493E0,5.289523E0,3.963296E0,6.430781E0,1.2235885E0,1.4317608E0,2.7740319E0,1.189264E0,5.204134E0,1.2266467E0],"tree_param":{"num_deleted":"0","num_feature":"16","num_nodes":"21","size_leaf_vector":"1"}},{"base_weights":[3.3121984E-3,3.467249E-1,-1.3451178E-1,-0E0,3.0671109E-2,-2.548622E-1,3.3707437E-1,1.1067119E-2,-1.3812751E-2,-0E0,-5.690956E-1,-0E0,2.2946415E-2,2.2656938E-2,-2.5489146E-2,-3.6247946E-2,-1.1871412E-3],"categories":[],"categories_nodes":[],"categories_segments":[],"categories_sizes":[],"default_left":[0,0,0,0,0,0,0,0,0,0,0,0,0,0,0,0,0],"id":44,"left_children":[1,3,5,7,-1,9,11,-1,-1,13,15,-1,-1,-1,-1,-1,-1],"loss_changes":[1.579872E0,1.1535429E0,1.3348174E0,4.921118E-1,0E0,1.5862532E0,1.7964128E-1,0E0,0E0,3.2729502E0,3.294959E-1,0E0,0E0,0E0,0E0,0E0,0E0],"parents":[2147483647,0,0,1,1,2,2,3,3,5,5,6,6,9,9,10,10],"right_children":[2,4,6,8,-1,10,12,-1,-1,14,16,-1,-1,-1,-1,-1,-1],"split_conditions":[7.52941E2,1.4343853E0,1.0340188E3,5.155039E1,3.0671109E-2,8.5439825E2,5.6164383E1,1.1067119E-2,-1.3812751E-2,5.952381E1,5.989761E1,-0E0,2.2946415E-2,2.2656938E-2,-2.5489146E-2,-3.6247946E-2,-1.1871412E-3],"split_indices":[10,1,9,0,0,10,0,0,0,0,0,0,0,0,0,0,0],"split_type":[0,0,0,0,0,0,0,0,0,0,0,0,0,0,0,0,0],"sum_hessian":[2.7166988E1,7.951307E0,1.9215681E1,3.7064128E0,4.244894E0,1.6885757E1,2.3299243E0,1.5139747E0,2.1924381E0,1.0200253E1,6.685504E0,1.1411537E0,1.1887705E0,5.6524014E0,4.547851E0,3.9741614E0,2.7113426E0],"tree_param":{"num_deleted":"0","num_feature":"16","num_nodes":"17","size_leaf_vector":"1"}},{"base_weights":[-1.38677135E-2,6.0130402E-2,-5.2572215E-1,-9.8701775E-2,3.739674E-1,-0E0,-3.1350847E-2,1.7921334E-2,-2.3069675E-1,-1.498662E-1,6.625051E-1,2.7167741E-3,-3.4497406E-2,-1.6712291E-2,-0E0,-0E0,3.984192E-2],"categories":[],"categories_nodes":[],"categories_segments":[],"categories_sizes":[],"default_left":[0,0,0,0,0,0,0,0,0,0,0,0,0,0,0,0,0],"id":45,"left_children":[1,3,5,7,9,-1,-1,-1,11,13,15,-1,-1,-1,-1,-1,-1],"loss_changes":[1.3769196E0,1.5012264E0,6.9796085E-2,1.1697642E0,1.9920594E0,0E0,0E0,0E0,2.4614348E0,2.752923E-1,6.55247E-1,0E0,0E0,0E0,0E0,0E0,0E0],"parents":[2147483647,0,0,1,1,2,2,3,3,4,4,8,8,9,9,10,10],"right_children":[2,4,6,8,10,-1,-1,-1,12,14,16,-1,-1,-1,-1,-1,-1],"split_conditions":[1.5256349E0,8.3996967E2,7.916643E2,1.5571429E0,1.9178572E0,-0E0,-3.1350847E-2,1.7921334E-2,5.952381E1,5.989761E1,4.3458645E1,2.7167741E-3,-3.4497406E-2,-1.6712291E-2,-0E0,-0E0,3.984192E-2],"split_indices":[3,5,5,4,4,0,0,0,0,0,0,0,0,0,0,0,0],"split_type":[0,0,0,0,0,0,0,0,0,0,0,0,0,0,0,0,0],"sum_hessian":[2.6537663E1,2.3874382E1,2.6632793E0,1.5704293E1,8.17009E0,1.207473E0,1.4558063E0,1.901171E0,1.3803122E1,2.6277661E0,5.5423236E0,8.933334E0,4.869788E0,1.3944721E0,1.233294E0,1.2966951E0,4.2456284E0],"tree_param":{"num_deleted":"0","num_feature":"16","num_nodes":"17","size_leaf_vector":"1"}},{"base_weights":[-2.9773708E-2,3.1392664E-1,-1.9599205E-1,-1.6039876E-2,3.295719E-2,-3.0032513E-1,1.4327637E-2,1.1021218E-2,-2.825966E-1,-4.4023156E-1,-7.387478E-3,-0E0,-1.8851649E-2,-0E0,-3.1525146E-2,2.8542725E-2,-1.5364219E-2],"categories":[],"categories_nodes":[],"categories_segments":[],"categories_sizes":[],"default_left":[0,0,0,0,0,0,0,0,0,0,0,0,0,0,0,0,0],"id":46,"left_children":[1,3,5,7,-1,9,-1,-1,11,13,15,-1,-1,-1,-1,-1,-1],"loss_changes":[1.760741E0,1.4213111E0,1.2981565E0,5.372202E-1,0E0,5.937121E-1,0E0,0E0,1.17162436E-1,1.0405457E0,1.8990871E0,0E0,0E0,0E0,0E0,0E0,0E0],"parents":[2147483647,0,0,1,1,2,2,3,3,5,5,8,8,9,9,10,10],"right_children":[2,4,6,8,-1,10,-1,-1,12,14,16,-1,-1,-1,-1,-1,-1],"split_conditions":[7.640355E2,7.071511E2,1.007765E3,6.6306415E2,3.295719E-2,2.526629E0,1.4327637E-2,1.1021218E-2,1.0245004E0,7.007498E-1,2.9709053E0,-0E0,-1.8851649E-2,-0E0,-3.1525146E-2,2.8542725E-2,-1.5364219E-2],"split_indices":[10,10,7,8,0,1,0,0,2,2,1,0,0,0,0,0,0],"split_type":[0,0,0,0,0,0,0,0,0,0,0,0,0,0,0,0,0],"sum_hessian":[2.7698488E1,7.4689956E0,2.0229492E1,4.0533857E0,3.4156098E0,1.8106112E1,2.1233819E0,1.3373635E0,2.716022E0,1.041801E1,7.688102E0,1.2424061E0,1.4736159E0,3.7465415E0,6.671468E0,1.4390922E0,6.2490096E0],"tree_param":{"num_deleted":"0","num_feature":"16","num_nodes":"17","size_leaf_vector":"1"}},{"base_weights":[-0E0,9.789785E-2,-3.1025836E-1,1.989799E-1,-1.9715043E-2,-5.666004E-1,5.9797796E-3,-1.9826458E-1,3.098333E-1,-3.392528E-2,-0E0,-0E0,-1.6838245E-2,3.4977626E-2,2.4229249E-3],"categories":[],"categories_nodes":[],"categories_segments":[],"categories_sizes":[],"default_left":[0,0,0,0,0,0,0,0,0,0,0,0,0,0,0],"id":47,"left_children":[1,3,5,7,-1,9,-1,11,13,-1,-1,-1,-1,-1,-1],"loss_changes":[9.867836E-1,1.11835E0,1.255065E0,1.0519793E0,0E0,2.1334565E-1,0E0,2.1190557E-1,1.3173634E0,0E0,0E0,0E0,0E0,0E0,0E0],"parents":[2147483647,0,0,1,1,2,2,3,3,5,5,7,7,8,8],"right_children":[2,4,6,8,-1,10,-1,12,14,-1,-1,-1,-1,-1,-1],"split_conditions":[4E0,8.255034E1,6.162465E1,4.0449318E-1,-1.9715043E-2,2.8964286E0,5.9797796E-3,4E0,1.0838325E0,-3.392528E-2,-0E0,-0E0,-1.6838245E-2,3.4977626E-2,2.4229249E-3],"split_indices":[13,0,0,2,0,4,0,14,2,0,0,0,0,0,0],"split_type":[0,0,0,0,0,0,0,0,0,0,0,0,0,0,0],"sum_hessian":[2.541906E1,1.9287287E1,6.1317735E0,1.7832392E1,1.4548943E0,4.17122E0,1.9605536E0,2.5624173E0,1.5269975E1,2.7668827E0,1.4043372E0,1.1125728E0,1.4498444E0,4.016058E0,1.1253918E1],"tree_param":{"num_deleted":"0","num_feature":"16","num_nodes":"15","size_leaf_vector":"1"}},{"base_weights":[-0E0,4.1615874E-1,-1.1777136E-1,3.1092046E-2,-0E0,-3.0414477E-1,1.0775955E-1,-1.751519E-2,2.0311026E-2,-2.1180944E-3,-3.8162734E-2,-1.6687123E-2,3.5545906E-1,-1.605766E-2,1.5088054E-2,2.7678853E-2,-5.66898E-3],"categories":[],"categories_nodes":[],"categories_segments":[],"categories_sizes":[],"default_left":[0,0,0,0,0,0,0,0,0,0,0,0,0,0,0,0,0],"id":48,"left_children":[1,3,5,-1,7,9,11,-1,-1,13,-1,-1,15,-1,-1,-1,-1],"loss_changes":[1.5496874E0,3.443271E-1,1.1344359E0,0E0,1.0238748E0,1.6082848E0,1.4195874E0,0E0,0E0,1.3026513E0,0E0,0E0,1.1403625E0,0E0,0E0,0E0,0E0],"parents":[2147483647,0,0,1,1,2,2,4,4,5,5,6,6,9,9,12,12],"right_children":[2,4,6,-1,8,10,12,-1,-1,14,-1,-1,16,-1,-1,-1,-1],"split_conditions":[7.105571E2,1.5571429E0,8.248893E2,3.1092046E-2,2.0357144E0,8.302703E2,2.0214286E0,-1.751519E-2,2.0311026E-2,8.014102E2,-3.8162734E-2,-1.6687123E-2,7.55212E-1,-1.605766E-2,1.5088054E-2,2.7678853E-2,-5.66898E-3],"split_indices":[5,4,5,0,4,9,4,0,0,9,0,0,3,0,0,0,0],"split_type":[0,0,0,0,0,0,0,0,0,0,0,0,0,0,0,0,0],"sum_hessian":[2.6192148E1,5.098505E0,2.1093643E1,2.0697184E0,3.0287864E0,1.2381615E1,8.712028E0,1.2145029E0,1.8142836E0,9.337323E0,3.0442917E0,2.155943E0,6.556085E0,5.302287E0,4.035036E0,5.1041837E0,1.4519014E0],"tree_param":{"num_deleted":"0","num_feature":"16","num_nodes":"17","size_leaf_vector":"1"}},{"base_weights":[-0E0,-9.380803E-2,2.517782E-2,8.678034E-2,-5.9016186E-1,2.2624063E-1,-3.5722923E-1,-3.638638E-2,-4.328228E-2,-1.656117E-2,1.6508535E-2,-0E0,-2.2589196E-2,-1.0403899E-2,-0E0],"categories":[],"categories_nodes":[],"categories_segments":[],"categories_sizes":[],"default_left":[0,0,0,0,0,0,0,0,0,0,0,0,0,0,0],"id":49,"left_children":[1,3,-1,5,7,9,11,-1,13,-1,-1,-1,-1,-1,-1],"loss_changes":[1.3238317E0,2.8693364E0,0E0,1.4323982E0,1.895194E-1,1.290219E0,1.0114586E-1,0E0,1.2900552E-1,0E0,0E0,0E0,0E0,0E0,0E0],"parents":[2147483647,0,0,1,1,3,3,4,4,5,5,6,6,8,8],"right_children":[2,4,-1,6,8,10,12,-1,14,-1,-1,-1,-1,-1,-1],"split_conditions":[5E0,8.6682086E2,2.517782E-2,4.675E0,2.775E0,3.72376E-2,5.4915253E1,-3.638638E-2,1E0,-1.656117E-2,1.6508535E-2,-0E0,-2.2589196E-2,-1.0403899E-2,-0E0],"split_indices":[14,8,0,4,4,2,0,0,6,0,0,0,0,0,0],"split_type":[0,0,0,0,0,0,0,0,0,0,0,0,0,0,0],"sum_hessian":[2.83074E1,2.6060423E1,2.2469757E0,1.957972E1,6.4807043E0,1.65032E1,3.0765176E0,3.9191866E0,2.561518E0,1.1499834E0,1.5353218E1,1.4070307E0,1.6694868E0,1.1769558E0,1.3845621E0],"tree_param":{"num_deleted":"0","num_feature":"16","num_nodes":"15","size_leaf_vector":"1"}}]},"name":"gbtree"},"learner_model_param":{"base_score":"[5.301205E-1]","boost_from_average":"1","num_class":"0","num_feature":"16","num_target":"1"},"objective":{"name":"binary:logistic","reg_loss_param":{"scale_pos_weight":"1"}}},"version":[3,3,0]}