{"learner":{"attributes":{"scikit_learn":"{\"_estimator_type\": \"classifier\"}"},"feature_names":["entry_rsi","entry_macd","entry_macd_signal","entry_macd_hist","entry_atr","entry_supertrend","entry_supertrend_dir","entry_ma20","entry_ma60","entry_bb_upper","entry_bb_lower","entry_bb_middle","entry_hour","entry_dayofweek","entry_month","regime"],"feature_types":["float","float","float","float","float","float","float","float","float","float","float","float","float","float","float","float"],"gradient_booster":{"model":{"cats":{"enc":[],"feature_segments":[],"sorted_idx":[]},"gbtree_model_param":{"num_parallel_tree":"1","num_trees":"50"},"iteration_indptr":[0,1,2,3,4,5,6,7,8,9,10,11,12,13,14,15,16,17,18,19,20,21,22,23,24,25,26,27,28,29,30,31,32,33,34,35,36,37,38,39,40,41,42,43,44,45,46,47,48,49,50],"tree_info":[0,0,0,0,0,0,0,0,0,0,0,0,0,0,0,0,0,0,0,0,0,0,0,0,0,0,0,0,0,0,0,0,0,0,0,0,0,0,0,0,0,0,0,0,0,0,0,0,0,0],"trees":[{"base_weights":[5.8398936E-2,6.2368464E-1,-2.0327155E-1,5.4224778E-2,1.062027E-1,-5.8249515E-1,3.837042E-1,-3.367381E-2,6.8250585E-1,-9.2855304E-2,-1.0168376E0,-1.7481187E-1,6.9154507E-1,1.4439464E-3,4.0628698E-2,-1.7051628E-2,2.2763385E-2,-0E0,-5.7121303E-2,-1.4200305E-2,-0E0,4.2903345E-2,1.6381888E-3],"categories":[],"categories_nodes":[],"categories_segments":[],"categories_sizes":[],"default_left":[0,0,0,0,0,0,0,0,0,0,0,0,0,0,0,0,0,0,0,0,0,0,0],"id":0,"left_children":[1,3,5,-1,7,9,11,-1,13,15,17,19,21,-1,-1,-1,-1,-1,-1,-1,-1,-1,-1],"loss_changes":[5.673187E0,2.0931106E0,6.1063867E0,0E0,4.7403417E0,2.762444E0,2.3040571E0,0E0,6.334543E-2,1.6806309E0,5.3800964E-1,1.16971046E-1,3.4794092E-1,0E0,0E0,0E0,0E0,0E0,0E0,0E0,0E0,0E0,0E0],"parents":[2147483647,0,0,1,1,2,2,4,4,5,5,6,6,8,8,9,9,10,10,11,11,12,12],"right_children":[2,4,6,-1,8,10,12,-1,14,16,18,20,22,-1,-1,-1,-1,-1,-1,-1,-1,-1,-1],"split_conditions":[2.536875E2,1.6418883E-1,6.91358E1,5.4224778E-2,5.3503156E-1,2.89421E2,2.7848083E2,-3.367381E-2,6.27907E1,2.835588E2,3.895354E-2,7.985612E1,5.321429E-1,1.4439464E-3,4.0628698E-2,-1.7051628E-2,2.2763385E-2,-0E0,-5.7121303E-2,-1.4200305E-2,-0E0,4.2903345E-2,1.6381888E-3],"split_indices":[11,1,0,0,1,9,8,0,0,10,1,0,4,0,0,0,0,0,0,0,0,0,0],"split_type":[0,0,0,0,0,0,0,0,0,0,0,0,0,0,0,0,0,0,0,0,0,0,0],"sum_hessian":[3.3218197E1,1.0240195E1,2.2978E1,3.746413E0,6.4937825E0,1.448613E1,8.491869E0,2.2478478E0,4.2459345E0,8.491869E0,5.994261E0,2.7473695E0,5.7445E0,1.7483261E0,2.4976087E0,6.9933043E0,1.4985652E0,1.2488043E0,4.7454567E0,1.2488043E0,1.4985652E0,3.4966521E0,2.2478478E0],"tree_param":{"num_deleted":"0","num_feature":"16","num_nodes":"23","size_leaf_vector":"1"}},{"base_weights":[6.007659E-2,5.4813206E-1,-1.9850154E-1,-0E0,9.918749E-1,-8.3167034E-1,1.2688386E-2,2.9005626E-2,-3.779559E-1,6.370963E-2,-0E0,-4.4404618E-3,-5.0079703E-2,3.7418255E-1,-4.4656077E-1,1.1464617E-3,-2.992116E-2,-6.740036E-4,3.7043996E-2,-4.135864E-2,2.2640324E-3],"categories":[],"categories_nodes":[],"categories_segments":[],"categories_sizes":[],"default_left":[0,0,0,0,0,0,0,0,0,0,0,0,0,0,0,0,0,0,0,0,0],"id":1,"left_children":[1,3,5,7,9,11,13,-1,15,-1,-1,-1,-1,17,19,-1,-1,-1,-1,-1,-1],"loss_changes":[4.96154E0,3.0013342E0,3.7020328E0,2.370174E0,2.6075907E0,1.2786007E-1,3.572441E0,0E0,8.4506065E-1,0E0,0E0,0E0,0E0,2.1938474E0,2.14876E0,0E0,0E0,0E0,0E0,0E0,0E0],"parents":[2147483647,0,0,1,1,2,2,3,3,4,4,5,5,6,6,8,8,13,13,14,14],"right_children":[2,4,6,8,10,12,14,-1,16,-1,-1,-1,-1,18,20,-1,-1,-1,-1,-1,-1],"split_conditions":[2.535075E2,2.36165E2,6.1586954E-2,2.279125E2,5.980495E-1,-2.2700766E-2,4.104658E-1,2.9005626E-2,1E1,6.370963E-2,-0E0,-4.4404618E-3,-5.0079703E-2,6E0,5.196347E-1,1.1464617E-3,-2.992116E-2,-6.740036E-4,3.7043996E-2,-4.135864E-2,2.2640324E-3],"split_indices":[7,7,2,7,1,2,1,0,12,0,0,0,0,14,2,0,0,0,0,0,0],"split_type":[0,0,0,0,0,0,0,0,0,0,0,0,0,0,0,0,0,0,0,0,0],"sum_hessian":[3.420521E1,1.1740179E1,2.2465034E1,6.4933405E0,5.246838E0,4.741383E0,1.7723652E1,2.4981089E0,3.9952319E0,3.997379E0,1.2494591E0,1.9973378E0,2.7440453E0,1.0733812E1,6.9898386E0,1.2487178E0,2.746514E0,5.4914036E0,5.2424088E0,3.7448754E0,3.2449632E0],"tree_param":{"num_deleted":"0","num_feature":"16","num_nodes":"21","size_leaf_vector":"1"}},{"base_weights":[-6.709931E-2,-3.3568573E-1,5.9140515E-1,-4.9173404E-3,-9.1810215E-1,8.925279E-1,1.03480205E-1,5.127392E-1,-3.4498948E-1,-0E0,-5.7960477E-2,5.0487604E-2,1.3336474E-3,5.1628554E-1,-1.697116E-2,4.71331E-2,-2.2216782E-3,-2.5152117E-2,1.66683E-2,-0E0,3.6526214E-2],"categories":[],"categories_nodes":[],"categories_segments":[],"categories_sizes":[],"default_left":[0,0,0,0,0,0,0,0,0,0,0,0,0,0,0,0,0,0,0,0,0],"id":2,"left_children":[1,3,5,7,9,11,13,15,17,-1,-1,-1,-1,19,-1,-1,-1,-1,-1,-1,-1],"loss_changes":[6.7149925E0,4.86601E0,8.9572453E-1,3.830486E0,1.7287636E0,1.1269093E-2,1.7179847E0,2.5068634E0,1.9196757E0,0E0,0E0,0E0,0E0,5.350082E-1,0E0,0E0,0E0,0E0,0E0,0E0,0E0],"parents":[2147483647,0,0,1,1,2,2,3,3,4,4,5,5,6,6,7,7,8,8,13,13],"right_children":[2,4,6,8,10,12,14,16,18,-1,-1,-1,-1,20,-1,-1,-1,-1,-1,-1,-1],"split_conditions":[7.258064E1,2.901425E2,3.5565838E-1,1.2852466E-1,4.417178E1,1.2731886E-1,2.7520486E2,2.536875E2,2.835588E2,-0E0,-5.7960477E-2,5.0487604E-2,1.3336474E-3,6.321876E-1,-1.697116E-2,4.71331E-2,-2.2216782E-3,-2.5152117E-2,1.66683E-2,-0E0,3.6526214E-2],"split_indices":[0,7,2,2,0,3,10,7,10,0,0,0,0,2,0,0,0,0,0,0,0],"split_type":[0,0,0,0,0,0,0,0,0,0,0,0,0,0,0,0,0,0,0,0,0],"sum_hessian":[3.4444668E1,2.5701475E1,8.743191E0,1.8225914E1,7.4755607E0,3.7473214E0,4.9958696E0,6.2406588E0,1.1985256E1,2.24527E0,5.230291E0,2.49913E0,1.2481914E0,2.9985943E0,1.9972752E0,3.2480612E0,2.9925976E0,1.0737448E1,1.2478083E0,1.4994236E0,1.4991707E0],"tree_param":{"num_deleted":"0","num_feature":"16","num_nodes":"21","size_leaf_vector":"1"}},{"base_weights":[-6.195806E-2,-2.685222E-1,5.4433566E-1,-0E0,-9.422888E-1,4.0686037E-2,-0E0,-1.2791772E-1,4.0677126E-2,-5.6636073E-2,-0E0,-2.4727834E-2,2.7642692E-2,5.3131613E-3,-4.3056287E-2],"categories":[],"categories_nodes":[],"categories_segments":[],"categories_sizes":[],"default_left":[0,0,0,0,0,0,0,0,0,0,0,0,0,0,0],"id":3,"left_children":[1,3,5,7,9,-1,11,13,-1,-1,-1,-1,-1,-1,-1],"loss_changes":[4.9325533E0,5.7591896E0,1.2494609E0,2.8361547E0,1.3040957E0,0E0,2.0620594E0,4.287606E0,0E0,0E0,0E0,0E0,0E0,0E0,0E0],"parents":[2147483647,0,0,1,1,2,2,3,3,4,4,6,6,7,7],"right_children":[2,4,6,8,10,-1,12,14,-1,-1,-1,-1,-1,-1,-1],"split_conditions":[7.258064E1,2.916623E2,6.399665E-1,2.8385583E2,3.1343393E2,4.0686037E-2,7.9692906E-1,6.3934425E1,4.0677126E-2,-5.6636073E-2,-0E0,-2.4727834E-2,2.7642692E-2,5.3131613E-3,-4.3056287E-2],"split_indices":[0,9,1,8,5,0,1,0,0,0,0,0,0,0,0],"split_type":[0,0,0,0,0,0,0,0,0,0,0,0,0,0,0],"sum_hessian":[3.6152214E1,2.8411366E1,7.740847E0,2.1455513E1,6.955853E0,4.2459264E0,3.4949207E0,1.9706991E1,1.7485218E0,5.2140727E0,1.7417803E0,1.7461388E0,1.748782E0,1.5715719E1,3.9912722E0],"tree_param":{"num_deleted":"0","num_feature":"16","num_nodes":"15","size_leaf_vector":"1"}},{"base_weights":[-3.627174E-3,5.5832344E-1,-3.1402093E-1,7.142127E-1,-5.9422147E-3,-5.108734E-1,2.0612445E-1,-0E0,8.917329E-1,2.2851624E-1,-7.525316E-1,3.1631913E-2,-2.9354041E-2,-2.0911535E-2,2.9479787E-2,5.230924E-2,2.3133015E-4,-3.7689183E-3,2.8200163E-2,-7.302397E-3,-5.38112E-2],"categories":[],"categories_nodes":[],"categories_segments":[],"categories_sizes":[],"default_left":[0,0,0,0,0,0,0,0,0,0,0,0,0,0,0,0,0,0,0,0,0],"id":4,"left_children":[1,3,5,7,-1,9,11,13,15,17,19,-1,-1,-1,-1,-1,-1,-1,-1,-1,-1],"loss_changes":[6.399081E0,1.8117168E0,2.8861446E0,1.0211968E0,0E0,4.0274725E0,3.3006544E0,1.7406151E0,6.285119E-1,9.146893E-1,2.0992346E0,0E0,0E0,0E0,0E0,0E0,0E0,0E0,0E0,0E0,0E0],"parents":[2147483647,0,0,1,1,2,2,3,3,5,5,6,6,7,7,8,8,9,9,10,10],"right_children":[2,4,6,8,-1,10,12,14,16,18,20,-1,-1,-1,-1,-1,-1,-1,-1,-1,-1],"split_conditions":[2.536875E2,1.8535714E0,7.352941E1,4.5238094E1,-5.9422147E-3,4.5901638E1,2.2750151E-1,2.3946417E2,2.4568916E2,6.5E-1,2E0,3.1631913E-2,-2.9354041E-2,-2.0911535E-2,2.9479787E-2,5.230924E-2,2.3133015E-4,-3.7689183E-3,2.8200163E-2,-7.302397E-3,-5.38112E-2],"split_indices":[11,4,0,0,0,0,3,8,8,4,13,0,0,0,0,0,0,0,0,0,0],"split_type":[0,0,0,0,0,0,0,0,0,0,0,0,0,0,0,0,0,0,0,0,0],"sum_hessian":[3.337651E1,1.0734294E1,2.2642216E1,9.236856E0,1.4974375E0,1.7148989E1,5.4932265E0,2.7443762E0,6.49248E0,3.7413852E0,1.3407604E1,4.2455597E0,1.2476668E0,1.4966078E0,1.2477685E0,4.744202E0,1.7482777E0,1.9947451E0,1.74664E0,6.2132545E0,7.19435E0],"tree_param":{"num_deleted":"0","num_feature":"16","num_nodes":"21","size_leaf_vector":"1"}},{"base_weights":[3.5334356E-2,-1.6237287E-1,6.6338277E-1,2.9806357E-2,-7.7758867E-1,8.426143E-1,-0E0,3.9180616E-1,-1.6313046E-1,-4.9790286E-2,-0E0,4.6290558E-2,5.0864596E-4,2.9072613E-2,-2.016641E-2,2.9349267E-2,-0E0,1.3300234E-2,-3.444903E-2],"categories":[],"categories_nodes":[],"categories_segments":[],"categories_sizes":[],"default_left":[0,0,0,0,0,0,0,0,0,0,0,0,0,0,0,0,0,0,0],"id":5,"left_children":[1,3,5,7,9,11,13,15,17,-1,-1,-1,-1,-1,-1,-1,-1,-1,-1],"loss_changes":[5.25616E0,4.0077124E0,8.145132E-1,1.9482466E0,1.5875478E0,3.199768E-2,1.6666545E0,9.6171415E-1,4.289168E0,0E0,0E0,0E0,0E0,0E0,0E0,0E0,0E0,0E0,0E0],"parents":[2147483647,0,0,1,1,2,2,3,3,4,4,5,5,6,6,7,7,8,8],"right_children":[2,4,6,8,10,12,14,16,18,-1,-1,-1,-1,-1,-1,-1,-1,-1,-1],"split_conditions":[7.352941E1,2.901425E2,2.9331082E2,2E0,3.1343393E2,8.244275E1,9.917911E-2,1.3E1,5.5113636E1,-4.9790286E-2,-0E0,4.6290558E-2,5.0864596E-4,2.9072613E-2,-2.016641E-2,2.9349267E-2,-0E0,1.3300234E-2,-3.444903E-2],"split_indices":[0,11,8,13,5,0,3,12,0,0,0,0,0,0,0,0,0,0,0],"split_type":[0,0,0,0,0,0,0,0,0,0,0,0,0,0,0,0,0,0,0],"sum_hessian":[3.657804E1,2.8342684E1,8.235356E0,2.2427294E1,5.9153895E0,5.4913573E0,2.7439992E0,7.981654E0,1.444564E1,4.4273453E0,1.4880443E0,4.2423887E0,1.2489685E0,1.2470988E0,1.4969006E0,5.238442E0,2.7432122E0,7.974921E0,6.4707184E0],"tree_param":{"num_deleted":"0","num_feature":"16","num_nodes":"19","size_leaf_vector":"1"}},{"base_weights":[7.3539E-2,-1.2631159E-1,6.6116685E-1,3.9014983E-1,-4.5454365E-1,8.174615E-1,2.9709993E-2,-0E0,5.0567757E-2,-6.7487943E-1,4.398978E-2,-7.011974E-4,5.343311E-2,2.1309886E-2,-1.3083654E-2,-2.2783285E-2,1.2443111E-2,7.3394305E-3,-4.6245355E-2,3.4005884E-2,-1.9245146E-2],"categories":[],"categories_nodes":[],"categories_segments":[],"categories_sizes":[],"default_left":[0,0,0,0,0,0,0,0,0,0,0,0,0,0,0,0,0,0,0,0,0],"id":6,"left_children":[1,3,5,7,9,11,13,15,-1,17,19,-1,-1,-1,-1,-1,-1,-1,-1,-1,-1],"loss_changes":[4.7233434E0,5.183663E0,5.3689337E-1,3.1035705E0,2.4417303E0,2.1207757E0,8.5276955E-1,1.2832646E0,0E0,3.5094671E0,2.5671868E0,0E0,0E0,0E0,0E0,0E0,0E0,0E0,0E0,0E0,0E0],"parents":[2147483647,0,0,1,1,2,2,3,3,4,4,5,5,6,6,7,7,9,9,10,10],"right_children":[2,4,6,8,10,12,14,16,-1,18,20,-1,-1,-1,-1,-1,-1,-1,-1,-1,-1],"split_conditions":[7.258064E1,2.536875E2,2.2750151E-1,2.4071692E2,5.999352E-2,2.5812E2,2.915825E2,4.5238094E1,5.0567757E-2,-8.385422E-2,9.1124214E-2,-7.011974E-4,5.343311E-2,2.1309886E-2,-1.3083654E-2,-2.2783285E-2,1.2443111E-2,7.3394305E-3,-4.6245355E-2,3.4005884E-2,-1.9245146E-2],"split_indices":[0,7,3,10,3,7,7,0,0,3,3,0,0,0,0,0,0,0,0,0,0],"split_type":[0,0,0,0,0,0,0,0,0,0,0,0,0,0,0,0,0,0,0,0,0],"sum_hessian":[3.4520535E1,2.6296415E1,8.224119E0,9.47976E0,1.6816654E1,5.485444E0,2.7386746E0,6.737096E0,2.742664E0,1.1867212E1,4.9494433E0,1.2490239E0,4.23642E0,1.4950107E0,1.243664E0,2.2436206E0,4.493475E0,2.494747E0,9.372465E0,1.9908819E0,2.9585612E0],"tree_param":{"num_deleted":"0","num_feature":"16","num_nodes":"21","size_leaf_vector":"1"}},{"base_weights":[3.5305012E-2,-2.3116E-1,4.2904082E-1,4.3055447E-4,-6.5388507E-1,5.61013E-1,-0E0,2.2291172E-1,-2.9050928E-1,-4.190542E-2,-0E0,-0E0,6.613486E-1,2.565491E-2,-2.1458145E-2,3.1046642E-2,-6.8248273E-3,-2.7230242E-2,3.3042994E-3,-1.089984E-2,3.580238E-3,-0E0,3.932474E-2],"categories":[],"categories_nodes":[],"categories_segments":[],"categories_sizes":[],"default_left":[0,0,0,0,0,0,0,0,0,0,0,0,0,0,0,0,0,0,0,0,0,0,0],"id":7,"left_children":[1,3,5,7,9,11,13,15,17,-1,19,-1,21,-1,-1,-1,-1,-1,-1,-1,-1,-1,-1],"loss_changes":[4.1216383E0,2.5086236E0,8.6310434E-1,1.1073997E0,6.459253E-1,6.291871E-1,1.762953E0,1.9799132E0,9.1535723E-1,0E0,1.7014894E-1,0E0,9.276619E-1,0E0,0E0,0E0,0E0,0E0,0E0,0E0,0E0,0E0,0E0],"parents":[2147483647,0,0,1,1,2,2,3,3,4,4,5,5,6,6,7,7,8,8,10,10,12,12],"right_children":[2,4,6,8,10,12,14,16,18,-1,20,-1,22,-1,-1,-1,-1,-1,-1,-1,-1,-1,-1],"split_conditions":[6.3333332E1,5.5113636E1,3E0,2.7988406E2,6E0,8.0312766E-2,9.360272E-2,7.392857E-1,3.041275E2,-4.190542E-2,1.1E1,-0E0,4.5357144E-1,2.565491E-2,-2.1458145E-2,3.1046642E-2,-6.8248273E-3,-2.7230242E-2,3.3042994E-3,-1.089984E-2,3.580238E-3,-0E0,3.932474E-2],"split_indices":[0,0,13,10,14,3,3,4,7,0,12,0,4,0,0,0,0,0,0,0,0,0,0],"split_type":[0,0,0,0,0,0,0,0,0,0,0,0,0,0,0,0,0,0,0,0,0,0,0],"sum_hessian":[3.4451195E1,2.0281437E1,1.416976E1,1.3629601E1,6.6518364E0,1.019935E1,3.9704092E0,8.962334E0,4.6672673E0,4.185925E0,2.4659111E0,1.982293E0,8.217057E0,1.7294301E0,2.2409792E0,4.2222915E0,4.7400417E0,2.9283333E0,1.7389338E0,1.2314067E0,1.2345046E0,1.4930929E0,6.7239647E0],"tree_param":{"num_deleted":"0","num_feature":"16","num_nodes":"23","size_leaf_vector":"1"}},{"base_weights":[-1.277962E-1,5.4947086E-2,-6.2831193E-1,4.076796E-1,-1.7044151E-1,-8.5863715E-1,-0E0,5.1894944E-2,-0E0,-3.8972476E-1,3.057246E-2,-0E0,-5.4410186E-2,-3.0582586E-2,1.6931681E-2,-2.9268432E-2,1.3170849E-2],"categories":[],"categories_nodes":[],"categories_segments":[],"categories_sizes":[],"default_left":[0,0,0,0,0,0,0,0,0,0,0,0,0,0,0,0,0],"id":8,"left_children":[1,3,5,7,9,11,-1,-1,13,15,-1,-1,-1,-1,-1,-1,-1],"loss_changes":[3.5720644E0,2.3935428E0,1.8779936E0,3.3855746E0,3.269816E0,1.5757775E0,0E0,0E0,2.3514743E0,2.3795834E0,0E0,0E0,0E0,0E0,0E0,0E0,0E0],"parents":[2147483647,0,0,1,1,2,2,3,3,4,4,5,5,8,8,9,9],"right_children":[2,4,6,8,10,12,-1,-1,14,16,-1,-1,-1,-1,-1,-1,-1],"split_conditions":[2.8979605E2,2.2916126E-1,6.851312E1,2.5333583E2,2.9315734E-1,7.82342E-2,-0E0,5.1894944E-2,6.1586954E-2,2.8485165E2,3.057246E-2,-0E0,-5.4410186E-2,-3.0582586E-2,1.6931681E-2,-2.9268432E-2,1.3170849E-2],"split_indices":[10,2,0,8,3,1,0,0,2,8,0,0,0,0,0,0,0],"split_type":[0,0,0,0,0,0,0,0,0,0,0,0,0,0,0,0,0],"sum_hessian":[3.3164303E1,2.4866693E1,8.29761E0,9.928866E0,1.4937827E1,6.0612807E0,2.236329E0,2.9833026E0,6.945564E0,1.2948878E1,1.9889486E0,1.7117615E0,4.3495193E0,2.2256205E0,4.7199435E0,1.0712952E1,2.2359266E0],"tree_param":{"num_deleted":"0","num_feature":"16","num_nodes":"17","size_leaf_vector":"1"}},{"base_weights":[1.23779885E-1,5.998146E-1,-1.4716859E-1,9.067783E-1,-0E0,-4.7222236E-1,1.1240457E-1,5.8056064E-2,1.391633E-1,-1.734329E-2,1.874668E-2,1.7129114E-2,-7.436225E-1,-5.126305E-2,4.5922735E-1,2.1978436E-2,-4.9115303E-3,-1.8847414E-3,-4.5388263E-2,-2.8091827E-2,7.708835E-3,-0E0,3.5188418E-2],"categories":[],"categories_nodes":[],"categories_segments":[],"categories_sizes":[],"default_left":[0,0,0,0,0,0,0,0,0,0,0,0,0,0,0,0,0,0,0,0,0,0,0],"id":9,"left_children":[1,3,5,7,9,11,13,-1,15,-1,-1,-1,17,19,21,-1,-1,-1,-1,-1,-1,-1,-1],"loss_changes":[4.805976E0,2.5304751E0,2.2006884E0,7.7617836E-1,1.1018043E0,3.2121708E0,1.0103848E0,0E0,6.1301166E-1,0E0,0E0,0E0,5.687604E-1,1.4163281E0,9.3804765E-1,0E0,0E0,0E0,0E0,0E0,0E0,0E0,0E0],"parents":[2147483647,0,0,1,1,2,2,3,3,4,4,5,5,6,6,8,8,12,12,13,13,14,14],"right_children":[2,4,6,8,10,12,14,-1,16,-1,-1,-1,18,20,22,-1,-1,-1,-1,-1,-1,-1,-1],"split_conditions":[2.536875E2,5.503545E-2,2.6650107E-1,2.2941725E-1,1.641666E-1,-1.5377084E-2,1.2E1,5.8056064E-2,-8.700944E-2,-1.734329E-2,1.874668E-2,1.7129114E-2,2.7989E2,5.714286E-1,2.680625E2,2.1978436E-2,-4.9115303E-3,-1.8847414E-3,-4.5388263E-2,-2.8091827E-2,7.708835E-3,-0E0,3.5188418E-2],"split_indices":[7,3,1,1,3,1,12,0,3,0,0,0,8,4,7,0,0,0,0,0,0,0,0],"split_type":[0,0,0,0,0,0,0,0,0,0,0,0,0,0,0,0,0,0,0,0,0,0,0],"sum_hessian":[3.2137657E1,1.144593E1,2.0691727E1,6.960836E0,4.485093E0,9.314861E0,1.1376865E1,3.9690766E0,2.9917593E0,2.4912384E0,1.993855E0,1.736036E0,7.5788255E0,7.9078383E0,3.4690268E0,1.4984694E0,1.4932902E0,2.4684033E0,5.110422E0,1.9717383E0,5.9361E0,1.2464298E0,2.2225971E0],"tree_param":{"num_deleted":"0","num_feature":"16","num_nodes":"23","size_leaf_vector":"1"}},{"base_weights":[3.0224143E-2,-1.4656045E-1,6.943407E-1,1.2935115E-1,-7.382476E-1,3.8036615E-2,-0E0,4.4545153E-1,-1.7294839E-1,1.00240065E-2,-5.0128084E-2,4.6047058E-2,-0E0,-2.272535E-2,2.417453E-3],"categories":[],"categories_nodes":[],"categories_segments":[],"categories_sizes":[],"default_left":[0,0,0,0,0,0,0,0,0,0,0,0,0,0,0],"id":10,"left_children":[1,3,5,7,9,-1,-1,11,13,-1,-1,-1,-1,-1,-1],"loss_changes":[4.675319E0,5.2780094E0,9.675312E-2,2.307012E0,3.331594E0,0E0,0E0,2.1190815E0,9.5857924E-1,0E0,0E0,0E0,0E0,0E0,0E0],"parents":[2147483647,0,0,1,1,2,2,3,3,4,4,7,7,8,8],"right_children":[2,4,6,8,10,-1,-1,12,14,-1,-1,-1,-1,-1,-1],"split_conditions":[7.352941E1,2.916623E2,8.522727E1,1.2E1,-1.6731117E-2,3.8036615E-2,-0E0,2E0,5.1807228E1,1.00240065E-2,-5.0128084E-2,4.6047058E-2,-0E0,-2.272535E-2,2.417453E-3],"split_indices":[0,9,0,12,1,0,0,13,0,0,0,0,0,0,0],"split_type":[0,0,0,0,0,0,0,0,0,0,0,0,0,0,0],"sum_hessian":[3.375557E1,2.7295414E1,6.4601555E0,1.9104473E1,8.190941E0,5.2150903E0,1.2450655E0,9.684623E0,9.419851E0,1.4900973E0,6.700844E0,3.2322319E0,6.4523907E0,4.2122793E0,5.207572E0],"tree_param":{"num_deleted":"0","num_feature":"16","num_nodes":"15","size_leaf_vector":"1"}},{"base_weights":[5.5110484E-2,-1.6608769E-1,3.6595362E-1,2.6963824E-1,-4.993377E-1,3.9554883E-2,-3.764432E-2,-3.5465706E-2,3.713086E-2,4.5071814E-2,-9.1933084E-1,2.4404721E-2,-4.3022668E-1,1.4930032E-2,-3.2881066E-2,-1.3821246E-2,1.55566055E-2,-5.3146064E-2,-0E0,-0E0,-3.0101174E-2],"categories":[],"categories_nodes":[],"categories_segments":[],"categories_sizes":[],"default_left":[0,0,0,0,0,0,0,0,0,0,0,0,0,0,0,0,0,0,0,0,0],"id":11,"left_children":[1,3,5,7,9,-1,11,13,-1,15,17,-1,19,-1,-1,-1,-1,-1,-1,-1,-1],"loss_changes":[2.4234295E0,3.1642466E0,2.9892325E0,1.6971974E0,3.3095698E0,0E0,2.235905E0,1.9656471E0,0E0,7.625699E-1,7.706704E-1,0E0,7.4104655E-1,0E0,0E0,0E0,0E0,0E0,0E0,0E0,0E0],"parents":[2147483647,0,0,1,1,2,2,3,3,4,4,6,6,7,7,9,9,10,10,12,12],"right_children":[2,4,6,8,10,-1,12,14,-1,16,18,-1,20,-1,-1,-1,-1,-1,-1,-1,-1],"split_conditions":[5.9943806E-2,-4.466494E-2,2E0,5E0,2.791425E2,3.9554883E-2,3.0693213E2,2.4606175E2,3.713086E-2,2.36165E2,3.0414E2,2.4404721E-2,9.544701E-2,1.4930032E-2,-3.2881066E-2,-1.3821246E-2,1.55566055E-2,-5.3146064E-2,-0E0,-0E0,-3.0101174E-2],"split_indices":[3,3,13,14,7,0,5,9,0,7,7,0,3,0,0,0,0,0,0,0,0],"split_type":[0,0,0,0,0,0,0,0,0,0,0,0,0,0,0,0,0,0,0,0,0],"sum_hessian":[3.0024462E1,1.7146053E1,1.28784075E1,6.945791E0,1.0200263E1,5.939966E0,6.9384413E0,4.7041764E0,2.241614E0,4.701235E0,5.499028E0,2.213698E0,4.7247434E0,3.2145672E0,1.4896092E0,1.2425734E0,3.4586613E0,4.291917E0,1.2071115E0,1.2457533E0,3.47899E0],"tree_param":{"num_deleted":"0","num_feature":"16","num_nodes":"21","size_leaf_vector":"1"}},{"base_weights":[-0E0,-2.300872E-1,6.544651E-1,2.1047276E-2,-3.171949E-1,1.6305064E-1,4.209932E-2,-1.3937044E-1,-7.028355E-1,2.9747462E-2,-1.3902226E-2,-1.5591647E-2,2.7214414E-2,-4.071351E-2,-0E0],"categories":[],"categories_nodes":[],"categories_segments":[],"categories_sizes":[],"default_left":[0,0,0,0,0,0,0,0,0,0,0,0,0,0,0],"id":12,"left_children":[1,3,5,-1,7,9,-1,11,13,-1,-1,-1,-1,-1,-1],"loss_changes":[5.7398105E0,1.8075167E0,1.379757E-1,0E0,1.2059653E0,1.6246219E0,0E0,2.767135E0,2.3625708E-1,0E0,0E0,0E0,0E0,0E0,0E0],"parents":[2147483647,0,0,1,1,2,2,4,4,5,5,7,7,8,8],"right_children":[2,4,6,-1,8,10,-1,12,14,-1,-1,-1,-1,-1,-1],"split_conditions":[7.352941E1,-2.418214E-1,5.714286E-1,2.1047276E-2,2.8891864E2,4.857143E-1,4.209932E-2,2.835588E2,4E0,2.9747462E-2,-1.3902226E-2,-1.5591647E-2,2.7214414E-2,-4.071351E-2,-0E0],"split_indices":[0,3,4,0,10,4,0,10,13,0,0,0,0,0,0],"split_type":[0,0,0,0,0,0,0,0,0,0,0,0,0,0,0],"sum_hessian":[3.4008938E1,2.6078815E1,7.9301214E0,1.495637E0,2.458318E1,3.9594476E0,3.9706738E0,1.9575827E1,5.007353E0,2.2208464E0,1.7386012E0,1.7085005E1,2.4908204E0,3.5769742E0,1.4303788E0],"tree_param":{"num_deleted":"0","num_feature":"16","num_nodes":"15","size_leaf_vector":"1"}},{"base_weights":[-7.786254E-2,-3.0308113E-1,5.093194E-1,-6.2207103E-2,-7.983876E-1,6.4344096E-1,-0E0,-4.905896E-1,1.6446595E-1,-4.5301847E-2,-0E0,7.1860695E-1,-0E0,-0E0,-2.7921518E-2,3.4672625E-2,-0E0,-1.8975771E-3,4.8695423E-2],"categories":[],"categories_nodes":[],"categories_segments":[],"categories_sizes":[],"default_left":[0,0,0,0,0,0,0,0,0,0,0,0,0,0,0,0,0,0,0],"id":13,"left_children":[1,3,5,7,9,11,-1,13,15,-1,-1,17,-1,-1,-1,-1,-1,-1,-1],"loss_changes":[4.7544994E0,2.6595557E0,9.801018E-1,2.347371E0,4.3881464E-1,2.2718334E-1,0E0,5.816841E-2,1.3978544E0,0E0,0E0,1.9313917E0,0E0,0E0,0E0,0E0,0E0,0E0,0E0],"parents":[2147483647,0,0,1,1,2,2,3,3,4,4,5,5,7,7,8,8,11,11],"right_children":[2,4,6,8,10,12,-1,14,16,-1,-1,18,-1,-1,-1,-1,-1,-1,-1],"split_conditions":[7.352941E1,2.916623E2,8.571429E1,2.4071692E2,3.1460892E2,1.1510638E0,-0E0,9.678571E-1,2.4678969E2,-4.5301847E-2,-0E0,2.5766E2,-0E0,-0E0,-2.7921518E-2,3.4672625E-2,-0E0,-1.8975771E-3,4.8695423E-2],"split_indices":[0,9,0,10,5,1,0,4,9,0,0,8,0,0,0,0,0,0,0],"split_type":[0,0,0,0,0,0,0,0,0,0,0,0,0,0,0,0,0,0,0],"sum_hessian":[3.2397614E1,2.4731022E1,7.666591E0,1.8832966E1,5.8980556E0,6.424009E0,1.2425821E0,6.474402E0,1.2358564E1,4.6673107E0,1.2307447E0,5.193821E0,1.2301877E0,1.7474217E0,4.72698E0,1.7145514E0,1.0644013E1,1.2459139E0,3.9479074E0],"tree_param":{"num_deleted":"0","num_feature":"16","num_nodes":"19","size_leaf_vector":"1"}},{"base_weights":[4.0484272E-2,1.9603775E-1,-2.8675866E-1,5.457577E-1,-1.403314E-1,-5.9712785E-1,2.4992508E-1,7.233106E-1,-0E0,-4.12201E-1,1.3779639E-1,3.6536043E-3,-8.0374277E-1,3.1582683E-2,-6.454131E-3,-0E0,4.3268017E-2,1.7073572E-2,-1.503724E-2,-3.0528143E-2,-0E0,-1.3884457E-4,1.7615477E-2,-4.7832258E-2,-0E0],"categories":[],"categories_nodes":[],"categories_segments":[],"categories_sizes":[],"default_left":[0,0,0,0,0,0,0,0,0,0,0,0,0,0,0,0,0,0,0,0,0,0,0,0,0],"id":14,"left_children":[1,3,5,7,9,11,13,15,17,19,21,-1,23,-1,-1,-1,-1,-1,-1,-1,-1,-1,-1,-1,-1],"loss_changes":[1.8900983E0,3.472979E0,2.3568525E0,1.3759327E0,1.3373042E0,1.6389928E0,1.1327742E0,1.4739709E0,7.652393E-1,8.446249E-1,4.0869075E-1,0E0,8.1109476E-1,0E0,0E0,0E0,0E0,0E0,0E0,0E0,0E0,0E0,0E0,0E0,0E0],"parents":[2147483647,0,0,1,1,2,2,3,3,4,4,5,5,6,6,7,7,8,8,9,9,10,10,12,12],"right_children":[2,4,6,8,10,12,14,16,18,20,22,-1,24,-1,-1,-1,-1,-1,-1,-1,-1,-1,-1,-1,-1],"split_conditions":[2.916623E2,1.2E1,7.258064E1,1.5958048E-1,1.4E1,-1.6731117E-2,1.7462273E-1,-1.936286E-1,2E0,2.75145E2,2.545425E2,3.6536043E-3,3.1217E2,3.1582683E-2,-6.454131E-3,-0E0,4.3268017E-2,1.7073572E-2,-1.503724E-2,-3.0528143E-2,-0E0,-1.3884457E-4,1.7615477E-2,-4.7832258E-2,-0E0],"split_indices":[9,12,0,3,12,1,3,3,13,7,7,0,7,0,0,0,0,0,0,0,0,0,0,0,0],"split_type":[0,0,0,0,0,0,0,0,0,0,0,0,0,0,0,0,0,0,0,0,0,0,0,0,0],"sum_hessian":[3.3813213E1,2.4497997E1,9.315216E0,1.2129027E1,1.236897E1,6.349587E0,2.9656286E0,8.673772E0,3.4552555E0,6.6764097E0,5.69256E0,1.2305961E0,5.118991E0,1.4705544E0,1.4950742E0,1.2482946E0,7.425477E0,1.4765598E0,1.9786958E0,4.220256E0,2.4561539E0,3.223445E0,2.4691153E0,3.911449E0,1.207542E0],"tree_param":{"num_deleted":"0","num_feature":"16","num_nodes":"25","size_leaf_vector":"1"}},{"base_weights":[1.9605828E-2,-1.19564146E-1,4.50784E-1,8.392523E-2,-6.1187655E-1,5.679495E-1,-6.823679E-4,4.9796483E-1,-1.4820409E-1,1.0732511E-2,-8.757164E-1,6.5466654E-1,-0E0,3.7235267E-2,-3.6515107E-3,-2.8527496E-2,2.4436915E-3,-5.0221372E-2,-0E0,-0E0,4.088661E-2],"categories":[],"categories_nodes":[],"categories_segments":[],"categories_sizes":[],"default_left":[0,0,0,0,0,0,0,0,0,0,0,0,0,0,0,0,0,0,0,0,0],"id":15,"left_children":[1,3,5,7,9,11,-1,13,15,-1,17,19,-1,-1,-1,-1,-1,-1,-1,-1,-1],"loss_changes":[2.5739026E0,3.3406928E0,8.722043E-1,2.4412262E0,2.8090653E0,2.5643373E-1,0E0,1.7339957E0,1.5562233E0,0E0,5.346832E-1,6.9092894E-1,0E0,0E0,0E0,0E0,0E0,0E0,0E0,0E0,0E0],"parents":[2147483647,0,0,1,1,2,2,3,3,4,4,5,5,7,7,8,8,10,10,11,11],"right_children":[2,4,6,8,10,12,-1,14,16,-1,18,20,-1,-1,-1,-1,-1,-1,-1,-1,-1],"split_conditions":[7.258064E1,2.916623E2,8.7323944E1,2.0348431E-1,-1.6731117E-2,3.0236807E2,-6.823679E-4,5.503545E-2,2.907068E-1,1.0732511E-2,3.0414E2,1.4270002E-1,-0E0,3.7235267E-2,-3.6515107E-3,-2.8527496E-2,2.4436915E-3,-5.0221372E-2,-0E0,-0E0,4.088661E-2],"split_indices":[0,9,0,2,1,9,0,3,2,0,7,3,0,0,0,0,0,0,0,0,0],"split_type":[0,0,0,0,0,0,0,0,0,0,0,0,0,0,0,0,0,0,0,0,0],"sum_hessian":[3.6337116E1,2.7686598E1,8.650518E0,2.0044832E1,7.6417656E0,7.411554E0,1.238965E0,7.1518793E0,1.2892953E1,1.4807694E0,6.160996E0,5.6817E0,1.7298536E0,5.1804857E0,1.9713936E0,3.7033975E0,9.189556E0,4.7334256E0,1.4275705E0,1.7249203E0,3.95678E0],"tree_param":{"num_deleted":"0","num_feature":"16","num_nodes":"21","size_leaf_vector":"1"}},{"base_weights":[4.5236353E-2,3.9579356E-1,-1.8546668E-1,-0E0,8.975645E-1,4.7938237E-1,-3.8766277E-1,2.267496E-1,-2.971421E-1,5.140471E-2,-0E0,3.4924775E-2,-0E0,-5.351917E-1,4.289227E-2,-0E0,1.6974928E-2,-0E0,-2.3854997E-2,7.7779335E-4,-3.1203074E-2,-1.6148308E-2,2.4860244E-2],"categories":[],"categories_nodes":[],"categories_segments":[],"categories_sizes":[],"default_left":[0,0,0,0,0,0,0,0,0,0,0,0,0,0,0,0,0,0,0,0,0,0,0],"id":16,"left_children":[1,3,5,7,9,11,13,15,17,-1,-1,-1,-1,19,21,-1,-1,-1,-1,-1,-1,-1,-1],"loss_changes":[3.1503956E0,2.9096072E0,3.2988358E0,8.628278E-1,3.609481E-1,4.437176E-1,1.4761107E0,3.6028907E-1,3.9076537E-1,0E0,0E0,0E0,0E0,1.0527949E0,1.3629919E0,0E0,0E0,0E0,0E0,0E0,0E0,0E0,0E0],"parents":[2147483647,0,0,1,1,2,2,3,3,4,4,5,5,6,6,7,7,8,8,13,13,14,14],"right_children":[2,4,6,8,10,12,14,16,18,-1,-1,-1,-1,20,22,-1,-1,-1,-1,-1,-1,-1,-1],"split_conditions":[2E0,1.1346226E-1,-6.835142E-2,1.3E1,2.916725E2,1.8099304E-1,2.9391968E2,-1.3382629E-1,2.2916126E-1,5.140471E-2,-0E0,3.4924775E-2,-0E0,2.313025E2,5.999352E-2,-0E0,1.6974928E-2,-0E0,-2.3854997E-2,7.7779335E-4,-3.1203074E-2,-1.6148308E-2,2.4860244E-2],"split_indices":[13,3,3,12,7,2,9,3,2,0,0,0,0,7,3,0,0,0,0,0,0,0,0],"split_type":[0,0,0,0,0,0,0,0,0,0,0,0,0,0,0,0,0,0,0,0,0,0,0],"sum_hessian":[3.383843E1,1.3722678E1,2.0115751E1,9.053787E0,4.6688914E0,3.4749677E0,1.6640783E1,5.8565946E0,3.197193E0,3.4244785E0,1.2444127E0,1.4882565E0,1.9867113E0,1.2896915E1,3.7438686E0,1.2259876E0,4.630607E0,1.464537E0,1.7326559E0,1.2394497E0,1.1657466E1,1.7844809E0,1.9593877E0],"tree_param":{"num_deleted":"0","num_feature":"16","num_nodes":"23","size_leaf_vector":"1"}},{"base_weights":[-0E0,2.3994334E-1,-1.6010073E-1,6.3085485E-1,-5.800821E-2,-3.589074E-1,1.8733853E-1,4.2013094E-2,-1.7483233E-3,2.5491577E-1,-5.2401423E-1,-5.4342383E-1,2.145197E-1,4.8518363E-1,-2.1582736E-2,-0E0,2.7718509E-2,-3.017692E-2,-0E0,-3.486227E-2,8.722506E-4,1.7698526E-2,-0E0,4.1484546E-2,-1.3287856E-2],"categories":[],"categories_nodes":[],"categories_segments":[],"categories_sizes":[],"default_left":[0,0,0,0,0,0,0,0,0,0,0,0,0,0,0,0,0,0,0,0,0,0,0,0,0],"id":17,"left_children":[1,3,5,7,9,11,13,-1,-1,15,17,19,21,23,-1,-1,-1,-1,-1,-1,-1,-1,-1,-1,-1],"loss_changes":[1.4732459E0,2.2441015E0,1.6801221E0,1.5618258E0,1.9018447E0,1.9893748E0,1.9372908E0,0E0,0E0,5.46606E-1,4.0339947E-2,1.4519219E0,1.9976157E-1,2.5208054E0,0E0,0E0,0E0,0E0,0E0,0E0,0E0,0E0,0E0,0E0,0E0],"parents":[2147483647,0,0,1,1,2,2,3,3,4,4,5,5,6,6,9,9,10,10,11,11,12,12,13,13],"right_children":[2,4,6,8,10,12,14,-1,-1,16,18,20,22,24,-1,-1,-1,-1,-1,-1,-1,-1,-1,-1,-1],"split_conditions":[1.1E1,2E0,1.4E1,9.3214285E-1,1.4275385E-1,4E0,2.86745E2,4.2013094E-2,-1.7483233E-3,4.51237E-2,2.8347236E-1,7.027027E1,-3.5133652E-2,9.8214287E-1,-2.1582736E-2,-0E0,2.7718509E-2,-3.017692E-2,-0E0,-3.486227E-2,8.722506E-4,1.7698526E-2,-0E0,4.1484546E-2,-1.3287856E-2],"split_indices":[12,13,12,4,3,13,7,0,0,3,3,0,3,4,0,0,0,0,0,0,0,0,0,0,0],"split_type":[0,0,0,0,0,0,0,0,0,0,0,0,0,0,0,0,0,0,0,0,0,0,0,0,0],"sum_hessian":[3.3314663E1,1.417966E1,1.9135004E1,5.8923826E0,8.287277E0,1.3044151E1,6.0908513E0,4.6552343E0,1.2371484E0,4.8580766E0,3.4292004E0,1.0607488E1,2.4366643E0,4.9494166E0,1.1414347E0,3.6293976E0,1.2286791E0,2.2034674E0,1.2257332E0,8.642423E0,1.9650646E0,1.2238364E0,1.2128278E0,3.7055326E0,1.2438842E0],"tree_param":{"num_deleted":"0","num_feature":"16","num_nodes":"25","size_leaf_vector":"1"}},{"base_weights":[8.8004954E-2,-5.3170186E-2,5.010291E-1,1.0078419E-1,-5.581212E-1,3.4857806E-2,-0E0,3.7772787E-1,-1.7390504E-1,2.436469E-3,-3.9081972E-2,1.1609459E-2,-1.4849781E-2,2.9639516E-2,-0E0,-3.0703539E-2,8.748986E-4],"categories":[],"categories_nodes":[],"categories_segments":[],"categories_sizes":[],"default_left":[0,0,0,0,0,0,0,0,0,0,0,0,0,0,0,0,0],"id":18,"left_children":[1,3,5,7,9,-1,11,13,15,-1,-1,-1,-1,-1,-1,-1,-1],"loss_changes":[2.2798324E0,2.4014258E0,1.1176639E0,1.8494759E0,1.4269888E0,0E0,4.5943147E-1,1.2294154E0,1.2573879E0,0E0,0E0,0E0,0E0,0E0,0E0,0E0,0E0],"parents":[2147483647,0,0,1,1,2,2,3,3,4,4,6,6,7,7,8,8],"right_children":[2,4,6,8,10,-1,12,14,16,-1,-1,-1,-1,-1,-1,-1,-1],"split_conditions":[7.258064E1,2.916623E2,2.4011435E-1,1.2E1,-3.4241598E-2,3.4857806E-2,2.915825E2,5.6896553E1,4.5962734E1,2.436469E-3,-3.9081972E-2,1.1609459E-2,-1.4849781E-2,2.9639516E-2,-0E0,-3.0703539E-2,8.748986E-4],"split_indices":[0,9,3,12,1,0,7,0,0,0,0,0,0,0,0,0,0],"split_type":[0,0,0,0,0,0,0,0,0,0,0,0,0,0,0,0,0],"sum_hessian":[3.234517E1,2.4502096E1,7.8430743E0,1.9245087E1,5.257008E0,5.3834877E0,2.4595866E0,1.0116041E1,9.129046E0,1.2339272E0,4.023081E0,1.2175748E0,1.2420119E0,6.418068E0,3.697973E0,2.2198558E0,6.9091907E0],"tree_param":{"num_deleted":"0","num_feature":"16","num_nodes":"17","size_leaf_vector":"1"}},{"base_weights":[-4.5664076E-2,3.274932E-1,-3.196803E-1,-8.8192634E-2,6.1452687E-1,1.1622254E-1,-4.7429326E-1,9.838736E-2,-3.3575875E-1,4.294681E-2,-0E0,-1.4090873E-1,3.0633485E-2,1.3797596E-3,-5.697085E-1,-1.2761039E-4,1.4677969E-2,-0E0,-2.641566E-2,-2.4712125E-2,1.9149235E-2,-1.6290223E-2,9.0636004E-4,-4.893268E-3,-3.7299182E-2],"categories":[],"categories_nodes":[],"categories_segments":[],"categories_sizes":[],"default_left":[0,0,0,0,0,0,0,0,0,0,0,0,0,0,0,0,0,0,0,0,0,0,0,0,0],"id":19,"left_children":[1,3,5,7,9,11,13,15,17,-1,19,21,-1,-1,23,-1,-1,-1,-1,-1,-1,-1,-1,-1,-1],"loss_changes":[3.7488058E0,2.1478927E0,1.7561967E0,5.135644E-1,1.7566965E0,1.2329764E0,1.1312969E0,2.3475434E-1,3.7450236E-1,0E0,1.2465644E0,3.1906456E-1,0E0,0E0,7.1892357E-1,0E0,0E0,0E0,0E0,0E0,0E0,0E0,0E0,0E0,0E0],"parents":[2147483647,0,0,1,1,2,2,3,3,4,4,5,5,6,6,7,7,8,8,10,10,11,11,14,14],"right_children":[2,4,6,8,10,12,14,16,18,-1,20,22,-1,-1,24,-1,-1,-1,-1,-1,-1,-1,-1,-1,-1],"split_conditions":[2E0,2.6732734E-1,-7.012443E-2,-5.7094665E-3,2.918975E2,4E0,2E0,1E0,1.2782869E-1,4.294681E-2,3.034275E2,4E0,3.0633485E-2,1.3797596E-3,3.5338804E-2,-1.2761039E-4,1.4677969E-2,-0E0,-2.641566E-2,-2.4712125E-2,1.9149235E-2,-1.6290223E-2,9.0636004E-4,-4.893268E-3,-3.7299182E-2],"split_indices":[13,1,3,3,7,13,14,13,2,0,7,14,0,0,3,0,0,0,0,0,0,0,0,0,0],"split_type":[0,0,0,0,0,0,0,0,0,0,0,0,0,0,0,0,0,0,0,0,0,0,0,0,0],"sum_hessian":[3.2653164E1,1.2887648E1,1.9765518E1,5.118502E0,7.769145E0,4.4584513E0,1.5307067E1,2.454301E0,2.664201E0,5.381621E0,2.3875241E0,3.2172663E0,1.2411851E0,1.8351936E0,1.3471872E1,1.2301124E0,1.2241886E0,1.4385886E0,1.2256125E0,1.172796E0,1.2147281E0,1.971682E0,1.2455844E0,5.2814994E0,8.190373E0],"tree_param":{"num_deleted":"0","num_feature":"16","num_nodes":"25","size_leaf_vector":"1"}},{"base_weights":[1.9199045E-1,4.8340687E-1,-0E0,4.0783852E-2,7.780092E-1,-2.6587582E-1,4.2728102E-1,3.266936E-2,-3.3902293E-1,4.9284685E-2,-0E0,-5.3378123E-1,2.5278822E-2,3.7992846E-2,-0E0,-0E0,-2.554281E-2,-3.3859152E-2,-0E0,1.0619187E-2,-1.7536996E-2],"categories":[],"categories_nodes":[],"categories_segments":[],"categories_sizes":[],"default_left":[0,0,0,0,0,0,0,0,0,0,0,0,0,0,0,0,0,0,0,0,0],"id":20,"left_children":[1,3,5,7,9,11,13,-1,15,-1,-1,17,-1,-1,19,-1,-1,-1,-1,-1,-1],"loss_changes":[1.8247675E0,1.1950624E0,2.5703554E0,2.4383721E0,8.465471E-1,3.4934258E0,1.4049284E0,0E0,5.1103604E-1,0E0,0E0,1.0222187E0,0E0,0E0,5.8734906E-1,0E0,0E0,0E0,0E0,0E0,0E0],"parents":[2147483647,0,0,1,1,2,2,3,3,4,4,5,5,6,6,8,8,11,11,14,14],"right_children":[2,4,6,8,10,12,14,-1,16,-1,-1,18,-1,-1,20,-1,-1,-1,-1,-1,-1],"split_conditions":[2.536175E2,2.410675E2,7.027027E1,2.2625E2,5.503545E-2,6.892857E-1,4.9285713E-1,3.266936E-2,9.8214287E-1,4.9284685E-2,-0E0,4E0,2.5278822E-2,3.7992846E-2,1E1,-0E0,-2.554281E-2,-3.3859152E-2,-0E0,1.0619187E-2,-1.7536996E-2],"split_indices":[7,7,0,7,3,4,4,0,4,0,0,13,0,0,12,0,0,0,0,0,0],"split_type":[0,0,0,0,0,0,0,0,0,0,0,0,0,0,0,0,0,0,0,0,0],"sum_hessian":[2.9585838E1,1.0791013E1,1.8794827E1,5.9002714E0,4.8907413E0,1.222316E1,6.5716662E0,2.2105799E0,3.6896913E0,3.1642053E0,1.7265359E0,1.001092E1,2.21224E0,3.143643E0,3.428023E0,1.2256871E0,2.4640043E0,7.6917205E0,2.3191993E0,2.1898108E0,1.2382122E0],"tree_param":{"num_deleted":"0","num_feature":"16","num_nodes":"21","size_leaf_vector":"1"}},{"base_weights":[-9.552843E-2,2.8400198E-1,-2.839424E-1,-7.812869E-2,4.5685943E-2,-5.557301E-1,1.461168E-1,2.3120714E-2,-4.863162E-1,-0E0,-6.3071734E-1,3.0032009E-2,-7.571261E-2,-3.548721E-2,9.2788273E-4,-7.146315E-4,-3.626754E-2,2.4708837E-2,-1.9574171E-2],"categories":[],"categories_nodes":[],"categories_segments":[],"categories_sizes":[],"default_left":[0,0,0,0,0,0,0,0,0,0,0,0,0,0,0,0,0,0,0],"id":21,"left_children":[1,3,5,7,-1,9,11,-1,13,-1,15,-1,17,-1,-1,-1,-1,-1,-1],"loss_changes":[2.6299517E0,3.1995482E0,3.283553E0,2.3781283E0,0E0,8.745928E-1,1.4154469E0,0E0,1.0995694E0,0E0,4.8120356E-1,0E0,1.7959821E0,0E0,0E0,0E0,0E0,0E0,0E0],"parents":[2147483647,0,0,1,1,2,2,3,3,5,5,6,6,8,8,10,10,12,12],"right_children":[2,4,6,8,-1,10,12,-1,14,-1,16,-1,18,-1,-1,-1,-1,-1,-1],"split_conditions":[2.4678969E2,2.443835E2,6.91358E1,2.2459885E2,4.5685943E-2,-3.0732453E-2,9.917911E-2,2.3120714E-2,5.5357143E1,-0E0,2.6141385E2,3.0032009E-2,2.9683035E2,-3.548721E-2,9.2788273E-4,-7.146315E-4,-3.626754E-2,2.4708837E-2,-1.9574171E-2],"split_indices":[9,9,0,10,0,2,3,0,0,0,10,0,5,0,0,0,0,0,0],"split_type":[0,0,0,0,0,0,0,0,0,0,0,0,0,0,0,0,0,0,0],"sum_hessian":[3.252302E1,9.572445E0,2.2950577E1,6.685611E0,2.886834E0,1.441734E1,8.533237E0,2.235123E0,4.450488E0,1.4731655E0,1.2944175E1,2.4178228E0,6.1154146E0,3.2091017E0,1.2413864E0,2.7322717E0,1.0211903E1,1.2129457E0,4.9024687E0],"tree_param":{"num_deleted":"0","num_feature":"16","num_nodes":"19","size_leaf_vector":"1"}},{"base_weights":[-0E0,9.969243E-2,-2.3685394E-1,-1.08657435E-1,5.1483864E-1,1.0658845E-1,-4.253939E-1,2.1015257E-1,-5.3120375E-1,6.2951034E-1,-0E0,-4.179507E-3,1.792678E-2,3.4176079E-3,-5.933117E-1,-5.186792E-3,3.2235276E-2,-3.745237E-2,4.0226895E-3,-0E0,4.3127336E-2,-3.9894044E-2,-0E0],"categories":[],"categories_nodes":[],"categories_segments":[],"categories_sizes":[],"default_left":[0,0,0,0,0,0,0,0,0,0,0,0,0,0,0,0,0,0,0,0,0,0,0],"id":22,"left_children":[1,3,5,7,9,11,13,15,17,19,-1,-1,-1,-1,21,-1,-1,-1,-1,-1,-1,-1,-1],"loss_changes":[8.560711E-1,2.4349327E0,9.570381E-1,2.6966362E0,7.475512E-1,4.1440773E-1,1.0391077E0,1.8424858E0,1.6040127E0,1.0084033E0,0E0,0E0,0E0,0E0,1.1387181E0,0E0,0E0,0E0,0E0,0E0,0E0,0E0,0E0],"parents":[2147483647,0,0,1,1,2,2,3,3,4,4,5,5,6,6,7,7,8,8,9,9,14,14],"right_children":[2,4,6,8,10,12,14,16,18,20,-1,-1,-1,-1,22,-1,-1,-1,-1,-1,-1,-1,-1],"split_conditions":[2.916623E2,2.75145E2,3.0035535E2,2.4675737E2,7.214286E-1,2.9438214E2,3.7142858E-1,4E0,1.4E1,2.8209464E2,-0E0,-4.179507E-3,1.792678E-2,3.4176079E-3,6.892857E-1,-5.186792E-3,3.2235276E-2,-3.745237E-2,4.0226895E-3,-0E0,4.3127336E-2,-3.9894044E-2,-0E0],"split_indices":[9,7,5,9,4,5,4,14,12,5,0,0,0,0,4,0,0,0,0,0,0,0,0],"split_type":[0,0,0,0,0,0,0,0,0,0,0,0,0,0,0,0,0,0,0,0,0,0,0],"sum_hessian":[3.1427166E1,2.250944E1,8.9177265E0,1.51687975E1,7.3406415E0,2.5287504E0,6.3889756E0,8.544214E0,6.6245837E0,6.134006E0,1.206635E0,1.0716985E0,1.4570519E0,1.1666862E0,5.2222896E0,5.1768217E0,3.367392E0,5.156348E0,1.4682359E0,2.4460366E0,3.6879697E0,3.7823114E0,1.4399781E0],"tree_param":{"num_deleted":"0","num_feature":"16","num_nodes":"23","size_leaf_vector":"1"}},{"base_weights":[7.8926966E-2,-9.7003825E-2,5.8044344E-1,-2.2204916E-1,2.430067E-2,-0E0,6.596746E-1,-4.0003568E-2,-5.3778585E-2,3.6567092E-2,-0E0,2.0016422E-2,-1.175105E-2],"categories":[],"categories_nodes":[],"categories_segments":[],"categories_sizes":[],"default_left":[0,0,0,0,0,0,0,0,0,0,0,0,0],"id":23,"left_children":[1,3,5,7,-1,-1,9,-1,11,-1,-1,-1,-1],"loss_changes":[3.1530905E0,1.8669516E0,3.9090395E-1,1.6480206E0,0E0,0E0,1.4973569E-1,0E0,1.7534274E0,0E0,0E0,0E0,0E0],"parents":[2147483647,0,0,1,1,2,2,3,3,6,6,8,8],"right_children":[2,4,6,8,-1,-1,10,-1,12,-1,-1,-1,-1],"split_conditions":[7.352941E1,1.25E0,2.4943414E2,2.3660388E2,2.430067E-2,-0E0,8.522727E1,-4.0003568E-2,2.5516943E2,3.6567092E-2,-0E0,2.0016422E-2,-1.175105E-2],"split_indices":[0,4,9,9,0,0,0,0,9,0,0,0,0],"split_type":[0,0,0,0,0,0,0,0,0,0,0,0,0],"sum_hessian":[2.9720404E1,2.2458275E1,7.2621284E0,2.0217842E1,2.2404325E0,1.192993E0,6.0691357E0,2.195474E0,1.802237E1,4.8451176E0,1.224018E0,3.6645122E0,1.4357857E1],"tree_param":{"num_deleted":"0","num_feature":"16","num_nodes":"13","size_leaf_vector":"1"}},{"base_weights":[-0E0,2.006671E-1,-5.4600865E-1,5.396134E-1,-8.284511E-3,-4.635192E-2,-0E0,3.8354736E-2,-0E0,2.5347894E-1,-5.5506927E-1,2.5486293E-1,-2.5546847E-2,-1.5385831E-2,2.0472908E-2,-6.507931E-3,2.18276E-2,-3.4887254E-2,-0E0,-0E0,2.6711574E-2],"categories":[],"categories_nodes":[],"categories_segments":[],"categories_sizes":[],"default_left":[0,0,0,0,0,0,0,0,0,0,0,0,0,0,0,0,0,0,0,0,0],"id":24,"left_children":[1,3,5,7,9,-1,11,-1,13,15,17,19,-1,-1,-1,-1,-1,-1,-1,-1,-1],"loss_changes":[4.0152416E0,2.1435952E0,1.7648044E0,1.135467E0,2.920118E0,0E0,1.1774263E0,0E0,9.900359E-1,1.1454349E0,5.089619E-1,5.774735E-1,0E0,0E0,0E0,0E0,0E0,0E0,0E0,0E0,0E0],"parents":[2147483647,0,0,1,1,2,2,3,3,4,4,6,6,8,8,9,9,10,10,11,11],"right_children":[2,4,6,8,10,-1,12,-1,14,16,18,20,-1,-1,-1,-1,-1,-1,-1,-1,-1],"split_conditions":[2.8924533E2,2E0,2.997875E2,1.3E1,7.6178156E-2,-4.635192E-2,3.2319107E2,3.8354736E-2,1.4E1,2.3204E2,1.4E1,5.999352E-2,-2.5546847E-2,-1.5385831E-2,2.0472908E-2,-6.507931E-3,2.18276E-2,-3.4887254E-2,-0E0,-0E0,2.6711574E-2],"split_indices":[10,13,7,12,3,0,5,0,12,7,12,3,0,0,0,0,0,0,0,0,0],"split_type":[0,0,0,0,0,0,0,0,0,0,0,0,0,0,0,0,0,0,0,0,0],"sum_hessian":[3.229336E1,2.4389442E1,7.90392E0,9.00695E0,1.5382491E1,3.4891937E0,4.4147263E0,5.3763547E0,3.6305957E0,1.0509606E1,4.8728848E0,3.197784E0,1.2169423E0,1.9645488E0,1.6660467E0,2.6995344E0,7.810072E0,3.3949287E0,1.4779562E0,1.9914569E0,1.2063271E0],"tree_param":{"num_deleted":"0","num_feature":"16","num_nodes":"21","size_leaf_vector":"1"}},{"base_weights":[1.4401315E-1,3.2249022E-1,-3.3477923E-1,4.836316E-1,1.0029608E-2,-3.7461903E-2,-0E0,5.492511E-1,-0E0,2.6978946E-1,-1.2333768E-1,-3.229757E-1,3.1619382E-1,3.3116866E-2,-0E0,-8.788129E-3,1.1560793E-2,-3.569077E-3,3.3485737E-2,-1.8500414E-2,1.238368E-2,-1.9926583E-2,-0E0,-2.7334744E-3,3.2292888E-2],"categories":[],"categories_nodes":[],"categories_segments":[],"categories_sizes":[],"default_left":[0,0,0,0,0,0,0,0,0,0,0,0,0,0,0,0,0,0,0,0,0,0,0,0,0],"id":25,"left_children":[1,3,5,7,9,-1,11,13,15,17,19,21,23,-1,-1,-1,-1,-1,-1,-1,-1,-1,-1,-1,-1],"loss_changes":[3.2307482E0,1.1297119E0,1.4309855E0,4.4015026E-1,5.7163286E-1,0E0,9.5018923E-1,9.5761824E-1,2.6932663E-1,1.2309388E0,1.0074732E0,5.1113576E-2,9.588629E-1,0E0,0E0,0E0,0E0,0E0,0E0,0E0,0E0,0E0,0E0,0E0,0E0],"parents":[2147483647,0,0,1,1,2,2,3,3,4,4,6,6,7,7,8,8,9,9,10,10,11,11,12,12],"right_children":[2,4,6,8,10,-1,12,14,16,18,20,22,24,-1,-1,-1,-1,-1,-1,-1,-1,-1,-1,-1,-1],"split_conditions":[2.9040448E2,1.2E1,2.987175E2,2.87255E2,2.4678969E2,-3.7461903E-2,3.419378E-2,1.6735823E-1,1.9594416E-1,4E0,1.5E1,3.1343393E2,1E1,3.3116866E-2,-0E0,-8.788129E-3,1.1560793E-2,-3.569077E-3,3.3485737E-2,-1.8500414E-2,1.238368E-2,-1.9926583E-2,-0E0,-2.7334744E-3,3.2292888E-2],"split_indices":[10,12,7,7,9,0,3,3,3,14,12,5,12,0,0,0,0,0,0,0,0,0,0,0,0],"split_type":[0,0,0,0,0,0,0,0,0,0,0,0,0,0,0,0,0,0,0,0,0,0,0,0,0],"sum_hessian":[3.3352184E1,2.5531958E1,7.8202267E0,1.5066215E1,1.0465744E1,2.5097952E0,5.3104315E0,1.269099E1,2.375224E0,4.1282916E0,6.337452E0,2.4629762E0,2.8474553E0,1.028553E1,2.4054601E0,1.1680654E0,1.2071586E0,2.4397578E0,1.6885339E0,4.6193233E0,1.7181287E0,1.2529719E0,1.2100043E0,1.4113545E0,1.4361007E0],"tree_param":{"num_deleted":"0","num_feature":"16","num_nodes":"25","size_leaf_vector":"1"}},{"base_weights":[-3.3995353E-2,7.095588E-2,-3.8762257E-1,2.6833898E-1,-1.3996741E-1,5.2417085E-2,-5.962917E-1,-1.2975733E-2,4.972516E-1,3.8211402E-1,-3.775581E-1,-4.7407844E-3,1.6032238E-2,-3.604465E-2,-0E0,1.0968327E-2,-2.9252658E-2,-0E0,4.0338367E-2,-0E0,2.961422E-2,-3.0992156E-2,-0E0],"categories":[],"categories_nodes":[],"categories_segments":[],"categories_sizes":[],"default_left":[0,0,0,0,0,0,0,0,0,0,0,0,0,0,0,0,0,0,0,0,0,0,0],"id":26,"left_children":[1,3,5,7,9,11,13,15,17,19,21,-1,-1,-1,-1,-1,-1,-1,-1,-1,-1,-1,-1],"loss_changes":[1.5623336E0,1.3312162E0,1.226817E0,1.3304312E0,2.014133E0,3.3933717E-1,6.414411E-1,1.5641936E0,1.301271E0,4.461187E-1,1.0493119E0,0E0,0E0,0E0,0E0,0E0,0E0,0E0,0E0,0E0,0E0,0E0,0E0],"parents":[2147483647,0,0,1,1,2,2,3,3,4,4,5,5,6,6,7,7,8,8,9,9,10,10],"right_children":[2,4,6,8,10,12,14,16,18,20,22,-1,-1,-1,-1,-1,-1,-1,-1,-1,-1,-1,-1],"split_conditions":[2.9040448E2,7.392857E-1,3.7142858E-1,2.040568E-2,2.2408617E2,2.9642856E-1,6.535714E-1,2.7947772E2,2.75145E2,1.4535714E0,2.4071692E2,-4.7407844E-3,1.6032238E-2,-3.604465E-2,-0E0,1.0968327E-2,-2.9252658E-2,-0E0,4.0338367E-2,-0E0,2.961422E-2,-3.0992156E-2,-0E0],"split_indices":[10,4,4,3,10,4,4,10,7,4,10,0,0,0,0,0,0,0,0,0,0,0,0],"split_type":[0,0,0,0,0,0,0,0,0,0,0,0,0,0,0,0,0,0,0,0,0,0,0],"sum_hessian":[3.4347637E1,2.6629253E1,7.718383E0,1.4699497E1,1.1929757E1,2.1937304E0,5.5246525E0,6.4613833E0,8.238113E0,2.6924152E0,9.237342E0,1.0476161E0,1.1461143E0,4.3825665E0,1.1420859E0,4.8504944E0,1.6108887E0,4.3495073E0,3.8886068E0,1.4676116E0,1.2248034E0,4.9004645E0,4.3368773E0],"tree_param":{"num_deleted":"0","num_feature":"16","num_nodes":"23","size_leaf_vector":"1"}},{"base_weights":[-0E0,-3.2432756E-1,2.0463455E-1,-0E0,-5.690151E-1,4.4271028E-1,-1.7721927E-2,2.5413036E-1,-2.081249E-1,1.8748399E-3,-7.585276E-1,7.427629E-1,3.0481728E-2,8.710132E-2,-2.5836134E-2,-0E0,2.1355426E-2,-2.7447611E-2,3.5772386E-3,-4.253956E-2,-0E0,-0E0,4.3940622E-2,2.0562647E-2,-5.7680532E-3,-3.8141366E-3,1.9650584E-2],"categories":[],"categories_nodes":[],"categories_segments":[],"categories_sizes":[],"default_left":[0,0,0,0,0,0,0,0,0,0,0,0,0,0,0,0,0,0,0,0,0,0,0,0,0,0,0],"id":27,"left_children":[1,3,5,7,9,11,13,15,17,-1,19,21,23,25,-1,-1,-1,-1,-1,-1,-1,-1,-1,-1,-1,-1,-1],"loss_changes":[2.3739126E0,1.1663183E0,1.3558803E0,5.279905E-1,1.3575101E0,9.844041E-1,9.247596E-1,2.7548644E-1,8.1898767E-1,0E0,1.481533E-1,1.9162536E-1,6.654976E-1,7.520123E-1,0E0,0E0,0E0,0E0,0E0,0E0,0E0,0E0,0E0,0E0,0E0,0E0,0E0],"parents":[2147483647,0,0,1,1,2,2,3,3,4,4,5,5,6,6,7,7,8,8,10,10,11,11,12,12,13,13],"right_children":[2,4,6,8,10,12,14,16,18,-1,20,22,24,26,-1,-1,-1,-1,-1,-1,-1,-1,-1,-1,-1,-1,-1],"split_conditions":[5.2071007E1,1.8099304E-1,2.7520486E2,2.536875E2,3.9805824E1,2E0,6.70493E-1,2.4071692E2,4.1203705E1,1.8748399E-3,5.486335E-1,2.47415E2,2.306325E2,7.54386E1,-2.5836134E-2,-0E0,2.1355426E-2,-2.7447611E-2,3.5772386E-3,-4.253956E-2,-0E0,-0E0,4.3940622E-2,2.0562647E-2,-5.7680532E-3,-3.8141366E-3,1.9650584E-2],"split_indices":[0,2,10,7,0,13,2,10,0,0,2,7,7,0,0,0,0,0,0,0,0,0,0,0,0,0,0],"split_type":[0,0,0,0,0,0,0,0,0,0,0,0,0,0,0,0,0,0,0,0,0,0,0,0,0,0,0],"sum_hessian":[3.1390104E1,1.2087796E1,1.9302309E1,5.908769E0,6.1790266E0,9.450437E0,9.8518715E0,2.6450326E0,3.2637367E0,1.2248795E0,4.954147E0,3.8393137E0,5.6111226E0,8.677844E0,1.1740282E0,1.4904019E0,1.1546308E0,1.4088756E0,1.8548611E0,3.7323267E0,1.2218204E0,1.419909E0,2.4194047E0,1.4954435E0,4.1156793E0,5.5698457E0,3.1079981E0],"tree_param":{"num_deleted":"0","num_feature":"16","num_nodes":"27","size_leaf_vector":"1"}},{"base_weights":[1.3048379E-1,7.5269485E-1,-5.564754E-2,-0E0,9.077184E-1,-2.4980599E-1,4.2945355E-1,5.0842803E-2,-0E0,-3.920823E-2,-3.426932E-2,3.417247E-2,-3.1784985E-3,1.2264971E-2,-2.2463469E-2],"categories":[],"categories_nodes":[],"categories_segments":[],"categories_sizes":[],"default_left":[0,0,0,0,0,0,0,0,0,0,0,0,0,0,0],"id":28,"left_children":[1,3,5,-1,7,9,11,-1,-1,13,-1,-1,-1,-1,-1],"loss_changes":[4.200011E0,1.1405582E0,2.6004694E0,0E0,1.9931173E-1,1.489477E0,1.337633E0,0E0,0E0,2.2937741E0,0E0,0E0,0E0,0E0,0E0],"parents":[2147483647,0,0,1,1,2,2,4,4,5,5,6,6,9,9],"right_children":[2,4,6,-1,8,10,12,-1,-1,14,-1,-1,-1,-1,-1],"split_conditions":[7.82342E-2,4.7857141E-1,7.352941E1,-0E0,9.8571426E-1,2.901425E2,8.1333336E1,5.0842803E-2,-0E0,7.3214287E-1,-3.426932E-2,3.417247E-2,-3.1784985E-3,1.2264971E-2,-2.2463469E-2],"split_indices":[1,4,0,0,4,7,0,0,0,4,0,0,0,0,0],"split_type":[0,0,0,0,0,0,0,0,0,0,0,0,0,0,0],"sum_hessian":[3.0532766E1,6.2473245E0,2.428544E1,1.192216E0,5.0551085E0,1.8772625E1,5.512817E0,3.81471E0,1.2403985E0,1.4897695E1,3.87493E0,3.7978888E0,1.7149279E0,8.549893E0,6.347801E0],"tree_param":{"num_deleted":"0","num_feature":"16","num_nodes":"15","size_leaf_vector":"1"}},{"base_weights":[2.552889E-3,2.6218778E-2,-5.1052798E-2,-3.0916914E-2,-0E0,-1.9550484E-1,1.4714357E-1,-2.2294706E-2,5.85721E-5,1.686281E-2,-1.7179603E-2],"categories":[],"categories_nodes":[],"categories_segments":[],"categories_sizes":[],"default_left":[0,0,0,0,0,0,0,0,0,0,0],"id":29,"left_children":[1,-1,3,-1,5,7,9,-1,-1,-1,-1],"loss_changes":[1.3221158E0,0E0,1.2305906E0,0E0,9.8722076E-1,9.081831E-1,2.1923223E0,0E0,0E0,0E0,0E0],"parents":[2147483647,0,0,2,2,4,4,5,5,6,6],"right_children":[2,-1,4,-1,6,8,10,-1,-1,-1,-1],"split_conditions":[-1.5961353E-1,2.6218778E-2,-9.915991E-2,-3.0916914E-2,5.1428574E-1,3.4279816E-2,1E0,-2.2294706E-2,5.85721E-5,1.686281E-2,-1.7179603E-2],"split_indices":[3,0,3,0,4,3,4,0,0,0,0],"split_type":[0,0,0,0,0,0,0,0,0,0,0],"sum_hessian":[3.489004E1,2.482959E0,3.240708E1,1.4531071E0,3.0953976E1,1.1905339E1,1.9048637E1,5.2409816E0,6.664357E0,1.4914929E1,4.1337075E0],"tree_param":{"num_deleted":"0","num_feature":"16","num_nodes":"11","size_leaf_vector":"1"}},{"base_weights":[-0E0,-1.7646368E-1,1.9086856E-1,3.1153297E-1,-4.9091533E-1,5.455619E-1,-2.135623E-2,4.0334776E-2,-2.2227705E-2,-4.469101E-2,-2.1317825E-2,-6.642627E-4,3.6181778E-2,3.483464E-1,-2.934803E-1,1.9490479E-2,-1.2842655E-2,-0E0,2.7691757E-2,-2.6355943E-2,1.0345416E-2],"categories":[],"categories_nodes":[],"categories_segments":[],"categories_sizes":[],"default_left":[0,0,0,0,0,0,0,0,0,0,0,0,0,0,0,0,0,0,0,0,0],"id":30,"left_children":[1,3,5,7,9,11,13,-1,-1,-1,15,-1,-1,17,19,-1,-1,-1,-1,-1,-1],"loss_changes":[1.2941189E0,3.3858318E0,1.7055569E0,3.9819891E0,2.011286E0,1.1725051E0,1.4694443E0,0E0,0E0,0E0,9.801635E-1,0E0,0E0,3.087014E-1,1.4613197E0,0E0,0E0,0E0,0E0,0E0,0E0],"parents":[2147483647,0,0,1,1,2,2,3,3,4,4,5,5,6,6,10,10,13,13,14,14],"right_children":[2,4,6,8,10,12,14,-1,-1,-1,16,-1,-1,18,20,-1,-1,-1,-1,-1,-1],"split_conditions":[4.51237E-2,2.0348431E-1,2E0,2.7988406E2,3.70873E-1,1.5095985E-1,7.8062646E-2,4.0334776E-2,-2.2227705E-2,-4.469101E-2,4.405164E-1,-6.642627E-4,3.6181778E-2,5.9943806E-2,2.94E2,1.9490479E-2,-1.2842655E-2,-0E0,2.7691757E-2,-2.6355943E-2,1.0345416E-2],"split_indices":[3,2,13,10,2,2,3,0,0,0,2,0,0,3,7,0,0,0,0,0,0],"split_type":[0,0,0,0,0,0,0,0,0,0,0,0,0,0,0,0,0,0,0,0,0],"sum_hessian":[3.4352997E1,1.7486748E1,1.6866247E1,6.236631E0,1.1250116E1,6.019849E0,1.0846398E1,4.0872893E0,2.1493413E0,4.509536E0,6.740581E0,1.2234057E0,4.796443E0,3.582153E0,7.2642455E0,1.2047954E0,5.5357857E0,2.3674104E0,1.2147425E0,5.5604005E0,1.703845E0],"tree_param":{"num_deleted":"0","num_feature":"16","num_nodes":"21","size_leaf_vector":"1"}},{"base_weights":[-6.419456E-2,2.9849235E-2,-1.5735503E-1,2.9272413E-2,-4.3395916E-1,1.9884546E-1,-3.6198846E-1,-6.426689E-1,8.8969104E-2,-1.8133419E-2,1.8835539E-2,-0E0,-2.3515237E-2,-3.919634E-2,-0E0,2.6997719E-2,-1.1786043E-2],"categories":[],"categories_nodes":[],"categories_segments":[],"categories_sizes":[],"default_left":[0,0,0,0,0,0,0,0,0,0,0,0,0,0,0,0,0],"id":31,"left_children":[1,-1,3,5,7,9,11,13,15,-1,-1,-1,-1,-1,-1,-1,-1],"loss_changes":[2.0761423E0,0E0,1.8922141E0,1.3924756E0,1.940561E0,1.8950517E0,1.5350306E-1,1.1862388E0,1.1568371E0,0E0,0E0,0E0,0E0,0E0,0E0,0E0,0E0],"parents":[2147483647,0,0,2,2,3,3,4,4,5,5,6,6,7,7,8,8],"right_children":[2,-1,4,6,8,10,12,14,16,-1,-1,-1,-1,-1,-1,-1,-1],"split_conditions":[-2.418214E-1,2.9849235E-2,4.3482763E-1,7.3214287E-1,9.499582E-1,2.9438214E2,2.34815E2,1.4E1,1.261238E0,-1.8133419E-2,1.8835539E-2,-0E0,-2.3515237E-2,-3.919634E-2,-0E0,2.6997719E-2,-1.1786043E-2],"split_indices":[3,0,1,4,1,5,7,12,2,0,0,0,0,0,0,0,0],"split_type":[0,0,0,0,0,0,0,0,0,0,0,0,0,0,0,0,0],"sum_hessian":[3.2224426E1,1.981063E0,3.0243364E1,1.8047352E1,1.2196013E1,1.41682825E1,3.879069E0,9.07301E0,3.1230032E0,2.232197E0,1.1936085E1,1.7021858E0,2.1768835E0,7.3722773E0,1.7007328E0,1.3968203E0,1.7261829E0],"tree_param":{"num_deleted":"0","num_feature":"16","num_nodes":"17","size_leaf_vector":"1"}},{"base_weights":[1.8216763E-2,2.799133E-1,-1.1832776E-1,-0E0,6.3303775E-1,1.8521443E-1,-3.1683835E-1,2.1933222E-2,-2.4653357E-1,3.7504055E-2,-0E0,-2.7624843E-1,3.1631786E-2,2.9793482E-2,-5.8158505E-1,-2.666345E-2,8.645716E-3,-2.9663116E-2,4.773634E-3,1.6957885E-2,-1.5931854E-2,8.307206E-4,-3.7076157E-2],"categories":[],"categories_nodes":[],"categories_segments":[],"categories_sizes":[],"default_left":[0,0,0,0,0,0,0,0,0,0,0,0,0,0,0,0,0,0,0,0,0,0,0],"id":32,"left_children":[1,3,5,7,9,11,13,-1,15,-1,-1,17,-1,19,21,-1,-1,-1,-1,-1,-1,-1,-1],"loss_changes":[1.2911408E0,1.2063998E0,1.4600229E0,1.2417222E0,2.0721865E-1,2.3126056E0,1.6453761E0,0E0,1.2183112E0,0E0,0E0,9.628836E-1,0E0,1.0222609E0,1.2636724E0,0E0,0E0,0E0,0E0,0E0,0E0,0E0,0E0],"parents":[2147483647,0,0,1,1,2,2,3,3,4,4,5,5,6,6,8,8,11,11,13,13,14,14],"right_children":[2,4,6,8,10,12,14,-1,16,-1,-1,18,-1,20,22,-1,-1,-1,-1,-1,-1,-1,-1],"split_conditions":[2.536875E2,2.4071692E2,3.0693213E2,2.2408617E2,2.4225041E-1,6.5822784E1,2E0,2.1933222E-2,5.5357143E1,3.7504055E-2,-0E0,3E0,3.1631786E-2,2.8924533E2,-8.2661666E-2,-2.666345E-2,8.645716E-3,-2.9663116E-2,4.773634E-3,1.6957885E-2,-1.5931854E-2,8.307206E-4,-3.7076157E-2],"split_indices":[7,10,5,10,1,0,13,0,0,0,0,13,0,10,3,0,0,0,0,0,0,0,0],"split_type":[0,0,0,0,0,0,0,0,0,0,0,0,0,0,0,0,0,0,0,0,0,0,0],"sum_hessian":[3.0017958E1,1.0827739E1,1.919022E1,7.3092246E0,3.5185137E0,6.6448274E0,1.2545392E1,2.2109442E0,5.0982804E0,2.298965E0,1.2195487E0,3.0976257E0,3.5472016E0,5.383338E0,7.1620536E0,3.413874E0,1.6844066E0,1.7544781E0,1.3431476E0,3.6398363E0,1.7435019E0,1.2295023E0,5.932551E0],"tree_param":{"num_deleted":"0","num_feature":"16","num_nodes":"23","size_leaf_vector":"1"}},{"base_weights":[1.9768791E-1,-4.0763378E-1,2.99014E-1,-2.8398914E-2,-0E0,4.742103E-2,5.854054E-1,3.4808096E-2,-6.3787945E-2,7.509667E-1,-0E0,-2.5374917E-2,1.0312129E-2,8.584003E-3,4.963356E-2,9.000057E-3,-1.2360526E-2],"categories":[],"categories_nodes":[],"categories_segments":[],"categories_sizes":[],"default_left":[0,0,0,0,0,0,0,0,0,0,0,0,0,0,0,0,0],"id":33,"left_children":[1,3,5,-1,-1,7,9,-1,11,13,15,-1,-1,-1,-1,-1,-1],"loss_changes":[2.2641892E0,3.2978743E-1,1.8500042E0,0E0,0E0,1.813399E0,1.4862714E0,0E0,2.4973512E0,5.789337E-1,3.106949E-1,0E0,0E0,0E0,0E0,0E0,0E0],"parents":[2147483647,0,0,1,1,2,2,5,5,6,6,8,8,9,9,10,10],"right_children":[2,4,6,-1,-1,8,10,-1,12,14,16,-1,-1,-1,-1,-1,-1],"split_conditions":[2.9438214E2,5.5555557E1,2.77129E2,-2.8398914E-2,-0E0,2.2408617E2,1.7462273E-1,3.4808096E-2,4E0,3E0,3.0409106E2,-2.5374917E-2,1.0312129E-2,8.584003E-3,4.963356E-2,9.000057E-3,-1.2360526E-2],"split_indices":[5,0,10,0,0,10,3,0,14,14,5,0,0,0,0,0,0],"split_type":[0,0,0,0,0,0,0,0,0,0,0,0,0,0,0,0,0],"sum_hessian":[3.1826153E1,2.9890475E0,2.8837105E1,1.5920538E0,1.3969939E0,1.7521557E1,1.1315548E1,1.682543E0,1.5839014E1,8.726999E0,2.5885482E0,6.0275116E0,9.8115015E0,4.1853366E0,4.541663E0,1.2024695E0,1.3860788E0],"tree_param":{"num_deleted":"0","num_feature":"16","num_nodes":"17","size_leaf_vector":"1"}},{"base_weights":[6.966771E-2,3.6722168E-1,-1.03953004E-1,-1.368949E-1,5.4499924E-1,3.0898798E-1,-2.634966E-1,-0E0,-9.459238E-3,-0E0,8.201202E-1,-1.8515257E-3,2.7802786E-2,-4.6636063E-1,3.5233805E-1,-2.2745077E-2,2.1308882E-2,4.7203773E-4,5.0196107E-2,-2.8093098E-2,-0E0,3.3021104E-2,-9.413091E-4],"categories":[],"categories_nodes":[],"categories_segments":[],"categories_sizes":[],"default_left":[0,0,0,0,0,0,0,0,0,0,0,0,0,0,0,0,0,0,0,0,0,0,0],"id":34,"left_children":[1,3,5,7,9,11,13,-1,-1,15,17,-1,-1,19,21,-1,-1,-1,-1,-1,-1,-1,-1],"loss_changes":[1.9625548E0,1.6094996E0,1.5859127E0,2.8004326E-2,1.5773547E0,8.275779E-1,2.6072285E0,0E0,0E0,1.56035E0,5.8035946E-1,0E0,0E0,9.1311574E-1,9.0996367E-1,0E0,0E0,0E0,0E0,0E0,0E0,0E0,0E0],"parents":[2147483647,0,0,1,1,2,2,3,3,4,4,5,5,6,6,9,9,10,10,13,13,14,14],"right_children":[2,4,6,8,10,12,14,-1,-1,16,18,-1,-1,20,22,-1,-1,-1,-1,-1,-1,-1,-1],"split_conditions":[2E0,4.3214285E-1,3.0693213E2,2.0229672E-1,4E0,5.5555557E1,1.1607143E0,-0E0,-9.459238E-3,1E0,3.0409106E2,-1.8515257E-3,2.7802786E-2,7.985612E1,5.4385963E1,-2.2745077E-2,2.1308882E-2,4.7203773E-4,5.0196107E-2,-2.8093098E-2,-0E0,3.3021104E-2,-9.413091E-4],"split_indices":[13,4,5,2,14,0,4,0,0,13,5,0,0,0,0,0,0,0,0,0,0,0,0],"split_type":[0,0,0,0,0,0,0,0,0,0,0,0,0,0,0,0,0,0,0,0,0,0,0],"sum_hessian":[3.196285E1,1.2017222E1,1.994563E1,2.5196838E0,9.497539E0,4.1630964E0,1.5782533E1,1.3707194E0,1.1489644E0,4.074965E0,5.4225736E0,1.5994995E0,2.563597E0,1.284768E1,2.9348528E0,1.7029842E0,2.3719807E0,1.8936148E0,3.5289588E0,1.112169E1,1.7259903E0,1.488111E0,1.4467418E0],"tree_param":{"num_deleted":"0","num_feature":"16","num_nodes":"23","size_leaf_vector":"1"}},{"base_weights":[3.6687978E-2,3.3641475E-1,-1.14345685E-1,-0E0,3.9123323E-2,3.090213E-2,-3.0779013E-1,1.6537227E-2,-2.337883E-1,-4.3110188E-2,-7.0902355E-2,-2.2813745E-2,-0E0,7.973487E-3,-1.5073279E-2],"categories":[],"categories_nodes":[],"categories_segments":[],"categories_sizes":[],"default_left":[0,0,0,0,0,0,0,0,0,0,0,0,0,0,0],"id":35,"left_children":[1,3,5,7,-1,-1,9,-1,11,-1,13,-1,-1,-1,-1],"loss_changes":[1.6563933E0,1.9354372E0,3.3354814E0,8.441528E-1,0E0,0E0,1.9381615E0,0E0,4.530087E-1,0E0,1.0324978E0,0E0,0E0,0E0,0E0],"parents":[2147483647,0,0,1,1,2,2,3,3,6,6,8,8,10,10],"right_children":[2,4,6,8,-1,-1,10,-1,12,-1,14,-1,-1,-1,-1],"split_conditions":[2.536875E2,2.4071692E2,4.5901638E1,2.281275E2,3.9123323E-2,3.090213E-2,9.017754E-2,1.6537227E-2,2.348296E2,-4.3110188E-2,2E0,-2.2813745E-2,-0E0,7.973487E-3,-1.5073279E-2],"split_indices":[7,10,0,7,0,0,2,0,9,0,13,0,0,0,0],"split_type":[0,0,0,0,0,0,0,0,0,0,0,0,0,0,0],"sum_hessian":[3.0437847E1,1.0485341E1,1.9952505E1,7.0162625E0,3.469079E0,2.7116184E0,1.7240887E1,2.4219844E0,4.5942783E0,2.9489686E0,1.4291918E1,1.9072216E0,2.6870565E0,6.3726463E0,7.919272E0],"tree_param":{"num_deleted":"0","num_feature":"16","num_nodes":"15","size_leaf_vector":"1"}},{"base_weights":[-6.212176E-2,2.7856126E-1,-2.271785E-1,-6.824958E-2,3.473611E-2,-3.4882617E-1,1.950325E-1,2.3904914E-2,-5.1464576E-1,-1.00797296E-1,-6.9185144E-1,3.4922745E-2,-2.4821276E-2,-0E0,-2.9512707E-2,-2.2043923E-2,4.2633116E-3,-0E0,-4.3258842E-2],"categories":[],"categories_nodes":[],"categories_segments":[],"categories_sizes":[],"default_left":[0,0,0,0,0,0,0,0,0,0,0,0,0,0,0,0,0,0,0],"id":36,"left_children":[1,3,5,7,-1,9,11,-1,13,15,17,-1,-1,-1,-1,-1,-1,-1,-1],"loss_changes":[1.9642038E0,1.9559071E0,1.4667885E0,2.2213333E0,0E0,1.2158544E0,2.8217125E0,0E0,2.7079225E-2,1.2107247E0,8.4274316E-1,0E0,0E0,0E0,0E0,0E0,0E0,0E0,0E0],"parents":[2147483647,0,0,1,1,2,2,3,3,5,5,6,6,8,8,9,9,10,10],"right_children":[2,4,6,8,-1,10,12,-1,14,16,18,-1,-1,-1,-1,-1,-1,-1,-1],"split_conditions":[2.4678969E2,2.3660388E2,3.0414E2,2.2459885E2,3.473611E-2,4.3482763E-1,3.193275E2,2.3904914E-2,2.6387483E-1,9.017754E-2,3E0,3.4922745E-2,-2.4821276E-2,-0E0,-2.9512707E-2,-2.2043923E-2,4.2633116E-3,-0E0,-4.3258842E-2],"split_indices":[9,9,7,10,0,1,7,0,2,2,14,0,0,0,0,0,0,0,0],"split_type":[0,0,0,0,0,0,0,0,0,0,0,0,0,0,0,0,0,0,0],"sum_hessian":[3.1136435E1,8.724386E0,2.2412048E1,5.015352E0,3.709035E0,1.8588253E1,3.8237944E0,1.6876752E0,3.3276765E0,1.3135659E1,5.4525943E0,2.6195087E0,1.2042856E0,1.1997511E0,2.1279254E0,4.626935E0,8.508724E0,1.5610667E0,3.8915277E0],"tree_param":{"num_deleted":"0","num_feature":"16","num_nodes":"19","size_leaf_vector":"1"}},{"base_weights":[3.3424817E-2,-1.4613163E-1,2.7849331E-1,3.6436394E-1,-4.344866E-1,5.5466723E-1,-1.4819607E-2,-0E0,2.9601121E-2,7.5165997E-3,-5.988322E-1,-2.4649177E-3,7.65481E-1,2.4617961E-1,-3.743443E-1,-1.3145395E-2,1.775641E-2,-3.2607447E-2,-0E0,-0E0,4.7237176E-2,-2.2172637E-3,2.6014471E-2,-0E0,-2.9982477E-2],"categories":[],"categories_nodes":[],"categories_segments":[],"categories_sizes":[],"default_left":[0,0,0,0,0,0,0,0,0,0,0,0,0,0,0,0,0,0,0,0,0,0,0,0,0],"id":37,"left_children":[1,3,5,7,9,11,13,15,-1,-1,17,-1,19,21,23,-1,-1,-1,-1,-1,-1,-1,-1,-1,-1],"loss_changes":[1.6460991E0,3.2646282E0,1.6040032E0,3.7987387E-1,1.7675276E0,1.6186788E0,1.0889965E0,7.5244015E-1,0E0,0E0,3.3081818E-1,0E0,1.2970581E0,7.2936636E-1,6.618491E-1,0E0,0E0,0E0,0E0,0E0,0E0,0E0,0E0,0E0,0E0],"parents":[2147483647,0,0,1,1,2,2,3,3,4,4,5,5,6,6,7,7,10,10,12,12,13,13,14,14],"right_children":[2,4,6,8,10,12,14,16,-1,-1,18,-1,20,22,24,-1,-1,-1,-1,-1,-1,-1,-1,-1,-1],"split_conditions":[5.9943806E-2,-6.835142E-2,1.4493208E-1,3E0,1.2200884E-2,2.5434584E2,5E0,5E0,2.9601121E-2,7.5165997E-3,3.041275E2,-2.4649177E-3,2.2662525E-1,4.962127E-1,5.9566486E-1,-1.3145395E-2,1.775641E-2,-3.2607447E-2,-0E0,-0E0,4.7237176E-2,-2.2172637E-3,2.6014471E-2,-0E0,-2.9982477E-2],"split_indices":[3,3,3,13,1,8,14,14,0,0,7,0,1,2,1,0,0,0,0,0,0,0,0,0,0],"split_type":[0,0,0,0,0,0,0,0,0,0,0,0,0,0,0,0,0,0,0,0,0,0,0,0,0],"sum_hessian":[3.205457E1,1.7788496E1,1.4266075E1,5.604782E0,1.2183714E1,7.307834E0,6.9582405E0,3.6403587E0,1.9644237E0,2.0427656E0,1.0140948E1,1.6736097E0,5.6342244E0,3.5910773E0,3.3671632E0,1.7043567E0,1.936002E0,9.0147705E0,1.1261781E0,1.1690625E0,4.4651623E0,1.6716623E0,1.919415E0,1.4348783E0,1.9322848E0],"tree_param":{"num_deleted":"0","num_feature":"16","num_nodes":"25","size_leaf_vector":"1"}},{"base_weights":[6.898253E-3,2.6594594E-2,-2.8008824E-2,-1.5410206E-1,2.7036032E-1,-4.3190092E-1,1.1755476E-2,-1.2720826E-1,5.205692E-1,1.4777667E-2,-3.160843E-2,2.96004E-2,-1.0179244E-2,-1.1723683E-2,-0E0,3.3007313E-2,-0E0],"categories":[],"categories_nodes":[],"categories_segments":[],"categories_sizes":[],"default_left":[0,0,0,0,0,0,0,0,0,0,0,0,0,0,0,0,0],"id":38,"left_children":[1,-1,3,5,7,9,11,13,15,-1,-1,-1,-1,-1,-1,-1,-1],"loss_changes":[9.3993336E-1,0E0,1.3300806E0,1.4565241E0,1.3091017E0,2.1752708E0,2.6370637E0,1.1379079E-1,4.5797312E-1,0E0,0E0,0E0,0E0,0E0,0E0,0E0,0E0],"parents":[2147483647,0,0,2,2,3,3,4,4,5,5,6,6,7,7,8,8],"right_children":[2,-1,4,6,8,10,12,14,16,-1,-1,-1,-1,-1,-1,-1,-1],"split_conditions":[-2.4994229E-1,2.6594594E-2,7.54386E1,4E0,2.6709082E2,2.2408617E2,2.4678969E2,3.7892476E-1,5.931004E-1,1.4777667E-2,-3.160843E-2,2.96004E-2,-1.0179244E-2,-1.1723683E-2,-0E0,3.3007313E-2,-0E0],"split_indices":[3,0,0,14,8,10,9,2,2,0,0,0,0,0,0,0,0],"split_type":[0,0,0,0,0,0,0,0,0,0,0,0,0,0,0,0,0],"sum_hessian":[3.3916008E1,1.2322527E0,3.2683754E1,2.4832256E1,7.8514996E0,9.211024E0,1.5621232E1,2.6405926E0,5.210907E0,1.2440135E0,7.9670105E0,3.9097214E0,1.1711511E1,1.4356459E0,1.2049466E0,3.5349052E0,1.6760018E0],"tree_param":{"num_deleted":"0","num_feature":"16","num_nodes":"17","size_leaf_vector":"1"}},{"base_weights":[1.1190098E-1,3.7301034E-1,-2.1965587E-1,5.108184E-1,-6.977706E-2,-0E0,-5.22141E-1,-4.8097394E-2,6.6249907E-1,1.363296E-2,-1.9060425E-2,-2.8496945E-1,1.5484561E-1,-2.992005E-2,-0E0,1.0636524E-2,-1.9606879E-2,1.076557E-3,3.6666643E-2,8.023561E-3,-2.8356293E-2,1.6325418E-2,-6.1821686E-3],"categories":[],"categories_nodes":[],"categories_segments":[],"categories_sizes":[],"default_left":[0,0,0,0,0,0,0,0,0,0,0,0,0,0,0,0,0,0,0,0,0,0,0],"id":39,"left_children":[1,3,5,7,9,11,13,15,17,-1,-1,19,21,-1,-1,-1,-1,-1,-1,-1,-1,-1,-1],"loss_changes":[3.2214763E0,1.5639269E0,7.9898685E-1,1.812211E0,8.856875E-1,6.721342E-1,6.836295E-2,6.863684E-1,2.3619747E-1,0E0,0E0,1.1296933E0,5.633725E-1,0E0,0E0,0E0,0E0,0E0,0E0,0E0,0E0,0E0,0E0],"parents":[2147483647,0,0,1,1,2,2,3,3,4,4,5,5,6,6,7,7,8,8,11,11,12,12],"right_children":[2,4,6,8,10,12,14,16,18,-1,-1,20,22,-1,-1,-1,-1,-1,-1,-1,-1,-1,-1],"split_conditions":[2.8083835E2,7.698157E-1,6.1071426E-1,4.4285715E-1,2.281275E2,2.6732734E-1,4.6432635E-1,2E0,2.2977742E2,1.363296E-2,-1.9060425E-2,2.1639237E-2,4.1685548E-1,-2.992005E-2,-0E0,1.0636524E-2,-1.9606879E-2,1.076557E-3,3.6666643E-2,8.023561E-3,-2.8356293E-2,1.6325418E-2,-6.1821686E-3],"split_indices":[8,1,4,4,11,1,2,13,9,0,0,1,2,0,0,0,0,0,0,0,0,0,0],"split_type":[0,0,0,0,0,0,0,0,0,0,0,0,0,0,0,0,0,0,0,0,0,0,0],"sum_hessian":[3.2432735E1,1.884769E1,1.3585047E1,1.5000906E1,3.8467846E0,9.896244E0,3.6888025E0,2.7899292E0,1.2210977E1,1.1861029E0,2.6606817E0,3.9224038E0,5.97384E0,2.5221488E0,1.1666535E0,1.1944212E0,1.595508E0,2.177122E0,1.00338545E1,1.1683688E0,2.754035E0,4.59314E0,1.3807001E0],"tree_param":{"num_deleted":"0","num_feature":"16","num_nodes":"23","size_leaf_vector":"1"}},{"base_weights":[-3.7799187E-2,-1.8893188E-1,3.6550823E-1,1.8609853E-1,-3.858889E-1,3.368492E-2,-0E0,-4.0110674E-2,5.1200086E-1,-0E0,-5.544238E-1,3.8426304E-1,-2.7880678E-1,-1.48592265E-2,8.974805E-3,3.602543E-2,-0E0,2.373225E-2,-2.3744214E-2,-3.476011E-2,6.6307397E-3,2.2554977E-2,-0E0,-0E0,-1.7247528E-2],"categories":[],"categories_nodes":[],"categories_segments":[],"categories_sizes":[],"default_left":[0,0,0,0,0,0,0,0,0,0,0,0,0,0,0,0,0,0,0,0,0,0,0,0,0],"id":40,"left_children":[1,3,5,7,9,-1,11,13,15,17,19,21,23,-1,-1,-1,-1,-1,-1,-1,-1,-1,-1,-1,-1],"loss_changes":[2.0520763E0,2.1725194E0,6.7261565E-1,9.749906E-1,1.0618739E0,0E0,9.7877365E-1,5.3461576E-1,6.4322793E-1,2.290011E0,1.673542E0,4.288256E-3,4.422638E-2,0E0,0E0,0E0,0E0,0E0,0E0,0E0,0E0,0E0,0E0,0E0,0E0],"parents":[2147483647,0,0,1,1,2,2,3,3,4,4,6,6,7,7,8,8,9,9,10,10,11,11,12,12],"right_children":[2,4,6,8,10,-1,12,14,16,18,20,22,24,-1,-1,-1,-1,-1,-1,-1,-1,-1,-1,-1,-1],"split_conditions":[7.238095E1,-5.8887698E-2,9.917911E-2,2.72285E2,2.536175E2,3.368492E-2,1E1,4.5238094E1,2.1801262E-1,8.75E-1,3.1343393E2,2.2750151E-1,7.946429E1,-1.48592265E-2,8.974805E-3,3.602543E-2,-0E0,2.373225E-2,-2.3744214E-2,-3.476011E-2,6.6307397E-3,2.2554977E-2,-0E0,-0E0,-1.7247528E-2],"split_indices":[0,3,3,7,7,0,12,0,1,4,5,3,0,0,0,0,0,0,0,0,0,0,0,0,0],"split_type":[0,0,0,0,0,0,0,0,0,0,0,0,0,0,0,0,0,0,0,0,0,0,0,0,0],"sum_hessian":[3.0849154E1,2.4115217E1,6.7339363E0,7.4676094E0,1.6647608E1,2.0527875E0,4.6811485E0,4.53766E0,2.929949E0,6.1594105E0,1.0488197E1,2.346951E0,2.3341978E0,2.8139288E0,1.7237313E0,1.728505E0,1.201444E0,2.7943683E0,3.365042E0,9.288853E0,1.1993454E0,1.1753316E0,1.1716195E0,1.1311162E0,1.2030816E0],"tree_param":{"num_deleted":"0","num_feature":"16","num_nodes":"25","size_leaf_vector":"1"}},{"base_weights":[-5.5506203E-2,4.500936E-2,-3.8773984E-1,-1.8237008E-1,3.130446E-1,-3.408896E-2,3.955877E-2,6.355624E-2,-6.207903E-1,-0E0,4.462924E-1,6.281809E-3,-0E0,-1.624377E-2,1.9770639E-2,-0E0,-3.7722446E-2,1.6926141E-2,-1.2571792E-2,-0E0,3.409953E-2],"categories":[],"categories_nodes":[],"categories_segments":[],"categories_sizes":[],"default_left":[0,0,0,0,0,0,0,0,0,0,0,0,0,0,0,0,0,0,0,0,0],"id":41,"left_children":[1,3,5,7,9,-1,11,13,15,17,19,-1,-1,-1,-1,-1,-1,-1,-1,-1,-1],"loss_changes":[1.3143113E0,1.7708079E0,1.5146624E0,1.9080565E0,4.6520042E-1,0E0,4.6937894E-2,1.6194555E0,4.7578192E-1,7.562661E-1,9.5704174E-1,0E0,0E0,0E0,0E0,0E0,0E0,0E0,0E0,0E0,0E0],"parents":[2147483647,0,0,1,1,2,2,3,3,4,4,6,6,7,7,8,8,9,9,10,10],"right_children":[2,4,6,8,10,-1,12,14,16,18,20,-1,-1,-1,-1,-1,-1,-1,-1,-1,-1],"split_conditions":[1.4493208E-1,7.591688E-3,7.674419E1,2.8162082E2,2.6101334E2,-3.408896E-2,7.5003624E-1,-1.3843252E-1,4.5482446E-2,5.7142857E1,2.782231E-1,6.281809E-3,-0E0,-1.624377E-2,1.9770639E-2,-0E0,-3.7722446E-2,1.6926141E-2,-1.2571792E-2,-0E0,3.409953E-2],"split_indices":[3,3,0,8,8,0,1,3,1,0,1,0,0,0,0,0,0,0,0,0,0],"split_type":[0,0,0,0,0,0,0,0,0,0,0,0,0,0,0,0,0,0,0,0,0],"sum_hessian":[3.1180231E1,2.410997E1,7.070262E0,1.2380844E1,1.1729125E1,4.175784E0,2.8944778E0,8.296587E0,4.0842576E0,4.63865E0,7.0904756E0,1.4589263E0,1.4355514E0,3.147683E0,5.148904E0,1.1289324E0,2.9553254E0,2.089922E0,2.548728E0,3.139953E0,3.9505227E0],"tree_param":{"num_deleted":"0","num_feature":"16","num_nodes":"21","size_leaf_vector":"1"}},{"base_weights":[9.662932E-2,2.4443546E-1,-1.8981603E-1,4.0584975E-1,-3.0066194E-2,2.003113E-1,-4.141675E-2,-0E0,5.007132E-1,-4.2462128E-1,1.7302006E-1,5.0944686E-1,-9.664884E-3,-8.258635E-4,3.0072836E-2,-0E0,-2.6338536E-2,2.0737309E-2,-7.0076697E-3,-5.1909382E-3,4.3323338E-2],"categories":[],"categories_nodes":[],"categories_segments":[],"categories_sizes":[],"default_left":[0,0,0,0,0,0,0,0,0,0,0,0,0,0,0,0,0,0,0,0,0],"id":42,"left_children":[1,3,5,7,9,11,-1,-1,13,15,17,19,-1,-1,-1,-1,-1,-1,-1,-1,-1],"loss_changes":[1.5223452E0,1.2700492E0,3.4476218E0,8.628521E-1,1.0383445E0,1.3413645E0,0E0,0E0,1.050288E0,1.5883827E-1,7.753128E-1,1.831544E0,0E0,0E0,0E0,0E0,0E0,0E0,0E0,0E0,0E0],"parents":[2147483647,0,0,1,1,2,2,3,3,4,4,5,5,8,8,9,9,10,10,11,11],"right_children":[2,4,6,8,10,12,-1,-1,14,16,18,20,-1,-1,-1,-1,-1,-1,-1,-1,-1],"split_conditions":[1.3E1,2.916623E2,3.2750213E-1,2.931857E2,2.953836E2,2.798633E2,-4.141675E-2,-0E0,4.4285715E-1,2.9625537E2,4.3354484E-1,4.5962734E1,-9.664884E-3,-8.258635E-4,3.0072836E-2,-0E0,-2.6338536E-2,2.0737309E-2,-7.0076697E-3,-5.1909382E-3,4.3323338E-2],"split_indices":[12,9,1,5,9,10,0,0,4,5,1,0,0,0,0,0,0,0,0,0,0],"split_type":[0,0,0,0,0,0,0,0,0,0,0,0,0,0,0,0,0,0,0,0,0],"sum_hessian":[3.111983E1,2.1872465E1,9.247365E0,1.431774E1,7.5547237E0,6.1061153E0,3.1412492E0,2.1557207E0,1.216202E1,2.6624503E0,4.8922734E0,3.801874E0,2.3042414E0,1.4461726E0,1.0715847E1,1.0605094E0,1.601941E0,3.2960644E0,1.5962087E0,1.405511E0,2.396363E0],"tree_param":{"num_deleted":"0","num_feature":"16","num_nodes":"21","size_leaf_vector":"1"}},{"base_weights":[4.4111423E-2,2.3847145E-1,-3.4555724E-1,-0E0,4.945639E-1,-4.0103465E-2,6.5808214E-2,2.8238776E-1,-3.0934104E-1,7.76586E-1,-0E0,3.2999521E-1,-1.2092335E-2,-0E0,3.2395948E-2,-0E0,-2.5592161E-2,5.1417984E-2,-0E0,-2.244361E-2,2.2693953E-2,-0E0,2.1695036E-2],"categories":[],"categories_nodes":[],"categories_segments":[],"categories_sizes":[],"default_left":[0,0,0,0,0,0,0,0,0,0,0,0,0,0,0,0,0,0,0,0,0,0,0],"id":43,"left_children":[1,3,5,7,9,-1,11,13,15,17,19,21,-1,-1,-1,-1,-1,-1,-1,-1,-1,-1,-1],"loss_changes":[2.3207533E0,1.1849536E0,2.289512E0,1.3609624E0,1.4189284E0,0E0,7.204864E-1,1.0432503E0,6.734716E-1,1.4191027E0,1.5275073E0,8.739084E-2,0E0,0E0,0E0,0E0,0E0,0E0,0E0,0E0,0E0,0E0,0E0],"parents":[2147483647,0,0,1,1,2,2,3,3,4,4,6,6,7,7,8,8,9,9,10,10,11,11],"right_children":[2,4,6,8,10,-1,12,14,16,18,20,22,-1,-1,-1,-1,-1,-1,-1,-1,-1,-1,-1],"split_conditions":[2.916623E2,2.6765085E2,2.9910666E2,2.4606175E2,2.8083835E2,-4.0103465E-2,3.196518E2,2.3462334E2,2E0,5.9566486E-1,2.8181067E2,5.4285717E-1,-1.2092335E-2,-0E0,3.2395948E-2,-0E0,-2.5592161E-2,5.1417984E-2,-0E0,-2.244361E-2,2.2693953E-2,-0E0,2.1695036E-2],"split_indices":[9,8,8,9,8,0,5,8,13,1,10,4,0,0,0,0,0,0,0,0,0,0,0],"split_type":[0,0,0,0,0,0,0,0,0,0,0,0,0,0,0,0,0,0,0,0,0,0,0],"sum_hessian":[2.7173506E1,1.9504278E1,7.6692266E0,1.1659892E1,7.844386E0,3.3108907E0,4.3583364E0,6.6251097E0,5.034783E0,4.3453665E0,3.4990194E0,3.141048E0,1.2172883E0,4.501609E0,2.1235003E0,1.8945982E0,3.1401846E0,2.9605556E0,1.3848112E0,1.8357108E0,1.6633086E0,1.7032442E0,1.4378039E0],"tree_param":{"num_deleted":"0","num_feature":"16","num_nodes":"23","size_leaf_vector":"1"}},{"base_weights":[-0E0,3.292607E-1,-1.2853101E-1,-3.9198576E-3,5.3705466E-1,-5.780607E-1,4.588577E-2,-1.6452158E-2,1.2381697E-2,3.840619E-2,2.775638E-2,-0E0,-3.1728007E-2,4.2444915E-1,-1.073643E-1,2.2651702E-2,-1.5021294E-2,-2.0091092E-4,3.394465E-2,-1.9653767E-2,3.4484055E-3],"categories":[],"categories_nodes":[],"categories_segments":[],"categories_sizes":[],"default_left":[0,0,0,0,0,0,0,0,0,0,0,0,0,0,0,0,0,0,0,0,0],"id":44,"left_children":[1,3,5,7,9,11,13,-1,-1,-1,15,-1,-1,17,19,-1,-1,-1,-1,-1,-1],"loss_changes":[1.5718217E0,1.0207379E0,2.205451E0,6.307635E-1,4.5502615E-1,3.6353827E-2,1.3162726E0,0E0,0E0,0E0,1.0638702E0,0E0,0E0,1.0669873E0,9.0864503E-1,0E0,0E0,0E0,0E0,0E0,0E0],"parents":[2147483647,0,0,1,1,2,2,3,3,4,4,5,5,6,6,10,10,13,13,14,14],"right_children":[2,4,6,8,10,12,14,-1,-1,-1,16,-1,-1,18,20,-1,-1,-1,-1,-1,-1],"split_conditions":[2.4678969E2,4.7058823E1,2.7185E2,1.0857143E0,1E0,1E0,4.2142856E-1,-1.6452158E-2,1.2381697E-2,3.840619E-2,2.281275E2,-0E0,-3.1728007E-2,5.9302326E1,5.714286E-1,2.2651702E-2,-1.5021294E-2,-2.0091092E-4,3.394465E-2,-1.9653767E-2,3.4484055E-3],"split_indices":[9,0,8,4,4,13,4,0,0,0,7,0,0,0,4,0,0,0,0,0,0],"split_type":[0,0,0,0,0,0,0,0,0,0,0,0,0,0,0,0,0,0,0,0,0],"sum_hessian":[3.0890854E1,8.832421E0,2.2058434E1,3.2220964E0,5.6103244E0,5.673681E0,1.6384752E1,2.0038111E0,1.2182854E0,2.484817E0,3.1255076E0,1.2153685E0,4.458312E0,4.6417894E0,1.1742962E1,1.6935639E0,1.4319435E0,1.7307172E0,2.9110723E0,4.625493E0,7.117469E0],"tree_param":{"num_deleted":"0","num_feature":"16","num_nodes":"21","size_leaf_vector":"1"}},{"base_weights":[-0E0,3.6258388E-1,-1.1025511E-1,4.5656842E-1,-0E0,-3.0333036E-1,2.7369565E-1,-0E0,5.071282E-1,-0E0,-5.009326E-1,4.4318378E-1,-1.3265802E-3,-0E0,3.6130276E-2,-1.5469814E-2,2.220202E-2,-0E0,-3.219768E-2,-5.405312E-3,3.7284855E-2],"categories":[],"categories_nodes":[],"categories_segments":[],"categories_sizes":[],"default_left":[0,0,0,0,0,0,0,0,0,0,0,0,0,0,0,0,0,0,0,0,0],"id":45,"left_children":[1,3,5,7,-1,9,11,-1,13,15,17,19,-1,-1,-1,-1,-1,-1,-1,-1,-1],"loss_changes":[1.3176656E0,3.306436E-1,2.1876287E0,1.756072E-3,0E0,1.0392941E0,7.021589E-1,0E0,7.3807406E-1,1.6656497E0,8.851476E-1,1.6616256E0,0E0,0E0,0E0,0E0,0E0,0E0,0E0,0E0,0E0],"parents":[2147483647,0,0,1,1,2,2,3,3,5,5,6,6,8,8,9,9,10,10,11,11],"right_children":[2,4,6,8,-1,10,12,-1,14,16,18,20,-1,-1,-1,-1,-1,-1,-1,-1,-1],"split_conditions":[-6.835142E-2,2.8162082E2,7.258064E1,2E0,-0E0,5.6896553E1,2.4011435E-1,-0E0,8.642857E-1,5.2071007E1,2.4539586E2,2.6101334E2,-1.3265802E-3,-0E0,3.6130276E-2,-1.5469814E-2,2.220202E-2,-0E0,-3.219768E-2,-5.405312E-3,3.7284855E-2],"split_indices":[3,8,0,13,0,0,3,0,4,0,10,8,0,0,0,0,0,0,0,0,0],"split_type":[0,0,0,0,0,0,0,0,0,0,0,0,0,0,0,0,0,0,0,0,0],"sum_hessian":[3.0590155E1,5.519692E0,2.5070463E1,4.3286424E0,1.1910492E0,1.782773E1,7.242733E0,1.1921754E0,3.1364672E0,8.41582E0,9.41191E0,5.0851064E0,2.1576264E0,1.1930965E0,1.9433707E0,5.7125006E0,2.7033193E0,2.3716593E0,7.040251E0,1.6714933E0,3.4136133E0],"tree_param":{"num_deleted":"0","num_feature":"16","num_nodes":"21","size_leaf_vector":"1"}},{"base_weights":[1.0023941E-1,2.247339E-1,-2.3117617E-1,-9.987721E-2,4.0511838E-1,-2.968496E-2,2.547154E-1,1.5990954E-2,-4.0781373E-1,5.809119E-1,-0E0,3.0901257E-2,-6.949775E-3,-0E0,-2.613141E-2,-0E0,3.2967135E-2,-2.0936253E-2,1.0385002E-2],"categories":[],"categories_nodes":[],"categories_segments":[],"categories_sizes":[],"default_left":[0,0,0,0,0,0,0,0,0,0,0,0,0,0,0,0,0,0,0],"id":46,"left_children":[1,3,5,7,9,-1,11,-1,13,15,17,-1,-1,-1,-1,-1,-1,-1,-1],"loss_changes":[1.4509429E0,1.7501409E0,2.0265434E0,1.5799279E0,1.4601595E0,0E0,1.0666318E0,0E0,4.426335E-1,6.422515E-1,8.410684E-1,0E0,0E0,0E0,0E0,0E0,0E0,0E0,0E0],"parents":[2147483647,0,0,1,1,2,2,3,3,4,4,6,6,8,8,9,9,10,10],"right_children":[2,4,6,8,10,-1,12,-1,14,16,18,-1,-1,-1,-1,-1,-1,-1,-1],"split_conditions":[2.8979605E2,2.4071692E2,3.0414E2,2.2459885E2,9.360272E-2,-2.968496E-2,3.134925E2,1.5990954E-2,5.4894745E-2,-9.3172975E-2,1.5362954E-1,3.0901257E-2,-6.949775E-3,-0E0,-2.613141E-2,-0E0,3.2967135E-2,-2.0936253E-2,1.0385002E-2],"split_indices":[10,10,7,10,3,0,7,0,2,3,3,0,0,0,0,0,0,0,0],"split_type":[0,0,0,0,0,0,0,0,0,0,0,0,0,0,0,0,0,0,0],"sum_hessian":[3.0726057E1,2.3900454E1,6.8256035E0,7.86598E0,1.6034473E1,4.244255E0,2.5813487E0,2.6090872E0,5.256893E0,1.1097882E1,4.93659E0,1.4103667E0,1.170982E0,1.2177168E0,4.039176E0,1.4533856E0,9.644497E0,1.4461414E0,3.490449E0],"tree_param":{"num_deleted":"0","num_feature":"16","num_nodes":"19","size_leaf_vector":"1"}},{"base_weights":[4.569558E-2,-7.767411E-2,4.2283794E-1,6.3931346E-2,-3.1042129E-2,5.891701E-1,-2.993897E-4,-1.966618E-2,1.8423763E-1,3.4146093E-2,-0E0,-1.8484807E-5,2.3401044E-2],"categories":[],"categories_nodes":[],"categories_segments":[],"categories_sizes":[],"default_left":[0,0,0,0,0,0,0,0,0,0,0,0,0],"id":47,"left_children":[1,3,5,7,-1,9,-1,-1,11,-1,-1,-1,-1],"loss_changes":[1.7080772E0,2.2418072E0,9.4742966E-1,1.1687617E0,0E0,3.4245372E-1,0E0,0E0,1.20163E0,0E0,0E0,0E0,0E0],"parents":[2147483647,0,0,1,1,2,2,3,3,5,5,8,8],"right_children":[2,4,6,8,-1,10,-1,-1,12,-1,-1,-1,-1],"split_conditions":[7.238095E1,6.555556E1,8.244275E1,3.4285715E-1,-3.1042129E-2,3.0128336E2,-2.993897E-4,-1.966618E-2,3E0,3.4146093E-2,-0E0,-1.8484807E-5,2.3401044E-2],"split_indices":[0,0,0,4,0,9,0,0,13,0,0,0,0],"split_type":[0,0,0,0,0,0,0,0,0,0,0,0,0],"sum_hessian":[2.95898E1,2.249397E1,7.095829E0,1.8511934E1,3.9820364E0,5.414001E0,1.6818281E0,2.0449214E0,1.6467012E1,4.252409E0,1.161592E0,1.0119523E1,6.347489E0],"tree_param":{"num_deleted":"0","num_feature":"16","num_nodes":"13","size_leaf_vector":"1"}},{"base_weights":[-0E0,1.9396532E-1,-2.4794263E-1,-0E0,3.7042522E-1,1.4836097E-1,-3.84296E-1,3.0051026E-1,-2.3207068E-2,-1.2456636E-1,2.9814357E-2,1.5157941E-2,-0E0,-5.180476E-1,6.9176713E-3,3.0008173E-2,-1.2589263E-2,4.3907617E-3,-2.0123454E-2,-3.0577257E-2,-0E0],"categories":[],"categories_nodes":[],"categories_segments":[],"categories_sizes":[],"default_left":[0,0,0,0,0,0,0,0,0,0,0,0,0,0,0,0,0,0,0,0,0],"id":48,"left_children":[1,3,5,7,9,11,13,15,-1,17,-1,-1,-1,19,-1,-1,-1,-1,-1,-1,-1],"loss_changes":[1.6649603E0,8.252547E-1,1.0513319E0,1.7610381E0,1.6539202E0,1.9461E-1,1.2263569E0,1.6016736E0,0E0,4.9470907E-1,0E0,0E0,0E0,5.921471E-1,0E0,0E0,0E0,0E0,0E0,0E0,0E0],"parents":[2147483647,0,0,1,1,2,2,3,3,4,4,5,5,6,6,7,7,9,9,13,13],"right_children":[2,4,6,8,10,12,14,16,-1,18,-1,-1,-1,20,-1,-1,-1,-1,-1,-1,-1],"split_conditions":[4.104658E-1,2.727611E2,3E0,1.6663173E-1,6.1586954E-2,2.9809265E2,1.5357143E0,2.5516943E2,-2.3207068E-2,-1.6731117E-2,2.9814357E-2,1.5157941E-2,-0E0,1.4E1,6.9176713E-3,3.0008173E-2,-1.2589263E-2,4.3907617E-3,-2.0123454E-2,-3.0577257E-2,-0E0],"split_indices":[1,9,14,2,2,9,4,9,0,1,0,0,0,12,0,0,0,0,0,0,0],"split_type":[0,0,0,0,0,0,0,0,0,0,0,0,0,0,0,0,0,0,0,0,0],"sum_hessian":[3.0641237E1,1.7478842E1,1.31623955E1,8.123671E0,9.355172E0,2.3856285E0,1.0776767E1,4.7992725E0,3.324398E0,2.5186362E0,6.8365355E0,1.1678486E0,1.21778E0,9.356589E0,1.4201776E0,3.5857568E0,1.2135156E0,1.1832131E0,1.3354231E0,7.7328205E0,1.623769E0],"tree_param":{"num_deleted":"0","num_feature":"16","num_nodes":"21","size_leaf_vector":"1"}},{"base_weights":[-0E0,-1.3133661E-1,4.707718E-1,2.1371832E-2,-2.315611E-1,5.791293E-1,-0E0,-3.5068374E-2,-4.8726073E-1,3.4482226E-2,-0E0,-1.3141067E-3,7.983363E-3,-8.355881E-3,1.9124556E-2,1.716542E-4,-3.320593E-2],"categories":[],"categories_nodes":[],"categories_segments":[],"categories_sizes":[],"default_left":[0,0,0,0,0,0,0,0,0,0,0,0,0,0,0,0,0],"id":49,"left_children":[1,3,5,-1,7,9,11,13,15,-1,-1,-1,-1,-1,-1,-1,-1],"loss_changes":[2.400703E0,1.6682804E0,1.9995534E-1,0E0,1.0009509E0,3.3834386E-1,8.220714E-2,1.0043796E0,1.1984193E0,0E0,0E0,0E0,0E0,0E0,0E0,0E0,0E0],"parents":[2147483647,0,0,1,1,2,2,4,4,5,5,6,6,7,7,8,8],"right_children":[2,4,6,-1,8,10,12,14,16,-1,-1,-1,-1,-1,-1,-1,-1],"split_conditions":[7.352941E1,2.2459885E2,6.035714E-1,2.1371832E-2,7.392857E-1,8E0,7.718175E-1,6.642857E-1,5.4894745E-2,3.4482226E-2,-0E0,-1.3141067E-3,7.983363E-3,-8.355881E-3,1.9124556E-2,1.716542E-4,-3.320593E-2],"split_indices":[0,10,4,0,4,14,2,4,2,0,0,0,0,0,0,0,0],"split_type":[0,0,0,0,0,0,0,0,0,0,0,0,0,0,0,0,0],"sum_hessian":[3.2656017E1,2.6003311E1,6.652705E0,2.2029579E0,2.3800354E1,4.313891E0,2.3388143E0,1.5850063E1,7.9502897E0,3.1638246E0,1.1500665E0,1.2009292E0,1.137885E0,1.3863005E1,1.9870592E0,1.8768895E0,6.0734E0],"tree_param":{"num_deleted":"0","num_feature":"16","num_nodes":"17","size_leaf_vector":"1"}}]},"name":"gbtree"},"learner_model_param":{"base_score":"[4.8453608E-1]","boost_from_average":"1","num_class":"0","num_feature":"16","num_target":"1"},"objective":{"name":"binary:logistic","reg_loss_param":{"scale_pos_weight":"1"}}},"version":[3,3,0]}