{"learner":{"attributes":{"scikit_learn":"{\"_estimator_type\": \"classifier\"}"},"feature_names":["entry_rsi","entry_macd","entry_macd_signal","entry_macd_hist","entry_atr","entry_supertrend","entry_supertrend_dir","entry_ma20","entry_ma60","entry_bb_upper","entry_bb_lower","entry_bb_middle","entry_hour","entry_dayofweek","entry_month","regime"],"feature_types":["float","float","float","float","float","float","float","float","float","float","float","float","float","float","float","float"],"gradient_booster":{"model":{"cats":{"enc":[],"feature_segments":[],"sorted_idx":[]},"gbtree_model_param":{"num_parallel_tree":"1","num_trees":"50"},"iteration_indptr":[0,1,2,3,4,5,6,7,8,9,10,11,12,13,14,15,16,17,18,19,20,21,22,23,24,25,26,27,28,29,30,31,32,33,34,35,36,37,38,39,40,41,42,43,44,45,46,47,48,49,50],"tree_info":[0,0,0,0,0,0,0,0,0,0,0,0,0,0,0,0,0,0,0,0,0,0,0,0,0,0,0,0,0,0,0,0,0,0,0,0,0,0,0,0,0,0,0,0,0,0,0,0,0,0],"trees":[{"base_weights":[-1.4634298E-1,6.054561E-2,-6.621698E-1,2.6612502E-1,-4.1443092E-1,-8.9185244E-1,-0E0,-0E0,5.6203914E-1,-7.787979E-1,1.3746047E-2,-2.9960722E-3,-5.376963E-2,-7.166616E-3,8.420768E-3,2.6023785E-2,-1.2213606E-2,-0E0,3.2327723E-2,-0E0,-5.0046384E-2],"categories":[],"categories_nodes":[],"categories_segments":[],"categories_sizes":[],"default_left":[0,0,0,0,0,0,0,0,0,0,0,0,0,0,0,0,0,0,0,0,0],"id":0,"left_children":[1,3,5,7,9,11,13,15,17,19,-1,-1,-1,-1,-1,-1,-1,-1,-1,-1,-1],"loss_changes":[3.687709E0,2.4172606E0,1.5514956E0,1.4804041E0,2.4565876E0,4.202566E-1,1.5688294E-1,1.6824067E0,3.9025116E-1,1.0130424E0,0E0,0E0,0E0,0E0,0E0,0E0,0E0,0E0,0E0,0E0,0E0],"parents":[2147483647,0,0,1,1,2,2,3,3,4,4,5,5,6,6,7,7,8,8,9,9],"right_children":[2,4,6,8,10,12,14,16,18,20,-1,-1,-1,-1,-1,-1,-1,-1,-1,-1,-1],"split_conditions":[1.2E1,7.862595E1,5.1428574E-1,5.253338E-1,4.1219614E2,2.645471E-1,6.440678E1,4.3096233E1,3.4254834E2,6.1586696E-1,1.3746047E-2,-2.9960722E-3,-5.376963E-2,-7.166616E-3,8.420768E-3,2.6023785E-2,-1.2213606E-2,-0E0,3.2327723E-2,-0E0,-5.0046384E-2],"split_indices":[12,0,4,1,10,1,0,0,8,1,0,0,0,0,0,0,0,0,0,0,0],"split_type":[0,0,0,0,0,0,0,0,0,0,0,0,0,0,0,0,0,0,0,0,0],"sum_hessian":[2.8985334E1,2.1255913E1,7.7294226E0,1.618348E1,5.0724335E0,5.313978E0,2.4154446E0,9.420234E0,6.7632446E0,3.6231668E0,1.4492667E0,1.9323556E0,3.3816223E0,1.2077223E0,1.2077223E0,2.1739001E0,7.2463336E0,1.2077223E0,5.5555224E0,1.2077223E0,2.4154446E0],"tree_param":{"num_deleted":"0","num_feature":"16","num_nodes":"21","size_leaf_vector":"1"}},{"base_weights":[-1.920359E-2,1.438241E-1,-7.850166E-1,3.6439285E-2,-0E0,-0E0,-5.571675E-2,-1.677767E-1,3.781316E-1,-0E0,-3.2511063E-2,4.0182628E-2,-0E0],"categories":[],"categories_nodes":[],"categories_segments":[],"categories_sizes":[],"default_left":[0,0,0,0,0,0,0,0,0,0,0,0,0],"id":1,"left_children":[1,3,5,-1,7,-1,-1,9,11,-1,-1,-1,-1],"loss_changes":[4.477016E0,2.1623902E0,2.1807191E0,0E0,1.6825062E0,0E0,0E0,1.4694358E0,1.6628053E0,0E0,0E0,0E0,0E0],"parents":[2147483647,0,0,1,1,2,2,4,4,7,7,8,8],"right_children":[2,4,6,-1,8,-1,-1,10,12,-1,-1,-1,-1],"split_conditions":[1.3E1,-9.872404E-2,2.275054E-1,3.6439285E-2,2.754569E-1,-0E0,-5.571675E-2,4E0,5.7530975E-1,-0E0,-3.2511063E-2,4.0182628E-2,-0E0],"split_indices":[12,3,2,0,3,0,0,13,2,0,0,0,0],"split_type":[0,0,0,0,0,0,0,0,0,0,0,0,0],"sum_hessian":[2.9482986E1,2.5109184E1,4.373802E0,3.1271086E0,2.1982075E1,1.4544392E0,2.9193633E0,1.5699407E1,6.282669E0,1.3045399E1,2.6540074E0,2.4082336E0,3.8744354E0],"tree_param":{"num_deleted":"0","num_feature":"16","num_nodes":"13","size_leaf_vector":"1"}},{"base_weights":[-3.4988947E-2,3.8766748E-1,-4.296092E-1,8.1015414E-1,-3.7939146E-1,-5.1926013E-2,2.5841732E-2,1.0077044E0,-0E0,-3.936068E-2,1.5131393E-2,-3.9635926E-1,3.414825E-2,5.6462258E-2,4.661252E-3,-1.542023E-2,2.310797E-2,8.508712E-3,-3.095424E-2],"categories":[],"categories_nodes":[],"categories_segments":[],"categories_sizes":[],"default_left":[0,0,0,0,0,0,0,0,0,0,0,0,0,0,0,0,0,0,0],"id":2,"left_children":[1,3,5,7,9,-1,11,13,15,-1,-1,17,-1,-1,-1,-1,-1,-1,-1],"loss_changes":[5.731729E0,6.017761E0,5.6170216E0,1.4044647E0,2.5620625E0,0E0,3.9899774E0,1.4951134E-1,1.010261E0,0E0,0E0,1.4516275E0,0E0,0E0,0E0,0E0,0E0,0E0,0E0],"parents":[2147483647,0,0,1,1,2,2,3,3,4,4,6,6,7,7,8,8,11,11],"right_children":[2,4,6,8,10,-1,12,14,16,-1,-1,18,-1,-1,-1,-1,-1,-1,-1],"split_conditions":[5.1393535E-2,1.2E1,1.2221792E-1,4.3067007E2,2.9657017E-2,-5.1926013E-2,4.1219614E2,4E0,4.1541067E-1,-3.936068E-2,1.5131393E-2,1E0,3.414825E-2,5.6462258E-2,4.661252E-3,-1.542023E-2,2.310797E-2,8.508712E-3,-3.095424E-2],"split_indices":[3,12,3,10,3,0,10,13,2,0,0,13,0,0,0,0,0,0,0],"split_type":[0,0,0,0,0,0,0,0,0,0,0,0,0,0,0,0,0,0,0],"sum_hessian":[3.0242378E1,1.4007693E1,1.6234686E1,9.380503E0,4.6271906E0,6.3211246E0,9.913561E0,6.738879E0,2.641623E0,3.1614187E0,1.465772E0,6.055603E0,3.8579578E0,5.051094E0,1.6877856E0,1.4464816E0,1.1951416E0,1.2085255E0,4.8470774E0],"tree_param":{"num_deleted":"0","num_feature":"16","num_nodes":"19","size_leaf_vector":"1"}},{"base_weights":[-1.238255E-1,3.244224E-2,-2.4705693E-1,-5.729265E-1,1.985673E-1,1.6393585E-2,-7.2379833E-1,-3.6671296E-2,5.7800645E-1,-5.9331525E-3,-3.966189E-2,2.5320059E-2,-1.955829E-2,-0E0,3.32704E-2],"categories":[],"categories_nodes":[],"categories_segments":[],"categories_sizes":[],"default_left":[0,0,0,0,0,0,0,0,0,0,0,0,0,0,0],"id":3,"left_children":[1,-1,3,5,7,-1,9,11,13,-1,-1,-1,-1,-1,-1],"loss_changes":[3.3494587E0,0E0,4.9542418E0,3.284603E0,1.5663669E0,0E0,9.371853E-2,2.2126815E0,4.7956467E-2,0E0,0E0,0E0,0E0,0E0,0E0],"parents":[2147483647,0,0,2,2,3,3,4,4,6,6,7,7,8,8],"right_children":[2,-1,4,6,8,-1,10,12,14,-1,-1,-1,-1,-1,-1],"split_conditions":[3.2912418E2,3.244224E-2,4.2845E2,3.923077E1,9.25E-1,1.6393585E-2,5.4929577E1,4.31065E2,4.9019608E1,-5.9331525E-3,-3.966189E-2,2.5320059E-2,-1.955829E-2,-0E0,3.32704E-2],"split_indices":[8,0,8,0,4,0,0,11,0,0,0,0,0,0,0],"split_type":[0,0,0,0,0,0,0,0,0,0,0,0,0,0,0],"sum_hessian":[3.1919792E1,2.6591032E0,2.9260689E1,1.7219408E1,1.2041281E1,1.6582415E0,1.5561167E1,7.734897E0,4.306384E0,2.9007387E0,1.2660428E1,2.1593544E0,5.5755424E0,1.4395767E0,2.8668075E0],"tree_param":{"num_deleted":"0","num_feature":"16","num_nodes":"15","size_leaf_vector":"1"}},{"base_weights":[4.6803527E-2,4.8384648E-2,-1.2386539E-1,-2.3670754E-1,3.0458787E-2,-1.3501183E-2,-6.466132E-1,-2.9004246E-2,1.359571E-2,-3.7693724E-2,-0E0],"categories":[],"categories_nodes":[],"categories_segments":[],"categories_sizes":[],"default_left":[0,0,0,0,0,0,0,0,0,0,0],"id":4,"left_children":[1,-1,3,5,-1,7,9,-1,-1,-1,-1],"loss_changes":[5.5783496E0,0E0,2.3940275E0,2.0351849E0,0E0,3.654201E0,5.7499933E-1,0E0,0E0,0E0,0E0],"parents":[2147483647,0,0,2,2,3,3,5,5,6,6],"right_children":[2,-1,4,6,-1,8,10,-1,-1,-1,-1],"split_conditions":[4.3096233E1,4.8384648E-2,1.3182784E0,7.862595E1,3.0458787E-2,2.6226234E-1,4.231425E2,-2.9004246E-2,1.359571E-2,-3.7693724E-2,-0E0],"split_indices":[0,0,2,0,0,1,8,0,0,0,0],"split_type":[0,0,0,0,0,0,0,0,0,0,0],"sum_hessian":[2.9283295E1,3.5762632E0,2.5707031E1,2.40423E1,1.6647326E0,1.7693375E1,6.348924E0,5.8223324E0,1.1871042E1,5.153906E0,1.1950183E0],"tree_param":{"num_deleted":"0","num_feature":"16","num_nodes":"11","size_leaf_vector":"1"}},{"base_weights":[-4.0613215E-2,4.982164E-1,-3.1141078E-1,-5.7580322E-2,7.676784E-1,-6.9617605E-1,1.9020003E-1,1.1177233E-2,-2.0999396E-2,-0E0,4.498446E-2,-1.0364351E0,4.1508818E-1,7.4167055E-1,-4.0174833E-1,-1.4374944E-2,-6.5454595E-2,2.712608E-2,-0E0,-0E0,4.3911975E-2,-3.863521E-2,1.2330623E-2],"categories":[],"categories_nodes":[],"categories_segments":[],"categories_sizes":[],"default_left":[0,0,0,0,0,0,0,0,0,0,0,0,0,0,0,0,0,0,0,0,0,0,0],"id":5,"left_children":[1,3,5,7,9,11,13,-1,-1,-1,-1,15,17,19,21,-1,-1,-1,-1,-1,-1,-1,-1],"loss_changes":[5.305852E0,2.2132258E0,5.354369E0,8.0691725E-1,9.608102E-1,6.908945E0,4.6455894E0,0E0,0E0,0E0,0E0,1.0084476E0,2.096858E-1,6.795287E-1,2.2296343E0,0E0,0E0,0E0,0E0,0E0,0E0,0E0,0E0],"parents":[2147483647,0,0,1,1,2,2,3,3,4,4,5,5,6,6,11,11,12,12,13,13,14,14],"right_children":[2,4,6,8,10,12,14,-1,-1,-1,-1,16,18,20,22,-1,-1,-1,-1,-1,-1,-1,-1],"split_conditions":[5.4929577E1,2E0,1.642703E-1,4.3096233E1,-1.9929568E-1,4.5487204E-1,5.5137265E-1,1.1177233E-2,-2.0999396E-2,-0E0,4.498446E-2,2.3320591E-1,4.9503397E-2,2.1093895E-1,1.1055474E0,-1.4374944E-2,-6.5454595E-2,2.712608E-2,-0E0,-0E0,4.3911975E-2,-3.863521E-2,1.2330623E-2],"split_indices":[0,13,3,0,3,2,2,0,0,0,0,2,3,2,2,0,0,0,0,0,0,0,0],"split_type":[0,0,0,0,0,0,0,0,0,0,0,0,0,0,0,0,0,0,0,0,0,0,0],"sum_hessian":[3.287646E1,9.816898E0,2.3059563E1,3.1130166E0,6.7038817E0,1.3174764E1,9.884798E0,1.4077094E0,1.7053075E0,1.1798345E0,5.524047E0,1.0533969E1,2.640795E0,5.2927637E0,4.592035E0,4.397512E0,6.1364565E0,1.4291015E0,1.2116934E0,1.2107341E0,4.0820293E0,3.1674247E0,1.4246103E0],"tree_param":{"num_deleted":"0","num_feature":"16","num_nodes":"23","size_leaf_vector":"1"}},{"base_weights":[6.687955E-2,5.291865E-1,-2.6241937E-1,8.540189E-1,-4.4564307E-2,-5.195381E-2,-0E0,-0E0,5.2397776E-2,-2.4767846E-2,2.4981804E-1,-3.7772E-1,4.7792125E-1,2.9459724E-2,-5.7614325E-3,1.0564578E-2,-3.1211678E-2,3.2037266E-2,-0E0],"categories":[],"categories_nodes":[],"categories_segments":[],"categories_sizes":[],"default_left":[0,0,0,0,0,0,0,0,0,0,0,0,0,0,0,0,0,0,0],"id":6,"left_children":[1,3,5,7,9,-1,11,-1,-1,-1,13,15,17,-1,-1,-1,-1,-1,-1],"loss_changes":[5.3118677E0,3.2179046E0,4.013973E0,1.6367488E0,1.2531906E0,0E0,3.3512406E0,0E0,0E0,0E0,9.529854E-1,1.967893E0,8.1639254E-1,0E0,0E0,0E0,0E0,0E0,0E0],"parents":[2147483647,0,0,1,1,2,2,3,3,4,4,6,6,10,10,11,11,12,12],"right_children":[2,4,6,8,10,-1,12,-1,-1,-1,14,16,18,-1,-1,-1,-1,-1,-1],"split_conditions":[5.1393535E-2,1.2E1,9.3833745E-2,-1.7430948E-1,3.9793582E2,-5.195381E-2,4.1873E2,-0E0,5.2397776E-2,-2.4767846E-2,4.3160062E2,3.3560715E2,9.7075117E-1,2.9459724E-2,-5.7614325E-3,1.0564578E-2,-3.1211678E-2,3.2037266E-2,-0E0],"split_indices":[3,12,3,1,8,0,7,0,0,0,9,5,1,0,0,0,0,0,0],"split_type":[0,0,0,0,0,0,0,0,0,0,0,0,0,0,0,0,0,0,0],"sum_hessian":[3.0191523E1,1.2685935E1,1.7505589E1,8.032678E0,4.653258E0,2.9618478E0,1.454374E1,1.8793564E0,6.1533213E0,1.9698565E0,2.683401E0,8.314315E0,6.229425E0,1.4639938E0,1.2194072E0,1.9389426E0,6.375373E0,4.566887E0,1.662538E0],"tree_param":{"num_deleted":"0","num_feature":"16","num_nodes":"19","size_leaf_vector":"1"}},{"base_weights":[-1.0702992E-1,7.528853E-2,-5.474589E-1,-1.3758601E-1,5.3905654E-1,-8.051075E-1,6.0927924E-3,2.5381198E-2,-4.0306532E-1,3.775454E-2,-0E0,-0E0,-4.9111288E-2,-4.777836E-3,1.2220145E-2,-4.051971E-2,-7.696436E-3,-8.161176E-3,7.5594187E-3],"categories":[],"categories_nodes":[],"categories_segments":[],"categories_sizes":[],"default_left":[0,0,0,0,0,0,0,0,0,0,0,0,0,0,0,0,0,0,0],"id":7,"left_children":[1,3,5,7,9,11,13,-1,15,-1,17,-1,-1,-1,-1,-1,-1,-1,-1],"loss_changes":[2.8640876E0,2.6568155E0,1.881993E0,3.2476132E0,1.0194263E0,1.2504072E0,2.3373038E-1,0E0,6.505394E-1,0E0,1.5791127E-1,0E0,0E0,0E0,0E0,0E0,0E0,0E0,0E0],"parents":[2147483647,0,0,1,1,2,2,3,3,4,4,5,5,6,6,8,8,10,10],"right_children":[2,4,6,8,10,12,14,-1,16,-1,18,-1,-1,-1,-1,-1,-1,-1,-1],"split_conditions":[7.571429E1,6.440678E1,4.1219614E2,4.3096233E1,4.3675E2,3.29955E2,5.4285717E-1,2.5381198E-2,5.042735E1,3.775454E-2,4.772614E2,-0E0,-4.9111288E-2,-4.777836E-3,1.2220145E-2,-4.051971E-2,-7.696436E-3,-8.161176E-3,7.5594187E-3],"split_indices":[0,0,10,0,5,7,4,0,0,0,10,0,0,0,0,0,0,0,0],"split_type":[0,0,0,0,0,0,0,0,0,0,0,0,0,0,0,0,0,0,0],"sum_hessian":[2.9701382E1,2.1375648E1,8.325733E0,1.4875958E1,6.499691E0,5.677528E0,2.6482055E0,3.2557425E0,1.1620215E1,4.119809E0,2.3798816E0,1.2231581E0,4.4543695E0,1.2254425E0,1.4227631E0,1.93842E0,9.681795E0,1.1925045E0,1.1873772E0],"tree_param":{"num_deleted":"0","num_feature":"16","num_nodes":"19","size_leaf_vector":"1"}},{"base_weights":[-1.4717042E-1,4.206943E-1,-2.715855E-1,-0E0,3.0843077E-2,-5.811465E-1,2.4590459E-2,-0E0,-7.9012275E-1,4.372363E-1,-5.300193E-1,1.5089134E-2,-1.7818367E-2,-4.7941744E-2,-0E0,1.6086608E-3,4.1059826E-2,-3.7038088E-2,-0E0],"categories":[],"categories_nodes":[],"categories_segments":[],"categories_sizes":[],"default_left":[0,0,0,0,0,0,0,0,0,0,0,0,0,0,0,0,0,0,0],"id":8,"left_children":[1,3,5,-1,-1,7,9,11,13,15,17,-1,-1,-1,-1,-1,-1,-1,-1],"loss_changes":[2.376962E0,4.4820857E-1,2.8508792E0,0E0,0E0,1.704597E0,3.9125965E0,8.5471654E-1,1.7932787E0,1.133388E0,1.0637314E0,0E0,0E0,0E0,0E0,0E0,0E0,0E0,0E0],"parents":[2147483647,0,0,1,1,2,2,5,5,6,6,7,7,8,8,9,9,10,10],"right_children":[2,4,6,-1,-1,8,10,12,14,16,18,-1,-1,-1,-1,-1,-1,-1,-1],"split_conditions":[-8.6836584E-2,-1.8104683E-1,4.6409267E-1,-0E0,3.0843077E-2,3.432768E2,7.862595E1,6.04168E-2,1.2221792E-1,2.5278705E-1,4.1219614E2,1.5089134E-2,-1.7818367E-2,-4.7941744E-2,-0E0,1.6086608E-3,4.1059826E-2,-3.7038088E-2,-0E0],"split_indices":[3,3,1,0,0,9,0,3,3,3,10,0,0,0,0,0,0,0,0],"split_type":[0,0,0,0,0,0,0,0,0,0,0,0,0,0,0,0,0,0,0],"sum_hessian":[2.9464659E1,3.7171233E0,2.5747536E1,1.8801283E0,1.836995E0,1.2473831E1,1.32737055E1,3.913322E0,8.560509E0,8.370563E0,4.903143E0,2.1825297E0,1.7307923E0,7.121674E0,1.4388347E0,5.7618446E0,2.608718E0,3.472594E0,1.4305489E0],"tree_param":{"num_deleted":"0","num_feature":"16","num_nodes":"19","size_leaf_vector":"1"}},{"base_weights":[8.03783E-2,-2.038624E-1,4.283814E-1,2.8301988E-2,-4.358667E-1,5.3058827E-1,-6.329348E-3,2.907764E-1,-6.566886E-1,7.466415E-1,-0E0,-0E0,2.2685595E-2,-4.1296836E-2,1.8365339E-4,-0E0,4.9333923E-2,-1.4774876E-2,1.5687706E-2],"categories":[],"categories_nodes":[],"categories_segments":[],"categories_sizes":[],"default_left":[0,0,0,0,0,0,0,0,0,0,0,0,0,0,0,0,0,0,0],"id":9,"left_children":[1,3,5,-1,7,9,-1,11,13,15,17,-1,-1,-1,-1,-1,-1,-1,-1],"loss_changes":[3.2952068E0,3.519201E0,1.1933E0,0E0,2.9598632E0,1.4403017E0,0E0,2.89116E-1,1.8241844E0,1.8651953E0,7.7320606E-1,0E0,0E0,0E0,0E0,0E0,0E0,0E0,0E0],"parents":[2147483647,0,0,1,1,2,2,4,4,5,5,7,7,8,8,9,9,10,10],"right_children":[2,4,6,-1,8,10,-1,12,14,16,18,-1,-1,-1,-1,-1,-1,-1,-1],"split_conditions":[4.0474106E2,3.3141473E2,4.1589096E-1,2.8301988E-2,-3.5282783E-2,4.33365E2,-6.329348E-3,-1.1510594E-1,2.578778E-1,4.7857141E-1,3.0290994E-1,-0E0,2.2685595E-2,-4.1296836E-2,1.8365339E-4,-0E0,4.9333923E-2,-1.4774876E-2,1.5687706E-2],"split_indices":[5,9,3,0,3,7,0,3,3,4,1,0,0,0,0,0,0,0,0],"split_type":[0,0,0,0,0,0,0,0,0,0,0,0,0,0,0,0,0,0,0],"sum_hessian":[2.8412329E1,1.5304002E1,1.3108328E1,2.37799E0,1.2926011E1,1.190469E1,1.2036376E0,2.3372223E0,1.0588789E1,7.605487E0,4.2992034E0,1.1513205E0,1.1859018E0,8.632107E0,1.9566823E0,2.1892104E0,5.416276E0,1.9361387E0,2.3630648E0],"tree_param":{"num_deleted":"0","num_feature":"16","num_nodes":"19","size_leaf_vector":"1"}},{"base_weights":[3.2574208E-3,6.4557636E-1,-1.2602721E-1,-0E0,4.164825E-2,-4.0006903E-1,3.0481964E-1,9.010082E-2,-6.612185E-1,7.275702E-1,-3.374251E-1,1.4931847E-2,-6.9645615E-3,-0E0,-3.7064534E-2,-0E0,4.253429E-2,-3.3760432E-2,-0E0],"categories":[],"categories_nodes":[],"categories_segments":[],"categories_sizes":[],"default_left":[0,0,0,0,0,0,0,0,0,0,0,0,0,0,0,0,0,0,0],"id":10,"left_children":[1,3,5,-1,-1,7,9,11,13,15,17,-1,-1,-1,-1,-1,-1,-1,-1],"loss_changes":[2.9814494E0,8.99946E-1,3.4413185E0,0E0,0E0,2.6935024E0,3.6176226E0,5.125323E-1,7.444358E-1,4.6276712E-1,8.8630843E-1,0E0,0E0,0E0,0E0,0E0,0E0,0E0,0E0],"parents":[2147483647,0,0,1,1,2,2,5,5,6,6,7,7,8,8,9,9,10,10],"right_children":[2,4,6,-1,-1,8,10,12,14,16,18,-1,-1,-1,-1,-1,-1,-1,-1],"split_conditions":[4.3096233E1,3.4375E1,6.133074E-1,-0E0,4.164825E-2,1E1,7.857143E1,4E0,3.31815E2,6.71875E1,2E0,1.4931847E-2,-6.9645615E-3,-0E0,-3.7064534E-2,-0E0,4.253429E-2,-3.3760432E-2,-0E0],"split_indices":[0,0,1,0,0,12,0,13,7,0,13,0,0,0,0,0,0,0,0],"split_type":[0,0,0,0,0,0,0,0,0,0,0,0,0,0,0,0,0,0,0],"sum_hessian":[2.8815197E1,4.1378484E0,2.4677347E1,1.1539099E0,2.9839385E0,1.58801155E1,8.797233E0,5.309569E0,1.0570546E1,5.614415E0,3.1828175E0,3.606717E0,1.7028519E0,1.2142768E0,9.35627E0,1.4050317E0,4.2093835E0,1.2383858E0,1.9444318E0],"tree_param":{"num_deleted":"0","num_feature":"16","num_nodes":"19","size_leaf_vector":"1"}},{"base_weights":[4.91749E-2,2.0078117E-1,-4.6451336E-1,-0E0,6.889693E-1,6.133054E-3,-7.4201745E-1,2.657241E-1,-4.367388E-1,-0E0,4.7217842E-2,-4.9050502E-2,-0E0,-0E0,3.818838E-2,1.0849507E-2,-4.508201E-2],"categories":[],"categories_nodes":[],"categories_segments":[],"categories_sizes":[],"default_left":[0,0,0,0,0,0,0,0,0,0,0,0,0,0,0,0,0],"id":11,"left_children":[1,3,5,7,9,-1,11,13,15,-1,-1,-1,-1,-1,-1,-1,-1],"loss_changes":[2.2695472E0,2.3374522E0,1.5236255E0,2.4465017E0,1.6053593E0,0E0,9.7468376E-1,2.06446E0,3.147456E0,0E0,0E0,0E0,0E0,0E0,0E0,0E0,0E0],"parents":[2147483647,0,0,1,1,2,2,3,3,4,4,6,6,7,7,8,8],"right_children":[2,4,6,8,10,-1,12,14,16,-1,-1,-1,-1,-1,-1,-1,-1],"split_conditions":[5.7530975E-1,1.642703E-1,3.134053E-2,6.04168E-2,2.6418087E-1,6.133054E-3,4.4053313E-1,1.6603887E-2,2.4780655E-1,-0E0,4.7217842E-2,-4.9050502E-2,-0E0,-0E0,3.818838E-2,1.0849507E-2,-4.508201E-2],"split_indices":[2,3,3,3,2,0,3,3,2,0,0,0,0,0,0,0,0],"split_type":[0,0,0,0,0,0,0,0,0,0,0,0,0,0,0,0,0],"sum_hessian":[2.6440277E1,2.2107313E1,4.3329644E0,1.7135666E1,4.971646E0,1.1704941E0,3.16247E0,1.1193309E1,5.942358E0,1.4607726E0,3.510873E0,1.9662967E0,1.1961735E0,8.057323E0,3.1359854E0,2.465902E0,3.476456E0],"tree_param":{"num_deleted":"0","num_feature":"16","num_nodes":"17","size_leaf_vector":"1"}},{"base_weights":[-0E0,3.5873953E-1,-3.1283024E-1,-0E0,7.843824E-1,-6.543943E-1,3.7781417E-1,4.188424E-1,-3.671774E-1,4.5870915E-2,-0E0,4.866428E-3,-8.0801725E-1,3.6846E-2,-1.2165235E-2,-0E0,2.8373351E-2,4.27509E-3,-2.8358558E-2,-5.704735E-2,-9.832531E-3],"categories":[],"categories_nodes":[],"categories_segments":[],"categories_sizes":[],"default_left":[0,0,0,0,0,0,0,0,0,0,0,0,0,0,0,0,0,0,0,0,0],"id":12,"left_children":[1,3,5,7,9,11,13,15,17,-1,-1,-1,19,-1,-1,-1,-1,-1,-1,-1,-1],"loss_changes":[3.9140325E0,2.7083328E0,4.893651E0,1.9559774E0,6.1262226E-1,2.048749E0,2.113306E0,4.6634185E-1,9.784625E-1,0E0,0E0,0E0,1.2867026E0,0E0,0E0,0E0,0E0,0E0,0E0,0E0,0E0],"parents":[2147483647,0,0,1,1,2,2,3,3,4,4,5,5,6,6,7,7,8,8,12,12],"right_children":[2,4,6,8,10,12,14,16,18,-1,-1,-1,20,-1,-1,-1,-1,-1,-1,-1,-1],"split_conditions":[5.1393535E-2,3.0290994E-1,3.0472013E-1,1.1E1,4.3089618E2,4.1785714E-1,5.1188767E-1,3.648649E1,4.3096233E1,4.5870915E-2,-0E0,4.866428E-3,3.8908237E2,3.6846E-2,-1.2165235E-2,-0E0,2.8373351E-2,4.27509E-3,-2.8358558E-2,-5.704735E-2,-9.832531E-3],"split_indices":[3,1,3,12,10,4,3,0,0,0,0,0,10,0,0,0,0,0,0,0,0],"split_type":[0,0,0,0,0,0,0,0,0,0,0,0,0,0,0,0,0,0,0,0,0],"sum_hessian":[3.0740658E1,1.4678371E1,1.6062286E1,8.787766E0,5.890605E0,1.1301814E1,4.760473E0,3.711457E0,5.076309E0,4.4959555E0,1.3946493E0,1.4898244E0,9.81199E0,3.2902832E0,1.4701895E0,1.1517956E0,2.5596614E0,1.140256E0,3.9360533E0,4.7014503E0,5.1105394E0],"tree_param":{"num_deleted":"0","num_feature":"16","num_nodes":"21","size_leaf_vector":"1"}},{"base_weights":[1.4554676E-1,-8.136777E-2,5.765082E-1,4.5362294E-1,-2.9998684E-1,1.7518777E-2,3.9792307E-2,-3.794992E-3,3.5507973E-2,-4.5296032E-2,2.3927136E-1,2.6423791E-2,-1.4512951E-2,2.194207E-2,-1.25870975E-2],"categories":[],"categories_nodes":[],"categories_segments":[],"categories_sizes":[],"default_left":[0,0,0,0,0,0,0,0,0,0,0,0,0,0,0],"id":13,"left_children":[1,3,5,7,9,11,-1,-1,-1,-1,13,-1,-1,-1,-1],"loss_changes":[3.3663242E0,2.6814158E0,9.9707675E-1,1.2805877E0,6.307624E0,1.3660017E0,0E0,0E0,0E0,0E0,1.3059435E0,0E0,0E0,0E0,0E0],"parents":[2147483647,0,0,1,1,2,2,3,3,4,4,5,5,10,10],"right_children":[2,4,6,8,10,12,-1,-1,-1,-1,14,-1,-1,-1,-1],"split_conditions":[6.133074E-1,3.3868036E2,2E0,2E0,4.1867322E2,8.2161885E-1,3.9792307E-2,-3.794992E-3,3.5507973E-2,-4.5296032E-2,1E1,2.6423791E-2,-1.4512951E-2,2.194207E-2,-1.25870975E-2],"split_indices":[1,5,13,14,5,1,0,0,0,0,14,0,0,0,0],"split_type":[0,0,0,0,0,0,0,0,0,0,0,0,0,0,0],"sum_hessian":[2.8932528E1,1.9255896E1,9.676632E0,4.2989073E0,1.4956988E1,3.977974E0,5.698658E0,1.2264981E0,3.0724092E0,6.839337E0,8.117651E0,1.5669737E0,2.4110003E0,6.6468716E0,1.4707799E0],"tree_param":{"num_deleted":"0","num_feature":"16","num_nodes":"15","size_leaf_vector":"1"}},{"base_weights":[-1.7241894E-1,5.758495E-1,-3.342528E-1,-0E0,3.577383E-2,-6.424716E-1,5.157481E-2,6.6386648E-3,-7.525954E-1,-2.6116884E-1,5.5762166E-1,-0E0,-4.363208E-2,1.373601E-2,-2.4887353E-2,3.8676184E-2,-0E0],"categories":[],"categories_nodes":[],"categories_segments":[],"categories_sizes":[],"default_left":[0,0,0,0,0,0,0,0,0,0,0,0,0,0,0,0,0],"id":14,"left_children":[1,3,5,-1,-1,7,9,-1,11,13,15,-1,-1,-1,-1,-1,-1],"loss_changes":[4.106093E0,3.429172E-1,3.6795452E0,0E0,0E0,1.9080687E0,2.5793633E0,0E0,9.676857E-1,1.5396973E0,7.141975E-1,0E0,0E0,0E0,0E0,0E0,0E0],"parents":[2147483647,0,0,1,1,2,2,5,5,6,6,8,8,9,9,10,10],"right_children":[2,4,6,-1,-1,8,10,-1,12,14,16,-1,-1,-1,-1,-1,-1],"split_conditions":[4.3096233E1,-1.7430948E-1,1.0924627E-1,-0E0,3.577383E-2,3.259E2,4.1219614E2,6.6386648E-3,1E1,1E0,9.7075117E-1,-0E0,-4.363208E-2,1.373601E-2,-2.4887353E-2,3.8676184E-2,-0E0],"split_indices":[0,1,3,0,0,7,10,0,12,13,1,0,0,0,0,0,0],"split_type":[0,0,0,0,0,0,0,0,0,0,0,0,0,0,0,0,0],"sum_hessian":[2.9726555E1,3.8267474E0,2.5899807E1,1.3824177E0,2.4443297E0,1.4378826E1,1.1520982E1,1.1725645E0,1.3206262E1,7.1079383E0,4.413043E0,2.625213E0,1.0581049E1,1.4308693E0,5.677069E0,2.5263336E0,1.8867096E0],"tree_param":{"num_deleted":"0","num_feature":"16","num_nodes":"17","size_leaf_vector":"1"}},{"base_weights":[1.0073999E-2,3.323221E-1,-2.3133469E-1,-1.562761E-2,4.9683684E-1,-6.0749024E-1,4.6781886E-1,1.699811E-1,4.4928968E-2,-0E0,-7.452342E-1,4.1324377E-2,-4.78288E-2,1.8827362E-2,-2.059769E-2,-1.7582333E-2,1.53937815E-2,-4.5543205E-2,-2.7422085E-3,-1.8737596E-2,7.7767284E-3],"categories":[],"categories_nodes":[],"categories_segments":[],"categories_sizes":[],"default_left":[0,0,0,0,0,0,0,0,0,0,0,0,0,0,0,0,0,0,0,0,0],"id":15,"left_children":[1,3,5,-1,7,9,11,13,-1,15,17,-1,19,-1,-1,-1,-1,-1,-1,-1,-1],"loss_changes":[2.8335578E0,2.1196458E0,5.796804E0,0E0,1.0359135E0,1.1243095E0,1.8603877E0,1.6183105E0,0E0,7.288257E-1,7.192421E-1,0E0,5.191309E-1,0E0,0E0,0E0,0E0,0E0,0E0,0E0,0E0],"parents":[2147483647,0,0,1,1,2,2,4,4,5,5,6,6,7,7,9,9,10,10,12,12],"right_children":[2,4,6,-1,8,10,12,14,-1,16,18,-1,20,-1,-1,-1,-1,-1,-1,-1,-1],"split_conditions":[5.1393535E-2,1E0,2.754569E-1,-1.562761E-2,4.285846E-1,2.4780655E-1,5.7530975E-1,3.4429213E-1,4.4928968E-2,2.608951E-1,1.642703E-1,4.1324377E-2,6.2720907E-1,1.8827362E-2,-2.059769E-2,-1.7582333E-2,1.53937815E-2,-4.5543205E-2,-2.7422085E-3,-1.8737596E-2,7.7767284E-3],"split_indices":[3,13,3,0,1,2,2,2,0,1,3,0,2,0,0,0,0,0,0,0,0],"split_type":[0,0,0,0,0,0,0,0,0,0,0,0,0,0,0,0,0,0,0,0,0],"sum_hessian":[3.179857E1,1.4183497E1,1.7615074E1,1.8993582E0,1.2284139E1,1.2088588E1,5.526486E0,9.028993E0,3.2551467E0,2.7023451E0,9.386242E0,3.1201978E0,2.4062881E0,7.818711E0,1.2102816E0,1.2398462E0,1.462499E0,6.470901E0,2.9153411E0,1.2192916E0,1.1869966E0],"tree_param":{"num_deleted":"0","num_feature":"16","num_nodes":"21","size_leaf_vector":"1"}},{"base_weights":[1.4561246E-1,-2.749397E-1,3.276533E-1,-5.349148E-1,1.29098E-1,-2.3674406E-1,4.9064383E-1,-0E0,-3.2863293E-2,-6.3602463E-3,2.493727E-2,5.4592434E-3,-5.456456E-1,3.9073437E-2,6.8193454E-1,-0E0,-3.5554573E-2,1.9237012E-2,-2.1779679E-2,3.8559526E-2,5.129228E-3],"categories":[],"categories_nodes":[],"categories_segments":[],"categories_sizes":[],"default_left":[0,0,0,0,0,0,0,0,0,0,0,0,0,0,0,0,0,0,0,0,0],"id":16,"left_children":[1,3,5,7,9,11,13,-1,-1,-1,-1,-1,15,17,19,-1,-1,-1,-1,-1,-1],"loss_changes":[2.7476487E0,1.4213526E0,2.6505208E0,5.668485E-1,7.754643E-1,1.0044763E0,1.3712292E0,0E0,0E0,0E0,0E0,0E0,3.246739E-1,1.794367E0,1.08988285E-1,0E0,0E0,0E0,0E0,0E0,0E0],"parents":[2147483647,0,0,1,1,2,2,3,3,4,4,5,5,6,6,12,12,13,13,14,14],"right_children":[2,4,6,8,10,12,14,-1,-1,-1,-1,-1,16,18,20,-1,-1,-1,-1,-1,-1],"split_conditions":[4E0,1.642703E-1,1.163162E-1,1.6218953E-1,3.353E2,1E1,2E0,-0E0,-3.2863293E-2,-6.3602463E-3,2.493727E-2,5.4592434E-3,3E0,7.962014E-1,4E0,-0E0,-3.5554573E-2,1.9237012E-2,-2.1779679E-2,3.8559526E-2,5.129228E-3],"split_indices":[14,3,2,2,7,12,13,0,0,0,0,0,13,1,13,0,0,0,0,0,0],"split_type":[0,0,0,0,0,0,0,0,0,0,0,0,0,0,0,0,0,0,0,0,0],"sum_hessian":[3.1192268E1,8.284977E0,2.2907291E1,5.400029E0,2.8849473E0,4.242805E0,1.8664488E1,1.1864711E0,4.213558E0,1.6795233E0,1.205424E0,1.8478711E0,2.3949337E0,7.04829E0,1.1616198E1,1.1650908E0,1.229843E0,4.9070807E0,2.1412091E0,8.743809E0,2.8723886E0],"tree_param":{"num_deleted":"0","num_feature":"16","num_nodes":"21","size_leaf_vector":"1"}},{"base_weights":[9.002354E-2,-3.368282E-3,4.614029E-1,2.5009218E-1,-3.1841198E-1,3.577527E-2,-0E0,4.7454876E-1,-7.6826185E-2,-0E0,-6.3077086E-1,-1.0154921E-2,3.522713E-2,-1.5561243E-2,6.508025E-3,1.9263104E-2,-1.2202367E-2,-3.802853E-2,-0E0],"categories":[],"categories_nodes":[],"categories_segments":[],"categories_sizes":[],"default_left":[0,0,0,0,0,0,0,0,0,0,0,0,0,0,0,0,0,0,0],"id":17,"left_children":[1,3,5,7,9,-1,-1,11,13,15,17,-1,-1,-1,-1,-1,-1,-1,-1],"loss_changes":[1.3147167E0,2.2576447E0,1.2043846E0,1.3406334E0,1.3943249E0,0E0,0E0,2.0677152E0,4.9876198E-1,9.93711E-1,5.559709E-1,0E0,0E0,0E0,0E0,0E0,0E0,0E0,0E0],"parents":[2147483647,0,0,1,1,2,2,3,3,4,4,7,7,8,8,9,9,10,10],"right_children":[2,4,6,8,10,-1,-1,12,14,16,18,-1,-1,-1,-1,-1,-1,-1,-1],"split_conditions":[3.0472013E-1,5.1393535E-2,5.0925773E-1,4.3160062E2,6.3928574E-1,3.577527E-2,-0E0,3.607143E-1,8.535714E-1,6.792453E1,4.4029465E2,-1.0154921E-2,3.522713E-2,-1.5561243E-2,6.508025E-3,1.9263104E-2,-1.2202367E-2,-3.802853E-2,-0E0],"split_indices":[3,3,3,9,4,0,0,4,4,0,5,0,0,0,0,0,0,0,0],"split_type":[0,0,0,0,0,0,0,0,0,0,0,0,0,0,0,0,0,0,0],"sum_hessian":[2.921317E1,2.3850855E1,5.3623137E0,1.2566249E1,1.1284606E1,3.414157E0,1.9481568E0,7.82204E0,4.744209E0,6.3949494E0,4.889657E0,1.4904698E0,6.33157E0,2.8852608E0,1.8589481E0,2.2152185E0,4.179731E0,3.699838E0,1.189819E0],"tree_param":{"num_deleted":"0","num_feature":"16","num_nodes":"19","size_leaf_vector":"1"}},{"base_weights":[6.962391E-2,6.3171667E-1,-1.0847532E-1,-0E0,4.2595632E-2,-2.2005942E-1,3.573792E-1,1.3460459E-2,-3.269703E-1,-0E0,2.3473842E-2,-4.467335E-2,-2.372677E-3],"categories":[],"categories_nodes":[],"categories_segments":[],"categories_sizes":[],"default_left":[0,0,0,0,0,0,0,0,0,0,0,0,0],"id":18,"left_children":[1,3,5,-1,-1,7,9,-1,11,-1,-1,-1,-1],"loss_changes":[3.4465306E0,1.5407009E0,1.3440678E0,0E0,0E0,1.3341612E0,1.5643185E-1,0E0,2.525918E0,0E0,0E0,0E0,0E0],"parents":[2147483647,0,0,1,1,2,2,5,5,6,6,8,8],"right_children":[2,4,6,-1,-1,8,10,-1,12,-1,-1,-1,-1],"split_conditions":[-3.5282783E-2,-1.7430948E-1,4.5207E2,-0E0,4.2595632E-2,3.3141473E2,6.71875E1,1.3460459E-2,3.41055E2,-0E0,2.3473842E-2,-4.467335E-2,-2.372677E-3],"split_indices":[3,1,7,0,0,9,0,0,7,0,0,0,0],"split_type":[0,0,0,0,0,0,0,0,0,0,0,0,0],"sum_hessian":[2.8445614E1,6.294187E0,2.2151426E1,1.6106256E0,4.6835613E0,1.9588112E1,2.563315E0,2.129536E0,1.7458576E1,1.2092797E0,1.3540353E0,3.7257848E0,1.3732791E1],"tree_param":{"num_deleted":"0","num_feature":"16","num_nodes":"13","size_leaf_vector":"1"}},{"base_weights":[-9.879705E-2,-3.4248364E-1,3.4666055E-1,-5.568471E-1,1.265173E-1,-1.89701E-1,4.012228E-2,-0E0,-8.8046014E-1,4.1799757E-1,-1.0633946E-1,2.0923197E-2,-3.102999E-2,1.9536829E-2,-2.0154374E-2,9.639186E-3,-5.560117E-2,2.8651372E-2,-0E0,-8.585115E-3,-0E0],"categories":[],"categories_nodes":[],"categories_segments":[],"categories_sizes":[],"default_left":[0,0,0,0,0,0,0,0,0,0,0,0,0,0,0,0,0,0,0,0,0],"id":19,"left_children":[1,3,5,7,9,11,-1,13,15,17,19,-1,-1,-1,-1,-1,-1,-1,-1,-1,-1],"loss_changes":[3.5487814E0,2.5137787E0,3.3150616E0,3.2642941E0,7.6262826E-1,2.2440078E0,0E0,1.4571263E0,3.5086546E0,3.5332817E-1,5.3052377E-2,0E0,0E0,0E0,0E0,0E0,0E0,0E0,0E0,0E0,0E0],"parents":[2147483647,0,0,1,1,2,2,3,3,4,4,5,5,7,7,8,8,9,9,10,10],"right_children":[2,4,6,8,10,12,-1,14,16,18,20,-1,-1,-1,-1,-1,-1,-1,-1,-1,-1],"split_conditions":[6.133074E-1,4.191143E2,2E0,3.399118E2,4.3351666E2,8.2161885E-1,4.012228E-2,7.5025015E-2,1E0,2.8644654E-1,1.02742136E-1,2.0923197E-2,-3.102999E-2,1.9536829E-2,-2.0154374E-2,9.639186E-3,-5.560117E-2,2.8651372E-2,-0E0,-8.585115E-3,-0E0],"split_indices":[1,5,13,9,8,1,0,3,13,2,3,0,0,0,0,0,0,0,0,0,0],"split_type":[0,0,0,0,0,0,0,0,0,0,0,0,0,0,0,0,0,0,0,0,0],"sum_hessian":[2.8523783E1,1.946194E1,9.061841E0,1.3831532E1,5.6304092E0,4.195368E0,4.866473E0,5.288177E0,8.543355E0,2.7478456E0,2.8825638E0,1.2825475E0,2.9128203E0,3.3049655E0,1.9832113E0,1.1924263E0,7.350929E0,1.6023862E0,1.1454594E0,1.6722739E0,1.2102898E0],"tree_param":{"num_deleted":"0","num_feature":"16","num_nodes":"21","size_leaf_vector":"1"}},{"base_weights":[-9.375177E-2,2.975572E-2,-2.0700407E-1,-3.7713626E-1,3.9982274E-1,-6.302181E-1,-0E0,3.724298E-2,-4.9177385E-3,1.1819198E-2,-4.090678E-2,1.3005085E-2,-3.536769E-2],"categories":[],"categories_nodes":[],"categories_segments":[],"categories_sizes":[],"default_left":[0,0,0,0,0,0,0,0,0,0,0,0,0],"id":20,"left_children":[1,-1,3,5,7,9,11,-1,-1,-1,-1,-1,-1],"loss_changes":[2.2880507E0,0E0,3.048659E0,1.9490552E0,1.5316803E0,2.7913332E0,2.638667E0,0E0,0E0,0E0,0E0,0E0,0E0],"parents":[2147483647,0,0,2,2,3,3,4,4,5,5,6,6],"right_children":[2,-1,4,6,8,10,12,-1,-1,-1,-1,-1,-1],"split_conditions":[4.087591E1,2.975572E-2,3.0472013E-1,4.167375E2,6.427513E-1,3.287625E2,4E0,3.724298E-2,-4.9177385E-3,1.1819198E-2,-4.090678E-2,1.3005085E-2,-3.536769E-2],"split_indices":[0,0,3,7,3,7,13,0,0,0,0,0,0],"split_type":[0,0,0,0,0,0,0,0,0,0,0,0,0],"sum_hessian":[2.6657362E1,1.9389699E0,2.4718391E1,2.0540548E1,4.177843E0,1.0979264E1,9.561285E0,2.4761717E0,1.7016716E0,1.3904557E0,9.588808E0,7.583422E0,1.9778622E0],"tree_param":{"num_deleted":"0","num_feature":"16","num_nodes":"13","size_leaf_vector":"1"}},{"base_weights":[3.9873543E-4,-2.04533E-1,3.0789405E-1,4.552659E-1,-4.5945758E-1,-0E0,3.881923E-2,-0E0,2.8792394E-2,1.6202517E-3,-5.590853E-1,2.779165E-1,-3.1575464E-2,-3.1227404E-2,-0E0,-4.791815E-3,2.9242087E-2],"categories":[],"categories_nodes":[],"categories_segments":[],"categories_sizes":[],"default_left":[0,0,0,0,0,0,0,0,0,0,0,0,0,0,0,0,0],"id":21,"left_children":[1,3,5,7,9,11,-1,-1,-1,-1,13,15,-1,-1,-1,-1,-1],"loss_changes":[2.1293333E0,3.5845027E0,2.387193E0,3.147862E-1,1.040055E0,2.2582994E0,0E0,0E0,0E0,0E0,2.8677797E-1,1.2543571E0,0E0,0E0,0E0,0E0,0E0],"parents":[2147483647,0,0,1,1,2,2,3,3,4,4,5,5,10,10,11,11],"right_children":[2,4,6,8,10,12,-1,-1,-1,-1,14,16,-1,-1,-1,-1,-1],"split_conditions":[4.1489734E2,5.4411766E1,4.31094E-1,1E0,3.315E2,3.6923802E-1,3.881923E-2,-0E0,2.8792394E-2,1.6202517E-3,3.9740918E2,5.702479E1,-3.1575464E-2,-3.1227404E-2,-0E0,-4.791815E-3,2.9242087E-2],"split_indices":[10,0,2,6,5,2,0,0,0,0,8,0,0,0,0,0,0],"split_type":[0,0,0,0,0,0,0,0,0,0,0,0,0,0,0,0,0],"sum_hessian":[2.897178E1,1.681139E1,1.2160389E1,3.7005215E0,1.3110869E1,7.973018E0,4.1873713E0,1.1881185E0,2.512403E0,1.5903074E0,1.1520562E1,5.826029E0,2.1469896E0,9.569972E0,1.9505901E0,2.51269E0,3.3133385E0],"tree_param":{"num_deleted":"0","num_feature":"16","num_nodes":"17","size_leaf_vector":"1"}},{"base_weights":[-0E0,1.8849571E-1,-6.3235563E-1,2.9708004E-1,-1.146845E-1,-0E0,-4.165317E-2,4.3472615E-1,-1.1693128E-1,1.10801205E-1,-1.9834397E-2,3.733355E-2,-5.612494E-3,-4.24121E-2,2.118729E-2,7.3667103E-3,-0E0],"categories":[],"categories_nodes":[],"categories_segments":[],"categories_sizes":[],"default_left":[0,0,0,0,0,0,0,0,0,0,0,0,0,0,0,0,0],"id":22,"left_children":[1,3,5,7,9,-1,-1,11,13,15,-1,-1,-1,-1,-1,-1,-1],"loss_changes":[3.8567576E0,9.7327656E-1,1.3297217E0,1.398918E0,6.5997744E-1,0E0,0E0,3.2697594E0,3.1667018E0,1.5287701E-2,0E0,0E0,0E0,0E0,0E0,0E0,0E0],"parents":[2147483647,0,0,1,1,2,2,3,3,4,4,7,7,8,8,9,9],"right_children":[2,4,6,8,10,-1,-1,12,14,16,-1,-1,-1,-1,-1,-1,-1],"split_conditions":[1.3E1,4E0,3.2142857E-1,4.32125E2,1E1,-0E0,-4.165317E-2,7.9285717E-1,9.25E-1,2.2886111E-1,-1.9834397E-2,3.733355E-2,-5.612494E-3,-4.24121E-2,2.118729E-2,7.3667103E-3,-0E0],"split_indices":[12,13,4,7,12,0,0,4,4,1,0,0,0,0,0,0,0],"split_type":[0,0,0,0,0,0,0,0,0,0,0,0,0,0,0,0,0],"sum_hessian":[2.817233E1,2.2724253E1,5.4480767E0,1.7975672E1,4.7485824E0,1.2405206E0,4.2075562E0,1.4321754E1,3.653917E0,2.32817E0,2.4204125E0,9.237482E0,5.0842724E0,1.4626393E0,2.1912775E0,1.1521206E0,1.1760495E0],"tree_param":{"num_deleted":"0","num_feature":"16","num_nodes":"17","size_leaf_vector":"1"}},{"base_weights":[-0E0,2.4655356E-1,-4.4203475E-1,4.8766505E-2,3.241767E-2,-0E0,-7.027693E-1,3.8994095E-1,-3.0297828E-1,-2.0600704E-2,2.8063703E-2,-4.9334656E-2,6.54421E-4,3.8320042E-2,-0E0,1.8067273E-3,-2.1792762E-2],"categories":[],"categories_nodes":[],"categories_segments":[],"categories_sizes":[],"default_left":[0,0,0,0,0,0,0,0,0,0,0,0,0,0,0,0,0],"id":23,"left_children":[1,3,5,7,-1,9,11,13,15,-1,-1,-1,-1,-1,-1,-1,-1],"loss_changes":[3.1675973E0,1.1039587E0,1.3845875E0,2.1732268E0,0E0,1.7556057E0,1.9088571E0,1.6972787E0,5.996173E-1,0E0,0E0,0E0,0E0,0E0,0E0,0E0,0E0],"parents":[2147483647,0,0,1,1,2,2,3,3,5,5,6,6,7,7,8,8],"right_children":[2,4,6,8,-1,10,12,14,16,-1,-1,-1,-1,-1,-1,-1,-1],"split_conditions":[1.2E1,4.35954E2,2.4780655E-1,7.3214287E-1,3.241767E-2,2.2411433E-1,8E0,3.4534076E2,4.3096233E1,-2.0600704E-2,2.8063703E-2,-4.9334656E-2,6.54421E-4,3.8320042E-2,-0E0,1.8067273E-3,-2.1792762E-2],"split_indices":[12,9,2,4,0,1,14,10,0,0,0,0,0,0,0,0,0],"split_type":[0,0,0,0,0,0,0,0,0,0,0,0,0,0,0,0,0],"sum_hessian":[2.53506E1,1.7073097E1,8.277503E0,1.37779875E1,3.2951095E0,3.4079688E0,4.869534E0,7.605421E0,6.172566E0,1.979517E0,1.4284518E0,3.444975E0,1.424559E0,3.376202E0,4.229219E0,1.0883216E0,5.0842443E0],"tree_param":{"num_deleted":"0","num_feature":"16","num_nodes":"17","size_leaf_vector":"1"}},{"base_weights":[6.803755E-2,3.839115E-2,-4.3977536E-2,-4.8197645E-1,1.755884E-1,-0E0,-5.556376E-1,-1.9769011E-1,4.2450097E-1,-3.8012195E-2,-3.113163E-3,8.935537E-3,-2.2022339E-2,-0E0,3.0158347E-2],"categories":[],"categories_nodes":[],"categories_segments":[],"categories_sizes":[],"default_left":[0,0,0,0,0,0,0,0,0,0,0,0,0,0,0],"id":24,"left_children":[1,-1,3,5,7,-1,9,11,13,-1,-1,-1,-1,-1,-1],"loss_changes":[2.8416173E0,0E0,2.996187E0,2.9509592E-1,2.0674586E0,0E0,3.9401698E-1,1.0422931E0,1.1813319E0,0E0,0E0,0E0,0E0,0E0,0E0],"parents":[2147483647,0,0,2,2,3,3,4,4,6,6,7,7,8,8],"right_children":[2,-1,4,6,8,-1,10,12,14,-1,-1,-1,-1,-1,-1],"split_conditions":[4.3096233E1,3.839115E-2,2E0,-2.1187343E-2,3.5305942E2,-0E0,1.3846698E-1,3.3442557E2,1.6603887E-2,-3.8012195E-2,-3.113163E-3,8.935537E-3,-2.2022339E-2,-0E0,3.0158347E-2],"split_indices":[0,0,13,3,9,0,3,9,3,0,0,0,0,0,0],"split_type":[0,0,0,0,0,0,0,0,0,0,0,0,0,0,0],"sum_hessian":[2.8772644E1,2.970378E0,2.5802265E1,8.577827E0,1.7224438E1,1.6628838E0,6.9149437E0,6.2518163E0,1.0972622E1,3.4068522E0,3.5080914E0,1.8505175E0,4.401299E0,3.2999668E0,7.6726556E0],"tree_param":{"num_deleted":"0","num_feature":"16","num_nodes":"15","size_leaf_vector":"1"}},{"base_weights":[1.24095336E-1,4.044976E-1,-9.2369534E-2,-1.9014338E-2,6.374716E-1,-6.004151E-1,3.126924E-1,2.0244723E-2,-2.6229594E-2,3.8329538E-2,1.392169E-1,-4.4462198E-4,-6.652581E-1,4.878468E-1,-3.941665E-2,1.6686454E-2,-0E0,-3.4866498E-3,-3.9524138E-2,-0E0,2.7894659E-2,-2.7066264E-2,1.9008914E-2],"categories":[],"categories_nodes":[],"categories_segments":[],"categories_sizes":[],"default_left":[0,0,0,0,0,0,0,0,0,0,0,0,0,0,0,0,0,0,0,0,0,0,0],"id":25,"left_children":[1,3,5,7,9,11,13,-1,-1,-1,15,-1,17,19,21,-1,-1,-1,-1,-1,-1,-1,-1],"loss_changes":[2.1377325E0,1.8199275E0,4.295994E0,1.8834809E0,1.16381645E-2,1.0625839E-2,9.3974864E-1,0E0,0E0,0E0,2.8153014E-1,0E0,3.0786753E-2,2.4580717E-1,1.4502192E0,0E0,0E0,0E0,0E0,0E0,0E0,0E0,0E0],"parents":[2147483647,0,0,1,1,2,2,3,3,4,4,5,5,6,6,10,10,12,12,13,13,14,14],"right_children":[2,4,6,8,10,12,14,-1,-1,-1,16,-1,18,20,22,-1,-1,-1,-1,-1,-1,-1,-1],"split_conditions":[5.1393535E-2,1.2055683E-1,1.642703E-1,1.1E1,1.2E1,7.7726E-2,8.000121E-1,2.0244723E-2,-2.6229594E-2,3.8329538E-2,2.6893798E-1,-4.4462198E-4,1E0,2.1093895E-1,1.3182784E0,1.6686454E-2,-0E0,-3.4866498E-3,-3.9524138E-2,-0E0,2.7894659E-2,-2.7066264E-2,1.9008914E-2],"split_indices":[3,1,3,12,12,3,2,0,0,0,1,0,6,2,2,0,0,0,0,0,0,0,0],"split_type":[0,0,0,0,0,0,0,0,0,0,0,0,0,0,0,0,0,0,0,0,0,0,0],"sum_hessian":[2.9417274E1,1.3065346E1,1.6351929E1,4.5268373E0,8.538508E0,7.3735433E0,8.978386E0,2.1410034E0,2.385834E0,5.128808E0,3.4097004E0,1.7148877E0,5.6586556E0,6.4292254E0,2.5491602E0,1.4691544E0,1.940546E0,2.2178555E0,3.4408002E0,1.1940321E0,5.2351933E0,1.4391197E0,1.1100404E0],"tree_param":{"num_deleted":"0","num_feature":"16","num_nodes":"23","size_leaf_vector":"1"}},{"base_weights":[1.1871725E-1,-7.211726E-2,4.1478202E-1,7.100982E-2,-3.7202593E-2,-0E0,6.773947E-1,5.221812E-1,-7.358491E-2,-2.4199153E-1,1.2600905E-2,3.9451685E-2,-0E0,3.298189E-2,-0E0,1.394011E-2,-2.1318253E-2,-0E0,-1.9367602E-2],"categories":[],"categories_nodes":[],"categories_segments":[],"categories_sizes":[],"default_left":[0,0,0,0,0,0,0,0,0,0,0,0,0,0,0,0,0,0,0],"id":26,"left_children":[1,3,5,7,-1,9,11,13,15,17,-1,-1,-1,-1,-1,-1,-1,-1,-1],"loss_changes":[2.0782907E0,2.4191225E0,1.6707709E0,1.4857721E0,0E0,5.588487E-1,7.5286484E-1,3.033595E-1,2.1346428E0,2.2080693E-1,0E0,0E0,0E0,0E0,0E0,0E0,0E0,0E0,0E0],"parents":[2147483647,0,0,1,1,2,2,3,3,5,5,6,6,7,7,8,8,9,9],"right_children":[2,4,6,8,-1,10,12,14,16,18,-1,-1,-1,-1,-1,-1,-1,-1,-1],"split_conditions":[5.3812724E-1,1.0642858E0,3.982725E2,-3.5282783E-2,-3.7202593E-2,3.0472013E-1,4.612565E-1,7.3214287E-1,2.275054E-1,6.3928574E-1,1.2600905E-2,3.9451685E-2,-0E0,3.298189E-2,-0E0,1.394011E-2,-2.1318253E-2,-0E0,-1.9367602E-2],"split_indices":[1,4,7,3,0,3,3,4,2,4,0,0,0,0,0,0,0,0,0],"split_type":[0,0,0,0,0,0,0,0,0,0,0,0,0,0,0,0,0,0,0],"sum_hessian":[3.069297E1,1.8556202E1,1.2136767E1,1.6158781E1,2.397421E0,5.195289E0,6.9414783E0,3.4934876E0,1.2665294E1,3.0821128E0,2.113176E0,5.7995267E0,1.1419514E0,2.1397274E0,1.3537601E0,5.8369417E0,6.828352E0,1.626971E0,1.4551418E0],"tree_param":{"num_deleted":"0","num_feature":"16","num_nodes":"19","size_leaf_vector":"1"}},{"base_weights":[-9.001777E-2,2.2524092E-1,-2.3161453E-1,3.5182807E-1,-2.2751165E-3,-5.533535E-1,-0E0,-0E0,4.552026E-1,-4.6938777E-2,-0E0,2.3091453E-1,-3.0582119E-2,2.656742E-2,-0E0,-1.4205286E-2,1.4940835E-2,3.664509E-2,-5.875408E-3],"categories":[],"categories_nodes":[],"categories_segments":[],"categories_sizes":[],"default_left":[0,0,0,0,0,0,0,0,0,0,0,0,0,0,0,0,0,0,0],"id":27,"left_children":[1,3,5,7,-1,9,11,-1,13,-1,15,17,-1,-1,-1,-1,-1,-1,-1],"loss_changes":[1.4298087E0,4.9707106E-1,1.6774137E0,4.0959823E-1,0E0,2.3506796E0,2.4153461E0,0E0,1.153661E-1,0E0,6.405527E-1,2.650446E0,0E0,0E0,0E0,0E0,0E0,0E0,0E0],"parents":[2147483647,0,0,1,1,2,2,3,3,5,5,6,6,8,8,10,10,11,11],"right_children":[2,4,6,8,-1,10,12,-1,14,-1,16,18,-1,-1,-1,-1,-1,-1,-1],"split_conditions":[5.4929577E1,4.34365E2,6.440678E1,-1.5715636E-1,-2.2751165E-3,2.9347628E-1,1.3E1,-0E0,3.3316934E-1,-4.6938777E-2,4.0474106E2,3.5306826E-1,-3.0582119E-2,2.656742E-2,-0E0,-1.4205286E-2,1.4940835E-2,3.664509E-2,-5.875408E-3],"split_indices":[0,7,0,2,0,2,12,0,2,0,5,2,0,0,0,0,0,0,0],"split_type":[0,0,0,0,0,0,0,0,0,0,0,0,0,0,0,0,0,0,0],"sum_hessian":[2.7621313E1,7.100276E0,2.0521036E1,5.6884203E0,1.411856E0,7.423776E0,1.309726E1,1.1187679E0,4.569652E0,3.9414997E0,3.4822762E0,1.0409713E1,2.6875477E0,3.230241E0,1.339411E0,1.2127327E0,2.2695436E0,3.9487097E0,6.4610033E0],"tree_param":{"num_deleted":"0","num_feature":"16","num_nodes":"19","size_leaf_vector":"1"}},{"base_weights":[1.2538478E-1,2.331778E-1,-3.6026734E-1,3.3899516E-1,-1.6621791E-1,-2.5767434E-2,-0E0,-9.148861E-3,4.187601E-1,-2.512922E-2,6.1875544E-2,2.779205E-2,-4.1402836E-4,6.490305E-3,-0E0],"categories":[],"categories_nodes":[],"categories_segments":[],"categories_sizes":[],"default_left":[0,0,0,0,0,0,0,0,0,0,0,0,0,0,0],"id":28,"left_children":[1,3,5,7,9,-1,-1,-1,11,-1,13,-1,-1,-1,-1],"loss_changes":[1.6153618E0,1.2842177E0,1.8332988E-1,1.1848469E0,7.221818E-1,0E0,0E0,0E0,1.4816129E0,0E0,3.683217E-2,0E0,0E0,0E0,0E0],"parents":[2147483647,0,0,1,1,2,2,3,3,4,4,8,8,10,10],"right_children":[2,4,6,8,10,-1,-1,-1,12,-1,14,-1,-1,-1,-1],"split_conditions":[1.4E1,1.1428572E0,3.486275E2,3.607143E-1,1.2964286E0,-2.5767434E-2,-0E0,-9.148861E-3,4.323975E2,-2.512922E-2,6E1,2.779205E-2,-4.1402836E-4,6.490305E-3,-0E0],"split_indices":[12,4,7,4,4,0,0,0,7,0,0,0,0,0,0],"split_type":[0,0,0,0,0,0,0,0,0,0,0,0,0,0,0],"sum_hessian":[2.6861446E1,2.3675764E1,3.1856816E0,1.9945642E1,3.7301211E0,1.2245611E0,1.9611206E0,1.4699738E0,1.847567E1,1.4205335E0,2.3095875E0,1.4415796E1,4.059873E0,1.1651615E0,1.144426E0],"tree_param":{"num_deleted":"0","num_feature":"16","num_nodes":"15","size_leaf_vector":"1"}},{"base_weights":[3.413908E-2,-2.057111E-2,2.876207E-2,4.4315528E-2,-4.25214E-1,1.8238495E-1,-1.7161497E-1,-3.6565155E-2,2.9586753E-4,1.6948907E-2,-1.4295352E-2,-2.1631174E-2,8.176951E-3],"categories":[],"categories_nodes":[],"categories_segments":[],"categories_sizes":[],"default_left":[0,0,0,0,0,0,0,0,0,0,0,0,0],"id":29,"left_children":[1,3,-1,5,7,9,11,-1,-1,-1,-1,-1,-1],"loss_changes":[1.2616619E0,1.0305842E0,0E0,8.7548983E-1,1.0941515E0,1.6065733E0,1.166744E0,0E0,0E0,0E0,0E0,0E0,0E0],"parents":[2147483647,0,0,1,1,3,3,4,4,5,5,6,6],"right_children":[2,4,-1,6,8,10,12,-1,-1,-1,-1,-1,-1],"split_conditions":[1.3182784E0,1.1428572E0,2.876207E-2,1.2E1,1.3785714E0,4.32125E2,4.298625E2,-3.6565155E-2,2.9586753E-4,1.6948907E-2,-1.4295352E-2,-2.1631174E-2,8.176951E-3],"split_indices":[2,4,0,12,4,7,7,0,0,0,0,0,0],"split_type":[0,0,0,0,0,0,0,0,0,0,0,0,0],"sum_hessian":[3.0450552E1,2.8562553E1,1.8879986E0,2.50853E1,3.4772542E0,1.6903316E1,8.181984E0,1.8974102E0,1.579844E0,1.3881455E1,3.021861E0,5.1115017E0,3.0704825E0],"tree_param":{"num_deleted":"0","num_feature":"16","num_nodes":"13","size_leaf_vector":"1"}},{"base_weights":[-0E0,2.8936282E-1,-2.7078366E-1,2.7524129E-2,6.4219195E-1,-5.163432E-1,2.0954035E-1,3.3822545E-1,-4.208236E-1,-0E0,4.005533E-2,-0E0,-6.9878775E-1,-9.724348E-3,2.4544848E-2,2.7478904E-2,-3.319284E-3,-0E0,-2.8623307E-2,-1.1179778E-2,1.1609362E-2,-3.948909E-2,-0E0],"categories":[],"categories_nodes":[],"categories_segments":[],"categories_sizes":[],"default_left":[0,0,0,0,0,0,0,0,0,0,0,0,0,0,0,0,0,0,0,0,0,0,0],"id":30,"left_children":[1,3,5,7,9,11,13,15,17,-1,-1,19,21,-1,-1,-1,-1,-1,-1,-1,-1,-1,-1],"loss_changes":[2.6384559E0,1.1040225E0,2.4646811E0,1.9237595E0,5.895822E-1,1.0117209E0,1.105583E0,1.0750332E0,3.0518472E-1,0E0,0E0,4.0431726E-1,3.3758926E-1,0E0,0E0,0E0,0E0,0E0,0E0,0E0,0E0,0E0,0E0],"parents":[2147483647,0,0,1,1,2,2,3,3,4,4,5,5,6,6,7,7,8,8,11,11,12,12],"right_children":[2,4,6,8,10,12,14,16,18,-1,-1,20,22,-1,-1,-1,-1,-1,-1,-1,-1,-1,-1],"split_conditions":[5.1393535E-2,2.9657017E-2,4.279644E2,-2.4924602E-2,1.9889216E-1,3.425105E-1,1.1453762E-1,4.34365E2,3.9206E2,-0E0,4.005533E-2,2.6771066E-1,4.4053313E-1,-9.724348E-3,2.4544848E-2,2.7478904E-2,-3.319284E-3,-0E0,-2.8623307E-2,-1.1179778E-2,1.1609362E-2,-3.948909E-2,-0E0],"split_indices":[3,3,10,3,2,2,3,7,7,0,0,2,3,0,0,0,0,0,0,0,0,0,0],"split_type":[0,0,0,0,0,0,0,0,0,0,0,0,0,0,0,0,0,0,0,0,0,0,0],"sum_hessian":[2.9718716E1,1.3957602E1,1.5761114E1,1.00629225E1,3.8946786E0,1.1018851E1,4.742263E0,6.892747E0,3.1701756E0,1.1880062E0,2.7066727E0,3.8387556E0,7.180096E0,1.4707179E0,3.271545E0,4.868709E0,2.0240376E0,1.4450643E0,1.7251114E0,2.6673896E0,1.171366E0,5.7278223E0,1.4522738E0],"tree_param":{"num_deleted":"0","num_feature":"16","num_nodes":"23","size_leaf_vector":"1"}},{"base_weights":[4.429043E-2,5.5342406E-1,-4.5592606E-2,-0E0,3.8036793E-2,-4.967902E-1,9.599175E-2,-3.5033576E-2,-0E0,-2.1749137E-1,3.8651487E-1,-2.4188196E-2,4.1068494E-3,2.6075734E-2,-4.1914945E-3],"categories":[],"categories_nodes":[],"categories_segments":[],"categories_sizes":[],"default_left":[0,0,0,0,0,0,0,0,0,0,0,0,0,0,0],"id":31,"left_children":[1,3,5,-1,-1,7,9,-1,-1,11,13,-1,-1,-1,-1],"loss_changes":[1.6849734E0,8.558992E-1,1.9985582E0,0E0,0E0,1.0229204E0,2.1762254E0,0E0,0E0,1.1268708E0,1.1006175E0,0E0,0E0,0E0,0E0],"parents":[2147483647,0,0,1,1,2,2,5,5,6,6,9,9,10,10],"right_children":[2,4,6,-1,-1,8,10,-1,-1,12,14,-1,-1,-1,-1],"split_conditions":[4.8368234E-2,-1.5715636E-1,4E0,-0E0,3.8036793E-2,3.41055E2,4.5387298E-1,-3.5033576E-2,-0E0,1.2E1,5.1188767E-1,-2.4188196E-2,4.1068494E-3,2.6075734E-2,-4.1914945E-3],"split_indices":[2,2,14,0,0,7,1,0,0,12,3,0,0,0,0],"split_type":[0,0,0,0,0,0,0,0,0,0,0,0,0,0,0],"sum_hessian":[2.8168684E1,3.5137665E0,2.4654917E1,1.1167357E0,2.3970308E0,5.5338035E0,1.9121113E1,3.8709075E0,1.662896E0,8.611151E0,1.0509962E1,4.7921357E0,3.8190153E0,8.823018E0,1.6869447E0],"tree_param":{"num_deleted":"0","num_feature":"16","num_nodes":"15","size_leaf_vector":"1"}},{"base_weights":[2.7715204E-2,5.404791E-1,-3.7578103E-1,-1.817355E-2,8.3926576E-1,-6.8962055E-1,1.9135682E-1,1.8000522E-1,-2.3645582E-2,-5.3508364E-4,5.4759588E-2,-0E0,-9.1787183E-1,3.6968026E-2,-2.3097496E-2,1.5238418E-2,-0E0,-1.6763961E-2,1.2392287E-2,-0E0,-5.084117E-2],"categories":[],"categories_nodes":[],"categories_segments":[],"categories_sizes":[],"default_left":[0,0,0,0,0,0,0,0,0,0,0,0,0,0,0,0,0,0,0,0,0],"id":32,"left_children":[1,3,5,7,9,11,13,15,-1,-1,-1,17,19,-1,-1,-1,-1,-1,-1,-1,-1],"loss_changes":[6.2722235E0,2.723855E0,3.4103775E0,8.7005246E-1,2.6400557E0,1.3587518E0,3.2551866E0,1.987182E-1,0E0,0E0,0E0,6.565869E-1,3.1902504E-1,0E0,0E0,0E0,0E0,0E0,0E0,0E0,0E0],"parents":[2147483647,0,0,1,1,2,2,3,3,4,4,5,5,6,6,7,7,11,11,12,12],"right_children":[2,4,6,8,10,12,14,16,-1,-1,-1,18,20,-1,-1,-1,-1,-1,-1,-1,-1],"split_conditions":[5.1393535E-2,-6.87583E-2,2.754569E-1,1.1214286E0,3.7142858E-1,3.6597043E-1,7.777778E1,-1.181626E-1,-2.3645582E-2,-5.3508364E-4,5.4759588E-2,6.440678E1,4.3214285E-1,3.6968026E-2,-2.3097496E-2,1.5238418E-2,-0E0,-1.6763961E-2,1.2392287E-2,-0E0,-5.084117E-2],"split_indices":[3,3,3,4,4,1,0,3,0,0,0,0,4,0,0,0,0,0,0,0,0],"split_type":[0,0,0,0,0,0,0,0,0,0,0,0,0,0,0,0,0,0,0,0,0],"sum_hessian":[2.5954168E1,1.1676207E1,1.4277962E1,4.140142E0,7.5360646E0,9.481069E0,4.796892E0,2.9592528E0,1.1808894E0,1.7353601E0,5.8007045E0,3.3873363E0,6.093733E0,2.881632E0,1.9152602E0,1.8694319E0,1.0898209E0,1.9776919E0,1.4096444E0,1.1900704E0,4.9036627E0],"tree_param":{"num_deleted":"0","num_feature":"16","num_nodes":"21","size_leaf_vector":"1"}},{"base_weights":[7.140133E-2,3.436268E-1,-1.2934561E-1,-1.7529821E-2,5.324167E-1,-6.205893E-1,1.2475079E-1,1.6253562E-1,-1.6564058E-2,6.7092305E-1,-2.1140957E-3,-0E0,-8.0869573E-1,4.696111E-1,-3.3311647E-1,-0E0,1.7347222E-2,3.9703596E-2,-0E0,-4.6491444E-2,-0E0,-0E0,3.0145472E-2,-3.2997068E-2,1.2617133E-3],"categories":[],"categories_nodes":[],"categories_segments":[],"categories_sizes":[],"default_left":[0,0,0,0,0,0,0,0,0,0,0,0,0,0,0,0,0,0,0,0,0,0,0,0,0],"id":33,"left_children":[1,3,5,7,9,11,13,15,-1,17,-1,-1,19,21,23,-1,-1,-1,-1,-1,-1,-1,-1,-1,-1],"loss_changes":[1.8539335E0,1.2634274E0,2.6317365E0,5.3092647E-1,1.205452E0,1.1175709E0,2.396522E0,2.5805804E-1,0E0,9.6595573E-1,0E0,0E0,1.9831705E-1,7.9818094E-1,1.0569533E0,0E0,0E0,0E0,0E0,0E0,0E0,0E0,0E0,0E0,0E0],"parents":[2147483647,0,0,1,1,2,2,3,3,4,4,5,5,6,6,7,7,9,9,12,12,13,13,14,14],"right_children":[2,4,6,8,10,12,14,16,-1,18,-1,-1,20,22,24,-1,-1,-1,-1,-1,-1,-1,-1,-1,-1],"split_conditions":[5.1393535E-2,1.163162E-1,1.1632609E-1,1.1E1,1.5E1,4.1785714E-1,5.7530975E-1,3.6893204E1,-1.6564058E-2,9.9642855E-1,-2.1140957E-3,-0E0,1.053256E-1,4.4285715E-1,4.4053313E-1,-0E0,1.7347222E-2,3.9703596E-2,-0E0,-4.6491444E-2,-0E0,-0E0,3.0145472E-2,-3.2997068E-2,1.2617133E-3],"split_indices":[3,2,3,12,12,4,2,0,0,4,0,0,3,4,3,0,0,0,0,0,0,0,0,0,0],"split_type":[0,0,0,0,0,0,0,0,0,0,0,0,0,0,0,0,0,0,0,0,0,0,0,0,0],"sum_hessian":[2.8337551E1,1.2480467E1,1.5857083E1,3.998036E0,8.482431E0,5.093302E0,1.0763782E1,2.1401067E0,1.8579293E0,7.2663436E0,1.2160873E0,1.2072345E0,3.8860674E0,6.733163E0,4.0306187E0,1.0876074E0,1.0524993E0,6.1469913E0,1.1193526E0,2.6817307E0,1.2043366E0,1.2389492E0,5.4942136E0,1.9574455E0,2.073173E0],"tree_param":{"num_deleted":"0","num_feature":"16","num_nodes":"25","size_leaf_vector":"1"}},{"base_weights":[8.226125E-2,2.675767E-2,-0E0,-2.7831078E-2,8.806552E-2,2.7135506E-2,-0E0,-2.7556846E-2,5.029261E-3],"categories":[],"categories_nodes":[],"categories_segments":[],"categories_sizes":[],"default_left":[0,0,0,0,0,0,0,0,0],"id":34,"left_children":[1,-1,3,-1,5,-1,7,-1,-1],"loss_changes":[1.1855638E0,0E0,1.4992435E0,0E0,1.1197653E0,0E0,1.4724491E0,0E0,0E0],"parents":[2147483647,0,0,2,2,4,4,6,6],"right_children":[2,-1,4,-1,6,-1,8,-1,-1],"split_conditions":[4.3096233E1,2.675767E-2,5.042735E1,-2.7831078E-2,5.4929577E1,2.7135506E-2,5.774648E1,-2.7556846E-2,5.029261E-3],"split_indices":[0,0,0,0,0,0,0,0,0],"split_type":[0,0,0,0,0,0,0,0,0],"sum_hessian":[2.8709484E1,2.8653104E0,2.5844173E1,2.1969655E0,2.364721E1,2.4771469E0,2.1170061E1,2.147311E0,1.902275E1],"tree_param":{"num_deleted":"0","num_feature":"16","num_nodes":"9","size_leaf_vector":"1"}},{"base_weights":[-9.3733475E-2,2.9883277E-1,-2.6022252E-1,5.910643E-1,-1.6820716E-2,2.4690107E-1,-3.7458688E-1,-0E0,3.6327243E-2,-0E0,2.3171451E-2,-4.820551E-1,8.734919E-3,-1.2604641E-2,-3.556291E-2],"categories":[],"categories_nodes":[],"categories_segments":[],"categories_sizes":[],"default_left":[0,0,0,0,0,0,0,0,0,0,0,0,0,0,0],"id":35,"left_children":[1,3,5,7,-1,9,11,-1,-1,-1,-1,13,-1,-1,-1],"loss_changes":[2.0311954E0,2.1346948E0,1.5434628E0,2.5756407E-1,0E0,4.6933645E-1,1.4917438E0,0E0,0E0,0E0,0E0,1.01352215E-1,0E0,0E0,0E0],"parents":[2147483647,0,0,1,1,2,2,3,3,5,5,6,6,11,11],"right_children":[2,4,6,8,-1,10,12,-1,-1,-1,-1,14,-1,-1,-1],"split_conditions":[3.4240845E2,1.2E1,4.3096233E1,3.3109305E2,-1.6820716E-2,3.659794E1,4.807575E2,-0E0,3.6327243E-2,-0E0,2.3171451E-2,7.386364E1,8.734919E-3,-1.2604641E-2,-3.556291E-2],"split_indices":[10,12,0,10,0,0,7,0,0,0,0,0,0,0,0],"split_type":[0,0,0,0,0,0,0,0,0,0,0,0,0,0,0],"sum_hessian":[2.699377E1,6.6710396E0,2.0322731E1,5.2034883E0,1.4675512E0,2.5086932E0,1.781404E1,1.9480911E0,3.2553973E0,1.0435941E0,1.4650991E0,1.5865084E1,1.9489549E0,1.1104753E1,4.760331E0],"tree_param":{"num_deleted":"0","num_feature":"16","num_nodes":"15","size_leaf_vector":"1"}},{"base_weights":[-0E0,-2.8000772E-1,2.851173E-1,3.2134736E-1,-4.7676376E-1,-7.363177E-2,4.5583385E-1,-0E0,2.2465238E-2,7.7823163E-3,-3.0634899E-2,7.225068E-3,-2.0390688E-2,2.8954148E-2,-0E0,-1.3915533E-2,1.5473231E-2],"categories":[],"categories_nodes":[],"categories_segments":[],"categories_sizes":[],"default_left":[0,0,0,0,0,0,0,0,0,0,0,0,0,0,0,0,0],"id":36,"left_children":[1,3,5,7,9,11,13,-1,-1,-1,-1,-1,-1,-1,15,-1,-1],"loss_changes":[2.436698E0,2.2083488E0,1.1833026E0,2.1219242E-1,1.5409901E0,6.6121304E-1,6.517341E-1,0E0,0E0,0E0,0E0,0E0,0E0,0E0,5.520166E-1,0E0,0E0],"parents":[2147483647,0,0,1,1,2,2,3,3,4,4,5,5,6,6,14,14],"right_children":[2,4,6,8,10,12,14,-1,-1,-1,-1,-1,-1,-1,16,-1,-1],"split_conditions":[3.9793582E2,3.3141473E2,2.6630163E-1,3.2026834E2,4.3581095E-2,4.32975E2,9.7075117E-1,-0E0,2.2465238E-2,7.7823163E-3,-3.0634899E-2,7.225068E-3,-2.0390688E-2,2.8954148E-2,1.2935694E0,-1.3915533E-2,1.5473231E-2],"split_indices":[8,9,1,8,2,7,1,0,0,0,0,0,0,0,2,0,0],"split_type":[0,0,0,0,0,0,0,0,0,0,0,0,0,0,0,0,0],"sum_hessian":[2.6522333E1,1.3417708E1,1.3104624E1,2.3691347E0,1.1048574E1,3.647727E0,9.456897E0,1.083101E0,1.2860336E0,1.2526344E0,9.795939E0,1.9886578E0,1.6590692E0,7.042543E0,2.4143538E0,1.4008857E0,1.0134681E0],"tree_param":{"num_deleted":"0","num_feature":"16","num_nodes":"17","size_leaf_vector":"1"}},{"base_weights":[1.0396545E-1,3.7605008E-1,-1.5856837E-1,-0E0,5.9707814E-1,-2.8953394E-2,4.07528E-2,1.9323386E-2,-2.1131232E-1,3.6411997E-2,-0E0,3.660835E-1,-2.0395575E-1,-1.7583964E-2,-0E0,-1.232626E-2,3.4240082E-2,-2.4104955E-2,1.04886675E-2],"categories":[],"categories_nodes":[],"categories_segments":[],"categories_sizes":[],"default_left":[0,0,0,0,0,0,0,0,0,0,0,0,0,0,0,0,0,0,0],"id":37,"left_children":[1,3,5,7,9,-1,11,-1,13,-1,-1,15,17,-1,-1,-1,-1,-1,-1],"loss_changes":[2.3395684E0,1.4216285E0,1.6168189E0,7.6572764E-1,9.27228E-1,0E0,1.1529437E0,0E0,3.6261937E-1,0E0,0E0,1.8390498E0,1.1463575E0,0E0,0E0,0E0,0E0,0E0,0E0],"parents":[2147483647,0,0,1,1,2,2,3,3,4,4,6,6,8,8,11,11,12,12],"right_children":[2,4,6,8,10,-1,12,-1,14,-1,-1,16,18,-1,-1,-1,-1,-1,-1],"split_conditions":[3.5306826E-1,5E0,4.31094E-1,1E1,4E0,-2.8953394E-2,9.5758736E-1,1.9323386E-2,3.3898E2,3.6411997E-2,-0E0,3.5191425E2,3E0,-1.7583964E-2,-0E0,-1.232626E-2,3.4240082E-2,-2.4104955E-2,1.04886675E-2],"split_indices":[2,14,2,12,13,0,1,0,7,0,0,9,13,0,0,0,0,0,0],"split_type":[0,0,0,0,0,0,0,0,0,0,0,0,0,0,0,0,0,0,0],"sum_hessian":[2.756078E1,1.404479E1,1.3515989E1,5.6925964E0,8.352194E0,3.927796E0,9.588193E0,1.1796666E0,4.51293E0,6.707369E0,1.6448247E0,4.5673394E0,5.0208535E0,3.2833877E0,1.2295423E0,1.1811961E0,3.3861432E0,3.5274324E0,1.4934211E0],"tree_param":{"num_deleted":"0","num_feature":"16","num_nodes":"19","size_leaf_vector":"1"}},{"base_weights":[1.129406E-2,-1.1780281E-1,2.849065E-1,1.9179836E-1,-6.937507E-1,6.6456264E-1,-2.6120487E-1,-0E0,3.0476764E-2,-4.5639932E-2,-9.857308E-2,-0E0,3.8413458E-2,-2.7391065E-2,3.701701E-3,2.1995597E-2,-1.3988639E-2,1.0686897E-3,-1.5773064E-2],"categories":[],"categories_nodes":[],"categories_segments":[],"categories_sizes":[],"default_left":[0,0,0,0,0,0,0,0,0,0,0,0,0,0,0,0,0,0,0],"id":38,"left_children":[1,3,5,7,9,11,13,15,-1,-1,17,-1,-1,-1,-1,-1,-1,-1,-1],"loss_changes":[1.2607708E0,4.3554916E0,3.0164113E0,1.203426E0,4.256034E-1,5.236504E-1,8.730273E-1,1.7568861E0,0E0,0E0,2.9448783E-1,0E0,0E0,0E0,0E0,0E0,0E0,0E0,0E0],"parents":[2147483647,0,0,1,1,2,2,3,3,4,4,5,5,6,6,7,7,10,10],"right_children":[2,4,6,8,10,12,14,16,-1,-1,18,-1,-1,-1,-1,-1,-1,-1,-1],"split_conditions":[1.1632609E-1,4.902991E-2,5.49897E-1,2.9657017E-2,3E0,9.352269E-2,4.4053313E-1,4.3096233E1,3.0476764E-2,-4.5639932E-2,4E0,-0E0,3.8413458E-2,-2.7391065E-2,3.701701E-3,2.1995597E-2,-1.3988639E-2,1.0686897E-3,-1.5773064E-2],"split_indices":[3,3,2,3,13,2,3,0,0,0,13,0,0,0,0,0,0,0,0],"split_type":[0,0,0,0,0,0,0,0,0,0,0,0,0,0,0,0,0,0,0],"sum_hessian":[2.9427366E1,1.9526028E1,9.90134E0,1.3002411E1,6.5236163E0,6.125006E0,3.7763333E0,1.0277897E1,2.7245138E0,3.3743327E0,3.1492834E0,1.1583077E0,4.9666986E0,2.1561432E0,1.6201903E0,3.5472167E0,6.7306805E0,1.7043092E0,1.4449742E0],"tree_param":{"num_deleted":"0","num_feature":"16","num_nodes":"19","size_leaf_vector":"1"}},{"base_weights":[-0E0,-2.8117108E-1,2.1480292E-1,2.340248E-2,-4.63462E-1,-1.8578991E-1,4.4545686E-1,2.473729E-3,-3.1673875E-2,1.2902504E-2,-2.1245765E-2,-2.6622636E-3,5.709775E-1,-1.161931E-2,2.1910112E-2,2.542659E-2,-1.797217E-2,3.8585536E-2,-0E0],"categories":[],"categories_nodes":[],"categories_segments":[],"categories_sizes":[],"default_left":[0,0,0,0,0,0,0,0,0,0,0,0,0,0,0,0,0,0,0],"id":39,"left_children":[1,3,5,-1,7,9,11,13,-1,15,-1,-1,17,-1,-1,-1,-1,-1,-1],"loss_changes":[1.9801118E0,2.462501E0,1.9064014E0,0E0,1.3882213E0,5.490943E-1,1.0987341E0,7.9938275E-1,0E0,1.2921547E0,0E0,0E0,1.091825E0,0E0,0E0,0E0,0E0,0E0,0E0],"parents":[2147483647,0,0,1,1,2,2,4,4,5,5,6,6,7,7,9,9,12,12],"right_children":[2,4,6,-1,8,10,12,14,-1,16,-1,-1,18,-1,-1,-1,-1,-1,-1],"split_conditions":[3.9740918E2,4.3581095E-2,6.142857E-1,2.340248E-2,4.1785714E-1,4.642857E-1,1.3841847E-3,3.7142858E-1,-3.1673875E-2,2.8644654E-1,-2.1245765E-2,-2.6622636E-3,1.1E0,-1.161931E-2,2.1910112E-2,2.542659E-2,-1.797217E-2,3.8585536E-2,-0E0],"split_indices":[8,2,4,0,4,4,2,4,0,2,0,0,4,0,0,0,0,0,0],"split_type":[0,0,0,0,0,0,0,0,0,0,0,0,0,0,0,0,0,0,0],"sum_hessian":[2.830632E1,1.287045E1,1.5435869E1,1.3683662E0,1.1502084E1,4.9902387E0,1.044563E1,2.8156502E0,8.686434E0,2.61693E0,2.373309E0,1.5310128E0,8.914618E0,1.6903718E0,1.1252786E0,1.3848683E0,1.2320616E0,5.8083386E0,3.1062787E0],"tree_param":{"num_deleted":"0","num_feature":"16","num_nodes":"19","size_leaf_vector":"1"}},{"base_weights":[-0E0,1.215846E-1,-6.0016364E-1,4.1747338E-1,-2.6446226E-1,-4.685641E-2,3.0419424E-3,3.452694E-2,1.0821557E-1,5.775316E-3,-4.156677E-1,-2.8211066E-2,1.9284893E-2,-3.348354E-2,-0E0],"categories":[],"categories_nodes":[],"categories_segments":[],"categories_sizes":[],"default_left":[0,0,0,0,0,0,0,0,0,0,0,0,0,0,0],"id":40,"left_children":[1,3,5,7,9,-1,-1,-1,11,-1,13,-1,-1,-1,-1],"loss_changes":[2.1807003E0,3.2509925E0,1.6642767E0,8.1475544E-1,9.189305E-1,0E0,0E0,0E0,2.361529E0,0E0,1.2531301E0,0E0,0E0,0E0,0E0],"parents":[2147483647,0,0,1,1,2,2,3,3,4,4,8,8,10,10],"right_children":[2,4,6,8,10,-1,-1,-1,12,-1,14,-1,-1,-1,-1],"split_conditions":[1.1357143E0,1.2E1,1.4821428E0,4.9503397E-2,3.2142857E-1,-4.685641E-2,3.0419424E-3,3.452694E-2,8.880387E-2,5.775316E-3,5.0357145E-1,-2.8211066E-2,1.9284893E-2,-3.348354E-2,-0E0],"split_indices":[4,12,4,3,4,0,0,0,3,0,4,0,0,0,0],"split_type":[0,0,0,0,0,0,0,0,0,0,0,0,0,0,0],"sum_hessian":[2.685092E1,2.3857958E1,2.9929624E0,1.4147137E1,9.71082E0,1.930028E0,1.0629344E0,5.345057E0,8.80208E0,1.9574132E0,7.753407E0,1.4411153E0,7.360965E0,4.552039E0,3.201368E0],"tree_param":{"num_deleted":"0","num_feature":"16","num_nodes":"15","size_leaf_vector":"1"}},{"base_weights":[-0E0,-1.6949263E-1,3.9327073E-1,-3.5349488E-1,4.5578855E-1,3.7594534E-2,-1.53591735E-2,1.0503748E-1,-4.9810722E-1,3.115859E-2,-0E0,-3.9243397E-1,1.5859662E-2,2.12457E-2,-1.0483964E-2,-3.148638E-2,7.6614895E-5,-0E0,-2.6106775E-2],"categories":[],"categories_nodes":[],"categories_segments":[],"categories_sizes":[],"default_left":[0,0,0,0,0,0,0,0,0,0,0,0,0,0,0,0,0,0,0],"id":41,"left_children":[1,3,5,7,9,-1,11,13,15,-1,-1,17,-1,-1,-1,-1,-1,-1,-1],"loss_changes":[2.1604095E0,2.7741168E0,1.8461859E0,1.5314286E0,4.4499385E-1,0E0,1.0325068E0,8.1645346E-1,1.3210216E0,0E0,0E0,2.0261747E-1,0E0,0E0,0E0,0E0,0E0,0E0,0E0],"parents":[2147483647,0,0,1,1,2,2,3,3,4,4,6,6,7,7,8,8,11,11],"right_children":[2,4,6,8,10,-1,12,14,16,-1,-1,18,-1,-1,-1,-1,-1,-1,-1],"split_conditions":[1.642703E-1,5.2307296E-1,5.49897E-1,3.3528082E2,4.36385E2,3.7594534E-2,1.3939023E0,5.1393535E-2,1.1632609E-1,3.115859E-2,-0E0,7.857143E1,1.5859662E-2,2.12457E-2,-1.0483964E-2,-3.148638E-2,7.6614895E-5,-0E0,-2.6106775E-2],"split_indices":[3,2,2,8,7,0,1,3,3,0,0,0,0,0,0,0,0,0,0],"split_type":[0,0,0,0,0,0,0,0,0,0,0,0,0,0,0,0,0,0,0],"sum_hessian":[2.7683022E1,1.975539E1,7.9276314E0,1.655322E1,3.2021706E0,3.9790761E0,3.9485552E0,3.271105E0,1.3282115E1,1.9287668E0,1.2734038E0,2.3862367E0,1.5623186E0,2.0628603E0,1.2082448E0,1.0892651E1,2.3894644E0,1.165271E0,1.2209655E0],"tree_param":{"num_deleted":"0","num_feature":"16","num_nodes":"19","size_leaf_vector":"1"}},{"base_weights":[-8.203476E-3,1.3193616E-1,-5.216194E-1,-0E0,3.6102798E-2,-6.869961E-1,5.945503E-4,7.370588E-2,-2.2714619E-2,-0E0,-4.396607E-2,-2.6720301E-3,2.3007443E-2],"categories":[],"categories_nodes":[],"categories_segments":[],"categories_sizes":[],"default_left":[0,0,0,0,0,0,0,0,0,0,0,0,0],"id":42,"left_children":[1,3,5,7,-1,9,-1,11,-1,-1,-1,-1,-1],"loss_changes":[2.4634168E0,2.003004E0,1.0173333E0,8.52081E-1,0E0,1.0634384E0,0E0,1.2276052E0,0E0,0E0,0E0,0E0,0E0],"parents":[2147483647,0,0,1,1,2,2,3,3,5,5,7,7],"right_children":[2,4,6,8,-1,10,-1,12,-1,-1,-1,-1,-1],"split_conditions":[7.857143E1,2.3765334E-1,4.260518E2,1.478093E-1,3.6102798E-2,3.29955E2,5.945503E-4,6.3333332E1,-2.2714619E-2,-0E0,-4.396607E-2,-2.6720301E-3,2.3007443E-2],"split_indices":[0,3,5,3,0,7,0,0,0,0,0,0,0],"split_type":[0,0,0,0,0,0,0,0,0,0,0,0,0],"sum_hessian":[2.7616915E1,2.2097467E1,5.519447E0,1.9451061E1,2.646406E0,4.4895816E0,1.0298655E0,1.7844765E1,1.6062973E0,1.1529902E0,3.3365912E0,1.3750259E1,4.0945044E0],"tree_param":{"num_deleted":"0","num_feature":"16","num_nodes":"13","size_leaf_vector":"1"}},{"base_weights":[-0E0,-3.261545E-1,1.556889E-1,7.149172E-3,-5.5860597E-1,3.272256E-1,-2.721867E-1,-3.4627248E-2,-1.56157E-2,4.7116196E-1,-9.534722E-2,-2.2909595E-2,-0E0,-0E0,-6.959945E-3,2.96846E-3,3.2389756E-2,-2.270591E-2,7.7576465E-3],"categories":[],"categories_nodes":[],"categories_segments":[],"categories_sizes":[],"default_left":[0,0,0,0,0,0,0,0,0,0,0,0,0,0,0,0,0,0,0],"id":43,"left_children":[1,3,5,-1,7,9,11,-1,13,15,17,-1,-1,-1,-1,-1,-1,-1,-1],"loss_changes":[1.4975269E0,1.4576709E0,1.5202701E0,0E0,1.9190001E-1,1.1613884E0,4.534046E-1,0E0,5.9484992E-2,4.463966E-1,6.9230235E-1,0E0,0E0,0E0,0E0,0E0,0E0,0E0,0E0],"parents":[2147483647,0,0,1,1,2,2,4,4,5,5,6,6,8,8,9,9,10,10],"right_children":[2,4,6,-1,8,10,12,-1,14,16,18,-1,-1,-1,-1,-1,-1,-1,-1],"split_conditions":[3.5191425E2,3.3469495E2,1.0642858E0,7.149172E-3,3.3979285E2,4.753018E2,1.2824857E0,-3.4627248E-2,6.1785716E-1,6.142857E-1,4.8200494E2,-2.2909595E-2,-0E0,-0E0,-6.959945E-3,2.96846E-3,3.2389756E-2,-2.270591E-2,7.7576465E-3],"split_indices":[9,9,4,0,5,5,1,0,4,4,9,0,0,0,0,0,0,0,0],"split_type":[0,0,0,0,0,0,0,0,0,0,0,0,0,0,0,0,0,0,0],"sum_hessian":[2.3907534E1,7.9963236E0,1.5911211E1,2.191728E0,5.8045955E0,1.2527802E1,3.3834085E0,3.4755914E0,2.329004E0,1.0055848E1,2.4719536E0,2.059438E0,1.3239704E0,1.2045418E0,1.1244622E0,4.670428E0,5.3854203E0,1.1685909E0,1.3033627E0],"tree_param":{"num_deleted":"0","num_feature":"16","num_nodes":"19","size_leaf_vector":"1"}},{"base_weights":[-7.620737E-3,-2.730947E-1,3.1918183E-1,-5.3830737E-1,-0E0,-7.144733E-2,5.910938E-1,5.622552E-3,-7.1151E-1,2.9964334E-1,-3.4933376E-1,1.3832222E-2,-3.5822672E-1,4.6998568E-2,-0E0,-3.8525388E-2,-0E0,2.7656386E-2,-7.488046E-3,-3.2069772E-2,4.344789E-3,-0E0,-2.8317867E-2,-8.860094E-3,5.4473355E-3],"categories":[],"categories_nodes":[],"categories_segments":[],"categories_sizes":[],"default_left":[0,0,0,0,0,0,0,0,0,0,0,0,0,0,0,0,0,0,0,0,0,0,0,0,0],"id":44,"left_children":[1,3,5,7,9,11,13,-1,15,17,19,-1,21,-1,23,-1,-1,-1,-1,-1,-1,-1,-1,-1,-1],"loss_changes":[2.644515E0,1.4114709E0,1.7207544E0,1.5243204E0,1.2794383E0,8.727008E-1,2.0602713E0,0E0,4.4236183E-3,1.1639187E0,1.0690134E0,0E0,6.580166E-1,0E0,1.533671E-1,0E0,0E0,0E0,0E0,0E0,0E0,0E0,0E0,0E0,0E0],"parents":[2147483647,0,0,1,1,2,2,3,3,4,4,5,5,6,6,8,8,9,9,10,10,12,12,14,14],"right_children":[2,4,6,8,10,12,14,-1,16,18,20,-1,22,-1,24,-1,-1,-1,-1,-1,-1,-1,-1,-1,-1],"split_conditions":[3E0,3.9793582E2,2.6970583E-1,3.31815E2,4.34925E2,4.107143E-1,7.386364E1,5.622552E-3,8.253968E1,7.2916664E1,6.832579E1,1.3832222E-2,4.087591E1,4.6998568E-2,4.5E-1,-3.8525388E-2,-0E0,2.7656386E-2,-7.488046E-3,-3.2069772E-2,4.344789E-3,-0E0,-2.8317867E-2,-8.860094E-3,5.4473355E-3],"split_indices":[13,8,1,7,7,4,0,0,0,0,0,0,0,0,4,0,0,0,0,0,0,0,0,0,0],"split_type":[0,0,0,0,0,0,0,0,0,0,0,0,0,0,0,0,0,0,0,0,0,0,0,0,0],"sum_hessian":[2.6737833E1,1.5778792E1,1.0959042E1,7.446736E0,8.332056E0,4.3481426E0,6.610899E0,1.105996E0,6.3407397E0,4.9924755E0,3.3395805E0,1.2084777E0,3.1396651E0,3.736938E0,2.873961E0,5.119792E0,1.2209476E0,3.608243E0,1.3842326E0,2.1234524E0,1.2161281E0,1.0320182E0,2.107647E0,1.6750282E0,1.1989326E0],"tree_param":{"num_deleted":"0","num_feature":"16","num_nodes":"25","size_leaf_vector":"1"}},{"base_weights":[1.0703726E-1,-1.4500222E-1,3.541697E-1,-5.521729E-1,2.9534452E-2,5.809313E-1,-7.223894E-2,4.871292E-3,-4.3711793E-2,4.258226E-1,-2.462747E-1,-8.8457335E-3,8.145544E-1,-4.235803E-1,2.0852764E-1,-5.7552364E-3,4.0239073E-2,-2.354463E-2,4.849482E-3,4.49774E-2,1.7267254E-3,-0E0,-2.9596582E-2,-0E0,1.781347E-2],"categories":[],"categories_nodes":[],"categories_segments":[],"categories_sizes":[],"default_left":[0,0,0,0,0,0,0,0,0,0,0,0,0,0,0,0,0,0,0,0,0,0,0,0,0],"id":45,"left_children":[1,3,5,7,9,11,13,-1,-1,15,17,-1,19,21,23,-1,-1,-1,-1,-1,-1,-1,-1,-1,-1],"loss_changes":[1.9480773E0,1.3069034E0,1.8557657E0,1.6545683E0,1.5035623E0,2.5956798E0,9.21602E-1,0E0,0E0,1.7595186E0,8.1944996E-1,0E0,9.710789E-2,3.549056E-1,2.0496431E-1,0E0,0E0,0E0,0E0,0E0,0E0,0E0,0E0,0E0,0E0],"parents":[2147483647,0,0,1,1,2,2,3,3,4,4,5,5,6,6,9,9,10,10,12,12,13,13,14,14],"right_children":[2,4,6,8,10,12,14,-1,-1,16,18,-1,20,22,24,-1,-1,-1,-1,-1,-1,-1,-1,-1,-1],"split_conditions":[6.142857E-1,2.9657017E-2,1.0642858E0,3.3831583E2,6.790124E1,3E0,2E0,4.871292E-3,-4.3711793E-2,6.153846E1,1.642703E-1,-8.8457335E-3,4E0,5.3326745E-2,4.9503397E-2,-5.7552364E-3,4.0239073E-2,-2.354463E-2,4.849482E-3,4.49774E-2,1.7267254E-3,-0E0,-2.9596582E-2,-0E0,1.781347E-2],"split_indices":[4,3,4,8,0,14,13,0,0,0,3,0,13,3,3,0,0,0,0,0,0,0,0,0,0],"split_type":[0,0,0,0,0,0,0,0,0,0,0,0,0,0,0,0,0,0,0,0,0,0,0,0,0],"sum_hessian":[2.5947712E1,1.2253859E1,1.3693854E1,3.2378392E0,9.016019E0,9.2321E0,4.4617553E0,1.0209953E0,2.216844E0,3.9974475E0,5.0185714E0,1.7854803E0,7.446619E0,2.3209395E0,2.1408155E0,1.6769209E0,2.3205266E0,3.4645216E0,1.55405E0,5.8605494E0,1.5860693E0,1.0954134E0,1.2255262E0,1.1074188E0,1.0333967E0],"tree_param":{"num_deleted":"0","num_feature":"16","num_nodes":"25","size_leaf_vector":"1"}},{"base_weights":[5.7503656E-2,3.40098E-1,-5.709587E-2,5.0288683E-1,-0E0,-1.946075E-2,7.1461E-2,-0E0,3.0106787E-2,8.687462E-3,-2.5645912E-2,2.7139777E-2,-1.987727E-2,-1.1935095E-2,1.9093625E-3,-3.2721415E-2,4.960473E-3],"categories":[],"categories_nodes":[],"categories_segments":[],"categories_sizes":[],"default_left":[0,0,0,0,0,0,0,0,0,0,0,0,0,0,0,0,0],"id":46,"left_children":[1,3,5,7,9,-1,11,-1,-1,-1,13,-1,15,-1,-1,-1,-1],"loss_changes":[1.1344893E0,3.3001792E-1,1.1288708E0,2.3888814E-1,1.0292624E-1,0E0,9.737356E-1,0E0,0E0,0E0,1.8435194E-1,0E0,1.5016739E0,0E0,0E0,0E0,0E0],"parents":[2147483647,0,0,1,1,2,2,3,3,4,4,6,6,10,10,12,12],"right_children":[2,4,6,8,10,-1,12,-1,-1,-1,14,-1,16,-1,-1,-1,-1],"split_conditions":[3.4564087E2,3.3751965E2,3.982725E2,3.2275052E2,6.04168E-2,-1.946075E-2,4.1385333E2,-0E0,3.0106787E-2,8.687462E-3,3.3706696E2,2.7139777E-2,4.164426E2,-1.1935095E-2,1.9093625E-3,-3.2721415E-2,4.960473E-3],"split_indices":[10,5,7,9,3,0,8,0,0,0,9,0,10,0,0,0,0],"split_type":[0,0,0,0,0,0,0,0,0,0,0,0,0,0,0,0,0],"sum_hessian":[2.7462606E1,8.046965E0,1.9415644E1,3.9001389E0,4.146826E0,5.371884E0,1.4043759E1,1.1258413E0,2.7742975E0,1.3039072E0,2.8429184E0,1.5636407E0,1.2480119E1,1.1980789E0,1.6448396E0,1.214819E0,1.12653E1],"tree_param":{"num_deleted":"0","num_feature":"16","num_nodes":"17","size_leaf_vector":"1"}},{"base_weights":[9.236725E-2,4.0635E-1,-5.174532E-2,-0E0,5.479363E-1,-1.7609511E-1,2.3095174E-2,-0E0,6.965724E-1,3.3037922E-1,-3.6513752E-1,4.1410737E-2,-0E0,2.0012733E-2,-0E0,-4.220222E-2,-0E0],"categories":[],"categories_nodes":[],"categories_segments":[],"categories_sizes":[],"default_left":[0,0,0,0,0,0,0,0,0,0,0,0,0,0,0,0,0],"id":47,"left_children":[1,3,5,-1,7,9,-1,-1,11,13,15,-1,-1,-1,-1,-1,-1],"loss_changes":[1.4519699E0,8.2975006E-1,1.255935E0,0E0,8.604474E-1,1.9641755E0,0E0,0E0,6.165333E-1,8.489692E-2,2.3149848E0,0E0,0E0,0E0,0E0,0E0,0E0],"parents":[2147483647,0,0,1,1,2,2,4,4,5,5,8,8,9,9,10,10],"right_children":[2,4,6,-1,8,10,-1,-1,12,14,16,-1,-1,-1,-1,-1,-1],"split_conditions":[2.3320591E-1,1.3841847E-3,1.3182784E0,-0E0,1E0,5.4929577E1,2.3095174E-2,-0E0,7.5E-1,8.6785716E-1,6.416185E1,4.1410737E-2,-0E0,2.0012733E-2,-0E0,-4.220222E-2,-0E0],"split_indices":[2,2,2,0,13,0,0,0,4,4,0,0,0,0,0,0,0],"split_type":[0,0,0,0,0,0,0,0,0,0,0,0,0,0,0,0,0],"sum_hessian":[2.524078E1,7.8870893E0,1.7353691E1,1.6857945E0,6.201295E0,1.5813216E1,1.5404742E0,1.3532594E0,4.8480353E0,3.1727414E0,1.2640475E1,3.742911E0,1.1051244E0,2.0542355E0,1.1185061E0,3.9894252E0,8.65105E0],"tree_param":{"num_deleted":"0","num_feature":"16","num_nodes":"17","size_leaf_vector":"1"}},{"base_weights":[1.6005548E-2,4.3288186E-1,-7.034128E-2,-0E0,3.376346E-2,2.879749E-1,-1.9933218E-1,2.6048465E-2,-3.5361485E-3,-5.1137996E-1,2.1114992E-2,-0E0,-3.4358483E-2,1.5732175E-2,-1.7819203E-2],"categories":[],"categories_nodes":[],"categories_segments":[],"categories_sizes":[],"default_left":[0,0,0,0,0,0,0,0,0,0,0,0,0,0,0],"id":48,"left_children":[1,3,5,-1,-1,7,9,-1,-1,11,13,-1,-1,-1,-1],"loss_changes":[1.2574905E0,7.328986E-1,1.1840737E0,0E0,0E0,8.144366E-1,1.6372912E0,0E0,0E0,1.1507785E0,1.6059132E0,0E0,0E0,0E0,0E0],"parents":[2147483647,0,0,1,1,2,2,5,5,6,6,9,9,10,10],"right_children":[2,4,6,-1,-1,8,10,-1,-1,12,14,-1,-1,-1,-1],"split_conditions":[3.3605585E2,2.741599E-1,-2.4924602E-2,-0E0,3.376346E-2,4.314325E2,8.880387E-2,2.6048465E-2,-3.5361485E-3,2.2177248E-1,5.710198E-1,-0E0,-3.4358483E-2,1.5732175E-2,-1.7819203E-2],"split_indices":[9,2,3,0,0,11,3,0,0,1,2,0,0,0,0],"split_type":[0,0,0,0,0,0,0,0,0,0,0,0,0,0,0],"sum_hessian":[2.6206543E1,4.1130495E0,2.2093493E1,1.9936414E0,2.1194081E0,4.1696324E0,1.792386E1,2.8242645E0,1.3453678E0,7.266546E0,1.0657314E1,1.6976092E0,5.568937E0,6.9279385E0,3.7293763E0],"tree_param":{"num_deleted":"0","num_feature":"16","num_nodes":"15","size_leaf_vector":"1"}},{"base_weights":[-3.2259196E-2,5.6358714E-2,-5.518656E-1,4.6732816E-1,-8.69072E-2,-4.115342E-2,1.7593263E-3,5.848591E-1,-0E0,-3.0027267E-1,2.2159867E-1,-0E0,3.663988E-2,2.7493918E-3,-2.5605028E-2,2.3723291E-2,-4.6355245E-3],"categories":[],"categories_nodes":[],"categories_segments":[],"categories_sizes":[],"default_left":[0,0,0,0,0,0,0,0,0,0,0,0,0,0,0,0,0],"id":49,"left_children":[1,3,5,7,9,-1,-1,11,-1,13,15,-1,-1,-1,-1,-1,-1],"loss_changes":[1.6893235E0,1.83665E0,1.3071326E0,6.254835E-1,1.5215874E0,0E0,0E0,2.5571227E-1,0E0,1.3327054E0,9.6018934E-1,0E0,0E0,0E0,0E0,0E0,0E0],"parents":[2147483647,0,0,1,1,2,2,3,3,4,4,7,7,9,9,10,10],"right_children":[2,4,6,8,10,-1,-1,12,-1,14,16,-1,-1,-1,-1,-1,-1],"split_conditions":[1.1357143E0,5.2985073E1,9.8374367E-1,4.34365E2,4.2101774E-1,-4.115342E-2,1.7593263E-3,6E-1,-0E0,1E0,7.857143E1,-0E0,3.663988E-2,2.7493918E-3,-2.5605028E-2,2.3723291E-2,-4.6355245E-3],"split_indices":[4,0,2,7,2,0,0,4,0,6,0,0,0,0,0,0,0],"split_type":[0,0,0,0,0,0,0,0,0,0,0,0,0,0,0,0,0],"sum_hessian":[2.7955967E1,2.4584013E1,3.3719535E0,6.087534E0,1.8496479E1,2.339025E0,1.0329285E0,4.9922366E0,1.0952973E0,1.1923895E1,6.5725846E0,2.0620408E0,2.9301958E0,4.125448E0,7.798446E0,3.9591043E0,2.6134806E0],"tree_param":{"num_deleted":"0","num_feature":"16","num_nodes":"17","size_leaf_vector":"1"}}]},"name":"gbtree"},"learner_model_param":{"base_score":"[5.9195405E-1]","boost_from_average":"1","num_class":"0","num_feature":"16","num_target":"1"},"objective":{"name":"binary:logistic","reg_loss_param":{"scale_pos_weight":"1"}}},"version":[3,3,0]}